{"learner":{"attributes":{"scikit_learn":"{\"_estimator_type\": \"regressor\"}"},"feature_names":["temperature","humidity","pressure","hour","day_of_week","month","is_weekend","hour_sin","hour_cos","day_sin","day_cos","pm25_lag_1h","pm25_lag_2h","pm25_lag_3h","pm25_lag_6h","pm25_lag_12h","pm25_lag_24h","pm25_rolling_mean_6h","pm25_rolling_std_6h","pm25_rolling_mean_12h","pm25_rolling_std_12h","pm25_rolling_mean_24h","pm25_rolling_std_24h","pm10_lag_1h","pm10_lag_2h","pm10_lag_3h","pm10_lag_6h","pm10_lag_12h","pm10_lag_24h","pm10_rolling_mean_6h","pm10_rolling_std_6h","pm10_rolling_mean_12h","pm10_rolling_std_12h","pm10_rolling_mean_24h","pm10_rolling_std_24h","o3_lag_1h","o3_lag_2h","o3_lag_3h","o3_lag_6h","o3_lag_12h","o3_lag_24h","o3_rolling_mean_6h","o3_rolling_std_6h","o3_rolling_mean_12h","o3_rolling_std_12h","o3_rolling_mean_24h","o3_rolling_std_24h","no2_lag_1h","no2_lag_2h","no2_lag_3h","no2_lag_6h","no2_lag_12h","no2_lag_24h","no2_rolling_mean_6h","no2_rolling_std_6h","no2_rolling_mean_12h","no2_rolling_std_12h","no2_rolling_mean_24h","no2_rolling_std_24h","so2_lag_1h","so2_lag_2h","so2_lag_3h","so2_lag_6h","so2_lag_12h","so2_lag_24h","so2_rolling_mean_6h","so2_rolling_std_6h","so2_rolling_mean_12h","so2_rolling_std_12h","so2_rolling_mean_24h","so2_rolling_std_24h","co_lag_1h","co_lag_2h","co_lag_3h","co_lag_6h","co_lag_12h","co_lag_24h","co_rolling_mean_6h","co_rolling_std_6h","co_rolling_mean_12h","co_rolling_std_12h","co_rolling_mean_24h","co_rolling_std_24h","aqi_lag_1h","aqi_lag_2h","aqi_lag_3h","aqi_lag_6h","aqi_lag_12h","aqi_lag_24h"],"feature_types":["float","float","float","int","int","int","int","float","float","float","float","float","float","float","float","float","float","float","float","float","float","float","float","float","float","float","float","float","float","float","float","float","float","float","float","float","float","float","float","float","float","float","float","float","float","float","float","float","float","float","float","float","float","float","float","float","float","float","float","float","float","float","float","float","float","float","float","float","float","float","float","float","float","float","float","float","float","float","float","float","float","float","float","float","float","float","float","float","float"],"gradient_booster":{"model":{"gbtree_model_param":{"num_parallel_tree":"1","num_trees":"150"},"iteration_indptr":[0,1,2,3,4,5,6,7,8,9,10,11,12,13,14,15,16,17,18,19,20,21,22,23,24,25,26,27,28,29,30,31,32,33,34,35,36,37,38,39,40,41,42,43,44,45,46,47,48,49,50,51,52,53,54,55,56,57,58,59,60,61,62,63,64,65,66,67,68,69,70,71,72,73,74,75,76,77,78,79,80,81,82,83,84,85,86,87,88,89,90,91,92,93,94,95,96,97,98,99,100,101,102,103,104,105,106,107,108,109,110,111,112,113,114,115,116,117,118,119,120,121,122,123,124,125,126,127,128,129,130,131,132,133,134,135,136,137,138,139,140,141,142,143,144,145,146,147,148,149,150],"tree_info":[0,0,0,0,0,0,0,0,0,0,0,0,0,0,0,0,0,0,0,0,0,0,0,0,0,0,0,0,0,0,0,0,0,0,0,0,0,0,0,0,0,0,0,0,0,0,0,0,0,0,0,0,0,0,0,0,0,0,0,0,0,0,0,0,0,0,0,0,0,0,0,0,0,0,0,0,0,0,0,0,0,0,0,0,0,0,0,0,0,0,0,0,0,0,0,0,0,0,0,0,0,0,0,0,0,0,0,0,0,0,0,0,0,0,0,0,0,0,0,0,0,0,0,0,0,0,0,0,0,0,0,0,0,0,0,0,0,0,0,0,0,0,0,0,0,0,0,0,0,0],"trees":[{"base_weights":[1.14837875E-10,-3.3314715E-3,7.294774E-3,-6.74181E-3,-1.0731877E-3,4.214302E-3,1.0099642E-2,-8.749735E-3,-5.0383294E-3,-2.5592141E-3,8.43834E-4,4.6972577E-3,-2.6873368E-4,1.0634295E-2,4.532376E-3,-7.0877414E-4,-1.5648913E-4,-5.2030813E-3,1.6751088E-4,-2.739993E-3,5.195109E-4,1.866119E-3,-6.832201E-4,4.1200165E-3,7.624174E-4,1.0804984E-2,6.351087E-5,4.712174E-4,6.0681177E-5,-1.6935235E-3,-5.5139493E-3,2.2868117E-4,-2.9073206E-3,1.3749358E-3,4.8526633E-4,-1.4253088E-3,1.7466614E-3,3.5391548E-3,6.231848E-4,6.925247E-3,1.15461955E-2,2.014488E-6,-2.0473367E-4,-1.0081519E-3,-5.6772847E-3,-2.5296304E-3,-5.183844E-3,1.0002637E-3,3.2064763E-3,-4.8474633E-4,-3.0106998E-3,5.841738E-5,2.2868117E-4,-1.0978244E-4,3.8978262E-3,5.8231957E-4,1.3551085E-4,1.1711872E-2,1.8351086E-4,1.0751091E-4,-2.2848912E-4,-4.6362454E-4,-4.891306E-7,-2.2037563E-4,1.4472114E-6,-1.767337E-4,-4.8185597E-4,1.18020806E-4,-6.7074934E-6,3.092663E-4,1.0068116E-4,-1.3912421E-4,4.3574877E-5,-2.8614857E-4,-6.9985486E-5,-9.3985494E-5,7.934783E-5,3.5505436E-4,1.7776992E-4,5.191848E-4,9.793724E-4],"categories":[],"categories_nodes":[],"categories_segments":[],"categories_sizes":[],"default_left":[0,0,0,0,0,0,0,0,0,0,0,0,0,0,0,0,0,0,0,0,0,0,0,0,0,0,0,0,0,0,0,0,0,0,0,0,0,0,0,0,0,0,0,0,0,0,0,0,0,0,0,0,0,0,0,0,0,0,0,0,0,0,0,0,0,0,0,0,0,0,0,0,0,0,0,0,0,0,0,0,0],"id":0,"left_children":[1,3,5,7,9,11,13,15,17,19,21,23,-1,25,27,-1,-1,29,-1,31,-1,33,35,37,-1,39,-1,-1,-1,41,43,-1,45,47,-1,49,51,53,-1,55,57,-1,-1,59,61,63,65,67,69,71,73,-1,-1,75,77,-1,-1,79,-1,-1,-1,-1,-1,-1,-1,-1,-1,-1,-1,-1,-1,-1,-1,-1,-1,-1,-1,-1,-1,-1,-1],"loss_changes":[8.991862E-3,1.948949E-3,9.597144E-4,3.0138204E-4,4.4086628E-4,2.2426492E-4,1.3039447E-4,1.628045E-5,7.7872304E-5,1.6017823E-4,1.07428714E-4,1.1138362E-4,0E0,8.212309E-5,3.140232E-5,0E0,0E0,5.17586E-5,0E0,8.887419E-5,0E0,7.623578E-5,5.2978783E-5,7.901277E-5,0E0,7.245224E-5,0E0,0E0,0E0,8.991197E-6,3.1810254E-5,0E0,5.9111684E-5,2.286931E-5,0E0,3.1346073E-5,5.82362E-6,5.9322512E-5,0E0,8.026662E-6,3.904896E-5,0E0,0E0,1.6877728E-5,3.2761367E-5,4.248161E-5,1.4158606E-5,1.7116945E-5,2.8411596E-6,2.0315589E-5,6.544855E-6,0E0,0E0,7.031623E-6,2.726214E-5,0E0,0E0,3.685616E-5,0E0,0E0,0E0,0E0,0E0,0E0,0E0,0E0,0E0,0E0,0E0,0E0,0E0,0E0,0E0,0E0,0E0,0E0,0E0,0E0,0E0,0E0,0E0],"parents":[2147483647,0,0,1,1,2,2,3,3,4,4,5,5,6,6,7,7,8,8,9,9,10,10,11,11,13,13,14,14,17,17,19,19,21,21,22,22,23,23,25,25,29,29,30,30,32,32,33,33,35,35,36,36,37,37,39,39,40,40,43,43,44,44,45,45,46,46,47,47,48,48,49,49,50,50,53,53,54,54,57,57],"right_children":[2,4,6,8,10,12,14,16,18,20,22,24,-1,26,28,-1,-1,30,-1,32,-1,34,36,38,-1,40,-1,-1,-1,42,44,-1,46,48,-1,50,52,54,-1,56,58,-1,-1,60,62,64,66,68,70,72,74,-1,-1,76,78,-1,-1,80,-1,-1,-1,-1,-1,-1,-1,-1,-1,-1,-1,-1,-1,-1,-1,-1,-1,-1,-1,-1,-1,-1,-1],"split_conditions":[1.59E-2,8.8E-3,2.07E-2,5.6E-3,1.26E-2,3.9E-3,2.9E-3,1.8E1,9.0125E1,5.4E-1,1.25894705E-2,5.600506E-3,-2.6873368E-4,8.5E-1,1.0202E3,-7.0877414E-4,-1.5648913E-4,-9.659258E-1,1.6751088E-4,1.8E1,5.195109E-4,5.2E-1,2.1001449E-2,1.9666667E-3,7.624174E-4,1.21E-2,6.351087E-5,4.712174E-4,6.0681177E-5,2.06E1,1.3E1,2.2868117E-4,2.51E1,2.4E-3,4.8526633E-4,3.6E1,8.109307E0,1.0146E3,6.231848E-4,1.0245E3,2.3E1,2.014488E-6,-2.0473367E-4,2.21E1,2.602819E-1,2.3E1,8.4E-3,2.2833334E1,3.02E-2,4.4E1,7.5E1,5.841738E-5,2.2868117E-4,1.5E1,5.9E1,5.8231957E-4,1.3551085E-4,4.829917E-3,1.8351086E-4,1.0751091E-4,-2.2848912E-4,-4.6362454E-4,-4.891306E-7,-2.2037563E-4,1.4472114E-6,-1.767337E-4,-4.8185597E-4,1.18020806E-4,-6.7074934E-6,3.092663E-4,1.0068116E-4,-1.3912421E-4,4.3574877E-5,-2.8614857E-4,-6.9985486E-5,-9.3985494E-5,7.934783E-5,3.5505436E-4,1.7776992E-4,5.191848E-4,9.793724E-4],"split_indices":[47,47,47,47,47,60,59,3,33,71,44,54,0,72,2,0,0,8,0,27,0,71,44,65,0,36,0,0,0,0,24,0,0,64,0,13,22,2,0,2,3,0,0,0,78,3,49,17,39,27,28,0,0,3,27,0,0,58,0,0,0,0,0,0,0,0,0,0,0,0,0,0,0,0,0,0,0,0,0,0,0],"split_type":[0,0,0,0,0,0,0,0,0,0,0,0,0,0,0,0,0,0,0,0,0,0,0,0,0,0,0,0,0,0,0,0,0,0,0,0,0,0,0,0,0,0,0,0,0,0,0,0,0,0,0,0,0,0,0,0,0,0,0,0,0,0,0,0,0,0,0,0,0,0,0,0,0,0,0,0,0,0,0,0,0],"sum_hessian":[3.68E2,2.53E2,1.15E2,1E2,1.53E2,5.6E1,5.9E1,4.4E1,5.6E1,8.6E1,6.7E1,5.3E1,3E0,5.3E1,6E0,4.3E1,1E0,5.5E1,1E0,8.5E1,1E0,4E1,2.7E1,4.9E1,4E0,5.2E1,1E0,4E0,2E0,5E0,5E1,2E0,8.3E1,3.7E1,3E0,2.1E1,6E0,4.4E1,5E0,1E1,4.2E1,2E0,3E0,2E0,4.8E1,7.3E1,1E1,3.2E1,5E0,1.4E1,7E0,4E0,2E0,4E0,4E1,9E0,1E0,4.1E1,1E0,1E0,1E0,4.7E1,1E0,6.7E1,6E0,3E0,7E0,2.2E1,1E1,3E0,2E0,6E0,8E0,5E0,2E0,2E0,2E0,2.9E1,1.1E1,5E0,3.6E1],"tree_param":{"num_deleted":"0","num_feature":"89","num_nodes":"81","size_leaf_vector":"1"}},{"base_weights":[1.0453803E-5,-3.0679968E-3,6.751109E-3,-6.217174E-3,-9.827052E-4,3.9058432E-3,9.341593E-3,-8.068984E-3,-4.6461457E-3,-2.3559632E-3,7.8870874E-4,4.356732E-3,-2.5260964E-4,9.82917E-3,4.245771E-3,-6.5336097E-4,-1.5022955E-4,-4.8009027E-3,1.6081046E-4,-2.5283378E-3,4.987304E-4,1.7413788E-3,-6.344405E-4,3.495837E-3,7.0785456E-3,9.985866E-3,6.0970448E-5,4.4105947E-4,5.7444846E-5,-1.5918282E-3,-5.0843055E-3,2.1648481E-4,-2.6851813E-3,1.2169168E-3,5.2741216E-3,-1.3318151E-3,1.6479426E-3,3.9158105E-3,2.5336444E-4,1.6860009E-4,6.8011147E-4,6.436485E-3,1.0661618E-2,1.9070505E-6,-1.9244966E-4,-2.9870155E-3,-5.522986E-3,-2.3302182E-3,-4.829008E-3,5.8332033E-4,2.4882995E-3,4.8367033E-4,8.74836E-5,-4.4368842E-4,-2.830576E-3,5.467868E-5,2.1648481E-4,2.332796E-3,4.742036E-3,6.941487E-5,-1.127297E-4,5.403926E-4,1.3009041E-4,1.1135567E-2,4.706406E-4,1.0321047E-4,-2.8349945E-4,-4.5286136E-4,-4.6957283E-7,-2.030048E-4,1.3479696E-6,-1.6602722E-4,-4.4817725E-4,8.582442E-5,-3.6837027E-5,3.418505E-5,2.5022525E-4,-1.322777E-4,4.37242E-5,-2.688016E-4,-6.625294E-5,1.3719326E-5,2.1216902E-4,5.3143327E-4,2.701131E-4,2.1874353E-4,9.0309826E-4],"categories":[],"categories_nodes":[],"categories_segments":[],"categories_sizes":[],"default_left":[0,0,0,0,0,0,0,0,0,0,0,0,0,0,0,0,0,0,0,0,0,0,0,0,0,0,0,0,0,0,0,0,0,0,0,0,0,0,0,0,0,0,0,0,0,0,0,0,0,0,0,0,0,0,0,0,0,0,0,0,0,0,0,0,0,0,0,0,0,0,0,0,0,0,0,0,0,0,0,0,0,0,0,0,0,0,0],"id":1,"left_children":[1,3,5,7,9,11,13,15,17,19,21,23,-1,25,27,-1,-1,29,-1,31,-1,33,35,37,39,41,-1,-1,-1,43,45,-1,47,49,51,53,55,57,59,-1,-1,61,63,-1,-1,65,67,69,71,73,75,-1,-1,77,79,-1,-1,81,83,-1,-1,-1,-1,85,-1,-1,-1,-1,-1,-1,-1,-1,-1,-1,-1,-1,-1,-1,-1,-1,-1,-1,-1,-1,-1,-1,-1],"loss_changes":[7.6777474E-3,1.6618962E-3,8.185045E-4,2.563442E-4,3.7647985E-4,1.9529264E-4,1.07343774E-4,1.1974014E-5,6.836653E-5,1.4458419E-4,9.3298644E-5,1.01787155E-4,0E0,6.911112E-5,2.734008E-5,0E0,0E0,4.2836415E-5,0E0,7.7870616E-5,0E0,6.954618E-5,4.6761677E-5,5.7563302E-5,6.695982E-5,5.8497768E-5,0E0,0E0,0E0,7.946251E-6,3.0424795E-5,0E0,5.266961E-5,2.835364E-5,9.520532E-6,2.8028076E-5,5.2940304E-6,3.8639002E-5,7.3504784E-6,0E0,0E0,5.8646256E-6,3.1876378E-5,0E0,0E0,3.0765157E-5,3.1133182E-5,3.6054553E-5,1.179424E-5,1.3777807E-5,1.4479847E-5,0E0,0E0,1.8873357E-5,5.69869E-6,0E0,0E0,9.897303E-6,3.9872015E-5,0E0,0E0,0E0,0E0,1.802994E-5,0E0,0E0,0E0,0E0,0E0,0E0,0E0,0E0,0E0,0E0,0E0,0E0,0E0,0E0,0E0,0E0,0E0,0E0,0E0,0E0,0E0,0E0,0E0],"parents":[2147483647,0,0,1,1,2,2,3,3,4,4,5,5,6,6,7,7,8,8,9,9,10,10,11,11,13,13,14,14,17,17,19,19,21,21,22,22,23,23,24,24,25,25,29,29,30,30,32,32,33,33,34,34,35,35,36,36,37,37,38,38,41,41,42,42,45,45,46,46,47,47,48,48,49,49,50,50,53,53,54,54,57,57,58,58,63,63],"right_children":[2,4,6,8,10,12,14,16,18,20,22,24,-1,26,28,-1,-1,30,-1,32,-1,34,36,38,40,42,-1,-1,-1,44,46,-1,48,50,52,54,56,58,60,-1,-1,62,64,-1,-1,66,68,70,72,74,76,-1,-1,78,80,-1,-1,82,84,-1,-1,-1,-1,86,-1,-1,-1,-1,-1,-1,-1,-1,-1,-1,-1,-1,-1,-1,-1,-1,-1,-1,-1,-1,-1,-1,-1],"split_conditions":[1.59E-2,8.8E-3,2.07E-2,5.6E-3,1.26E-2,3.9E-3,2.9E-3,1.8E1,9.0125E1,5.4E-1,1.25894705E-2,7.1E1,-2.5260964E-4,8.5E-1,1.0202E3,-6.5336097E-4,-1.5022955E-4,-9.659258E-1,1.6081046E-4,1.8E1,4.987304E-4,8.959167E-2,2.1001449E-2,1.0178706E1,1.0181E3,1.21E-2,6.0970448E-5,4.4105947E-4,5.7444846E-5,2.06E1,8.166667E-4,2.1648481E-4,2.51E1,4.4E-1,1.2246469E-16,6.009503E-4,8.109307E0,3.3439226E0,2.44E1,1.6860009E-4,6.8011147E-4,1.0245E3,2E1,1.9070505E-6,-1.9244966E-4,6.9E1,2.602819E-1,2.3E1,-7.0710677E-1,2.3333334E1,1.91E-2,4.8367033E-4,8.74836E-5,7.1460943E0,7.5E1,5.467868E-5,2.1648481E-4,9E-4,1.28E-2,6.941487E-5,-1.127297E-4,5.403926E-4,1.3009041E-4,1.5E1,4.706406E-4,1.0321047E-4,-2.8349945E-4,-4.5286136E-4,-4.6957283E-7,-2.030048E-4,1.3479696E-6,-1.6602722E-4,-4.4817725E-4,8.582442E-5,-3.6837027E-5,3.418505E-5,2.5022525E-4,-1.322777E-4,4.37242E-5,-2.688016E-4,-6.625294E-5,1.3719326E-5,2.1216902E-4,5.3143327E-4,2.701131E-4,2.1874353E-4,9.0309826E-4],"split_indices":[47,47,47,47,47,60,59,3,33,71,44,23,0,72,2,0,0,8,0,27,0,78,44,32,2,36,0,0,0,0,65,0,0,71,7,70,22,20,0,0,0,2,3,0,0,1,78,3,8,17,39,0,0,30,28,0,0,64,51,0,0,0,0,14,0,0,0,0,0,0,0,0,0,0,0,0,0,0,0,0,0,0,0,0,0,0,0],"split_type":[0,0,0,0,0,0,0,0,0,0,0,0,0,0,0,0,0,0,0,0,0,0,0,0,0,0,0,0,0,0,0,0,0,0,0,0,0,0,0,0,0,0,0,0,0,0,0,0,0,0,0,0,0,0,0,0,0,0,0,0,0,0,0,0,0,0,0,0,0,0,0,0,0,0,0,0,0,0,0,0,0,0,0,0,0,0,0],"sum_hessian":[3.68E2,2.53E2,1.15E2,1E2,1.53E2,5.6E1,5.9E1,4.4E1,5.6E1,8.6E1,6.7E1,5.3E1,3E0,5.3E1,6E0,4.3E1,1E0,5.5E1,1E0,8.5E1,1E0,4E1,2.7E1,4.2E1,1.1E1,5.2E1,1E0,4E0,2E0,5E0,5E1,2E0,8.3E1,3.6E1,4E0,2.1E1,6E0,3.7E1,5E0,3E0,8E0,1E1,4.2E1,2E0,3E0,1E1,4E1,7.3E1,1E1,2.5E1,1.1E1,3E0,1E0,1.4E1,7E0,4E0,2E0,1.4E1,2.3E1,4E0,1E0,9E0,1E0,3.7E1,5E0,1E0,9E0,3.9E1,1E0,6.7E1,6E0,3E0,7E0,1.7E1,8E0,3E0,8E0,6E0,8E0,5E0,2E0,2E0,1.2E1,8E0,1.5E1,1E0,3.6E1],"tree_param":{"num_deleted":"0","num_feature":"89","num_nodes":"87","size_leaf_vector":"1"}},{"base_weights":[1.9338911E-5,-2.8257675E-3,6.2489742E-3,-5.3842184E-3,-6.361697E-4,3.6210988E-3,8.641306E-3,-7.441323E-3,-4.0423837E-3,-1.9420442E-3,7.3667243E-4,4.042135E-3,-2.968163E-3,7.7345073E-3,1.1977547E-2,-6.0228E-4,-1.4422036E-4,-4.1521313E-3,1.5437804E-4,-2.140781E-3,4.7878118E-4,1.6241308E-3,-5.891298E-4,3.5249125E-3,6.724744E-4,-6.363537E-5,-2.7418046E-4,8.61878E-3,5.0966176E-3,9.979818E-4,2.8021206E-4,-1.2597897E-3,-4.395984E-3,2.0493894E-4,-2.316763E-3,1.1285743E-3,4.9664224E-3,-1.2445248E-3,1.5548447E-3,3.0090362E-3,5.4452E-4,8.876143E-3,2.2632611E-4,3.0163464E-3,5.6345307E-4,7.1987756E-6,-1.8176964E-3,-1.2924781E-3,-4.575364E-3,-1.9653419E-3,-4.402153E-3,5.385389E-4,2.3129366E-3,4.5465014E-4,8.398425E-5,8.3691755E-4,-1.7535631E-3,5.1179228E-5,2.0493894E-4,-1.4044213E-4,3.319728E-3,1.719179E-4,9.014877E-3,3.5868322E-3,5.4381115E-5,-1.1829697E-5,-1.7585479E-4,1.8053253E-6,-1.7413573E-4,-6.810205E-5,-3.7482494E-4,-1.7067973E-4,1.552615E-4,-1.7424958E-4,-4.5966043E-4,7.933993E-5,-3.4217537E-5,3.2133943E-5,2.3243147E-4,1.0402518E-4,7.563829E-6,-4.128975E-6,-1.9233515E-4,-8.633266E-5,6.7607034E-5,1.1844105E-4,2.9765873E-4,2.8573078E-4,7.400671E-4,5.8531612E-5,3.1526046E-4],"categories":[],"categories_nodes":[],"categories_segments":[],"categories_sizes":[],"default_left":[0,0,0,0,0,0,0,0,0,0,0,0,0,0,0,0,0,0,0,0,0,0,0,0,0,0,0,0,0,0,0,0,0,0,0,0,0,0,0,0,0,0,0,0,0,0,0,0,0,0,0,0,0,0,0,0,0,0,0,0,0,0,0,0,0,0,0,0,0,0,0,0,0,0,0,0,0,0,0,0,0,0,0,0,0,0,0,0,0,0,0],"id":2,"left_children":[1,3,5,7,9,11,13,15,17,19,21,23,25,27,29,-1,-1,31,-1,33,-1,35,37,39,-1,-1,-1,41,43,-1,-1,45,47,-1,49,51,53,55,57,59,-1,61,-1,63,-1,-1,65,67,69,71,73,75,77,-1,-1,79,81,-1,-1,83,85,-1,87,89,-1,-1,-1,-1,-1,-1,-1,-1,-1,-1,-1,-1,-1,-1,-1,-1,-1,-1,-1,-1,-1,-1,-1,-1,-1,-1,-1],"loss_changes":[6.5578055E-3,1.4194774E-3,6.9797225E-4,2.9287348E-4,2.4883146E-4,1.7013378E-4,8.8877045E-5,8.548144E-6,5.5858516E-5,1.246618E-4,8.0965234E-5,9.2250644E-5,1.2637393E-6,7.2704395E-5,2.6585767E-6,0E0,0E0,4.5244E-5,0E0,6.386405E-5,0E0,6.230308E-5,4.127925E-5,6.41637E-5,0E0,0E0,0E0,2.8530601E-5,3.9495528E-5,0E0,0E0,5.434902E-6,3.082899E-5,0E0,4.1182095E-5,2.461057E-5,8.069139E-6,2.4777331E-5,4.811034E-6,4.4499466E-5,0E0,1.2358883E-5,0E0,9.558687E-6,0E0,0E0,2.8516988E-6,5.863056E-6,2.1397835E-5,4.3550564E-5,1.4378995E-5,1.1810058E-5,1.2421064E-5,0E0,0E0,1.5971177E-6,1.9807932E-5,0E0,0E0,5.5376486E-6,2.4730398E-5,0E0,9.344658E-6,4.1903913E-6,0E0,0E0,0E0,0E0,0E0,0E0,0E0,0E0,0E0,0E0,0E0,0E0,0E0,0E0,0E0,0E0,0E0,0E0,0E0,0E0,0E0,0E0,0E0,0E0,0E0,0E0,0E0],"parents":[2147483647,0,0,1,1,2,2,3,3,4,4,5,5,6,6,7,7,8,8,9,9,10,10,11,11,12,12,13,13,14,14,17,17,19,19,21,21,22,22,23,23,27,27,28,28,31,31,32,32,34,34,35,35,36,36,37,37,38,38,39,39,41,41,43,43,46,46,47,47,48,48,49,49,50,50,51,51,52,52,55,55,56,56,59,59,60,60,62,62,63,63],"right_children":[2,4,6,8,10,12,14,16,18,20,22,24,26,28,30,-1,-1,32,-1,34,-1,36,38,40,-1,-1,-1,42,44,-1,-1,46,48,-1,50,52,54,56,58,60,-1,62,-1,64,-1,-1,66,68,70,72,74,76,78,-1,-1,80,82,-1,-1,84,86,-1,88,90,-1,-1,-1,-1,-1,-1,-1,-1,-1,-1,-1,-1,-1,-1,-1,-1,-1,-1,-1,-1,-1,-1,-1,-1,-1,-1,-1],"split_conditions":[1.59E-2,9.3E-3,2.07E-2,5.6E-3,1.26E-2,3.9E-3,6E-1,1.8E1,9.0125E1,5.3E-1,1.25894705E-2,5.600506E-3,2.51E1,6.1E-1,2.18E1,-6.0228E-4,-1.4422036E-4,6.5376475E-3,1.5437804E-4,1.8E1,4.7878118E-4,8.959167E-2,2.1001449E-2,1.9666667E-3,6.724744E-4,-6.363537E-5,-2.7418046E-4,2.6E-3,4.5166668E1,9.979818E-4,2.8021206E-4,7.3E1,-9.659258E-1,2.0493894E-4,2.49E1,4.4E-1,1.2246469E-16,1E-2,8.109307E0,1.0146E3,5.4452E-4,1.1E1,2.2632611E-4,1.0202E3,5.6345307E-4,7.1987756E-6,1.0104E3,2.06E1,1.3E1,2.4E-3,1.0477971E1,2.3333334E1,1.91E-2,4.5465014E-4,8.398425E-5,2.14E1,1.4231037E-2,5.1179228E-5,2.0493894E-4,1.5E1,7.5E1,1.719179E-4,1.587428E-4,1E0,5.4381115E-5,-1.1829697E-5,-1.7585479E-4,1.8053253E-6,-1.7413573E-4,-6.810205E-5,-3.7482494E-4,-1.7067973E-4,1.552615E-4,-1.7424958E-4,-4.5966043E-4,7.933993E-5,-3.4217537E-5,3.2133943E-5,2.3243147E-4,1.0402518E-4,7.563829E-6,-4.128975E-6,-1.9233515E-4,-8.633266E-5,6.7607034E-5,1.1844105E-4,2.9765873E-4,2.8573078E-4,7.400671E-4,5.8531612E-5,3.1526046E-4],"split_indices":[47,47,47,47,47,60,75,3,33,71,44,54,0,72,0,0,0,44,0,27,0,78,44,65,0,0,0,64,17,0,0,1,8,0,0,71,7,49,22,2,0,13,0,2,0,0,2,0,24,63,32,17,39,0,0,0,44,0,0,3,1,0,70,4,0,0,0,0,0,0,0,0,0,0,0,0,0,0,0,0,0,0,0,0,0,0,0,0,0,0,0],"split_type":[0,0,0,0,0,0,0,0,0,0,0,0,0,0,0,0,0,0,0,0,0,0,0,0,0,0,0,0,0,0,0,0,0,0,0,0,0,0,0,0,0,0,0,0,0,0,0,0,0,0,0,0,0,0,0,0,0,0,0,0,0,0,0,0,0,0,0,0,0,0,0,0,0,0,0,0,0,0,0,0,0,0,0,0,0,0,0,0,0,0,0],"sum_hessian":[3.68E2,2.53E2,1.15E2,1.16E2,1.37E2,5.6E1,5.9E1,4.4E1,7.2E1,7E1,6.7E1,5.3E1,3E0,4.9E1,1E1,4.3E1,1E0,7.1E1,1E0,6.9E1,1E0,4E1,2.7E1,4.9E1,4E0,1E0,2E0,3.5E1,1.4E1,9E0,1E0,6E0,6.5E1,2E0,6.7E1,3.6E1,4E0,2.1E1,6E0,4.4E1,5E0,3.3E1,2E0,8E0,6E0,2E0,4E0,4E0,6.1E1,5.9E1,8E0,2.5E1,1.1E1,3E0,1E0,4E0,1.7E1,4E0,2E0,4E0,4E1,1E0,3.2E1,6E0,2E0,1E0,3E0,2E0,2E0,2E0,5.9E1,5.7E1,2E0,4E0,4E0,1.7E1,8E0,3E0,8E0,2E0,2E0,5E0,1.2E1,2E0,2E0,8E0,3.2E1,2E0,3E1,1E0,5E0],"tree_param":{"num_deleted":"0","num_feature":"89","num_nodes":"91","size_leaf_vector":"1"}},{"base_weights":[3.0356745E-5,-2.601021E-3,5.7919044E-3,-5.296966E-3,-8.1601116E-4,3.3538064E-3,8.0115665E-3,-6.8626064E-3,-3.968005E-3,-1.9858794E-3,6.927321E-4,3.7486595E-3,-2.815164E-3,7.16406E-3,8.9084334E-4,-2.1357609E-4,-6.9955387E-3,-4.1050245E-3,1.4820292E-4,-2.1425844E-3,4.5962996E-4,1.514891E-3,-5.358838E-4,3.2617573E-3,6.2943605E-4,-6.108995E-5,-2.595575E-4,7.968835E-3,4.754997E-3,-1.5391255E-4,-5.6563877E-4,-3.1766437E-3,-5.129151E-3,1.9400886E-4,-2.2802094E-3,1.0963767E-3,4.0896438E-4,-1.1488211E-3,1.4670454E-3,2.7771436E-3,5.082186E-4,8.201279E-3,2.1425537E-4,2.8226138E-3,5.2481634E-4,1.01806145E-4,-3.361218E-3,-5.358014E-3,1.4542192E-5,-1.964042E-3,-4.1998615E-3,1.3007617E-3,-7.728692E-5,-3.3794038E-4,-2.52562E-3,4.7903777E-5,1.9400886E-4,3.314788E-3,1.0223899E-3,3.5192937E-4,8.561596E-3,3.353285E-3,5.1480805E-5,-2.0548249E-4,-3.5218088E-4,-1.088367E-4,-4.378136E-4,-1.6795342E-4,7.439114E-5,-1.4007009E-4,-3.919497E-4,-3.0706353E-5,1.3300266E-4,-1.1578356E-4,4.4995155E-5,-2.4065924E-4,-5.7480407E-5,1.2602432E-4,3.1023918E-4,-8.172825E-5,1.226679E-4,1.9856456E-4,6.948518E-4,5.619034E-5,2.9424313E-4],"categories":[],"categories_nodes":[],"categories_segments":[],"categories_sizes":[],"default_left":[0,0,0,0,0,0,0,0,0,0,0,0,0,0,0,0,0,0,0,0,0,0,0,0,0,0,0,0,0,0,0,0,0,0,0,0,0,0,0,0,0,0,0,0,0,0,0,0,0,0,0,0,0,0,0,0,0,0,0,0,0,0,0,0,0,0,0,0,0,0,0,0,0,0,0,0,0,0,0,0,0,0,0,0,0],"id":3,"left_children":[1,3,5,7,9,11,13,15,17,19,21,23,25,27,-1,-1,29,31,-1,33,-1,35,37,39,-1,-1,-1,41,43,-1,-1,45,47,-1,49,51,-1,53,55,57,-1,59,-1,61,-1,-1,63,65,-1,67,69,71,-1,73,75,-1,-1,77,79,-1,81,83,-1,-1,-1,-1,-1,-1,-1,-1,-1,-1,-1,-1,-1,-1,-1,-1,-1,-1,-1,-1,-1,-1,-1],"loss_changes":[5.6094034E-3,1.217999E-3,6.00894E-4,1.8291711E-4,2.7319044E-4,1.493959E-4,7.907953E-5,6.4058695E-6,5.3063675E-5,1.1771271E-4,6.949979E-5,8.2643994E-5,1.0453914E-6,5.904585E-5,0E0,0E0,2.741348E-6,3.6950223E-5,0E0,5.9591897E-5,0E0,5.6119323E-5,3.6060133E-5,5.7253987E-5,0E0,0E0,0E0,2.2307504E-5,3.380835E-5,0E0,0E0,3.055614E-5,3.1360774E-5,0E0,4.2733504E-5,1.7275033E-5,0E0,2.370772E-5,4.3707196E-6,3.906552E-5,0E0,8.916017E-6,0E0,8.249619E-6,0E0,0E0,1.4274527E-5,3.5549747E-6,0E0,3.0943076E-5,1.0265794E-5,2.1968426E-5,0E0,1.5796617E-5,4.8157744E-6,0E0,0E0,2.720012E-5,1.4099231E-5,0E0,1.0670628E-6,3.4428667E-6,0E0,0E0,0E0,0E0,0E0,0E0,0E0,0E0,0E0,0E0,0E0,0E0,0E0,0E0,0E0,0E0,0E0,0E0,0E0,0E0,0E0,0E0,0E0],"parents":[2147483647,0,0,1,1,2,2,3,3,4,4,5,5,6,6,7,7,8,8,9,9,10,10,11,11,12,12,13,13,16,16,17,17,19,19,21,21,22,22,23,23,27,27,28,28,31,31,32,32,34,34,35,35,37,37,38,38,39,39,41,41,43,43,46,46,47,47,49,49,50,50,51,51,53,53,54,54,57,57,58,58,60,60,61,61],"right_children":[2,4,6,8,10,12,14,16,18,20,22,24,26,28,-1,-1,30,32,-1,34,-1,36,38,40,-1,-1,-1,42,44,-1,-1,46,48,-1,50,52,-1,54,56,58,-1,60,-1,62,-1,-1,64,66,-1,68,70,72,-1,74,76,-1,-1,78,80,-1,82,84,-1,-1,-1,-1,-1,-1,-1,-1,-1,-1,-1,-1,-1,-1,-1,-1,-1,-1,-1,-1,-1,-1,-1],"split_conditions":[1.59E-2,8.8E-3,2.07E-2,5.6E-3,1.26E-2,3.9E-3,6E-1,2.25E-2,9.0125E1,5.4E-1,1.25894705E-2,5.600506E-3,2.51E1,6.1E-1,8.9084334E-4,-2.1357609E-4,5.4913913E-3,9.8E-3,1.4820292E-4,1.8E1,4.5962996E-4,5.2E-1,2.1001449E-2,1.9666667E-3,6.2943605E-4,-6.108995E-5,-2.595575E-4,2.6E-3,4.5166668E1,-1.5391255E-4,-5.6563877E-4,1.3E1,5.4E-1,1.9400886E-4,2.51E1,1.7588821E1,4.0896438E-4,3.6E1,8.109307E0,4.9753016E-4,5.082186E-4,1.2E-3,2.1425537E-4,1.0202E3,5.2481634E-4,1.01806145E-4,1.4678564E-2,2.236068E-4,1.4542192E-5,7.5511863E-3,8.4E-3,2.8E1,-7.728692E-5,4.4E1,7.5E1,4.7903777E-5,1.9400886E-4,1.25E-2,2.3E1,3.5192937E-4,1.6666666E1,1E0,5.1480805E-5,-2.0548249E-4,-3.5218088E-4,-1.088367E-4,-4.378136E-4,-1.6795342E-4,7.439114E-5,-1.4007009E-4,-3.919497E-4,-3.0706353E-5,1.3300266E-4,-1.1578356E-4,4.4995155E-5,-2.4065924E-4,-5.7480407E-5,1.2602432E-4,3.1023918E-4,-8.172825E-5,1.226679E-4,1.9856456E-4,6.948518E-4,5.619034E-5,2.9424313E-4],"split_indices":[47,47,47,47,47,60,75,35,33,71,44,54,0,72,0,0,44,49,0,27,0,71,44,65,0,0,0,64,17,0,0,23,72,0,0,30,0,13,22,70,0,65,0,2,0,0,44,68,0,58,49,23,0,27,28,0,0,36,27,0,17,4,0,0,0,0,0,0,0,0,0,0,0,0,0,0,0,0,0,0,0,0,0,0,0],"split_type":[0,0,0,0,0,0,0,0,0,0,0,0,0,0,0,0,0,0,0,0,0,0,0,0,0,0,0,0,0,0,0,0,0,0,0,0,0,0,0,0,0,0,0,0,0,0,0,0,0,0,0,0,0,0,0,0,0,0,0,0,0,0,0,0,0,0,0,0,0,0,0,0,0,0,0,0,0,0,0,0,0,0,0,0,0],"sum_hessian":[3.68E2,2.53E2,1.15E2,1E2,1.53E2,5.6E1,5.9E1,4.4E1,5.6E1,8.6E1,6.7E1,5.3E1,3E0,4.9E1,1E1,2E0,4.2E1,5.5E1,1E0,8.5E1,1E0,4E1,2.7E1,4.9E1,4E0,1E0,2E0,3.5E1,1.4E1,1E0,4.1E1,3.1E1,2.4E1,2E0,8.3E1,3.7E1,3E0,2.1E1,6E0,4.4E1,5E0,3.3E1,2E0,8E0,6E0,1E0,3E1,2.3E1,1E0,7.3E1,1E1,3.4E1,3E0,1.4E1,7E0,4E0,2E0,3.3E1,1.1E1,4E0,2.9E1,6E0,2E0,1.9E1,1.1E1,1E0,2.2E1,7E1,3E0,3E0,7E0,6E0,2.8E1,6E0,8E0,5E0,2E0,9E0,2.4E1,2E0,9E0,1E0,2.8E1,1E0,5E0],"tree_param":{"num_deleted":"0","num_feature":"89","num_nodes":"85","size_leaf_vector":"1"}},{"base_weights":[3.64201E-5,-2.3986E-3,5.367961E-3,-4.8907623E-3,-7.485547E-4,3.1082071E-3,7.4252603E-3,-6.3343337E-3,-3.6652975E-3,-2.095074E-3,3.6915002E-4,3.4786714E-3,-2.13609E-4,6.638662E-3,1.0325684E-2,-5.3504494E-4,-3.3410423E-4,-3.7942647E-3,1.4227479E-4,-2.4093473E-3,6.417135E-4,1.480893E-4,5.0896907E-4,2.7491606E-3,5.8028623E-3,7.35558E-3,4.2697587E-3,8.6198625E-4,2.3336984E-4,-2.9367579E-3,-4.740103E-3,-3.870624E-4,-2.829695E-3,-2.7226005E-4,1.8046048E-4,-1.120474E-3,7.142023E-4,3.2300174E-3,5.736996E-4,1.3684882E-4,5.581503E-4,1.9032387E-4,7.571981E-3,4.8220223E-3,5.099607E-5,9.7733886E-5,-3.1103098E-3,-4.9521495E-3,1.3960488E-5,1.8649182E-4,-1.1638191E-3,-9.992686E-4,-3.139789E-3,-7.063024E-5,2.0301472E-5,-1.5921864E-3,1.4975929E-4,1.4992268E-3,-3.8199918E-4,1.519187E-3,3.853582E-3,-7.5233256E-5,9.1251924E-5,3.0756992E-4,7.92891E-3,1.1812734E-4,4.2747593E-4,-9.7104115E-5,-2.7426705E-4,-9.532414E-5,-4.0510777E-4,6.0297658E-5,-1.1685007E-4,6.298719E-5,-1.619037E-4,-4.3213677E-5,-2.708997E-4,-1.4455491E-4,3.5343466E-5,6.284873E-5,2.335934E-4,-9.605217E-5,7.728365E-5,-2.2497128E-5,1.5604177E-4,4.6618952E-5,3.2901336E-4,3.8630003E-4,6.7838386E-4],"categories":[],"categories_nodes":[],"categories_segments":[],"categories_sizes":[],"default_left":[0,0,0,0,0,0,0,0,0,0,0,0,0,0,0,0,0,0,0,0,0,0,0,0,0,0,0,0,0,0,0,0,0,0,0,0,0,0,0,0,0,0,0,0,0,0,0,0,0,0,0,0,0,0,0,0,0,0,0,0,0,0,0,0,0,0,0,0,0,0,0,0,0,0,0,0,0,0,0,0,0,0,0,0,0,0,0,0,0],"id":4,"left_children":[1,3,5,7,9,11,13,15,17,19,21,23,-1,25,27,-1,-1,29,-1,31,33,35,-1,37,39,41,43,-1,-1,45,47,49,51,53,-1,55,57,59,61,-1,-1,-1,63,65,-1,-1,67,69,-1,-1,71,73,75,-1,-1,77,-1,79,81,83,85,-1,-1,-1,87,-1,-1,-1,-1,-1,-1,-1,-1,-1,-1,-1,-1,-1,-1,-1,-1,-1,-1,-1,-1,-1,-1,-1,-1],"loss_changes":[4.803384E-3,1.0408331E-3,5.162037E-4,1.5545636E-4,2.3254508E-4,1.3130618E-4,6.833952E-5,6.4196065E-6,4.676549E-5,6.175309E-5,1.1166659E-4,7.560523E-5,0E0,5.3508906E-5,5.171052E-6,0E0,0E0,3.149896E-5,0E0,5.2458665E-5,1.241569E-5,6.0406703E-5,0E0,4.3128617E-5,4.5717752E-5,2.1832064E-5,2.5010086E-5,0E0,0E0,2.6894297E-5,2.6917318E-5,2.804969E-5,2.6377966E-5,2.151261E-6,0E0,3.968172E-5,5.048432E-5,3.1484116E-5,8.798526E-6,0E0,0E0,0E0,1.6080448E-5,1.3042678E-5,0E0,0E0,1.4536141E-5,4.0473533E-6,0E0,0E0,6.792292E-6,1.8067283E-5,2.6361435E-5,0E0,0E0,1.0844637E-5,0E0,3.2176307E-5,2.8749411E-5,9.090854E-6,1.8789113E-5,0E0,0E0,0E0,1.199625E-5,0E0,0E0,0E0,0E0,0E0,0E0,0E0,0E0,0E0,0E0,0E0,0E0,0E0,0E0,0E0,0E0,0E0,0E0,0E0,0E0,0E0,0E0,0E0,0E0],"parents":[2147483647,0,0,1,1,2,2,3,3,4,4,5,5,6,6,7,7,8,8,9,9,10,10,11,11,13,13,14,14,17,17,19,19,20,20,21,21,23,23,24,24,25,25,26,26,29,29,30,30,31,31,32,32,33,33,35,35,36,36,37,37,38,38,42,42,43,43,46,46,47,47,50,50,51,51,52,52,55,55,57,57,58,58,59,59,60,60,64,64],"right_children":[2,4,6,8,10,12,14,16,18,20,22,24,-1,26,28,-1,-1,30,-1,32,34,36,-1,38,40,42,44,-1,-1,46,48,50,52,54,-1,56,58,60,62,-1,-1,-1,64,66,-1,-1,68,70,-1,-1,72,74,76,-1,-1,78,-1,80,82,84,86,-1,-1,-1,88,-1,-1,-1,-1,-1,-1,-1,-1,-1,-1,-1,-1,-1,-1,-1,-1,-1,-1,-1,-1,-1,-1,-1,-1],"split_conditions":[1.59E-2,8.8E-3,2.07E-2,5.6E-3,1.15E-2,3.9E-3,6E-1,1.1E1,9.0125E1,2.3E1,5.9E-1,7.1E1,-2.13609E-4,2.5E-3,2.18E1,-5.3504494E-4,-3.3410423E-4,9.8E-3,1.4227479E-4,-8.660254E-1,7.7E1,1.31E-2,5.0896907E-4,1.9E-3,1.0181E3,1.2E-3,2.91E-2,8.6198625E-4,2.3336984E-4,1.3E1,5.4E-1,1.55E-2,7.9E-3,1.92E-2,1.8046048E-4,1.4391443E1,1.25894705E-2,1.1166667E-3,2.1E1,1.3684882E-4,5.581503E-4,1.9032387E-4,1.52E-2,1E-3,5.099607E-5,9.7733886E-5,-9.659258E-1,2.4137234E-3,1.3960488E-5,1.8649182E-4,2.15E1,2.2E-2,4.496174E-2,-7.063024E-5,2.0301472E-5,4.7E1,1.4975929E-4,2.0412414E-4,4.22E-2,9E-4,9E0,-7.5233256E-5,9.1251924E-5,3.0756992E-4,4.9833333E-1,1.1812734E-4,4.2747593E-4,-9.7104115E-5,-2.7426705E-4,-9.532414E-5,-4.0510777E-4,6.0297658E-5,-1.1685007E-4,6.298719E-5,-1.619037E-4,-4.3213677E-5,-2.708997E-4,-1.4455491E-4,3.5343466E-5,6.284873E-5,2.335934E-4,-9.605217E-5,7.728365E-5,-2.2497128E-5,1.5604177E-4,4.6618952E-5,3.2901336E-4,3.8630003E-4,6.7838386E-4],"split_indices":[47,47,47,47,47,60,75,3,33,3,71,23,0,59,0,0,0,49,0,8,1,47,0,64,2,59,47,0,0,23,72,40,48,35,0,20,44,65,16,0,0,0,40,62,0,0,8,56,0,0,0,35,82,0,0,13,0,66,37,61,16,0,0,0,77,0,0,0,0,0,0,0,0,0,0,0,0,0,0,0,0,0,0,0,0,0,0,0,0],"split_type":[0,0,0,0,0,0,0,0,0,0,0,0,0,0,0,0,0,0,0,0,0,0,0,0,0,0,0,0,0,0,0,0,0,0,0,0,0,0,0,0,0,0,0,0,0,0,0,0,0,0,0,0,0,0,0,0,0,0,0,0,0,0,0,0,0,0,0,0,0,0,0,0,0,0,0,0,0,0,0,0,0,0,0,0,0,0,0,0,0],"sum_hessian":[3.68E2,2.53E2,1.15E2,1E2,1.53E2,5.6E1,5.9E1,4.4E1,5.6E1,6.9E1,8.4E1,5.3E1,3E0,4.9E1,1E1,3.6E1,8E0,5.5E1,1E0,6.2E1,7E0,8.2E1,2E0,4.2E1,1.1E1,3.6E1,1.3E1,9E0,1E0,3.1E1,2.4E1,1.1E1,5.1E1,5E0,2E0,2.5E1,5.7E1,3.4E1,8E0,3E0,8E0,2E0,3.4E1,1.1E1,2E0,1E0,3E1,2.3E1,1E0,2E0,9E0,8E0,4.3E1,2E0,3E0,2.2E1,3E0,3.3E1,2.4E1,1E1,2.4E1,2E0,6E0,4E0,3E1,2E0,9E0,5E0,2.5E1,1E0,2.2E1,1E0,8E0,3E0,5E0,4E0,3.9E1,2E1,2E0,2.3E1,1E1,1.5E1,9E0,2E0,8E0,2E0,2.2E1,6E0,2.4E1],"tree_param":{"num_deleted":"0","num_feature":"89","num_nodes":"89","size_leaf_vector":"1"}},{"base_weights":[4.2851625E-5,-2.2099118E-3,4.9752574E-3,-4.2369855E-3,-4.7529218E-4,2.87721E-3,6.8854815E-3,-5.846902E-3,-3.1865304E-3,-1.500228E-3,6.01851E-4,3.222974E-3,-2.5099057E-3,6.1507523E-3,9.599208E-3,-5.9135673E-3,-1.16544325E-4,-3.2782129E-3,1.3658381E-4,-1.6719763E-3,4.2088598E-4,8.45006E-4,-2.6309039E-3,2.784441E-3,5.5709673E-4,-5.0101986E-5,-2.3432195E-4,6.809365E-3,3.9707925E-3,8.2876376E-4,3.2947643E-4,-4.8159435E-4,-1.962648E-4,-9.05455E-4,-3.480199E-3,1.7387634E-4,-1.8170397E-3,3.5407094E-4,2.1814695E-3,-3.673315E-5,-2.447238E-4,2.3550938E-3,4.4323763E-4,7.005976E-3,1.7966286E-4,4.481728E-3,4.827626E-5,2.1900434E-5,-1.4318902E-3,-9.521367E-4,-3.6279429E-3,-1.4405944E-3,-3.4537348E-3,-1.5464503E-3,6.110257E-4,-2.3905821E-4,2.9446362E-3,8.079169E-4,2.8318889E-3,7.4480637E-3,3.3388924E-4,4.5826284E-5,3.828006E-4,-2.9828027E-6,-1.4169762E-4,2.1758973E-5,-1.4871053E-4,-2.9543278E-4,1.34020665E-5,-1.7314145E-4,-3.956092E-5,-3.0515826E-4,2.0577721E-5,-1.805755E-5,-1.7203086E-4,9.984227E-5,4.3784607E-6,1.9426345E-5,-8.666433E-5,8.604463E-5,2.718243E-4,-7.476327E-5,9.9989E-5,3.3570212E-4,1.7382865E-4,2.3520931E-4,6.138474E-4],"categories":[],"categories_nodes":[],"categories_segments":[],"categories_sizes":[],"default_left":[0,0,0,0,0,0,0,0,0,0,0,0,0,0,0,0,0,0,0,0,0,0,0,0,0,0,0,0,0,0,0,0,0,0,0,0,0,0,0,0,0,0,0,0,0,0,0,0,0,0,0,0,0,0,0,0,0,0,0,0,0,0,0,0,0,0,0,0,0,0,0,0,0,0,0,0,0,0,0,0,0,0,0,0,0,0,0],"id":5,"left_children":[1,3,5,7,9,11,13,15,17,19,21,23,25,27,29,31,-1,33,-1,35,-1,37,39,41,-1,-1,-1,43,45,-1,-1,-1,-1,47,49,-1,51,53,55,-1,-1,57,-1,59,-1,61,-1,-1,63,65,67,69,71,73,75,77,79,81,83,85,-1,-1,-1,-1,-1,-1,-1,-1,-1,-1,-1,-1,-1,-1,-1,-1,-1,-1,-1,-1,-1,-1,-1,-1,-1,-1,-1],"loss_changes":[4.1111545E-3,8.9110155E-4,4.4508697E-4,1.7923256E-4,1.5325527E-4,1.1426158E-4,6.058882E-5,4.5549823E-6,3.835035E-5,9.1244554E-5,5.567525E-5,6.9193484E-5,1.3234858E-6,4.4748886E-5,3.1741802E-6,1.42504E-6,0E0,3.1355827E-5,0E0,4.299743E-5,0E0,4.1219075E-5,3.2444805E-6,4.6116358E-5,0E0,0E0,0E0,1.7464161E-5,2.138241E-5,0E0,0E0,0E0,0E0,4.7374333E-6,2.1197076E-5,0E0,3.692115E-5,2.4385627E-5,3.210747E-5,0E0,0E0,3.0907948E-5,0E0,1.2739911E-5,0E0,1.1484837E-5,0E0,0E0,2.3001166E-6,6.055433E-6,1.590664E-5,3.79551E-5,1.704559E-5,4.3004347E-6,1.5169231E-5,2.297216E-6,7.356546E-6,1.0408908E-5,2.1453976E-5,6.858376E-6,0E0,0E0,0E0,0E0,0E0,0E0,0E0,0E0,0E0,0E0,0E0,0E0,0E0,0E0,0E0,0E0,0E0,0E0,0E0,0E0,0E0,0E0,0E0,0E0,0E0,0E0,0E0],"parents":[2147483647,0,0,1,1,2,2,3,3,4,4,5,5,6,6,7,7,8,8,9,9,10,10,11,11,12,12,13,13,14,14,15,15,17,17,19,19,21,21,22,22,23,23,27,27,28,28,33,33,34,34,36,36,37,37,38,38,41,41,43,43,45,45,48,48,49,49,50,50,51,51,52,52,53,53,54,54,55,55,56,56,57,57,58,58,59,59],"right_children":[2,4,6,8,10,12,14,16,18,20,22,24,26,28,30,32,-1,34,-1,36,-1,38,40,42,-1,-1,-1,44,46,-1,-1,-1,-1,48,50,-1,52,54,56,-1,-1,58,-1,60,-1,62,-1,-1,64,66,68,70,72,74,76,78,80,82,84,86,-1,-1,-1,-1,-1,-1,-1,-1,-1,-1,-1,-1,-1,-1,-1,-1,-1,-1,-1,-1,-1,-1,-1,-1,-1,-1,-1],"split_conditions":[1.59E-2,9.3E-3,2.07E-2,5.6E-3,1.26E-2,3.9E-3,6E-1,1.8E1,9.0125E1,5.3E-1,2.1E-3,5.600506E-3,2.51E1,2.5E-3,2.16E1,2.3E-3,-1.16544325E-4,6.5376475E-3,1.3658381E-4,1.8E1,4.2088598E-4,7.0710677E-1,3E0,1.9666667E-3,5.5709673E-4,-5.0101986E-5,-2.3432195E-4,2.6E-3,2.91E-2,8.2876376E-4,3.2947643E-4,-4.8159435E-4,-1.962648E-4,6.1938386E-2,-9.659258E-1,1.7387634E-4,1.4833333E-3,1.1E-3,2.8E1,-3.673315E-5,-2.447238E-4,3.7E-1,4.4323763E-4,2E1,1.7966286E-4,1E0,4.827626E-5,2.1900434E-5,7.2E1,2.06E1,2.602819E-1,4.693744E-3,4.3E1,2.4E1,1.3E-3,2.3333334E1,8.660254E-1,2.3E1,1.62E-2,1.587428E-4,3.3388924E-4,4.5826284E-5,3.828006E-4,-2.9828027E-6,-1.4169762E-4,2.1758973E-5,-1.4871053E-4,-2.9543278E-4,1.34020665E-5,-1.7314145E-4,-3.956092E-5,-3.0515826E-4,2.0577721E-5,-1.805755E-5,-1.7203086E-4,9.984227E-5,4.3784607E-6,1.9426345E-5,-8.666433E-5,8.604463E-5,2.718243E-4,-7.476327E-5,9.9989E-5,3.3570212E-4,1.7382865E-4,2.3520931E-4,6.138474E-4],"split_indices":[47,47,47,47,47,60,75,3,33,71,59,54,0,59,0,63,0,44,0,27,0,8,3,65,0,0,0,64,47,0,0,0,0,80,8,0,65,60,23,0,0,74,0,3,0,4,0,0,1,0,78,58,11,11,62,17,8,27,48,70,0,0,0,0,0,0,0,0,0,0,0,0,0,0,0,0,0,0,0,0,0,0,0,0,0,0,0],"split_type":[0,0,0,0,0,0,0,0,0,0,0,0,0,0,0,0,0,0,0,0,0,0,0,0,0,0,0,0,0,0,0,0,0,0,0,0,0,0,0,0,0,0,0,0,0,0,0,0,0,0,0,0,0,0,0,0,0,0,0,0,0,0,0,0,0,0,0,0,0,0,0,0,0,0,0,0,0,0,0,0,0,0,0,0,0,0,0],"sum_hessian":[3.68E2,2.53E2,1.15E2,1.16E2,1.37E2,5.6E1,5.9E1,4.4E1,7.2E1,7E1,6.7E1,5.3E1,3E0,4.9E1,1E1,4.3E1,1E0,7.1E1,1E0,6.9E1,1E0,6.3E1,4E0,4.9E1,4E0,1E0,2E0,3.6E1,1.3E1,8E0,2E0,4.1E1,2E0,6E0,6.5E1,2E0,6.7E1,4.7E1,1.6E1,1E0,3E0,4.4E1,5E0,3.4E1,2E0,1.1E1,2E0,2E0,4E0,4E0,6.1E1,5.6E1,1.1E1,5E0,4.2E1,4E0,1.2E1,1.1E1,3.3E1,2.8E1,6E0,1E0,1E1,1E0,3E0,2E0,2E0,6E1,1E0,3.1E1,2.5E1,1E1,1E0,2E0,3E0,1.9E1,2.3E1,3E0,1E0,3E0,9E0,2E0,9E0,9E0,2.4E1,2E0,2.6E1],"tree_param":{"num_deleted":"0","num_feature":"89","num_nodes":"87","size_leaf_vector":"1"}},{"base_weights":[4.7769438E-5,-2.0377205E-3,4.6138614E-3,-4.171066E-3,-6.2534626E-4,2.668975E-3,6.3846055E-3,-4.6933664E-4,-3.3719677E-3,-1.777085E-3,3.305015E-4,2.993564E-3,-2.3802193E-3,5.6954823E-3,7.149253E-4,-3.4669675E-3,1.3112045E-4,-2.0572064E-3,6.5100566E-4,1.2911971E-4,4.6335175E-4,2.5812457E-3,5.2144256E-4,-4.8097892E-5,-2.2182478E-4,6.341576E-3,3.765158E-3,-1.7335932E-3,-3.6626675E-3,-2.5075083E-4,-2.4345191E-3,-1.7733111E-4,1.6725418E-4,-9.627401E-4,6.163479E-4,2.17857E-3,4.136885E-4,6.527021E-3,1.7008086E-4,2.615922E-3,5.017261E-4,6.957464E-6,-1.5776274E-4,1.8514878E-5,-3.7302992E-3,1.7296383E-4,-9.495154E-4,-1.15938674E-4,-2.6253187E-3,-5.79301E-5,2.2167842E-5,-1.3859663E-3,1.3691967E-4,1.2950164E-3,-3.3129507E-4,7.453859E-4,2.620324E-3,3.1639982E-4,5.5495347E-4,2.589477E-4,8.7940716E-5,-3.5810363E-4,-2.4385893E-4,5.9468188E-5,-9.761652E-5,-7.643466E-5,6.097617E-5,-9.420089E-5,-2.4191386E-4,-1.2612175E-4,3.2792985E-5,5.337172E-5,2.0377483E-4,-6.746413E-5,1.1444873E-4,-7.077592E-5,9.2789815E-5,3.115316E-4,1.6047861E-4],"categories":[],"categories_nodes":[],"categories_segments":[],"categories_sizes":[],"default_left":[0,0,0,0,0,0,0,0,0,0,0,0,0,0,0,0,0,0,0,0,0,0,0,0,0,0,0,0,0,0,0,0,0,0,0,0,0,0,0,0,0,0,0,0,0,0,0,0,0,0,0,0,0,0,0,0,0,0,0,0,0,0,0,0,0,0,0,0,0,0,0,0,0,0,0,0,0,0,0],"id":6,"left_children":[1,3,5,7,9,11,13,-1,15,17,19,21,23,25,-1,27,-1,29,31,33,-1,35,-1,-1,-1,37,39,41,43,45,47,49,-1,51,53,55,-1,57,-1,59,-1,-1,-1,-1,61,-1,63,65,67,-1,-1,69,-1,71,73,75,77,-1,-1,-1,-1,-1,-1,-1,-1,-1,-1,-1,-1,-1,-1,-1,-1,-1,-1,-1,-1,-1,-1],"loss_changes":[3.5232184E-3,7.6271454E-4,3.8245157E-4,1.1707109E-4,1.7012392E-4,1.0054337E-4,5.461881E-5,0E0,3.9481267E-5,4.895046E-5,9.273733E-5,6.164823E-5,1.1265893E-6,3.8481434E-5,0E0,1.7395942E-5,0E0,4.233027E-5,9.911007E-6,4.474813E-5,0E0,4.0878105E-5,0E0,0E0,0E0,1.4266814E-5,2.6801048E-5,4.078378E-6,1.7191982E-5,2.2284637E-5,2.269959E-5,1.6915319E-6,0E0,3.1799056E-5,3.7730882E-5,2.6537033E-5,0E0,8.409494E-6,0E0,7.742659E-6,0E0,0E0,0E0,0E0,1.7392915E-5,0E0,5.4894863E-6,4.4142057E-6,2.414023E-5,0E0,0E0,8.517178E-6,0E0,2.5031426E-5,2.3759096E-5,9.1339225E-6,1.8795472E-5,0E0,0E0,0E0,0E0,0E0,0E0,0E0,0E0,0E0,0E0,0E0,0E0,0E0,0E0,0E0,0E0,0E0,0E0,0E0,0E0,0E0,0E0],"parents":[2147483647,0,0,1,1,2,2,3,3,4,4,5,5,6,6,8,8,9,9,10,10,11,11,12,12,13,13,15,15,17,17,18,18,19,19,21,21,25,25,26,26,27,27,28,28,29,29,30,30,31,31,33,33,34,34,35,35,37,37,39,39,44,44,46,46,47,47,48,48,51,51,53,53,54,54,55,55,56,56],"right_children":[2,4,6,8,10,12,14,-1,16,18,20,22,24,26,-1,28,-1,30,32,34,-1,36,-1,-1,-1,38,40,42,44,46,48,50,-1,52,54,56,-1,58,-1,60,-1,-1,-1,-1,62,-1,64,66,68,-1,-1,70,-1,72,74,76,78,-1,-1,-1,-1,-1,-1,-1,-1,-1,-1,-1,-1,-1,-1,-1,-1,-1,-1,-1,-1,-1,-1],"split_conditions":[1.59E-2,8.8E-3,2.07E-2,4.5E-3,1.15E-2,3.9E-3,6E-1,-4.6933664E-4,9.0125E1,2.3E1,5.9E-1,5.600506E-3,2.51E1,6.1E-1,7.149253E-4,3.6560452E0,1.3112045E-4,-8.660254E-1,7.7E1,1.31E-2,4.6335175E-4,1.9666667E-3,5.2144256E-4,-4.8097892E-5,-2.2182478E-4,2.6E-3,4.2E1,1E0,3.2545954E-2,1.55E-2,1.53E-2,1.92E-2,1.6725418E-4,1.4391443E1,1.25894705E-2,3.7E-1,4.136885E-4,4.829917E-3,1.7008086E-4,5.8E1,5.017261E-4,6.957464E-6,-1.5776274E-4,1.8514878E-5,2.325E1,1.7296383E-4,2.15E1,2.8047578E0,4.578937E0,-5.79301E-5,2.2167842E-5,4.7E1,1.3691967E-4,2.0412414E-4,2.1001449E-2,2.3E1,1.62E-2,3.1639982E-4,5.5495347E-4,2.589477E-4,8.7940716E-5,-3.5810363E-4,-2.4385893E-4,5.9468188E-5,-9.761652E-5,-7.643466E-5,6.097617E-5,-9.420089E-5,-2.4191386E-4,-1.2612175E-4,3.2792985E-5,5.337172E-5,2.0377483E-4,-6.746413E-5,1.1444873E-4,-7.077592E-5,9.2789815E-5,3.115316E-4,1.6047861E-4],"split_indices":[47,47,47,47,47,60,75,0,33,3,71,54,0,72,0,30,0,8,1,47,0,65,0,0,0,64,16,4,82,40,35,35,0,20,44,74,0,58,0,27,0,0,0,0,19,0,0,18,30,0,0,13,0,66,44,27,48,0,0,0,0,0,0,0,0,0,0,0,0,0,0,0,0,0,0,0,0,0,0],"split_type":[0,0,0,0,0,0,0,0,0,0,0,0,0,0,0,0,0,0,0,0,0,0,0,0,0,0,0,0,0,0,0,0,0,0,0,0,0,0,0,0,0,0,0,0,0,0,0,0,0,0,0,0,0,0,0,0,0,0,0,0,0,0,0,0,0,0,0,0,0,0,0,0,0,0,0,0,0,0,0],"sum_hessian":[3.68E2,2.53E2,1.15E2,1E2,1.53E2,5.6E1,5.9E1,3E1,7E1,6.9E1,8.4E1,5.3E1,3E0,4.9E1,1E1,6.9E1,1E0,6.2E1,7E0,8.2E1,2E0,4.9E1,4E0,1E0,2E0,3.5E1,1.4E1,8E0,6.1E1,1.1E1,5.1E1,5E0,2E0,2.5E1,5.7E1,4.4E1,5E0,3.3E1,2E0,1.1E1,3E0,1E0,7E0,1E0,6E1,2E0,9E0,4E0,4.7E1,2E0,3E0,2.2E1,3E0,3.3E1,2.4E1,1.1E1,3.3E1,6E0,2.7E1,7E0,4E0,2.6E1,3.4E1,1E0,8E0,2E0,2E0,1.1E1,3.6E1,2E1,2E0,2.3E1,1E1,1.9E1,5E0,2E0,9E0,9E0,2.4E1],"tree_param":{"num_deleted":"0","num_feature":"89","num_nodes":"79","size_leaf_vector":"1"}},{"base_weights":[5.3209573E-5,-1.8760676E-3,4.2772028E-3,-3.3812874E-3,-1.6706134E-4,2.4757944E-3,5.917254E-3,-4.9864836E-3,-2.5503521E-3,-3.092911E-4,4.3863966E-4,2.7805446E-3,-1.8058257E-4,5.2776453E-3,8.2866335E-3,-5.5794986E-3,-3.1050653E-4,-1.8090495E-3,-3.3721325E-3,-1.1424395E-3,5.7228387E-4,2.428464E-3,5.2595494E-4,5.854029E-3,3.3773691E-3,3.3154726E-4,7.45756E-4,-1.2031093E-4,-4.5427287E-4,-2.081817E-3,5.382144E-4,-3.6213521E-3,-8.0363796E-4,-4.891904E-4,-2.129149E-3,7.4329553E-4,-2.2485566E-4,2.0310255E-3,4.6365014E-3,1.4757222E-4,6.0304324E-3,3.8121035E-3,4.1011346E-5,1.2134105E-4,-2.2844663E-3,1.1241762E-4,-6.377585E-5,-1.3285566E-3,-4.009734E-3,5.1404983E-5,-1.5855671E-4,-9.09949E-4,1.9065137E-3,-8.2963676E-4,-2.8535472E-3,-5.067588E-4,1.1330041E-3,2.6025493E-3,8.3247916E-4,4.462289E-4,1.2176546E-4,2.3424915E-4,6.336276E-3,9.1146794E-5,3.386179E-4,-1.4057393E-4,-2.8001654E-4,-1.317501E-4,2.3254453E-5,-1.17359494E-4,-3.377752E-4,-1.2648241E-4,1.9528097E-5,1.8714662E-4,-1.0303296E-5,-2.7038455E-5,-1.00295736E-4,-8.960706E-5,-2.8866142E-4,-1.5766115E-4,5.7340685E-6,1.8215495E-4,4.017963E-5,9.2474795E-5,2.4608386E-4,-6.700121E-5,9.046978E-5,1.09500514E-4,5.164988E-4],"categories":[],"categories_nodes":[],"categories_segments":[],"categories_sizes":[],"default_left":[0,0,0,0,0,0,0,0,0,0,0,0,0,0,0,0,0,0,0,0,0,0,0,0,0,0,0,0,0,0,0,0,0,0,0,0,0,0,0,0,0,0,0,0,0,0,0,0,0,0,0,0,0,0,0,0,0,0,0,0,0,0,0,0,0,0,0,0,0,0,0,0,0,0,0,0,0,0,0,0,0,0,0,0,0,0,0,0,0],"id":7,"left_children":[1,3,5,7,9,11,13,15,17,19,-1,21,-1,23,25,27,-1,29,31,33,35,37,-1,39,41,-1,-1,-1,-1,43,45,47,49,51,53,55,-1,57,59,-1,61,63,-1,-1,65,-1,-1,67,69,-1,-1,71,73,75,77,79,81,83,85,-1,-1,-1,87,-1,-1,-1,-1,-1,-1,-1,-1,-1,-1,-1,-1,-1,-1,-1,-1,-1,-1,-1,-1,-1,-1,-1,-1,-1,-1],"loss_changes":[3.0150989E-3,6.528324E-4,3.2806047E-4,1.673476E-4,9.812859E-5,8.849363E-5,4.719454E-5,7.835915E-6,4.9335824E-5,8.732277E-5,0E0,5.6165038E-5,0E0,3.499328E-5,8.541159E-6,2.3447792E-6,0E0,3.31333E-5,2.3974717E-5,3.8277038E-5,3.564386E-5,3.5338628E-5,0E0,1.5044818E-5,1.5481302E-5,0E0,0E0,0E0,0E0,3.6281257E-5,8.067102E-6,2.8511102E-5,9.793972E-6,4.003933E-5,2.0225329E-5,2.7854938E-5,0E0,2.8658324E-5,1.2032731E-5,0E0,1.4655525E-5,8.668139E-6,0E0,0E0,2.1414686E-5,0E0,0E0,4.086761E-6,1.1093158E-5,0E0,0E0,2.5943154E-5,5.586802E-6,1.6611912E-6,1.5582584E-5,1.1996899E-5,2.9882878E-5,1.6993421E-5,8.9201585E-6,0E0,0E0,0E0,9.635696E-6,0E0,0E0,0E0,0E0,0E0,0E0,0E0,0E0,0E0,0E0,0E0,0E0,0E0,0E0,0E0,0E0,0E0,0E0,0E0,0E0,0E0,0E0,0E0,0E0,0E0,0E0],"parents":[2147483647,0,0,1,1,2,2,3,3,4,4,5,5,6,6,7,7,8,8,9,9,11,11,13,13,14,14,15,15,17,17,18,18,19,19,20,20,21,21,23,23,24,24,29,29,30,30,31,31,32,32,33,33,34,34,35,35,37,37,38,38,40,40,41,41,44,44,47,47,48,48,51,51,52,52,53,53,54,54,55,55,56,56,57,57,58,58,62,62],"right_children":[2,4,6,8,10,12,14,16,18,20,-1,22,-1,24,26,28,-1,30,32,34,36,38,-1,40,42,-1,-1,-1,-1,44,46,48,50,52,54,56,-1,58,60,-1,62,64,-1,-1,66,-1,-1,68,70,-1,-1,72,74,76,78,80,82,84,86,-1,-1,-1,88,-1,-1,-1,-1,-1,-1,-1,-1,-1,-1,-1,-1,-1,-1,-1,-1,-1,-1,-1,-1,-1,-1,-1,-1,-1,-1],"split_conditions":[1.59E-2,9.8E-3,2.07E-2,5.6E-3,5.9E-1,3.9E-3,6E-1,9E0,9.6E-3,1.31E-2,4.3863966E-4,5.8551403E-3,-1.8058257E-4,2.5E-3,1.77E-2,1.0063E3,-3.1050653E-4,4.1E-1,5E-1,1.31E-2,2.68E-2,7.6E1,5.2595494E-4,1.2E-3,2.91E-2,3.3154726E-4,7.45756E-4,-1.2031093E-4,-4.5427287E-4,1.3E1,2.01E1,2.2062987E-4,2.53E1,2.8033312E-3,1.7511901E-4,4.4822883E-2,-2.2485566E-4,4.163012E-3,1.93E1,1.4757222E-4,1.52E-2,1E-3,4.1011346E-5,1.2134105E-4,1.4678564E-2,1.1241762E-4,-6.377585E-5,2.1E1,2.4137234E-3,5.1404983E-5,-1.5855671E-4,1.1183334E-2,8.4E1,1.94E-2,1.3E-3,9E-4,3.8E-1,1.21106015E-4,2.3E1,4.462289E-4,1.2176546E-4,2.3424915E-4,1.1E1,9.1146794E-5,3.386179E-4,-1.4057393E-4,-2.8001654E-4,-1.317501E-4,2.3254453E-5,-1.17359494E-4,-3.377752E-4,-1.2648241E-4,1.9528097E-5,1.8714662E-4,-1.0303296E-5,-2.7038455E-5,-1.00295736E-4,-8.960706E-5,-2.8866142E-4,-1.5766115E-4,5.7340685E-6,1.8215495E-4,4.017963E-5,9.2474795E-5,2.4608386E-4,-6.700121E-5,9.046978E-5,1.09500514E-4,5.164988E-4],"split_indices":[47,47,47,47,71,60,75,3,49,47,0,54,0,59,36,2,0,71,72,49,49,24,0,59,47,0,0,0,0,24,0,70,0,54,66,80,0,42,0,0,40,62,0,0,44,0,0,3,56,0,0,53,1,39,64,60,74,66,27,0,0,0,13,0,0,0,0,0,0,0,0,0,0,0,0,0,0,0,0,0,0,0,0,0,0,0,0,0,0],"split_type":[0,0,0,0,0,0,0,0,0,0,0,0,0,0,0,0,0,0,0,0,0,0,0,0,0,0,0,0,0,0,0,0,0,0,0,0,0,0,0,0,0,0,0,0,0,0,0,0,0,0,0,0,0,0,0,0,0,0,0,0,0,0,0,0,0,0,0,0,0,0,0,0,0,0,0,0,0,0,0,0,0,0,0,0,0,0,0,0,0],"sum_hessian":[3.68E2,2.53E2,1.15E2,1.34E2,1.19E2,5.6E1,5.9E1,4.4E1,9E1,1.17E2,2E0,5.3E1,3E0,4.9E1,1E1,2.6E1,1.8E1,4.9E1,4.1E1,6E1,5.7E1,5E1,3E0,3.6E1,1.3E1,3E0,7E0,1E0,2.5E1,4.4E1,5E0,3.7E1,4E0,3.7E1,2.3E1,5.5E1,2E0,4.4E1,6E0,2E0,3.4E1,1.1E1,2E0,2E0,4.2E1,3E0,2E0,6E0,3.1E1,2E0,2E0,3.2E1,5E0,9E0,1.4E1,1.3E1,4.2E1,2.9E1,1.5E1,4E0,2E0,4E0,3E1,2E0,9E0,3.1E1,1.1E1,5E0,1E0,3E0,2.8E1,2E1,1.2E1,4E0,1E0,5E0,4E0,5E0,9E0,3E0,1E1,1.4E1,2.8E1,8E0,2.1E1,2E0,1.3E1,1E0,2.9E1],"tree_param":{"num_deleted":"0","num_feature":"89","num_nodes":"89","size_leaf_vector":"1"}},{"base_weights":[5.4029435E-5,-1.733691E-3,3.968055E-3,-3.1241658E-3,-1.5495924E-4,2.3001062E-3,5.486472E-3,-4.293996E-3,-2.1595084E-3,-2.895493E-4,4.1524554E-4,2.5850635E-3,-2.1218453E-3,4.8850058E-3,7.7216392E-3,-4.950916E-3,-3.1023275E-3,-1.4428641E-3,-2.875894E-3,-1.0581873E-3,5.238381E-4,2.2151475E-3,4.6137688E-4,-3.8950668E-5,-2.0036304E-4,5.4129455E-3,3.1408065E-3,3.1165444E-4,6.9355307E-4,-1.56917E-4,-4.05256E-4,-3.4335689E-3,-5.877274E-4,-1.844634E-3,3.947948E-4,-3.109218E-3,-7.607774E-4,-4.4821613E-4,-1.9798838E-3,6.85089E-4,-2.1286335E-4,1.8256888E-3,4.3467237E-3,1.3970173E-4,5.5725765E-3,3.542949E-3,3.8824055E-5,-6.189596E-5,-2.8223018E-4,1.7640516E-5,-7.4451265E-5,-2.0431643E-3,1.0550255E-4,1.5824703E-3,-1.6897234E-4,-1.2377711E-3,-3.4792519E-3,4.866337E-5,-1.5010036E-4,-8.403943E-4,1.7834665E-3,-7.759993E-4,-2.6504812E-3,-4.770702E-4,1.047534E-3,2.4056307E-3,5.440926E-4,4.1767026E-4,1.1527128E-4,6.0952986E-3,2.9249926E-4,8.628565E-5,3.142374E-4,-1.8591234E-4,-4.2630993E-5,7.232569E-5,-3.696352E-5,1.4255824E-4,2.3397244E-5,-1.2296673E-4,2.2324286E-5,-2.871043E-4,-2.5235637E-5,-1.1684568E-4,1.8086032E-5,1.7516926E-4,-9.891167E-6,-2.523591E-5,-9.387679E-5,-8.363325E-5,-2.678778E-4,4.8022477E-5,-9.1383714E-5,1.6855409E-4,3.7076068E-5,8.589882E-5,2.2729201E-4,-6.342781E-5,6.4861124E-5,1.7824357E-4,5.0597877E-4],"categories":[],"categories_nodes":[],"categories_segments":[],"categories_sizes":[],"default_left":[0,0,0,0,0,0,0,0,0,0,0,0,0,0,0,0,0,0,0,0,0,0,0,0,0,0,0,0,0,0,0,0,0,0,0,0,0,0,0,0,0,0,0,0,0,0,0,0,0,0,0,0,0,0,0,0,0,0,0,0,0,0,0,0,0,0,0,0,0,0,0,0,0,0,0,0,0,0,0,0,0,0,0,0,0,0,0,0,0,0,0,0,0,0,0,0,0,0,0,0,0],"id":8,"left_children":[1,3,5,7,9,11,13,15,17,19,-1,21,23,25,27,29,31,33,35,37,39,41,-1,-1,-1,43,45,-1,-1,-1,-1,47,49,51,53,55,57,59,61,63,-1,65,67,-1,69,71,-1,-1,-1,-1,-1,73,75,77,-1,79,81,-1,-1,83,85,87,89,91,93,95,97,-1,-1,99,-1,-1,-1,-1,-1,-1,-1,-1,-1,-1,-1,-1,-1,-1,-1,-1,-1,-1,-1,-1,-1,-1,-1,-1,-1,-1,-1,-1,-1,-1,-1],"loss_changes":[2.58884E-3,5.5709336E-4,2.8116698E-4,1.4307245E-4,8.783752E-5,7.730894E-5,4.294247E-5,3.1610718E-5,3.4868397E-5,7.4327974E-5,0E0,5.0789677E-5,1.2833352E-6,2.9040617E-5,6.1143073E-6,2.7599744E-6,1.7972576E-5,3.026089E-5,1.5894359E-5,3.340729E-5,3.16073E-5,3.3572287E-5,0E0,0E0,0E0,1.1925353E-5,1.3231096E-5,0E0,0E0,0E0,0E0,2.5382615E-6,1.3138293E-6,1.2991892E-5,2.716196E-5,1.8545921E-5,8.777138E-6,3.475707E-5,1.7318955E-5,2.4088005E-5,0E0,3.1394156E-5,1.02583E-5,0E0,1.277402E-5,7.149385E-6,0E0,0E0,0E0,0E0,0E0,1.1481476E-5,2.23062E-6,1.0230278E-6,0E0,3.6069669E-6,8.226198E-6,0E0,0E0,2.2156386E-5,4.9181417E-6,1.4603402E-6,1.3304278E-5,1.0719252E-5,2.5630794E-5,1.4351346E-5,5.9906674E-6,0E0,0E0,8.9776E-6,0E0,0E0,0E0,0E0,0E0,0E0,0E0,0E0,0E0,0E0,0E0,0E0,0E0,0E0,0E0,0E0,0E0,0E0,0E0,0E0,0E0,0E0,0E0,0E0,0E0,0E0,0E0,0E0,0E0,0E0,0E0],"parents":[2147483647,0,0,1,1,2,2,3,3,4,4,5,5,6,6,7,7,8,8,9,9,11,11,12,12,13,13,14,14,15,15,16,16,17,17,18,18,19,19,20,20,21,21,25,25,26,26,31,31,32,32,33,33,34,34,35,35,36,36,37,37,38,38,39,39,41,41,42,42,44,44,45,45,51,51,52,52,53,53,55,55,56,56,59,59,60,60,61,61,62,62,63,63,64,64,65,65,66,66,69,69],"right_children":[2,4,6,8,10,12,14,16,18,20,-1,22,24,26,28,30,32,34,36,38,40,42,-1,-1,-1,44,46,-1,-1,-1,-1,48,50,52,54,56,58,60,62,64,-1,66,68,-1,70,72,-1,-1,-1,-1,-1,74,76,78,-1,80,82,-1,-1,84,86,88,90,92,94,96,98,-1,-1,100,-1,-1,-1,-1,-1,-1,-1,-1,-1,-1,-1,-1,-1,-1,-1,-1,-1,-1,-1,-1,-1,-1,-1,-1,-1,-1,-1,-1,-1,-1,-1],"split_conditions":[1.59E-2,9.8E-3,2.07E-2,6.4E-3,5.9E-1,3.9E-3,6E-1,1E1,9.6E-3,1.31E-2,4.1524554E-4,5.600506E-3,2.51E1,2.5E-3,1.77E-2,9E0,7.1E1,3.3247054E-3,5E-1,1.31E-2,2.68E-2,7.6E1,4.6137688E-4,-3.8950668E-5,-2.0036304E-4,1.2E-3,2.91E-2,3.1165444E-4,6.9355307E-4,-1.56917E-4,-4.05256E-4,2.06E1,1.88E1,3.9E-1,2.49E1,2.2062987E-4,2.53E1,2.8033312E-3,1.7511901E-4,4.4822883E-2,-2.1286335E-4,4.163012E-3,1.93E1,1.3970173E-4,1.9E1,1E-3,3.8824055E-5,-6.189596E-5,-2.8223018E-4,1.7640516E-5,-7.4451265E-5,8.1E1,1.97E1,7.9E1,-1.6897234E-4,2.1E1,4.6E-1,4.866337E-5,-1.5010036E-4,1.1183334E-2,8.4E1,1.94E-2,1.3E-3,3.9E-1,3.8E-1,1.21106015E-4,2.3E1,4.1767026E-4,1.1527128E-4,1.587428E-4,2.9249926E-4,8.628565E-5,3.142374E-4,-1.8591234E-4,-4.2630993E-5,7.232569E-5,-3.696352E-5,1.4255824E-4,2.3397244E-5,-1.2296673E-4,2.2324286E-5,-2.871043E-4,-2.5235637E-5,-1.1684568E-4,1.8086032E-5,1.7516926E-4,-9.891167E-6,-2.523591E-5,-9.387679E-5,-8.363325E-5,-2.678778E-4,4.8022477E-5,-9.1383714E-5,1.6855409E-4,3.7076068E-5,8.589882E-5,2.2729201E-4,-6.342781E-5,6.4861124E-5,1.7824357E-4,5.0597877E-4],"split_indices":[47,47,47,47,71,60,75,3,49,47,0,54,0,59,36,12,28,54,72,49,49,24,0,0,0,59,47,0,0,0,0,0,0,77,0,70,0,54,66,80,0,42,0,0,3,62,0,0,0,0,0,1,0,1,0,3,71,0,0,53,1,39,64,73,74,66,27,0,0,70,0,0,0,0,0,0,0,0,0,0,0,0,0,0,0,0,0,0,0,0,0,0,0,0,0,0,0,0,0,0,0],"split_type":[0,0,0,0,0,0,0,0,0,0,0,0,0,0,0,0,0,0,0,0,0,0,0,0,0,0,0,0,0,0,0,0,0,0,0,0,0,0,0,0,0,0,0,0,0,0,0,0,0,0,0,0,0,0,0,0,0,0,0,0,0,0,0,0,0,0,0,0,0,0,0,0,0,0,0,0,0,0,0,0,0,0,0,0,0,0,0,0,0,0,0,0,0,0,0,0,0,0,0,0,0],"sum_hessian":[3.68E2,2.53E2,1.15E2,1.34E2,1.19E2,5.6E1,5.9E1,5.9E1,7.5E1,1.17E2,2E0,5.3E1,3E0,4.9E1,1E1,3.6E1,2.3E1,3.9E1,3.6E1,6E1,5.7E1,4.9E1,4E0,1E0,2E0,3.6E1,1.3E1,3E0,7E0,2E0,3.4E1,2E1,3E0,3.2E1,7E0,3.2E1,4E0,3.7E1,2.3E1,5.5E1,2E0,4.3E1,6E0,2E0,3.4E1,1.1E1,2E0,1E0,1.9E1,1E0,2E0,2.9E1,3E0,5E0,2E0,6E0,2.6E1,2E0,2E0,3.2E1,5E0,9E0,1.4E1,1.3E1,4.2E1,2.9E1,1.4E1,4E0,2E0,2.5E1,9E0,2E0,9E0,2.4E1,5E0,1E0,2E0,4E0,1E0,5E0,1E0,2.5E1,1E0,2E1,1.2E1,4E0,1E0,5E0,4E0,5E0,9E0,5E0,8E0,1.4E1,2.8E1,8E0,2.1E1,2E0,1.2E1,2E0,2.3E1],"tree_param":{"num_deleted":"0","num_feature":"89","num_nodes":"101","size_leaf_vector":"1"}},{"base_weights":[5.49034E-5,-1.6017405E-3,3.681909E-3,-2.8866306E-3,-1.428913E-4,2.134863E-3,5.0902376E-3,-3.9665285E-3,-1.9960979E-3,-2.7023876E-4,3.9309915E-4,2.4024982E-3,-2.0119261E-3,4.525321E-3,7.1952916E-3,-3.801434E-4,-3.0786423E-3,-1.3323398E-3,-2.6597257E-3,-9.80157E-4,4.810587E-4,2.0862578E-3,4.6671502E-4,-3.7392638E-5,-1.8967703E-4,5.0100842E-3,2.9209238E-3,6.237159E-4,2.3947094E-4,-3.352309E-3,-9.851124E-4,-1.702917E-3,3.6283402E-4,-2.872995E-3,-7.2020263E-4,-6.3386123E-4,-2.496605E-3,6.608989E-4,-2.112009E-3,1.7305181E-3,4.07512E-3,2.2678323E-4,5.339664E-3,3.2928898E-3,3.675344E-5,-5.942013E-5,-3.4241094E-3,1.6934908E-5,-1.06978696E-4,-1.8873292E-3,1.05902785E-4,1.1868253E-4,-1.5996047E-4,-1.1531266E-3,-3.2124796E-3,4.606798E-5,-1.42095E-4,-1.0304059E-3,6.045313E-4,-3.195826E-3,3.4660745E-5,-4.4200165E-4,1.0127968E-3,-2.0151066E-4,-3.56555E-5,2.2236202E-3,6.977943E-4,3.9093936E-4,1.09123466E-4,1.7846785E-4,5.593078E-3,3.3378266E-5,2.813107E-4,-2.7905244E-4,-7.291794E-5,-1.7163425E-4,-3.978891E-5,6.9432666E-5,-3.4992147E-5,-1.1476892E-4,2.1431297E-5,-2.6501936E-4,-2.4226196E-5,-4.474453E-5,-1.5436645E-4,1.2655427E-4,-6.395361E-5,-6.804552E-5,-2.7061295E-4,-1.4271846E-4,6.893819E-6,1.5596868E-4,3.7980957E-5,2.238367E-4,1.0058673E-4,-6.0044997E-5,7.666512E-5,8.973501E-5,4.5737126E-4],"categories":[],"categories_nodes":[],"categories_segments":[],"categories_sizes":[],"default_left":[0,0,0,0,0,0,0,0,0,0,0,0,0,0,0,0,0,0,0,0,0,0,0,0,0,0,0,0,0,0,0,0,0,0,0,0,0,0,0,0,0,0,0,0,0,0,0,0,0,0,0,0,0,0,0,0,0,0,0,0,0,0,0,0,0,0,0,0,0,0,0,0,0,0,0,0,0,0,0,0,0,0,0,0,0,0,0,0,0,0,0,0,0,0,0,0,0,0,0],"id":9,"left_children":[1,3,5,7,9,11,13,15,17,19,-1,21,23,25,27,-1,29,31,33,35,37,39,-1,-1,-1,41,43,-1,-1,45,47,49,51,53,55,57,59,61,63,65,67,-1,69,71,-1,-1,73,-1,-1,75,77,-1,-1,79,81,-1,-1,83,85,87,-1,89,91,-1,-1,93,95,-1,-1,-1,97,-1,-1,-1,-1,-1,-1,-1,-1,-1,-1,-1,-1,-1,-1,-1,-1,-1,-1,-1,-1,-1,-1,-1,-1,-1,-1,-1,-1],"loss_changes":[2.223092E-3,4.757006E-4,2.4186797E-4,1.2190989E-4,7.860177E-5,6.809371E-5,3.87897E-5,2.7204456E-5,2.9933435E-5,6.340797E-5,0E0,4.6427565E-5,1.1099492E-6,2.4253619E-5,4.448346E-6,0E0,1.4458434E-5,2.5745598E-5,1.3235578E-5,3.045101E-5,2.8443428E-5,2.9031333E-5,0E0,0E0,0E0,1.1389609E-5,1.1305536E-5,0E0,0E0,2.5156187E-6,2.3901653E-6,1.1207623E-5,2.414608E-5,1.5563273E-5,7.865876E-6,2.5667889E-5,2.391947E-5,2.1793616E-5,1.5892692E-6,2.1364074E-5,8.7368535E-6,0E0,1.1945085E-5,6.2451873E-6,0E0,0E0,1.0046933E-6,0E0,0E0,9.695432E-6,2.0356294E-6,0E0,0E0,3.1842847E-6,6.87351E-6,0E0,0E0,1.5441194E-5,1.9103461E-5,1.0664226E-6,0E0,1.0076917E-5,2.0243966E-5,0E0,0E0,1.31312845E-5,6.7564824E-6,0E0,0E0,0E0,9.119685E-6,0E0,0E0,0E0,0E0,0E0,0E0,0E0,0E0,0E0,0E0,0E0,0E0,0E0,0E0,0E0,0E0,0E0,0E0,0E0,0E0,0E0,0E0,0E0,0E0,0E0,0E0,0E0,0E0],"parents":[2147483647,0,0,1,1,2,2,3,3,4,4,5,5,6,6,7,7,8,8,9,9,11,11,12,12,13,13,14,14,16,16,17,17,18,18,19,19,20,20,21,21,25,25,26,26,29,29,30,30,31,31,32,32,33,33,34,34,35,35,36,36,37,37,38,38,39,39,40,40,42,42,43,43,46,46,49,49,50,50,53,53,54,54,57,57,58,58,59,59,61,61,62,62,65,65,66,66,70,70],"right_children":[2,4,6,8,10,12,14,16,18,20,-1,22,24,26,28,-1,30,32,34,36,38,40,-1,-1,-1,42,44,-1,-1,46,48,50,52,54,56,58,60,62,64,66,68,-1,70,72,-1,-1,74,-1,-1,76,78,-1,-1,80,82,-1,-1,84,86,88,-1,90,92,-1,-1,94,96,-1,-1,-1,98,-1,-1,-1,-1,-1,-1,-1,-1,-1,-1,-1,-1,-1,-1,-1,-1,-1,-1,-1,-1,-1,-1,-1,-1,-1,-1,-1,-1],"split_conditions":[1.59E-2,9.8E-3,2.07E-2,6.4E-3,5.9E-1,3.9E-3,6E-1,9E0,9.6E-3,1.31E-2,3.9309915E-4,5.8551403E-3,2.51E1,2.5E-3,2.16E1,-3.801434E-4,7.1E1,3.3247054E-3,5E-1,1.8E-3,2.1E-3,7.6E1,4.6671502E-4,-3.7392638E-5,-1.8967703E-4,1.3E-3,2.91E-2,6.237159E-4,2.3947094E-4,2.06E1,1.88E1,3.9E-1,2.49E1,2.2062987E-4,2.53E1,8.579397E-2,4.6E1,4.4822883E-2,6.6E1,4.163012E-3,1.93E1,2.2678323E-4,1.36E-2,1E0,3.675344E-5,-5.942013E-5,3.4E1,1.6934908E-5,-1.06978696E-4,8.1E1,1.97E1,1.1868253E-4,-1.5996047E-4,2.1E1,4.6E-1,4.606798E-5,-1.42095E-4,3.3E1,3.1E1,-7.0710677E-1,3.4660745E-5,9E-4,3.8E-1,-2.0151066E-4,-3.56555E-5,1.0201E3,2.3E1,3.9093936E-4,1.09123466E-4,1.7846785E-4,7.6E-3,3.3378266E-5,2.813107E-4,-2.7905244E-4,-7.291794E-5,-1.7163425E-4,-3.978891E-5,6.9432666E-5,-3.4992147E-5,-1.1476892E-4,2.1431297E-5,-2.6501936E-4,-2.4226196E-5,-4.474453E-5,-1.5436645E-4,1.2655427E-4,-6.395361E-5,-6.804552E-5,-2.7061295E-4,-1.4271846E-4,6.893819E-6,1.5596868E-4,3.7980957E-5,2.238367E-4,1.0058673E-4,-6.0044997E-5,7.666512E-5,8.973501E-5,4.5737126E-4],"split_indices":[47,47,47,47,71,60,75,3,49,47,0,54,0,59,0,0,28,54,72,60,59,24,0,0,0,59,47,0,0,0,0,77,0,70,0,80,13,80,1,42,0,0,40,4,0,0,11,0,0,1,0,0,0,3,71,0,0,12,14,7,0,60,74,0,0,2,27,0,0,0,38,0,0,0,0,0,0,0,0,0,0,0,0,0,0,0,0,0,0,0,0,0,0,0,0,0,0,0,0],"split_type":[0,0,0,0,0,0,0,0,0,0,0,0,0,0,0,0,0,0,0,0,0,0,0,0,0,0,0,0,0,0,0,0,0,0,0,0,0,0,0,0,0,0,0,0,0,0,0,0,0,0,0,0,0,0,0,0,0,0,0,0,0,0,0,0,0,0,0,0,0,0,0,0,0,0,0,0,0,0,0,0,0,0,0,0,0,0,0,0,0,0,0,0,0,0,0,0,0,0,0],"sum_hessian":[3.68E2,2.53E2,1.15E2,1.34E2,1.19E2,5.6E1,5.9E1,5.9E1,7.5E1,1.17E2,2E0,5.3E1,3E0,4.9E1,1E1,2.9E1,3E1,3.9E1,3.6E1,6E1,5.7E1,5E1,3E0,1E0,2E0,3.6E1,1.3E1,8E0,2E0,2.6E1,4E0,3.2E1,7E0,3.2E1,4E0,5E1,1E1,5.4E1,3E0,4.4E1,6E0,6E0,3E1,1.1E1,2E0,1E0,2.5E1,1E0,3E0,2.9E1,3E0,5E0,2E0,6E0,2.6E1,2E0,2E0,3.8E1,1.2E1,8E0,2E0,1.3E1,4.1E1,2E0,1E0,2.9E1,1.5E1,4E0,2E0,3E0,2.7E1,1E0,1E1,2.4E1,1E0,2.4E1,5E0,1E0,2E0,5E0,1E0,2.5E1,1E0,2.6E1,1.2E1,7E0,5E0,1E0,7E0,3E0,1E1,1.4E1,2.7E1,1.7E1,1.2E1,2E0,1.3E1,1E0,2.6E1],"tree_param":{"num_deleted":"0","num_feature":"89","num_nodes":"99","size_leaf_vector":"1"}},{"base_weights":[5.4421267E-5,-1.4807072E-3,3.4153543E-3,-2.6673924E-3,-1.3334713E-4,1.9830347E-3,4.719135E-3,-3.663899E-3,-1.8455795E-3,-2.5387012E-4,3.7213383E-4,2.2345174E-3,-1.5261916E-4,4.1893716E-3,6.6981395E-3,-3.9259335E-3,-1.742822E-3,-1.231209E-3,-2.4598835E-3,-9.0896594E-4,4.3948705E-4,1.9358497E-3,4.3871207E-4,4.6350174E-3,2.7123522E-3,2.7090203E-4,6.0134433E-4,-3.9749504E-3,-5.704332E-5,-1.7321718E-4,-1.41038245E-5,-1.5720467E-3,3.2864773E-4,-2.6547492E-3,-6.817919E-4,-5.8582897E-4,-2.3245132E-3,6.090838E-4,-2.0023403E-3,1.5996555E-3,3.8205483E-3,4.7782343E-3,1.13531896E-4,3.055682E-3,3.4793244E-5,-4.0245745E-3,-5.9749258E-5,-1.8302329E-3,-3.516074E-4,1.1077039E-4,-1.5142925E-4,-2.8596947E-3,-4.5397086E-4,4.3611028E-5,-1.3451661E-4,-9.530788E-4,5.6098413E-4,-2.382231E-4,3.2812157E-5,3.0235035E-4,1.8085311E-3,-1.9076343E-4,-3.422927E-5,2.0503409E-3,5.6159555E-4,3.6591923E-4,1.03303566E-4,5.1100925E-3,2.1766301E-4,7.329198E-5,2.7135786E-4,-6.2686835E-5,-3.2597806E-4,-1.6688455E-4,-2.2991671E-5,4.5556277E-5,-6.6713794E-5,-1.2116919E-4,-2.562571E-4,2.0574033E-5,-6.213958E-5,-4.1297553E-5,-1.4296707E-4,1.1769545E-4,-5.9690014E-5,7.122926E-5,-3.8174974E-5,2.0280782E-4,-7.7387685E-6,8.688148E-5,2.0211337E-4,-4.304106E-5,9.321609E-5,2.4467148E-4,4.4991102E-4],"categories":[],"categories_nodes":[],"categories_segments":[],"categories_sizes":[],"default_left":[0,0,0,0,0,0,0,0,0,0,0,0,0,0,0,0,0,0,0,0,0,0,0,0,0,0,0,0,0,0,0,0,0,0,0,0,0,0,0,0,0,0,0,0,0,0,0,0,0,0,0,0,0,0,0,0,0,0,0,0,0,0,0,0,0,0,0,0,0,0,0,0,0,0,0,0,0,0,0,0,0,0,0,0,0,0,0,0,0,0,0,0,0,0,0],"id":10,"left_children":[1,3,5,7,9,11,13,15,17,19,-1,21,-1,23,25,27,29,31,33,35,37,39,-1,41,43,-1,-1,45,-1,-1,-1,47,49,51,53,55,57,59,61,63,65,67,-1,69,-1,71,-1,73,75,-1,-1,77,79,-1,-1,81,83,-1,-1,85,87,-1,-1,89,91,-1,-1,93,-1,-1,-1,-1,-1,-1,-1,-1,-1,-1,-1,-1,-1,-1,-1,-1,-1,-1,-1,-1,-1,-1,-1,-1,-1,-1,-1],"loss_changes":[1.9088993E-3,4.0576298E-4,2.0726374E-4,1.03795086E-4,7.038552E-5,6.0035236E-5,3.4843222E-5,2.3361063E-5,2.5654532E-5,5.3996893E-5,0E0,4.179022E-5,0E0,2.0339561E-5,4.370406E-6,5.3549884E-6,5.5734745E-6,2.1782977E-5,1.1010125E-5,2.6540583E-5,2.5238898E-5,2.6203285E-5,0E0,1.0259973E-5,9.617805E-6,0E0,0E0,5.1638926E-6,0E0,0E0,0E0,9.754796E-6,2.1387947E-5,1.3586119E-5,7.049225E-6,2.2014168E-5,2.0872747E-5,1.9688276E-5,1.3868103E-6,1.9901272E-5,7.4331547E-6,9.993848E-6,0E0,5.5265264E-6,0E0,4.934089E-6,0E0,1.0057236E-5,3.584571E-6,0E0,0E0,9.010168E-6,1.1179173E-6,0E0,0E0,1.32869245E-5,1.656435E-5,0E0,0E0,2.1051977E-5,1.5472557E-5,0E0,0E0,1.1488082E-5,1.0582847E-5,0E0,0E0,1.3370416E-5,0E0,0E0,0E0,0E0,0E0,0E0,0E0,0E0,0E0,0E0,0E0,0E0,0E0,0E0,0E0,0E0,0E0,0E0,0E0,0E0,0E0,0E0,0E0,0E0,0E0,0E0,0E0],"parents":[2147483647,0,0,1,1,2,2,3,3,4,4,5,5,6,6,7,7,8,8,9,9,11,11,13,13,14,14,15,15,16,16,17,17,18,18,19,19,20,20,21,21,23,23,24,24,27,27,31,31,32,32,33,33,34,34,35,35,36,36,37,37,38,38,39,39,40,40,41,41,43,43,45,45,47,47,48,48,51,51,52,52,55,55,56,56,59,59,60,60,63,63,64,64,67,67],"right_children":[2,4,6,8,10,12,14,16,18,20,-1,22,-1,24,26,28,30,32,34,36,38,40,-1,42,44,-1,-1,46,-1,-1,-1,48,50,52,54,56,58,60,62,64,66,68,-1,70,-1,72,-1,74,76,-1,-1,78,80,-1,-1,82,84,-1,-1,86,88,-1,-1,90,92,-1,-1,94,-1,-1,-1,-1,-1,-1,-1,-1,-1,-1,-1,-1,-1,-1,-1,-1,-1,-1,-1,-1,-1,-1,-1,-1,-1,-1,-1],"split_conditions":[1.59E-2,9.8E-3,2.07E-2,6.4E-3,5.9E-1,3.9E-3,6E-1,7.7E1,9.6E-3,1.31E-2,3.7213383E-4,5.8551403E-3,-1.5261916E-4,2.5E-3,1.77E-2,2E1,2.8E1,3.3247054E-3,5E-1,1.8E-3,2.1E-3,7.6E1,4.3871207E-4,2.6E-3,2.91E-2,2.7090203E-4,6.0134433E-4,8.1E1,-5.704332E-5,-1.7321718E-4,-1.41038245E-5,3.8E1,2.49E1,2.3E1,2.53E1,8.579397E-2,4.6E1,6.4166664E1,6.6E1,2.7E1,1.93E1,2E1,1.13531896E-4,1E-3,3.4793244E-5,1.1E1,-5.9749258E-5,8.1E1,6.6E1,1.1077039E-4,-1.5142925E-4,2.9039578E-4,1.8E1,4.3611028E-5,-1.3451661E-4,3.3E1,3.1E1,-2.382231E-4,3.2812157E-5,2.1166666E1,4.1E1,-1.9076343E-4,-3.422927E-5,3.3439226E0,1.0177E3,3.6591923E-4,1.03303566E-4,7.4929915E-2,2.1766301E-4,7.329198E-5,2.7135786E-4,-6.2686835E-5,-3.2597806E-4,-1.6688455E-4,-2.2991671E-5,4.5556277E-5,-6.6713794E-5,-1.2116919E-4,-2.562571E-4,2.0574033E-5,-6.213958E-5,-4.1297553E-5,-1.4296707E-4,1.1769545E-4,-5.9690014E-5,7.122926E-5,-3.8174974E-5,2.0280782E-4,-7.7387685E-6,8.688148E-5,2.0211337E-4,-4.304106E-5,9.321609E-5,2.4467148E-4,4.4991102E-4],"split_indices":[47,47,47,47,71,60,75,1,49,47,0,54,0,59,36,3,16,54,72,60,59,24,0,64,47,0,0,14,0,0,0,12,0,3,0,80,13,31,1,12,0,3,0,62,0,23,0,1,24,0,0,70,0,0,0,12,14,0,0,17,13,0,0,20,2,0,0,82,0,0,0,0,0,0,0,0,0,0,0,0,0,0,0,0,0,0,0,0,0,0,0,0,0,0,0],"split_type":[0,0,0,0,0,0,0,0,0,0,0,0,0,0,0,0,0,0,0,0,0,0,0,0,0,0,0,0,0,0,0,0,0,0,0,0,0,0,0,0,0,0,0,0,0,0,0,0,0,0,0,0,0,0,0,0,0,0,0,0,0,0,0,0,0,0,0,0,0,0,0,0,0,0,0,0,0,0,0,0,0,0,0,0,0,0,0,0,0,0,0,0,0,0,0],"sum_hessian":[3.68E2,2.53E2,1.15E2,1.34E2,1.19E2,5.6E1,5.9E1,5.9E1,7.5E1,1.17E2,2E0,5.3E1,3E0,4.9E1,1E1,5.1E1,8E0,3.9E1,3.6E1,6E1,5.7E1,5E1,3E0,3.6E1,1.3E1,3E0,7E0,5E1,1E0,6E0,2E0,3.2E1,7E0,3.2E1,4E0,5E1,1E1,5.4E1,3E0,4.4E1,6E0,3.4E1,2E0,1.1E1,2E0,4.9E1,1E0,2.6E1,6E0,5E0,2E0,2.9E1,3E0,2E0,2E0,3.8E1,1.2E1,8E0,2E0,4.4E1,1E1,2E0,1E0,3E1,1.4E1,4E0,2E0,2.8E1,6E0,2E0,9E0,1E0,4.8E1,2.2E1,4E0,2E0,4E0,7E0,2.2E1,1E0,2E0,2.6E1,1.2E1,7E0,5E0,2.5E1,1.9E1,7E0,3E0,1.1E1,1.9E1,5E0,9E0,7E0,2.1E1],"tree_param":{"num_deleted":"0","num_feature":"89","num_nodes":"95","size_leaf_vector":"1"}},{"base_weights":[5.538243E-5,-1.367805E-3,3.1711946E-3,-2.4647743E-3,-1.2231611E-4,1.8435935E-3,4.379562E-3,-3.9813574E-3,-1.993547E-3,-2.3634479E-4,3.5228668E-4,2.0788505E-3,-1.7932749E-3,3.8823262E-3,6.241584E-3,-3.233865E-4,-8.6085325E-5,-3.007073E-3,-1.7346626E-3,-8.4168586E-4,4.0438195E-4,1.7652488E-3,3.8392775E-4,-2.9792152E-5,-1.7142123E-4,4.2919395E-3,2.5224674E-3,5.2203616E-4,1.3611607E-4,-7.33708E-5,-3.3219364E-3,-1.848092E-3,8.4213054E-5,-5.414383E-4,-2.157226E-3,5.6450465E-4,-1.8984011E-3,1.108268E-3,2.6197333E-3,2.8656898E-3,4.714044E-3,2.8399485E-3,3.29376E-5,-2.7425506E-4,-6.487619E-5,-8.248184E-5,-1.9364458E-3,-8.8155706E-4,5.205673E-4,-2.766035E-3,3.1062165E-5,-3.0328464E-4,9.2829735E-4,-1.8058937E-4,-3.2860113E-5,-4.3731037E-4,1.5128839E-3,3.0056128E-4,1.6308657E-3,2.5223455E-4,8.38987E-5,1.1711602E-4,4.915493E-3,2.911143E-5,2.4255706E-4,4.2266547E-5,-5.3264124E-5,-1.2470754E-4,-2.0548375E-4,-3.8116104E-5,-1.3240948E-4,1.0945674E-4,-5.5710658E-5,-2.59339E-4,-1.0887783E-4,5.6991747E-5,-7.376449E-5,1.0795503E-4,-1.0537753E-5,-7.93142E-5,1.8090754E-5,1.7350966E-4,7.115221E-5,1.8661177E-4,7.205373E-5,6.8149195E-5,4.0394533E-4],"categories":[],"categories_nodes":[],"categories_segments":[],"categories_sizes":[],"default_left":[0,0,0,0,0,0,0,0,0,0,0,0,0,0,0,0,0,0,0,0,0,0,0,0,0,0,0,0,0,0,0,0,0,0,0,0,0,0,0,0,0,0,0,0,0,0,0,0,0,0,0,0,0,0,0,0,0,0,0,0,0,0,0,0,0,0,0,0,0,0,0,0,0,0,0,0,0,0,0,0,0,0,0,0,0,0,0],"id":11,"left_children":[1,3,5,7,9,11,13,15,17,19,-1,21,23,25,27,-1,-1,29,31,33,35,37,-1,-1,-1,39,41,-1,-1,-1,43,45,-1,47,49,51,53,55,57,59,61,63,-1,-1,-1,65,67,69,71,73,-1,75,77,-1,-1,79,81,-1,83,-1,-1,-1,85,-1,-1,-1,-1,-1,-1,-1,-1,-1,-1,-1,-1,-1,-1,-1,-1,-1,-1,-1,-1,-1,-1,-1,-1],"loss_changes":[1.6406253E-3,3.4672936E-4,1.780166E-4,8.854142E-5,6.297064E-5,5.2497067E-5,3.132003E-5,1.1418015E-6,2.2334309E-5,4.610763E-5,0E0,3.7594393E-5,1.1883567E-6,1.7024577E-5,3.074063E-6,0E0,0E0,1.0114236E-5,2.9135583E-5,2.2926244E-5,2.2457873E-5,2.5165631E-5,0E0,0E0,0E0,8.765957E-6,8.212446E-6,0E0,0E0,0E0,1.7554557E-6,1.2788165E-5,0E0,1.8880524E-5,1.8120973E-5,1.7644783E-5,1.2088467E-6,1.9422569E-5,1.748986E-5,2.4343826E-6,1.0481686E-5,4.601963E-6,0E0,0E0,0E0,2.1332628E-6,1.4851947E-5,1.1433009E-5,1.4362797E-5,1.6036138E-6,0E0,1.1340939E-5,1.7588016E-5,0E0,0E0,2.7975793E-6,7.886894E-6,0E0,4.560723E-6,0E0,0E0,0E0,9.293843E-6,0E0,0E0,0E0,0E0,0E0,0E0,0E0,0E0,0E0,0E0,0E0,0E0,0E0,0E0,0E0,0E0,0E0,0E0,0E0,0E0,0E0,0E0,0E0,0E0],"parents":[2147483647,0,0,1,1,2,2,3,3,4,4,5,5,6,6,7,7,8,8,9,9,11,11,12,12,13,13,14,14,17,17,18,18,19,19,20,20,21,21,25,25,26,26,30,30,31,31,33,33,34,34,35,35,36,36,37,37,38,38,39,39,40,40,41,41,45,45,46,46,47,47,48,48,49,49,51,51,52,52,55,55,56,56,58,58,62,62],"right_children":[2,4,6,8,10,12,14,16,18,20,-1,22,24,26,28,-1,-1,30,32,34,36,38,-1,-1,-1,40,42,-1,-1,-1,44,46,-1,48,50,52,54,56,58,60,62,64,-1,-1,-1,66,68,70,72,74,-1,76,78,-1,-1,80,82,-1,84,-1,-1,-1,86,-1,-1,-1,-1,-1,-1,-1,-1,-1,-1,-1,-1,-1,-1,-1,-1,-1,-1,-1,-1,-1,-1,-1,-1],"split_conditions":[1.59E-2,9.8E-3,2.07E-2,4.5E-3,5.9E-1,3.9E-3,6E-1,7.7E1,8E0,1.31E-2,3.5228668E-4,5.600506E-3,2.51E1,2.5E-3,2.18E1,-3.233865E-4,-8.6085325E-5,3E0,1.3716667E-2,1.8E-3,2.1E-3,5E-1,3.8392775E-4,-2.9792152E-5,-1.7142123E-4,1.21E-2,2.91E-2,5.2203616E-4,1.3611607E-4,-7.33708E-5,4.5E1,1.9316666E-2,8.4213054E-5,8.579397E-2,4.6E1,5.1071845E-2,6.6E1,1.0177E3,1.93E1,6E-1,1.52E-2,1E0,3.29376E-5,-2.7425506E-4,-6.487619E-5,1.0104E3,1.45E-3,3.3E1,3.1E1,1.18E-2,3.1062165E-5,3.8E-1,5E-1,-1.8058937E-4,-3.2860113E-5,2.38E-2,1.0198E3,3.0056128E-4,3.6627857E-3,2.5223455E-4,8.38987E-5,1.1711602E-4,7.5E-3,2.911143E-5,2.4255706E-4,4.2266547E-5,-5.3264124E-5,-1.2470754E-4,-2.0548375E-4,-3.8116104E-5,-1.3240948E-4,1.0945674E-4,-5.5710658E-5,-2.59339E-4,-1.0887783E-4,5.6991747E-5,-7.376449E-5,1.0795503E-4,-1.0537753E-5,-7.93142E-5,1.8090754E-5,1.7350966E-4,7.115221E-5,1.8661177E-4,7.205373E-5,6.8149195E-5,4.0394533E-4],"split_indices":[47,47,47,47,71,60,75,1,3,47,0,54,0,59,0,0,0,3,53,60,59,71,0,0,0,36,47,0,0,0,12,41,0,80,13,80,1,2,0,73,40,4,0,0,0,2,69,12,14,47,0,73,74,0,0,39,2,0,42,0,0,0,37,0,0,0,0,0,0,0,0,0,0,0,0,0,0,0,0,0,0,0,0,0,0,0,0],"split_type":[0,0,0,0,0,0,0,0,0,0,0,0,0,0,0,0,0,0,0,0,0,0,0,0,0,0,0,0,0,0,0,0,0,0,0,0,0,0,0,0,0,0,0,0,0,0,0,0,0,0,0,0,0,0,0,0,0,0,0,0,0,0,0,0,0,0,0,0,0,0,0,0,0,0,0,0,0,0,0,0,0,0,0,0,0,0,0],"sum_hessian":[3.68E2,2.53E2,1.15E2,1.34E2,1.19E2,5.6E1,5.9E1,3E1,1.04E2,1.17E2,2E0,5.3E1,3E0,4.9E1,1E1,2.9E1,1E0,1.9E1,8.5E1,6E1,5.7E1,4.9E1,4E0,1E0,2E0,3.6E1,1.3E1,9E0,1E0,3E0,1.6E1,8.2E1,3E0,5E1,1E1,5.4E1,3E0,2.9E1,2E1,1E1,2.6E1,1.1E1,2E0,1.5E1,1E0,4E0,7.8E1,3.8E1,1.2E1,8E0,2E0,1.6E1,3.8E1,2E0,1E0,6E0,2.3E1,8E0,1.2E1,8E0,2E0,2E0,2.4E1,1E0,1E1,2E0,2E0,5.1E1,2.7E1,2.6E1,1.2E1,7E0,5E0,5E0,3E0,6E0,1E1,2.7E1,1.1E1,3E0,3E0,1E1,1.3E1,5E0,7E0,1E0,2.3E1],"tree_param":{"num_deleted":"0","num_feature":"89","num_nodes":"87","size_leaf_vector":"1"}},{"base_weights":[5.501718E-5,-1.2635513E-3,2.9417532E-3,-2.5937012E-3,-3.8297536E-4,1.7123406E-3,4.060666E-3,-3.0066443E-4,-2.1179903E-3,-1.1766469E-3,1.9448716E-4,1.9334053E-3,-1.7001163E-3,3.5963394E-3,5.8020893E-3,-2.1823223E-3,1.03129925E-4,-3.6780137E-4,-1.6108289E-3,-1.4460048E-4,1.8995653E-3,1.6654157E-3,3.8935363E-4,-2.8600469E-5,-1.6227877E-4,4.0046743E-4,3.1648425E-3,2.3104418E-4,5.227077E-4,-1.7416185E-3,-2.7232235E-3,-1.0285921E-3,1.082354E-3,-1.7917368E-3,5.557302E-4,1.412263E-4,-1.0734437E-3,3.3002938E-4,3.6461737E-3,1.3602E-3,3.3896002E-3,3.3696576E-3,8.1299375E-5,-1.9218766E-3,4.9636606E-4,-2.9473838E-3,-3.7863625E-5,-1.5057429E-3,3.341748E-5,-3.6473124E-5,1.09378976E-4,-1.4330657E-3,-2.820467E-4,1.0079865E-4,-6.228115E-5,-1.4515221E-3,3.4892463E-4,-1.4991508E-3,3.332246E-4,6.95908E-5,-4.4980923E-5,3.316137E-4,2.60875E-5,1.7639411E-3,4.3512168E-4,3.232645E-4,9.3951196E-5,2.9089667E-3,4.9284804E-3,-3.340219E-5,-1.6619427E-4,8.379432E-5,-4.627291E-5,-4.2092688E-5,-2.4140572E-4,-2.6933216E-5,-1.4582397E-4,3.6423826E-5,-1.2522531E-4,-3.7241036E-5,-1.6597206E-4,-1.4678023E-5,7.999088E-5,-2.8336346E-5,-1.4233668E-4,-3.1545722E-5,4.909532E-5,3.2589945E-5,1.6073207E-4,9.596192E-5,-1.662083E-5,2.4835474E-4,6.507609E-5,4.2528618E-4,1.041159E-4],"categories":[],"categories_nodes":[],"categories_segments":[],"categories_sizes":[],"default_left":[0,0,0,0,0,0,0,0,0,0,0,0,0,0,0,0,0,0,0,0,0,0,0,0,0,0,0,0,0,0,0,0,0,0,0,0,0,0,0,0,0,0,0,0,0,0,0,0,0,0,0,0,0,0,0,0,0,0,0,0,0,0,0,0,0,0,0,0,0,0,0,0,0,0,0,0,0,0,0,0,0,0,0,0,0,0,0,0,0,0,0,0,0,0,0],"id":12,"left_children":[1,3,5,7,9,11,13,-1,15,17,19,21,23,25,27,29,-1,31,33,35,37,39,-1,-1,-1,-1,41,-1,-1,43,45,47,49,51,53,55,57,59,61,63,65,67,-1,69,71,73,-1,75,-1,-1,-1,77,-1,-1,-1,79,81,83,85,-1,-1,-1,-1,87,89,-1,-1,91,93,-1,-1,-1,-1,-1,-1,-1,-1,-1,-1,-1,-1,-1,-1,-1,-1,-1,-1,-1,-1,-1,-1,-1,-1,-1,-1],"loss_changes":[1.4082636E-3,2.9651637E-4,1.52617E-4,4.7995476E-5,7.0809445E-5,4.6286295E-5,2.7649105E-5,0E0,1.903309E-5,2.2234628E-5,5.231006E-5,3.4346725E-5,1.0382864E-6,1.4567049E-5,4.585978E-6,1.265874E-5,0E0,2.4111281E-5,1.7457525E-5,2.0328709E-5,3.991713E-5,2.2228123E-5,0E0,0E0,0E0,0E0,1.461833E-5,0E0,0E0,1.830078E-5,1.4239689E-5,1.2360815E-5,4.129156E-6,1.9200961E-5,4.7394988E-6,2.0024334E-5,1.12784655E-5,4.8244783E-6,1.0245276E-5,1.6039616E-5,5.35242E-6,1.2234232E-5,0E0,8.492774E-6,2.9749249E-6,3.170615E-6,0E0,4.2049596E-6,0E0,0E0,0E0,9.203759E-6,0E0,0E0,0E0,3.3350952E-6,1.855176E-5,3.8589133E-6,1.2622548E-6,0E0,0E0,0E0,0E0,9.49348E-6,7.6205224E-6,0E0,0E0,1.0172487E-5,2.9221846E-6,0E0,0E0,0E0,0E0,0E0,0E0,0E0,0E0,0E0,0E0,0E0,0E0,0E0,0E0,0E0,0E0,0E0,0E0,0E0,0E0,0E0,0E0,0E0,0E0,0E0,0E0],"parents":[2147483647,0,0,1,1,2,2,3,3,4,4,5,5,6,6,8,8,9,9,10,10,11,11,12,12,13,13,14,14,15,15,17,17,18,18,19,19,20,20,21,21,26,26,29,29,30,30,31,31,32,32,33,33,34,34,35,35,36,36,37,37,38,38,39,39,40,40,41,41,43,43,44,44,45,45,47,47,51,51,55,55,56,56,57,57,58,58,63,63,64,64,67,67,68,68],"right_children":[2,4,6,8,10,12,14,-1,16,18,20,22,24,26,28,30,-1,32,34,36,38,40,-1,-1,-1,-1,42,-1,-1,44,46,48,50,52,54,56,58,60,62,64,66,68,-1,70,72,74,-1,76,-1,-1,-1,78,-1,-1,-1,80,82,84,86,-1,-1,-1,-1,88,90,-1,-1,92,94,-1,-1,-1,-1,-1,-1,-1,-1,-1,-1,-1,-1,-1,-1,-1,-1,-1,-1,-1,-1,-1,-1,-1,-1,-1,-1],"split_conditions":[1.59E-2,8.8E-3,2.07E-2,4.3E-3,1.12E-2,3.9E-3,6E-1,-3.0066443E-4,9.0125E1,1E-3,9.659258E-1,5.8551403E-3,2.51E1,3.5E1,1.77E-2,5E-1,1.03129925E-4,4.2555314E-3,6.42E-2,1.7E-3,2.3E1,7.6E1,3.8935363E-4,-2.8600469E-5,-1.6227877E-4,4.0046743E-4,8.1E-1,2.3104418E-4,5.227077E-4,7.4E1,1.9456245E-1,9.659258E-1,1.2E1,1.5E-3,2.17E1,9E-4,8.0849655E-4,2E1,9.3985605E-1,2.7E1,1.93E1,6.7E-1,8.1299375E-5,3.3714488E0,7.9E1,1.98E1,-3.7863625E-5,3.7E1,3.341748E-5,-3.6473124E-5,1.09378976E-4,1.1690452E-2,-2.820467E-4,1.0079865E-4,-6.228115E-5,4.2E1,4.2E-1,2.03E1,2.12E1,6.95908E-5,-4.4980923E-5,3.316137E-4,2.60875E-5,1.1529166E-2,3.2093613E0,3.232645E-4,9.3951196E-5,6.2E-1,1.0202E3,-3.340219E-5,-1.6619427E-4,8.379432E-5,-4.627291E-5,-4.2092688E-5,-2.4140572E-4,-2.6933216E-5,-1.4582397E-4,3.6423826E-5,-1.2522531E-4,-3.7241036E-5,-1.6597206E-4,-1.4678023E-5,7.999088E-5,-2.8336346E-5,-1.4233668E-4,-3.1545722E-5,4.909532E-5,3.2589945E-5,1.6073207E-4,9.596192E-5,-1.662083E-5,2.4835474E-4,6.507609E-5,4.2528618E-4,1.041159E-4],"split_indices":[47,47,47,47,47,60,75,0,33,60,8,54,0,28,36,7,0,58,36,60,11,24,0,0,0,0,71,0,0,27,80,8,3,59,0,60,66,13,9,12,0,71,0,30,1,0,0,27,0,0,0,78,0,0,0,27,71,0,0,0,0,0,0,57,18,0,0,73,2,0,0,0,0,0,0,0,0,0,0,0,0,0,0,0,0,0,0,0,0,0,0,0,0,0,0],"split_type":[0,0,0,0,0,0,0,0,0,0,0,0,0,0,0,0,0,0,0,0,0,0,0,0,0,0,0,0,0,0,0,0,0,0,0,0,0,0,0,0,0,0,0,0,0,0,0,0,0,0,0,0,0,0,0,0,0,0,0,0,0,0,0,0,0,0,0,0,0,0,0,0,0,0,0,0,0,0,0,0,0,0,0,0,0,0,0,0,0,0,0,0,0,0,0],"sum_hessian":[3.68E2,2.53E2,1.15E2,1E2,1.53E2,5.6E1,5.9E1,2.7E1,7.3E1,6.4E1,8.9E1,5.3E1,3E0,4.9E1,1E1,7.2E1,1E0,2.3E1,4.1E1,7.5E1,1.4E1,5E1,3E0,1E0,2E0,9E0,4E1,3E0,7E0,4.2E1,3E1,1.6E1,7E0,3.8E1,3E0,5.8E1,1.7E1,8E0,6E0,4.4E1,6E0,3.6E1,4E0,3.9E1,3E0,2.7E1,3E0,1.2E1,4E0,1E0,6E0,3.3E1,5E0,2E0,1E0,6E0,5.2E1,1.3E1,4E0,5E0,3E0,5E0,1E0,3E1,1.4E1,4E0,2E0,3E1,6E0,4E0,3.5E1,2E0,1E0,1E0,2.6E1,3E0,9E0,2E0,3.1E1,3E0,3E0,2.9E1,2.3E1,3E0,1E1,1E0,3E0,5E0,2.5E1,6E0,8E0,2.7E1,3E0,5E0,1E0],"tree_param":{"num_deleted":"0","num_feature":"89","num_nodes":"95","size_leaf_vector":"1"}},{"base_weights":[5.5976965E-5,-1.1057305E-3,2.873675E-3,-2.1037222E-3,-4.4522614E-5,1.7169341E-3,3.7704522E-3,-2.902549E-3,-1.445389E-3,-1.39221E-4,3.1581204E-4,2.1758794E-3,-2.9054034E-4,3.3351248E-3,5.4064444E-3,-3.4955181E-3,-2.2350773E-3,-9.293279E-4,-1.9642285E-3,-7.281376E-4,4.0719012E-4,1.5349024E-3,4.213144E-3,-1.4385753E-3,1.1452098E-3,3.6105935E-3,1.8721907E-3,2.1718151E-4,4.861181E-4,-1.4266641E-4,-2.9522734E-4,-2.4462892E-3,-6.475177E-4,-1.21724E-3,3.7447555E-4,-1.119084E-3,-2.3251344E-3,-1.6931968E-4,-1.2999388E-3,6.1193865E-4,-9.5754355E-4,1.0021705E-3,2.3392746E-3,8.2774604E-5,3.9787713E-4,-1.549625E-4,-2.3555383E-5,2.3891527E-5,1.288031E-4,8.709846E-5,3.7810372E-3,5.0869958E-6,1.652865E-4,-4.5312234E-5,-2.4968078E-3,2.1689273E-5,-7.55964E-5,-1.6391923E-3,-6.016177E-4,1.03494436E-4,-1.2710075E-4,-3.0896306E-4,-1.7693357E-3,1.3176501E-5,-2.4357405E-3,-5.281397E-4,1.4735904E-3,-2.5171668E-3,-8.200361E-4,3.4613383E-4,2.2299518E-3,6.726738E-6,-1.1938971E-4,1.1857058E-3,-5.9424524E-6,2.6323516E-3,-3.538288E-5,1.7716146E-4,4.124958E-3,-7.682109E-5,-2.0678736E-4,-7.298236E-5,-1.7617487E-4,-7.809385E-5,2.7418224E-5,-5.9763624E-5,4.1932934E-5,-1.8307815E-4,-6.462883E-5,-2.0361366E-4,-6.570709E-5,-7.188135E-5,7.343468E-5,-6.5606087E-6,1.4408892E-4,-2.6029907E-4,-7.737281E-5,-1.0165007E-4,-1.7037777E-5,4.4436885E-7,1.0729967E-4,5.7311878E-5,2.0920558E-4,2.5078467E-5,1.19765034E-4,7.2135976E-5,2.3334015E-4,3.3890485E-4,3.5829395E-5],"categories":[],"categories_nodes":[],"categories_segments":[],"categories_sizes":[],"default_left":[0,0,0,0,0,0,0,0,0,0,0,0,0,0,0,0,0,0,0,0,0,0,0,0,0,0,0,0,0,0,0,0,0,0,0,0,0,0,0,0,0,0,0,0,0,0,0,0,0,0,0,0,0,0,0,0,0,0,0,0,0,0,0,0,0,0,0,0,0,0,0,0,0,0,0,0,0,0,0,0,0,0,0,0,0,0,0,0,0,0,0,0,0,0,0,0,0,0,0,0,0,0,0,0,0,0,0,0,0],"id":13,"left_children":[1,3,5,7,9,11,13,15,17,19,-1,21,23,25,27,29,31,33,35,37,39,41,43,45,47,49,51,-1,-1,-1,-1,53,55,57,59,61,63,65,67,69,71,73,75,-1,-1,-1,-1,-1,-1,-1,77,-1,-1,-1,79,-1,-1,81,83,-1,-1,85,87,-1,89,91,93,95,97,99,101,-1,-1,103,-1,105,-1,-1,107,-1,-1,-1,-1,-1,-1,-1,-1,-1,-1,-1,-1,-1,-1,-1,-1,-1,-1,-1,-1,-1,-1,-1,-1,-1,-1,-1,-1,-1,-1],"loss_changes":[1.2110403E-3,2.7738445E-4,1.0555907E-4,6.680039E-5,4.8940292E-5,4.5776906E-5,2.4700363E-5,1.5934638E-5,1.8523802E-5,4.0842104E-5,0E0,4.5766836E-5,1.8130384E-5,1.33898575E-5,3.3423712E-6,3.4261611E-6,8.810632E-6,1.5471058E-5,8.683637E-6,1.9271396E-5,1.9028152E-5,1.1368116E-5,1.6603866E-5,2.851456E-6,1.4867137E-6,1.35067385E-5,3.375335E-6,0E0,0E0,0E0,0E0,1.1499797E-6,1.6223721E-6,7.586026E-6,1.649227E-5,6.301516E-6,7.2859693E-6,1.9642552E-5,1.5460362E-5,2.4172525E-5,5.139309E-6,4.236974E-6,1.0946787E-5,0E0,0E0,0E0,0E0,0E0,0E0,0E0,1.1338096E-5,0E0,0E0,0E0,1.0348449E-6,0E0,0E0,5.766684E-6,5.6402077E-6,0E0,0E0,2.9464127E-6,1.6452195E-6,0E0,2.1494925E-6,1.5285781E-5,3.204651E-6,5.986647E-6,6.0207367E-6,1.727719E-5,2.7897404E-6,0E0,0E0,4.4190256E-6,0E0,2.7841452E-6,0E0,0E0,1.0386226E-5,0E0,0E0,0E0,0E0,0E0,0E0,0E0,0E0,0E0,0E0,0E0,0E0,0E0,0E0,0E0,0E0,0E0,0E0,0E0,0E0,0E0,0E0,0E0,0E0,0E0,0E0,0E0,0E0,0E0,0E0],"parents":[2147483647,0,0,1,1,2,2,3,3,4,4,5,5,6,6,7,7,8,8,9,9,11,11,12,12,13,13,14,14,15,15,16,16,17,17,18,18,19,19,20,20,21,21,22,22,23,23,24,24,25,25,26,26,31,31,32,32,33,33,34,34,35,35,36,36,37,37,38,38,39,39,40,40,41,41,42,42,50,50,54,54,57,57,58,58,61,61,62,62,64,64,65,65,66,66,67,67,68,68,69,69,70,70,73,73,75,75,78,78],"right_children":[2,4,6,8,10,12,14,16,18,20,-1,22,24,26,28,30,32,34,36,38,40,42,44,46,48,50,52,-1,-1,-1,-1,54,56,58,60,62,64,66,68,70,72,74,76,-1,-1,-1,-1,-1,-1,-1,78,-1,-1,-1,80,-1,-1,82,84,-1,-1,86,88,-1,90,92,94,96,98,100,102,-1,-1,104,-1,106,-1,-1,108,-1,-1,-1,-1,-1,-1,-1,-1,-1,-1,-1,-1,-1,-1,-1,-1,-1,-1,-1,-1,-1,-1,-1,-1,-1,-1,-1,-1,-1,-1],"split_conditions":[1.65E-2,9.8E-3,2.07E-2,6.4E-3,5.9E-1,2.2E1,6E-1,9E0,9.6E-3,1.31E-2,3.1581204E-4,4.776164E-3,1.2E-3,2.72E-2,1.77E-2,7.0787497E0,7.1E1,3.3247054E-3,8.382431E0,1.15E-2,4.1E1,1.91E-2,3.222788E0,1.4E1,2.36E1,1.5016667E-2,5.6E1,2.1718151E-4,4.861181E-4,-1.4266641E-4,-2.9522734E-4,1.0073E3,1.88E1,3.4E-1,2.49E1,4.2902296E-3,1.0105E3,2.8033312E-3,1.1E-2,6.625E1,3.4058772E-2,3.4E1,9.7E1,8.2774604E-5,3.9787713E-4,-1.549625E-4,-2.3555383E-5,2.3891527E-5,1.288031E-4,8.709846E-5,7.4929915E-2,5.0869958E-6,1.652865E-4,-4.5312234E-5,3.6560452E0,2.1689273E-5,-7.55964E-5,7.7E-3,4.6904158E-2,1.03494436E-4,-1.2710075E-4,4.1E1,1.45E-2,1.3176501E-5,9.2E1,1.1883333E-2,7.3E1,8E0,1.7E-2,8E1,3.1E1,6.726738E-6,-1.1938971E-4,1.21106015E-4,-5.9424524E-6,9.6E-3,-3.538288E-5,1.7716146E-4,8.5E-1,-7.682109E-5,-2.0678736E-4,-7.298236E-5,-1.7617487E-4,-7.809385E-5,2.7418224E-5,-5.9763624E-5,4.1932934E-5,-1.8307815E-4,-6.462883E-5,-2.0361366E-4,-6.570709E-5,-7.188135E-5,7.343468E-5,-6.5606087E-6,1.4408892E-4,-2.6029907E-4,-7.737281E-5,-1.0165007E-4,-1.7037777E-5,4.4436885E-7,1.0729967E-4,5.7311878E-5,2.0920558E-4,2.5078467E-5,1.19765034E-4,7.2135976E-5,2.3334015E-4,3.3890485E-4,3.5829395E-5],"split_indices":[47,47,47,47,71,0,75,3,49,47,0,56,63,48,36,34,28,54,32,48,13,37,20,15,0,53,1,0,0,0,0,2,0,71,0,58,2,54,47,31,78,16,1,0,0,0,0,0,0,0,82,0,0,0,30,0,0,50,78,0,0,28,50,0,24,53,1,3,51,1,12,0,0,66,0,51,0,0,72,0,0,0,0,0,0,0,0,0,0,0,0,0,0,0,0,0,0,0,0,0,0,0,0,0,0,0,0,0,0],"split_type":[0,0,0,0,0,0,0,0,0,0,0,0,0,0,0,0,0,0,0,0,0,0,0,0,0,0,0,0,0,0,0,0,0,0,0,0,0,0,0,0,0,0,0,0,0,0,0,0,0,0,0,0,0,0,0,0,0,0,0,0,0,0,0,0,0,0,0,0,0,0,0,0,0,0,0,0,0,0,0,0,0,0,0,0,0,0,0,0,0,0,0,0,0,0,0,0,0,0,0,0,0,0,0,0,0,0,0,0,0],"sum_hessian":[3.68E2,2.61E2,1.07E2,1.34E2,1.27E2,4.8E1,5.9E1,5.9E1,7.5E1,1.25E2,2E0,3.9E1,9E0,4.9E1,1E1,2.9E1,3E1,3.9E1,3.6E1,6E1,6.5E1,3.1E1,8E0,5E0,4E0,4E1,9E0,3E0,7E0,4E0,2.5E1,2.6E1,4E0,3.2E1,7E0,1.2E1,2.4E1,3.1E1,2.9E1,5.7E1,8E0,2E1,1.1E1,2E0,6E0,3E0,2E0,2E0,2E0,3E0,3.7E1,1E0,8E0,1E0,2.5E1,1E0,3E0,1.8E1,1.4E1,5E0,2E0,6E0,6E0,1E0,2.3E1,2.6E1,5E0,7E0,2.2E1,5E1,7E0,3E0,5E0,1.7E1,3E0,1E1,1E0,8E0,2.9E1,2E0,2.3E1,9E0,9E0,1E1,4E0,4E0,2E0,3E0,3E0,2.1E1,2E0,2.1E1,5E0,1E0,4E0,4E0,3E0,1.2E1,1E1,3.8E1,1.2E1,2E0,5E0,5E0,1.2E1,2E0,8E0,2.8E1,1E0],"tree_param":{"num_deleted":"0","num_feature":"89","num_nodes":"109","size_leaf_vector":"1"}},{"base_weights":[5.412963E-5,-1.07999E-3,2.536994E-3,-2.4980262E-3,-4.718853E-4,1.4850819E-3,3.494027E-3,-2.6521531E-3,2.2100592E-4,-1.1061429E-3,1.6761546E-4,-1.1927735E-3,1.7096894E-3,2.781377E-3,4.318978E-3,-3.227623E-3,-2.0205567E-3,-9.5881805E-5,1.2534927E-4,6.546453E-6,-1.3111981E-3,-1.3730039E-4,1.7013481E-3,3.836925E-6,-1.6287339E-4,2.449004E-3,9.621225E-4,3.1854545E-3,1.0080816E-4,5.1529594E-3,2.1711297E-3,-5.9363618E-5,-3.3520088E-3,-2.1813288E-3,-1.4885387E-4,1.0414336E-4,-4.257476E-4,-1.4731451E-3,5.809052E-5,-2.9176802E-4,1.2121456E-3,4.580277E-4,3.4899907E-3,1.7565377E-3,4.0776213E-3,1.6688744E-3,1.3616541E-4,1.5012041E-4,3.6378277E-3,1.9385121E-4,6.0164942E-3,6.093165E-5,2.1991447E-4,-1.2812654E-4,-2.7757927E-4,-6.649453E-5,-1.8281407E-4,2.6603315E-5,-6.372159E-5,-5.8591773E-5,1.5004128E-4,-7.235896E-4,-1.7490219E-3,6.311882E-5,-3.5108354E-5,1.3451127E-4,-7.608761E-4,1.2998301E-5,1.4475599E-4,-4.2168627E-5,9.555298E-4,3.1475697E-4,5.0705374E-5,2.1866793E-3,8.3799043E-4,7.480532E-5,3.5564287E-4,7.8547216E-4,2.2904524E-4,4.822666E-4,-4.6661597E-5,2.986921E-4,7.6520366E-5,5.015905E-4,1.1903412E-4,5.1875835E-5,-3.187033E-5,-1.0066983E-4,5.8717338E-5,-1.9293558E-4,-1.1320379E-4,-1.710846E-5,7.818925E-5,-8.469802E-5,3.973339E-5,1.1193253E-4,2.1841637E-5,7.272407E-5,1.9832503E-4,1.11984264E-4,3.3393513E-5,-4.0759296E-5,9.383195E-5,-3.1634816E-5,6.0089715E-5],"categories":[],"categories_nodes":[],"categories_segments":[],"categories_sizes":[],"default_left":[0,0,0,0,0,0,0,0,0,0,0,0,0,0,0,0,0,0,0,0,0,0,0,0,0,0,0,0,0,0,0,0,0,0,0,0,0,0,0,0,0,0,0,0,0,0,0,0,0,0,0,0,0,0,0,0,0,0,0,0,0,0,0,0,0,0,0,0,0,0,0,0,0,0,0,0,0,0,0,0,0,0,0,0,0,0,0,0,0,0,0,0,0,0,0,0,0,0,0,0,0,0,0,0,0],"id":14,"left_children":[1,3,5,7,9,11,13,15,17,19,21,23,25,27,29,31,33,-1,-1,35,37,39,41,-1,-1,43,45,47,-1,49,51,-1,53,55,57,-1,59,61,63,65,67,69,71,73,75,77,79,-1,81,-1,83,-1,-1,-1,-1,-1,-1,-1,-1,-1,85,87,89,-1,-1,91,93,-1,-1,-1,95,-1,-1,97,99,-1,-1,101,-1,103,-1,-1,-1,-1,-1,-1,-1,-1,-1,-1,-1,-1,-1,-1,-1,-1,-1,-1,-1,-1,-1,-1,-1,-1,-1],"loss_changes":[1.0417942E-3,2.1784916E-4,1.11589965E-4,3.243587E-5,7.278928E-5,3.632286E-5,2.3261353E-5,1.9647938E-5,1.1430356E-5,2.054323E-5,4.232294E-5,5.3282383E-6,2.6936177E-5,1.7500948E-5,3.5385106E-5,8.642761E-6,1.080925E-5,0E0,0E0,8.953139E-6,1.693875E-5,1.619554E-5,3.1759326E-5,0E0,0E0,2.2159307E-5,1.6117667E-5,9.161216E-6,0E0,2.785254E-5,5.235903E-6,0E0,1.4496909E-6,2.8677168E-6,1.5120096E-6,0E0,2.2286747E-6,1.2795819E-5,3.6151798E-6,1.3900351E-5,4.7217673E-6,5.404737E-6,5.123191E-6,6.069691E-6,3.936475E-6,1.3575409E-5,3.7672557E-6,0E0,1.3104873E-6,0E0,5.58811E-6,0E0,0E0,0E0,0E0,0E0,0E0,0E0,0E0,0E0,1.62501E-6,1.651314E-5,7.4318086E-6,0E0,0E0,1.1073053E-5,1.28862575E-5,0E0,0E0,0E0,1.7374582E-6,0E0,0E0,2.602661E-6,1.3059557E-6,0E0,0E0,5.6146223E-6,0E0,2.6567639E-6,0E0,0E0,0E0,0E0,0E0,0E0,0E0,0E0,0E0,0E0,0E0,0E0,0E0,0E0,0E0,0E0,0E0,0E0,0E0,0E0,0E0,0E0,0E0,0E0,0E0],"parents":[2147483647,0,0,1,1,2,2,3,3,4,4,5,5,6,6,7,7,8,8,9,9,10,10,11,11,12,12,13,13,14,14,15,15,16,16,19,19,20,20,21,21,22,22,25,25,26,26,27,27,29,29,30,30,32,32,33,33,34,34,36,36,37,37,38,38,39,39,40,40,41,41,42,42,43,43,44,44,45,45,46,46,48,48,50,50,60,60,61,61,62,62,65,65,66,66,70,70,73,73,74,74,77,77,79,79],"right_children":[2,4,6,8,10,12,14,16,18,20,22,24,26,28,30,32,34,-1,-1,36,38,40,42,-1,-1,44,46,48,-1,50,52,-1,54,56,58,-1,60,62,64,66,68,70,72,74,76,78,80,-1,82,-1,84,-1,-1,-1,-1,-1,-1,-1,-1,-1,86,88,90,-1,-1,92,94,-1,-1,-1,96,-1,-1,98,100,-1,-1,102,-1,104,-1,-1,-1,-1,-1,-1,-1,-1,-1,-1,-1,-1,-1,-1,-1,-1,-1,-1,-1,-1,-1,-1,-1,-1,-1],"split_conditions":[1.59E-2,7.1E-3,2.07E-2,2.4E-3,1.12E-2,3.1416667E-1,1.91E-2,9E0,4E1,-8.660254E-1,9.659258E-1,2.44E1,1.6E-2,3.2929167E-2,4.64E-2,9E0,2.1E-3,-9.5881805E-5,1.2534927E-4,1.55E-2,2.3E1,5.4366667E-2,8.959167E-2,3.836925E-6,-1.6287339E-4,1.6316667E-2,1.93E1,7.1456704E0,1.0080816E-4,5.4436224E-3,6.6E1,-5.9363618E-5,9E0,3.3714488E0,2.32E1,1.0414336E-4,2.28E-2,5.5E-3,3.7284737E0,2.0736441E-4,1.9E1,1.33E-2,1.2246469E-16,1.51E-2,1.7E1,4.9E-1,1.1715702E-2,1.5012041E-4,2.3E1,1.9385121E-4,8E1,6.093165E-5,2.1991447E-4,-1.2812654E-4,-2.7757927E-4,-6.649453E-5,-1.8281407E-4,2.6603315E-5,-6.372159E-5,-5.8591773E-5,2.32E1,1.1E-3,1.0558333E-2,6.311882E-5,-3.5108354E-5,4.4E-1,5.35E-2,1.2998301E-5,1.4475599E-4,-4.2168627E-5,4.2E1,3.1475697E-4,5.0705374E-5,3.5546968E0,1.0167E3,7.480532E-5,3.5564287E-4,1.25E-2,2.2904524E-4,2.1E1,-4.6661597E-5,2.986921E-4,7.6520366E-5,5.015905E-4,1.1903412E-4,5.1875835E-5,-3.187033E-5,-1.0066983E-4,5.8717338E-5,-1.9293558E-4,-1.1320379E-4,-1.710846E-5,7.818925E-5,-8.469802E-5,3.973339E-5,1.1193253E-4,2.1841637E-5,7.272407E-5,1.9832503E-4,1.11984264E-4,3.3393513E-5,-4.0759296E-5,9.383195E-5,-3.1634816E-5,6.0089715E-5],"split_indices":[47,47,47,63,47,79,36,3,14,8,8,0,49,45,40,12,63,0,0,40,3,43,78,0,0,53,0,32,0,58,1,0,11,30,0,0,39,51,20,66,13,36,7,48,0,71,42,0,3,0,1,0,0,0,0,0,0,0,0,0,0,62,55,0,0,71,37,0,0,0,28,0,0,22,2,0,0,52,0,16,0,0,0,0,0,0,0,0,0,0,0,0,0,0,0,0,0,0,0,0,0,0,0,0,0],"split_type":[0,0,0,0,0,0,0,0,0,0,0,0,0,0,0,0,0,0,0,0,0,0,0,0,0,0,0,0,0,0,0,0,0,0,0,0,0,0,0,0,0,0,0,0,0,0,0,0,0,0,0,0,0,0,0,0,0,0,0,0,0,0,0,0,0,0,0,0,0,0,0,0,0,0,0,0,0,0,0,0,0,0,0,0,0,0,0,0,0,0,0,0,0,0,0,0,0,0,0,0,0,0,0,0,0],"sum_hessian":[3.68E2,2.53E2,1.15E2,7.5E1,1.78E2,5.6E1,5.9E1,7.1E1,4E0,8.9E1,8.9E1,4E0,5.2E1,3.4E1,2.5E1,3.5E1,3.6E1,2E0,2E0,1.4E1,7.5E1,7.5E1,1.4E1,2E0,2E0,2.5E1,2.7E1,2.6E1,8E0,1.7E1,8E0,2E0,3.3E1,3.3E1,3E0,3E0,1.1E1,6.7E1,8E0,6.8E1,7E0,9E0,5E0,1.9E1,6E0,1.4E1,1.3E1,8E0,1.8E1,5E0,1.2E1,3E0,5E0,3E0,3E1,3E0,3E1,2E0,1E0,7E0,4E0,1.9E1,4.8E1,3E0,5E0,3.6E1,3.2E1,3E0,4E0,3E0,6E0,4E0,1E0,1.2E1,7E0,1E0,5E0,9E0,5E0,9E0,4E0,1.7E1,1E0,1.1E1,1E0,2E0,2E0,1.4E1,5E0,1.4E1,3.4E1,2.6E1,1E1,2.6E1,6E0,3E0,3E0,3E0,9E0,2E0,5E0,2E0,7E0,2E0,7E0],"tree_param":{"num_deleted":"0","num_feature":"89","num_nodes":"105","size_leaf_vector":"1"}},{"base_weights":[5.610715E-5,-9.949515E-4,2.3570794E-3,-2.3076846E-3,-4.3203155E-4,1.3829727E-3,3.243196E-3,-2.4504184E-3,2.0921874E-4,-1.0204794E-3,1.6121668E-4,1.5682791E-3,-1.1715255E-4,5.6855916E-4,3.0572508E-3,-2.982332E-3,-1.8666534E-3,-9.0768124E-5,1.1866395E-4,1.0393125E-5,-1.2105138E-3,-1.2402853E-4,1.5957113E-3,1.1073191E-3,2.692954E-3,3.1377934E-3,4.0628263E-5,-5.619757E-5,-2.4766242E-4,-2.0141553E-3,-1.4622498E-4,-3.3257657E-4,1.19450466E-4,-1.3604125E-3,5.6555495E-5,1.1458136E-4,-8.992483E-4,4.3054594E-4,3.2717017E-3,1.3638716E-3,-8.937507E-5,5.3514897E-5,3.6380691E-3,2.5767565E-3,3.8551195E-3,-2.4051918E-3,-1.5329454E-3,2.5184478E-5,-6.117271E-5,3.9229442E-5,-5.267818E-4,-9.832579E-4,-1.8967116E-3,5.933171E-5,-3.2767814E-5,-1.2683863E-3,2.9507556E-4,-1.2927409E-3,3.0590476E-5,-3.9638522E-5,8.9819793E-4,2.946125E-4,4.8677175E-5,1.0398044E-3,1.9352052E-4,-6.5838445E-5,2.3385883E-5,1.2115054E-4,3.4655046E-4,2.950075E-3,9.363957E-5,1.21933095E-4,4.265628E-3,-2.0574806E-4,-6.16133E-5,-4.481014E-5,-1.3521338E-4,-6.149207E-5,7.0921515E-6,-1.16984906E-4,-3.4765646E-5,-1.0561005E-4,-2.0922963E-4,-3.0458774E-5,-1.4711531E-4,4.8729245E-5,-3.753694E-5,-6.4633336E-5,-1.6030729E-4,1.0521655E-4,2.0531155E-5,1.1649756E-4,2.4138086E-5,1.3944521E-4,2.6932397E-4,5.360916E-5,3.54252E-4],"categories":[],"categories_nodes":[],"categories_segments":[],"categories_sizes":[],"default_left":[0,0,0,0,0,0,0,0,0,0,0,0,0,0,0,0,0,0,0,0,0,0,0,0,0,0,0,0,0,0,0,0,0,0,0,0,0,0,0,0,0,0,0,0,0,0,0,0,0,0,0,0,0,0,0,0,0,0,0,0,0,0,0,0,0,0,0,0,0,0,0,0,0,0,0,0,0,0,0,0,0,0,0,0,0,0,0,0,0,0,0,0,0,0,0,0,0],"id":15,"left_children":[1,3,5,7,9,11,13,15,17,19,21,23,-1,-1,25,27,29,-1,-1,31,33,35,37,39,41,43,-1,-1,-1,45,47,49,-1,51,53,55,57,59,61,63,65,-1,67,69,71,73,75,-1,-1,-1,77,79,81,-1,-1,83,85,87,-1,-1,89,-1,-1,91,-1,-1,-1,-1,-1,93,-1,-1,95,-1,-1,-1,-1,-1,-1,-1,-1,-1,-1,-1,-1,-1,-1,-1,-1,-1,-1,-1,-1,-1,-1,-1,-1],"loss_changes":[8.947558E-4,1.8669979E-4,9.5642696E-5,2.7815462E-5,6.2652645E-5,3.237195E-5,2.1379383E-5,1.6789883E-5,1.0243632E-5,1.7643688E-5,3.702436E-5,2.5013258E-5,0E0,0E0,1.0521326E-5,7.1366376E-6,9.094831E-6,0E0,0E0,8.124593E-6,1.4511759E-5,1.4161144E-5,2.788347E-5,1.2402499E-5,2.6260306E-5,1.3005687E-5,0E0,0E0,0E0,2.7107744E-6,1.3811879E-6,2.3359785E-6,0E0,1.1889249E-5,3.1779925E-6,1.510171E-5,9.5719315E-6,4.7756266E-6,4.3260516E-6,8.768548E-6,2.4807061E-6,0E0,8.174276E-6,1.4921388E-5,1.5506637E-5,2.651599E-6,1.806362E-6,0E0,0E0,0E0,1.7055406E-6,1.0404245E-5,7.73534E-6,0E0,0E0,2.8450304E-6,1.3006696E-5,3.2076823E-6,0E0,0E0,1.5352157E-6,0E0,0E0,7.858991E-6,0E0,0E0,0E0,0E0,0E0,7.704482E-6,0E0,0E0,8.135306E-6,0E0,0E0,0E0,0E0,0E0,0E0,0E0,0E0,0E0,0E0,0E0,0E0,0E0,0E0,0E0,0E0,0E0,0E0,0E0,0E0,0E0,0E0,0E0,0E0],"parents":[2147483647,0,0,1,1,2,2,3,3,4,4,5,5,6,6,7,7,8,8,9,9,10,10,11,11,14,14,15,15,16,16,19,19,20,20,21,21,22,22,23,23,24,24,25,25,29,29,30,30,31,31,33,33,34,34,35,35,36,36,37,37,38,38,39,39,40,40,42,42,43,43,44,44,45,45,46,46,50,50,51,51,52,52,55,55,56,56,57,57,60,60,63,63,69,69,72,72],"right_children":[2,4,6,8,10,12,14,16,18,20,22,24,-1,-1,26,28,30,-1,-1,32,34,36,38,40,42,44,-1,-1,-1,46,48,50,-1,52,54,56,58,60,62,64,66,-1,68,70,72,74,76,-1,-1,-1,78,80,82,-1,-1,84,86,88,-1,-1,90,-1,-1,92,-1,-1,-1,-1,-1,94,-1,-1,96,-1,-1,-1,-1,-1,-1,-1,-1,-1,-1,-1,-1,-1,-1,-1,-1,-1,-1,-1,-1,-1,-1,-1,-1],"split_conditions":[1.59E-2,7.1E-3,2.07E-2,2.4E-3,1.12E-2,3.9E-3,5.5E1,9E0,4E1,-8.660254E-1,9.659258E-1,3.488075E-4,-1.1715255E-4,5.6855916E-4,2.55E-3,9E0,2.1E-3,-9.0768124E-5,1.1866395E-4,3.8E-1,2.3E1,1.7E-3,8.959167E-2,1.9E-3,4.35503E-3,1.91E-2,4.0628263E-5,-5.619757E-5,-2.4766242E-4,1.0158E3,2.32E1,2.15E1,1.19450466E-4,1.13E-2,3.7284737E0,9E-4,8.0849655E-4,1.33E-2,1.2246469E-16,1.3333333E-3,2.1E1,5.3514897E-5,1.77E-2,3.2929167E-2,4.1700774E-3,1.8E1,3.4E-1,2.5184478E-5,-6.117271E-5,3.9229442E-5,8.2E-3,1.08E-2,1.3E-3,5.933171E-5,-3.2767814E-5,4.2E1,5E-1,2E-3,3.0590476E-5,-3.9638522E-5,4.2E1,2.946125E-4,4.8677175E-5,1.93E-2,1.9352052E-4,-6.5838445E-5,2.3385883E-5,1.2115054E-4,3.4655046E-4,7.1456704E0,9.363957E-5,1.21933095E-4,5.6E1,-2.0574806E-4,-6.16133E-5,-4.481014E-5,-1.3521338E-4,-6.149207E-5,7.0921515E-6,-1.16984906E-4,-3.4765646E-5,-1.0561005E-4,-2.0922963E-4,-3.0458774E-5,-1.4711531E-4,4.8729245E-5,-3.753694E-5,-6.4633336E-5,-1.6030729E-4,1.0521655E-4,2.0531155E-5,1.1649756E-4,2.4138086E-5,1.3944521E-4,2.6932397E-4,5.360916E-5,3.54252E-4],"split_indices":[47,47,47,63,47,60,1,3,14,8,8,66,0,0,67,12,63,0,0,71,3,60,78,64,56,36,0,0,0,2,0,0,0,51,20,60,66,36,7,65,16,0,37,45,58,3,74,0,0,0,53,50,59,0,0,27,74,59,0,0,28,0,0,38,0,0,0,0,0,32,0,0,23,0,0,0,0,0,0,0,0,0,0,0,0,0,0,0,0,0,0,0,0,0,0,0,0],"split_type":[0,0,0,0,0,0,0,0,0,0,0,0,0,0,0,0,0,0,0,0,0,0,0,0,0,0,0,0,0,0,0,0,0,0,0,0,0,0,0,0,0,0,0,0,0,0,0,0,0,0,0,0,0,0,0,0,0,0,0,0,0,0,0,0,0,0,0,0,0,0,0,0,0,0,0,0,0,0,0,0,0,0,0,0,0,0,0,0,0,0,0,0,0,0,0,0,0],"sum_hessian":[3.68E2,2.53E2,1.15E2,7.5E1,1.78E2,5.6E1,5.9E1,7.1E1,4E0,8.9E1,8.9E1,5.3E1,3E0,1E0,5.8E1,3.5E1,3.6E1,2E0,2E0,1.4E1,7.5E1,7.5E1,1.4E1,3.9E1,1.4E1,5.6E1,2E0,2E0,3.3E1,3.3E1,3E0,1.2E1,2E0,6.7E1,8E0,5.8E1,1.7E1,9E0,5E0,3.2E1,7E0,5E0,9E0,3.4E1,2.2E1,1.6E1,1.7E1,2E0,1E0,2E0,1E1,4.1E1,2.6E1,3E0,5E0,6E0,5.2E1,1.3E1,4E0,3E0,6E0,4E0,1E0,2.6E1,6E0,2E0,5E0,3E0,6E0,2.6E1,8E0,4E0,1.8E1,1.4E1,2E0,3E0,1.4E1,7E0,3E0,2.1E1,2E1,1.6E1,1E1,3E0,3E0,3.7E1,1.5E1,9E0,4E0,3E0,3E0,1.6E1,1E1,8E0,1.8E1,1E0,1.7E1],"tree_param":{"num_deleted":"0","num_feature":"89","num_nodes":"97","size_leaf_vector":"1"}},{"base_weights":[5.5170764E-5,-8.770064E-4,2.2867585E-3,-1.5178726E-3,1.5325566E-4,1.3718172E-3,3.011097E-3,-2.5619844E-3,-1.1397845E-3,5.5416505E-5,2.6646903E-4,-1.4500876E-3,1.5827917E-3,5.458168E-4,2.8308542E-3,9.879544E-6,-2.6993458E-3,-1.8692766E-3,-8.0489175E-4,1.5948538E-4,-1.584232E-3,-8.053444E-6,-1.4930704E-4,1.08727E-3,2.4749106E-3,2.904879E-3,3.8461436E-5,-2.9316873E-3,-9.481669E-5,-2.02504E-3,-3.739067E-5,-1.1560271E-3,-3.0459938E-4,-5.417022E-4,3.9426028E-4,8.979141E-6,-1.5567792E-4,1.8600037E-3,7.9650444E-4,3.0864915E-3,-1.3145502E-4,2.384971E-3,3.569744E-3,-2.6160624E-4,-1.7068093E-4,-5.766327E-5,-2.0859337E-3,6.694011E-5,-1.2586294E-3,-1.2803546E-4,-1.7632992E-4,2.617418E-4,-8.879287E-4,2.749162E-4,1.9146185E-3,5.4170974E-5,1.9474368E-4,1.6873248E-4,1.031264E-3,3.0010598E-4,3.5658246E-3,3.9395614E-5,-4.028561E-5,2.7292091E-3,8.698079E-5,1.1412943E-4,3.9458433E-3,-1.7016653E-4,-3.4059954E-5,-1.07406675E-4,3.3618013E-5,-3.533827E-5,7.573461E-5,-2.6964149E-6,6.123108E-5,-9.7454555E-5,1.1865229E-5,5.4666118E-5,-1.1326385E-5,1.1565536E-6,1.9088357E-4,7.351769E-5,-3.7216396E-5,9.746053E-5,2.4114519E-5,-2.9348395E-5,6.536111E-5,3.125691E-4,1.0826796E-4,1.2952913E-4,2.4891205E-4,1.0104497E-4,3.3497333E-4],"categories":[],"categories_nodes":[],"categories_segments":[],"categories_sizes":[],"default_left":[0,0,0,0,0,0,0,0,0,0,0,0,0,0,0,0,0,0,0,0,0,0,0,0,0,0,0,0,0,0,0,0,0,0,0,0,0,0,0,0,0,0,0,0,0,0,0,0,0,0,0,0,0,0,0,0,0,0,0,0,0,0,0,0,0,0,0,0,0,0,0,0,0,0,0,0,0,0,0,0,0,0,0,0,0,0,0,0,0,0,0,0,0],"id":16,"left_children":[1,3,5,7,9,11,13,15,17,19,-1,21,23,-1,25,-1,27,29,31,33,35,-1,-1,37,39,41,-1,43,-1,45,-1,47,49,51,53,-1,-1,55,57,59,61,63,65,-1,-1,-1,67,-1,69,71,-1,73,75,77,79,-1,-1,81,83,85,87,-1,-1,89,-1,-1,91,-1,-1,-1,-1,-1,-1,-1,-1,-1,-1,-1,-1,-1,-1,-1,-1,-1,-1,-1,-1,-1,-1,-1,-1,-1,-1],"loss_changes":[7.6961226E-4,1.7256051E-4,6.810657E-5,6.0637278E-5,3.1215754E-5,3.2062693E-5,2.190686E-5,1.5826372E-5,2.7811635E-5,1.7145665E-5,0E0,2.058905E-6,1.8086124E-5,0E0,8.867326E-6,0E0,1.0597199E-5,7.132985E-6,1.4404184E-5,1.5687969E-5,3.9005236E-6,0E0,0E0,5.7084E-6,2.5909787E-5,1.1189346E-5,0E0,2.206507E-6,0E0,1.1173543E-6,0E0,1.1071883E-5,1.1791745E-5,6.908575E-6,1.2356287E-5,0E0,0E0,3.7861391E-6,3.5103767E-6,1.629276E-5,1.1766315E-6,1.2667908E-5,1.2909441E-5,0E0,0E0,0E0,1.2121018E-6,0E0,7.18869E-6,1.18806465E-5,0E0,1.2162047E-6,5.998464E-6,1.149353E-5,4.444435E-6,0E0,0E0,4.232345E-6,2.0893021E-6,1.3339977E-6,3.0183437E-6,0E0,0E0,6.4175692E-6,0E0,0E0,7.012306E-6,0E0,0E0,0E0,0E0,0E0,0E0,0E0,0E0,0E0,0E0,0E0,0E0,0E0,0E0,0E0,0E0,0E0,0E0,0E0,0E0,0E0,0E0,0E0,0E0,0E0,0E0],"parents":[2147483647,0,0,1,1,2,2,3,3,4,4,5,5,6,6,7,7,8,8,9,9,11,11,12,12,14,14,16,16,17,17,18,18,19,19,20,20,23,23,24,24,25,25,27,27,29,29,31,31,32,32,33,33,34,34,37,37,38,38,39,39,40,40,41,41,42,42,46,46,48,48,49,49,51,51,52,52,53,53,54,54,57,57,58,58,59,59,60,60,63,63,66,66],"right_children":[2,4,6,8,10,12,14,16,18,20,-1,22,24,-1,26,-1,28,30,32,34,36,-1,-1,38,40,42,-1,44,-1,46,-1,48,50,52,54,-1,-1,56,58,60,62,64,66,-1,-1,-1,68,-1,70,72,-1,74,76,78,80,-1,-1,82,84,86,88,-1,-1,90,-1,-1,92,-1,-1,-1,-1,-1,-1,-1,-1,-1,-1,-1,-1,-1,-1,-1,-1,-1,-1,-1,-1,-1,-1,-1,-1,-1,-1],"split_conditions":[1.64E-2,1.1E-2,2.07E-2,8E0,5.9E-1,3.1416667E-1,5.5E1,1E0,6.4E-3,6.7087235E-3,2.6646903E-4,2.24E1,4.35503E-3,5.458168E-4,2.55E-3,9.879544E-6,2.0898262E1,7.1E1,-2.5881904E-1,4.832811E-2,1.0117E3,-8.053444E-6,-1.4930704E-4,1.28E-2,2.19E-2,1.91E-2,3.8461436E-5,1.525E-3,-9.481669E-5,1.0073E3,-3.739067E-5,6.5E-3,7.45E-2,3.8E-1,2.3E1,8.979141E-6,-1.5567792E-4,1.76E-2,1.25E-2,3.7E1,1.95E1,3.2929167E-2,4.1700774E-3,-2.6160624E-4,-1.7068093E-4,-5.766327E-5,3.4E1,6.694011E-5,4.2E-1,3.6649692E-3,-1.7632992E-4,2.6E1,1.5133333E-2,1.45E-3,1.7E1,5.4170974E-5,1.9474368E-4,2.3380904E-2,5.5404846E-2,1.94E1,2.5E-3,3.9395614E-5,-4.028561E-5,7.1456704E0,8.698079E-5,1.1412943E-4,6E1,-1.7016653E-4,-3.4059954E-5,-1.07406675E-4,3.3618013E-5,-3.533827E-5,7.573461E-5,-2.6964149E-6,6.123108E-5,-9.7454555E-5,1.1865229E-5,5.4666118E-5,-1.1326385E-5,1.1565536E-6,1.9088357E-4,7.351769E-5,-3.7216396E-5,9.746053E-5,2.4114519E-5,-2.9348395E-5,6.536111E-5,3.125691E-4,1.0826796E-4,1.2952913E-4,2.4891205E-4,1.0104497E-4,3.3497333E-4],"split_indices":[47,47,47,3,71,79,1,3,47,56,0,0,56,0,67,0,34,28,7,80,2,0,0,51,48,36,0,67,0,2,0,47,35,73,3,0,0,47,52,23,0,45,58,0,0,0,11,0,71,54,0,15,53,69,11,0,0,78,80,0,63,0,0,32,0,0,23,0,0,0,0,0,0,0,0,0,0,0,0,0,0,0,0,0,0,0,0,0,0,0,0,0,0],"split_type":[0,0,0,0,0,0,0,0,0,0,0,0,0,0,0,0,0,0,0,0,0,0,0,0,0,0,0,0,0,0,0,0,0,0,0,0,0,0,0,0,0,0,0,0,0,0,0,0,0,0,0,0,0,0,0,0,0,0,0,0,0,0,0,0,0,0,0,0,0,0,0,0,0,0,0,0,0,0,0,0,0,0,0,0,0,0,0,0,0,0,0,0,0],"sum_hessian":[3.68E2,2.6E2,1.08E2,1.6E2,1E2,4.9E1,5.9E1,4.1E1,1.19E2,9.8E1,2E0,3E0,4.6E1,1E0,5.8E1,2E0,3.9E1,3.6E1,8.3E1,9.3E1,5E0,1E0,2E0,3.1E1,1.5E1,5.6E1,2E0,3.3E1,6E0,3.2E1,4E0,4.8E1,3.5E1,2.3E1,7E1,1E0,4E0,7E0,2.4E1,1.2E1,3E0,3.4E1,2.2E1,2.1E1,1.2E1,2E0,3E1,2E0,4.6E1,3.3E1,2E0,7E0,1.6E1,6.6E1,4E0,3E0,4E0,7E0,1.7E1,2E0,1E1,1E0,2E0,2.6E1,8E0,4E0,1.8E1,2.9E1,1E0,4.4E1,2E0,2.6E1,7E0,5E0,2E0,1.2E1,4E0,3.3E1,3.3E1,1E0,3E0,3E0,4E0,1.3E1,4E0,1E0,1E0,8E0,2E0,8E0,1.8E1,2E0,1.6E1],"tree_param":{"num_deleted":"0","num_feature":"89","num_nodes":"93","size_leaf_vector":"1"}},{"base_weights":[5.5293895E-5,-8.4896875E-4,2.0348406E-3,-1.541954E-3,-6.2285624E-5,1.1970018E-3,2.7968735E-3,-2.037009E-3,-9.935328E-4,-1.4350786E-4,2.5225736E-4,-1.0444926E-3,1.3858785E-3,5.2398414E-4,2.622251E-3,-2.1450708E-3,2.8227794E-4,-5.5282656E-4,-1.3680776E-3,-4.67523E-5,-1.9418196E-3,2.0783393E-6,-1.4134402E-4,2.0082938E-3,7.58426E-4,3.532465E-3,2.314697E-3,-7.453181E-4,-2.270533E-3,-5.5802146E-5,6.731108E-5,-7.630783E-4,4.854442E-4,-9.591162E-6,-1.5252668E-3,3.885243E-4,-3.4051656E-4,-1.845569E-4,-4.644394E-6,1.4274707E-3,3.3808893E-3,1.3377931E-3,8.350225E-5,1.1412397E-4,3.028538E-4,1.8222186E-3,3.0069002E-3,1.4334171E-5,-7.434108E-5,-1.9219015E-3,-2.2409618E-4,-1.1992176E-3,-3.3421902E-4,-5.9672315E-5,7.0471564E-5,-1.6911393E-3,-3.2450174E-4,1.5858929E-4,1.5159942E-4,-6.462213E-4,6.146105E-4,1.7753479E-3,6.837363E-4,6.263636E-5,2.9467087E-4,5.9743196E-4,1.8790101E-4,4.6702324E-5,-2.5929365E-4,2.083468E-3,5.3295193E-5,3.2796634E-3,4.3989025E-5,-1.64824E-4,-6.354088E-5,-1.0315029E-4,-4.6914442E-6,-5.135334E-5,1.8745102E-5,-4.907455E-5,-1.4402345E-4,3.749845E-5,-8.076534E-5,-6.3290834E-5,3.0191162E-5,-2.3606928E-5,-1.134265E-4,-1.8997896E-6,1.2239543E-4,5.7551562E-5,1.6161555E-4,9.6506425E-5,2.4678659E-5,-4.0350904E-5,7.4874784E-5,1.6154312E-5,-4.1884778E-5,6.967485E-5,1.7721708E-4,1.21790465E-4,2.9908473E-4],"categories":[],"categories_nodes":[],"categories_segments":[],"categories_sizes":[],"default_left":[0,0,0,0,0,0,0,0,0,0,0,0,0,0,0,0,0,0,0,0,0,0,0,0,0,0,0,0,0,0,0,0,0,0,0,0,0,0,0,0,0,0,0,0,0,0,0,0,0,0,0,0,0,0,0,0,0,0,0,0,0,0,0,0,0,0,0,0,0,0,0,0,0,0,0,0,0,0,0,0,0,0,0,0,0,0,0,0,0,0,0,0,0,0,0,0,0,0,0,0,0],"id":17,"left_children":[1,3,5,7,9,11,13,15,17,19,-1,21,23,-1,25,27,29,31,33,35,37,-1,-1,39,41,43,45,47,49,-1,-1,51,53,-1,55,57,59,-1,-1,61,63,65,67,-1,-1,69,71,-1,-1,73,-1,75,77,-1,-1,79,81,83,-1,85,87,89,91,-1,-1,93,-1,-1,95,97,-1,99,-1,-1,-1,-1,-1,-1,-1,-1,-1,-1,-1,-1,-1,-1,-1,-1,-1,-1,-1,-1,-1,-1,-1,-1,-1,-1,-1,-1,-1],"loss_changes":[6.622487E-4,1.3837454E-4,7.0713606E-5,3.4628494E-5,3.1792948E-5,2.5579422E-5,2.2145483E-5,1.8149352E-5,1.0137934E-5,2.044082E-5,0E0,3.91195E-6,1.917527E-5,0E0,8.339877E-6,1.0074029E-5,2.7781675E-6,7.355977E-6,6.6841894E-6,1.4581463E-5,3.9931183E-6,0E0,0E0,1.5901998E-5,1.083709E-5,1.5315891E-6,1.05428335E-5,1.3568997E-6,5.9018203E-6,0E0,0E0,4.649344E-6,3.5786857E-6,0E0,5.6256176E-6,1.5633406E-5,2.0252279E-5,0E0,0E0,3.960693E-6,2.6171401E-6,9.824014E-6,2.5522702E-6,0E0,0E0,7.672374E-6,1.0260046E-5,0E0,0E0,4.6061177E-6,0E0,1.2612436E-6,2.774454E-6,0E0,0E0,2.071807E-6,3.190294E-6,8.818367E-6,0E0,1.36704475E-5,9.9695935E-6,1.9077925E-6,1.1967074E-6,0E0,0E0,4.2017596E-6,0E0,0E0,1.2026912E-6,1.9045983E-6,0E0,7.2110415E-6,0E0,0E0,0E0,0E0,0E0,0E0,0E0,0E0,0E0,0E0,0E0,0E0,0E0,0E0,0E0,0E0,0E0,0E0,0E0,0E0,0E0,0E0,0E0,0E0,0E0,0E0,0E0,0E0,0E0],"parents":[2147483647,0,0,1,1,2,2,3,3,4,4,5,5,6,6,7,7,8,8,9,9,11,11,12,12,14,14,15,15,16,16,17,17,18,18,19,19,20,20,23,23,24,24,25,25,26,26,27,27,28,28,31,31,32,32,34,34,35,35,36,36,39,39,40,40,41,41,42,42,45,45,46,46,49,49,51,51,52,52,55,55,56,56,57,57,59,59,60,60,61,61,62,62,65,65,68,68,69,69,71,71],"right_children":[2,4,6,8,10,12,14,16,18,20,-1,22,24,-1,26,28,30,32,34,36,38,-1,-1,40,42,44,46,48,50,-1,-1,52,54,-1,56,58,60,-1,-1,62,64,66,68,-1,-1,70,72,-1,-1,74,-1,76,78,-1,-1,80,82,84,-1,86,88,90,92,-1,-1,94,-1,-1,96,98,-1,100,-1,-1,-1,-1,-1,-1,-1,-1,-1,-1,-1,-1,-1,-1,-1,-1,-1,-1,-1,-1,-1,-1,-1,-1,-1,-1,-1,-1,-1],"split_conditions":[1.59E-2,9.8E-3,2.07E-2,6.9E-3,5.9E-1,3.1416667E-1,5.5E1,1.0186E3,8.9E-3,2.46E1,2.5225736E-4,2.44E1,1.6E-2,5.2398414E-4,3.5E1,3.3714488E0,1E1,3.2401646E-3,4.273952E0,8.094143E-3,2.57E1,2.0783393E-6,-1.4134402E-4,1.6316667E-2,1.93E1,5.2E-1,6.6114226E-3,1E0,2.54E1,-5.5802146E-5,6.731108E-5,3.4E-1,6E1,-9.591162E-6,5E-1,8.786353E-2,5.38E-2,-1.845569E-4,-4.644394E-6,1.51E-2,1.7E1,4.9E-1,1.36E-2,1.1412397E-4,3.028538E-4,1.3298421E-2,1.4225857E-1,1.4334171E-5,-7.434108E-5,1.6445272E1,-2.2409618E-4,9.9E1,3.6560453E-2,-5.9672315E-5,7.0471564E-5,5.1330134E-2,2.53E1,2.8E1,1.5159942E-4,4.5E-1,7E1,3.5546968E0,1.0167E3,6.263636E-5,2.9467087E-4,1.25E-2,1.8790101E-4,4.6702324E-5,4.6E-1,3.6306772E-2,5.3295193E-5,1.2158077E1,4.3989025E-5,-1.64824E-4,-6.354088E-5,-1.0315029E-4,-4.6914442E-6,-5.135334E-5,1.8745102E-5,-4.907455E-5,-1.4402345E-4,3.749845E-5,-8.076534E-5,-6.3290834E-5,3.0191162E-5,-2.3606928E-5,-1.134265E-4,-1.8997896E-6,1.2239543E-4,5.7551562E-5,1.6161555E-4,9.6506425E-5,2.4678659E-5,-4.0350904E-5,7.4874784E-5,1.6154312E-5,-4.1884778E-5,6.967485E-5,1.7721708E-4,1.21790465E-4,2.9908473E-4],"split_indices":[47,47,47,47,71,79,1,2,48,0,0,0,49,0,28,30,3,54,30,44,0,0,0,53,0,71,56,4,0,0,0,71,1,0,72,78,37,0,0,48,0,71,37,0,0,42,82,0,0,32,0,23,78,0,0,82,0,23,0,74,23,22,2,0,0,52,0,0,72,80,0,34,0,0,0,0,0,0,0,0,0,0,0,0,0,0,0,0,0,0,0,0,0,0,0,0,0,0,0,0,0],"split_type":[0,0,0,0,0,0,0,0,0,0,0,0,0,0,0,0,0,0,0,0,0,0,0,0,0,0,0,0,0,0,0,0,0,0,0,0,0,0,0,0,0,0,0,0,0,0,0,0,0,0,0,0,0,0,0,0,0,0,0,0,0,0,0,0,0,0,0,0,0,0,0,0,0,0,0,0,0,0,0,0,0,0,0,0,0,0,0,0,0,0,0,0,0,0,0,0,0,0,0,0,0],"sum_hessian":[3.68E2,2.53E2,1.15E2,1.34E2,1.19E2,5.6E1,5.9E1,6.9E1,6.5E1,1.17E2,2E0,4E0,5.2E1,1E0,5.8E1,6.6E1,3E0,3.1E1,3.4E1,1.12E2,5E0,2E0,2E0,2.5E1,2.7E1,1.2E1,4.6E1,6E0,6E1,1E0,2E0,2.6E1,5E0,4E0,3E1,4.5E1,6.7E1,4E0,1E0,1.9E1,6E0,1.4E1,1.3E1,2E0,1E1,2.9E1,1.7E1,1E0,5E0,3.9E1,2.1E1,1.2E1,1.4E1,1E0,4E0,2.6E1,4E0,4E1,5E0,5.1E1,1.6E1,1.2E1,7E0,1E0,5E0,9E0,5E0,5E0,8E0,2.3E1,6E0,1.5E1,2E0,3.4E1,5E0,1.1E1,1E0,9E0,5E0,3E0,2.3E1,2E0,2E0,7E0,3.3E1,3.6E1,1.5E1,1E1,6E0,3E0,9E0,2E0,5E0,2E0,7E0,3E0,5E0,3E0,2E1,4E0,1.1E1],"tree_param":{"num_deleted":"0","num_feature":"89","num_nodes":"101","size_leaf_vector":"1"}},{"base_weights":[5.573822E-5,-7.474417E-4,1.9784376E-3,-1.3019547E-3,1.4388534E-4,1.1911254E-3,2.6015572E-3,-2.2165424E-3,-9.709994E-4,5.633619E-5,2.3880362E-4,-1.3032686E-3,1.378071E-3,5.030247E-4,2.4325051E-3,9.9169465E-6,-2.3366667E-3,-1.5826114E-3,-6.900394E-4,1.4832133E-4,-1.3941537E-3,-7.814467E-6,-1.3380568E-4,1.0079276E-3,2.3736623E-3,2.6745794E-3,1.6147699E-3,-2.5382268E-3,-8.190806E-5,-1.7119889E-3,-3.297571E-5,-9.914874E-4,-2.6056744E-4,-4.1721296E-4,3.8245026E-4,8.695983E-6,-1.3731715E-4,1.2774703E-3,4.3277742E-4,3.214614E-3,-8.951574E-6,2.1254222E-3,3.5027652E-3,1.6045617E-4,5.0314604E-5,-2.270818E-4,-1.4678288E-4,-1.7694068E-3,-4.3840606E-5,6.119278E-5,-1.0825024E-3,-1.02612794E-4,-1.5710914E-4,3.1034026E-4,-7.781771E-4,-1.47411E-4,6.8161497E-4,7.7898207E-4,2.0217304E-3,-2.8121396E-5,7.735211E-5,3.0431323E-4,1.2216065E-4,2.358792E-3,6.7016575E-5,1.05901134E-4,3.1230267E-4,-5.882073E-5,-1.4831593E-4,-2.128058E-5,-9.945343E-5,-2.9856466E-5,6.587722E-5,6.381072E-5,-1.1796901E-5,-1.3137989E-4,-3.5061985E-5,-2.5127338E-5,9.436893E-5,6.71011E-5,-5.4437503E-5,-1.236096E-5,7.387E-5,5.5207212E-5,1.8428918E-4,2.0047113E-4,3.950516E-5],"categories":[],"categories_nodes":[],"categories_segments":[],"categories_sizes":[],"default_left":[0,0,0,0,0,0,0,0,0,0,0,0,0,0,0,0,0,0,0,0,0,0,0,0,0,0,0,0,0,0,0,0,0,0,0,0,0,0,0,0,0,0,0,0,0,0,0,0,0,0,0,0,0,0,0,0,0,0,0,0,0,0,0,0,0,0,0,0,0,0,0,0,0,0,0,0,0,0,0,0,0,0,0,0,0,0,0],"id":18,"left_children":[1,3,5,7,9,11,13,15,17,19,-1,21,23,-1,25,-1,27,29,31,33,35,-1,-1,37,39,41,43,45,-1,47,-1,49,51,53,55,-1,-1,57,59,61,-1,63,65,-1,-1,-1,-1,67,-1,-1,69,71,-1,73,75,77,79,81,83,-1,-1,-1,-1,85,-1,-1,-1,-1,-1,-1,-1,-1,-1,-1,-1,-1,-1,-1,-1,-1,-1,-1,-1,-1,-1,-1,-1],"loss_changes":[5.713157E-4,1.291872E-4,5.03755E-5,4.6580448E-5,2.495469E-5,2.511181E-5,2.209493E-5,1.2097997E-5,1.9528547E-5,1.3415711E-5,0E0,1.6175268E-6,1.4927566E-5,0E0,7.3603587E-6,0E0,7.985698E-6,4.8970687E-6,1.0616586E-5,1.260591E-5,3.092894E-6,0E0,0E0,5.0281305E-6,2.5442496E-5,1.2566539E-5,4.9048795E-6,1.9740983E-6,0E0,1.2358505E-6,0E0,8.661082E-6,9.484053E-6,7.594877E-6,1.0721035E-5,0E0,0E0,7.329225E-6,5.7857224E-6,3.1419695E-6,0E0,6.738919E-6,8.813411E-6,0E0,0E0,0E0,0E0,1.3471727E-6,0E0,0E0,5.8348924E-6,8.827392E-6,0E0,2.3484586E-6,4.8605407E-6,5.9002336E-6,9.774894E-6,2.2993108E-6,1.7886123E-6,0E0,0E0,0E0,0E0,5.3465483E-6,0E0,0E0,0E0,0E0,0E0,0E0,0E0,0E0,0E0,0E0,0E0,0E0,0E0,0E0,0E0,0E0,0E0,0E0,0E0,0E0,0E0,0E0,0E0],"parents":[2147483647,0,0,1,1,2,2,3,3,4,4,5,5,6,6,7,7,8,8,9,9,11,11,12,12,14,14,16,16,17,17,18,18,19,19,20,20,23,23,24,24,25,25,26,26,27,27,29,29,31,31,32,32,33,33,34,34,37,37,38,38,39,39,41,41,42,42,47,47,50,50,51,51,53,53,54,54,55,55,56,56,57,57,58,58,63,63],"right_children":[2,4,6,8,10,12,14,16,18,20,-1,22,24,-1,26,-1,28,30,32,34,36,-1,-1,38,40,42,44,46,-1,48,-1,50,52,54,56,-1,-1,58,60,62,-1,64,66,-1,-1,-1,-1,68,-1,-1,70,72,-1,74,76,78,80,82,84,-1,-1,-1,-1,86,-1,-1,-1,-1,-1,-1,-1,-1,-1,-1,-1,-1,-1,-1,-1,-1,-1,-1,-1,-1,-1,-1,-1],"split_conditions":[1.64E-2,1.1E-2,2.07E-2,8E0,5.9E-1,3.1416667E-1,5.5E1,1E0,6.4E-3,6.7087235E-3,2.3880362E-4,2.24E1,4.776164E-3,5.030247E-4,