{"learner":{"attributes":{"scikit_learn":"{\"_estimator_type\": \"regressor\"}"},"feature_names":["temperature","humidity","pressure","hour","day_of_week","month","is_weekend","hour_sin","hour_cos","day_sin","day_cos","pm25_lag_1h","pm25_lag_2h","pm25_lag_3h","pm25_lag_6h","pm25_lag_12h","pm25_lag_24h","pm25_rolling_mean_6h","pm25_rolling_std_6h","pm25_rolling_mean_12h","pm25_rolling_std_12h","pm25_rolling_mean_24h","pm25_rolling_std_24h","pm10_lag_1h","pm10_lag_2h","pm10_lag_3h","pm10_lag_6h","pm10_lag_12h","pm10_lag_24h","pm10_rolling_mean_6h","pm10_rolling_std_6h","pm10_rolling_mean_12h","pm10_rolling_std_12h","pm10_rolling_mean_24h","pm10_rolling_std_24h","o3_lag_1h","o3_lag_2h","o3_lag_3h","o3_lag_6h","o3_lag_12h","o3_lag_24h","o3_rolling_mean_6h","o3_rolling_std_6h","o3_rolling_mean_12h","o3_rolling_std_12h","o3_rolling_mean_24h","o3_rolling_std_24h","no2_lag_1h","no2_lag_2h","no2_lag_3h","no2_lag_6h","no2_lag_12h","no2_lag_24h","no2_rolling_mean_6h","no2_rolling_std_6h","no2_rolling_mean_12h","no2_rolling_std_12h","no2_rolling_mean_24h","no2_rolling_std_24h","so2_lag_1h","so2_lag_2h","so2_lag_3h","so2_lag_6h","so2_lag_12h","so2_lag_24h","so2_rolling_mean_6h","so2_rolling_std_6h","so2_rolling_mean_12h","so2_rolling_std_12h","so2_rolling_mean_24h","so2_rolling_std_24h","co_lag_1h","co_lag_2h","co_lag_3h","co_lag_6h","co_lag_12h","co_lag_24h","co_rolling_mean_6h","co_rolling_std_6h","co_rolling_mean_12h","co_rolling_std_12h","co_rolling_mean_24h","co_rolling_std_24h","aqi_lag_1h","aqi_lag_2h","aqi_lag_3h","aqi_lag_6h","aqi_lag_12h","aqi_lag_24h"],"feature_types":["float","float","float","int","int","int","int","float","float","float","float","float","float","float","float","float","float","float","float","float","float","float","float","float","float","float","float","float","float","float","float","float","float","float","float","float","float","float","float","float","float","float","float","float","float","float","float","float","float","float","float","float","float","float","float","float","float","float","float","float","float","float","float","float","float","float","float","float","float","float","float","float","float","float","float","float","float","float","float","float","float","float","float","float","float","float","float","float","float"],"gradient_booster":{"model":{"gbtree_model_param":{"num_parallel_tree":"1","num_trees":"150"},"iteration_indptr":[0,1,2,3,4,5,6,7,8,9,10,11,12,13,14,15,16,17,18,19,20,21,22,23,24,25,26,27,28,29,30,31,32,33,34,35,36,37,38,39,40,41,42,43,44,45,46,47,48,49,50,51,52,53,54,55,56,57,58,59,60,61,62,63,64,65,66,67,68,69,70,71,72,73,74,75,76,77,78,79,80,81,82,83,84,85,86,87,88,89,90,91,92,93,94,95,96,97,98,99,100,101,102,103,104,105,106,107,108,109,110,111,112,113,114,115,116,117,118,119,120,121,122,123,124,125,126,127,128,129,130,131,132,133,134,135,136,137,138,139,140,141,142,143,144,145,146,147,148,149,150],"tree_info":[0,0,0,0,0,0,0,0,0,0,0,0,0,0,0,0,0,0,0,0,0,0,0,0,0,0,0,0,0,0,0,0,0,0,0,0,0,0,0,0,0,0,0,0,0,0,0,0,0,0,0,0,0,0,0,0,0,0,0,0,0,0,0,0,0,0,0,0,0,0,0,0,0,0,0,0,0,0,0,0,0,0,0,0,0,0,0,0,0,0,0,0,0,0,0,0,0,0,0,0,0,0,0,0,0,0,0,0,0,0,0,0,0,0,0,0,0,0,0,0,0,0,0,0,0,0,0,0,0,0,0,0,0,0,0,0,0,0,0,0,0,0,0,0,0,0,0,0,0,0],"trees":[{"base_weights":[9.46466E-13,-7.557707E-5,3.6680073E-4,-3.3784632E-4,6.2986935E-4,-5.438606E-4,-1.0808371E-4,2.6469244E-4,9.0554636E-4,-6.297306E-5,-4.2032608E-4,-1.3016522E-4,6.784058E-5,3.6195654E-4,-1.745924E-5,4.0226285E-5,1.1328106E-3,4.6507244E-5,-3.584946E-5,4.384058E-5,-1.165182E-5,2.3424845E-5,8.384058E-5,7.488083E-5,1.597343E-3,1.4550932E-4,4.384058E-5],"categories":[],"categories_nodes":[],"categories_segments":[],"categories_sizes":[],"default_left":[0,0,0,0,0,0,0,0,0,0,0,0,0,0,0,0,0,0,0,0,0,0,0,0,0,0,0],"id":0,"left_children":[1,3,-1,5,7,9,11,13,15,-1,17,19,-1,21,-1,-1,23,-1,-1,-1,-1,-1,-1,-1,25,-1,-1],"loss_changes":[1.2821297E-4,6.755895E-5,0E0,1.2532166E-5,9.726729E-6,3.877012E-6,2.7915971E-6,2.145763E-6,4.555699E-6,0E0,2.9051662E-6,1.392295E-6,0E0,1.4483253E-6,0E0,0E0,1.7045677E-6,0E0,0E0,0E0,0E0,0E0,0E0,0E0,1.0953227E-6,0E0,0E0],"parents":[2147483647,0,0,1,1,3,3,4,4,5,5,6,6,7,7,8,8,10,10,11,11,13,13,16,16,24,24],"right_children":[2,4,-1,6,8,10,12,14,16,-1,18,20,-1,22,-1,-1,24,-1,-1,-1,-1,-1,-1,-1,26,-1,-1],"split_conditions":[6.933333E-1,1.7E-3,3.6680073E-4,1.2E-3,5E-1,8E-4,7.2E-1,1.6345465E-1,7.502536E0,-6.297306E-5,6E0,5E0,6.784058E-5,2.3E1,-1.745924E-5,4.0226285E-5,7.563068E-4,4.6507244E-5,-3.584946E-5,4.384058E-5,-1.165182E-5,2.3424845E-5,8.384058E-5,7.488083E-5,3.9E1,1.4550932E-4,4.384058E-5],"split_indices":[77,59,0,59,71,59,71,80,22,0,13,11,0,3,0,0,66,0,0,0,0,0,0,0,13,0,0],"split_type":[0,0,0,0,0,0,0,0,0,0,0,0,0,0,0,0,0,0,0,0,0,0,0,0,0,0,0],"sum_hessian":[3.68E2,3.63E2,5E0,2.65E2,9.8E1,1.39E2,1.26E2,4.3E1,5.5E1,4.5E1,9.4E1,1.24E2,2E0,3.6E1,7E0,2.1E1,3.4E1,2E0,9.2E1,2E0,1.22E2,3.4E1,2E0,2.6E1,8E0,6E0,2E0],"tree_param":{"num_deleted":"0","num_feature":"89","num_nodes":"27","size_leaf_vector":"1"}},{"base_weights":[2.1918065E-6,-6.831669E-5,3.423473E-4,-3.1063924E-4,5.8346224E-4,-5.4128977E-5,-1.9843942E-4,2.455581E-4,8.3853945E-4,5.1317562E-5,-2.183454E-4,3.3589907E-4,-1.623709E-5,6.9880957E-4,1.1924755E-4,-3.096375E-5,-1.12678536E-4,1.1092536E-5,5.3639617E-4,2.4239915E-5,6.823029E-5,-1.0727257E-5,6.422242E-5,-2.405656E-5,4.8266094E-5],"categories":[],"categories_nodes":[],"categories_segments":[],"categories_sizes":[],"default_left":[0,0,0,0,0,0,0,0,0,0,0,0,0,0,0,0,0,0,0,0,0,0,0,0,0],"id":1,"left_children":[1,3,-1,5,7,-1,9,11,13,-1,15,17,-1,19,-1,-1,21,-1,23,-1,-1,-1,-1,-1,-1],"loss_changes":[1.1157367E-4,5.7671677E-5,0E0,1.0788257E-5,8.327064E-6,0E0,3.567503E-6,1.8510507E-6,4.060603E-6,0E0,3.539446E-6,1.3888462E-6,0E0,2.668723E-6,0E0,0E0,2.5578909E-6,0E0,1.189916E-6,0E0,0E0,0E0,0E0,0E0,0E0],"parents":[2147483647,0,0,1,1,3,3,4,4,6,6,7,7,8,8,10,10,11,11,13,13,16,16,18,18],"right_children":[2,4,-1,6,8,-1,10,12,14,-1,16,18,-1,20,-1,-1,22,-1,24,-1,-1,-1,-1,-1,-1],"split_conditions":[6.933333E-1,1.7E-3,3.423473E-4,9E-4,5E-1,-5.4128977E-5,8.333333E0,1.6345465E-1,8.0849655E-4,5.1317562E-5,1.2E-3,4.1673332E-4,-1.623709E-5,2.8266666E-2,1.1924755E-4,-3.096375E-5,7.2E-1,1.1092536E-5,4E0,2.4239915E-5,6.823029E-5,-1.0727257E-5,6.422242E-5,-2.405656E-5,4.8266094E-5],"split_indices":[77,59,0,59,71,0,17,80,66,0,59,66,0,45,0,0,71,0,13,0,0,0,0,0,0],"split_type":[0,0,0,0,0,0,0,0,0,0,0,0,0,0,0,0,0,0,0,0,0,0,0,0,0],"sum_hessian":[3.68E2,3.63E2,5E0,2.65E2,9.8E1,6.1E1,2.04E2,4.3E1,5.5E1,4E0,2E2,3.6E1,7E0,4.7E1,8E0,7.6E1,1.24E2,1.9E1,1.7E1,1.4E1,3.3E1,1.22E2,2E0,1E0,1.6E1],"tree_param":{"num_deleted":"0","num_feature":"89","num_nodes":"25","size_leaf_vector":"1"}},{"base_weights":[3.623088E-6,-6.216318E-5,3.9940523E-3,-2.85714E-4,5.3911644E-4,1.6877177E-4,4.1401936E-4,-4.9868508E-5,-1.8220404E-4,2.2634675E-4,7.752369E-4,4.8033246E-5,-2.0076569E-4,1.5104088E-4,6.2681946E-5,6.448312E-4,1.3845966E-3,-2.8518818E-5,-1.0323634E-4,1.8307112E-5,-1.5100491E-5,2.2430002E-5,6.2932406E-5,1.2735455E-4,3.5142544E-5,-9.876057E-6,6.079722E-5],"categories":[],"categories_nodes":[],"categories_segments":[],"categories_sizes":[],"default_left":[0,0,0,0,0,0,0,0,0,0,0,0,0,0,0,0,0,0,0,0,0,0,0,0,0,0,0],"id":2,"left_children":[1,3,5,7,9,-1,-1,-1,11,13,15,-1,17,19,-1,21,23,-1,25,-1,-1,-1,-1,-1,-1,-1,-1],"loss_changes":[9.711648E-5,4.9081653E-5,2.4371038E-6,9.182946E-6,7.1358118E-6,0E0,0E0,0E0,3.0985202E-6,1.7278408E-6,3.5571466E-6,0E0,3.0158299E-6,1.1006163E-6,0E0,2.2604945E-6,1.064669E-6,0E0,2.2749537E-6,0E0,0E0,0E0,0E0,0E0,0E0,0E0,0E0],"parents":[2147483647,0,0,1,1,2,2,3,3,4,4,8,8,9,9,10,10,12,12,13,13,15,15,16,16,18,18],"right_children":[2,4,6,8,10,-1,-1,-1,12,14,16,-1,18,20,-1,22,24,-1,26,-1,-1,-1,-1,-1,-1,-1,-1],"split_conditions":[6.933333E-1,1.7E-3,1.7787252E1,9E-4,5E-1,1.6877177E-4,4.1401936E-4,-4.9868508E-5,8.333333E0,2.2E1,8.0849655E-4,4.8033246E-5,1.2E-3,1.6345465E-1,6.2681946E-5,2.8266666E-2,3.9E1,-2.8518818E-5,7.2E-1,1.8307112E-5,-1.5100491E-5,2.2430002E-5,6.2932406E-5,1.2735455E-4,3.5142544E-5,-9.876057E-6,6.079722E-5],"split_indices":[77,59,20,59,71,0,0,0,17,3,66,0,59,80,0,45,13,0,71,0,0,0,0,0,0,0,0],"split_type":[0,0,0,0,0,0,0,0,0,0,0,0,0,0,0,0,0,0,0,0,0,0,0,0,0,0,0],"sum_hessian":[3.68E2,3.63E2,5E0,2.65E2,9.8E1,3E0,2E0,6.1E1,2.04E2,4.3E1,5.5E1,4E0,2E2,3.9E1,4E0,4.7E1,8E0,7.6E1,1.24E2,3.2E1,7E0,1.4E1,3.3E1,6E0,2E0,1.22E2,2E0],"tree_param":{"num_deleted":"0","num_feature":"89","num_nodes":"27","size_leaf_vector":"1"}},{"base_weights":[5.81864E-6,-5.6271656E-5,3.7716602E-3,-2.6277953E-4,4.991563E-4,1.5864547E-4,3.9193832E-4,-4.5943376E-5,-1.6728409E-4,2.0973646E-4,7.1764406E-4,4.495912E-5,-1.8459295E-4,7.35796E-5,1.5402785E-4,5.9502316E-4,1.0335073E-4,-2.626694E-5,-9.457003E-5,-9.457692E-6,1.9424004E-5,2.0755233E-5,5.8045895E-5,-9.092393E-6,5.7554706E-5],"categories":[],"categories_nodes":[],"categories_segments":[],"categories_sizes":[],"default_left":[0,0,0,0,0,0,0,0,0,0,0,0,0,0,0,0,0,0,0,0,0,0,0,0,0],"id":3,"left_children":[1,3,5,7,9,-1,-1,-1,11,13,15,-1,17,-1,19,21,-1,-1,23,-1,-1,-1,-1,-1,-1],"loss_changes":[8.649263E-5,4.1882056E-5,2.385059E-6,7.816909E-6,6.10972E-6,0E0,0E0,0E0,2.6914313E-6,1.5986918E-6,3.174473E-6,0E0,2.5699364E-6,0E0,1.0437664E-6,1.9146592E-6,0E0,0E0,2.023664E-6,0E0,0E0,0E0,0E0,0E0,0E0],"parents":[2147483647,0,0,1,1,2,2,3,3,4,4,8,8,9,9,10,10,12,12,14,14,15,15,18,18],"right_children":[2,4,6,8,10,-1,-1,-1,12,14,16,-1,18,-1,20,22,-1,-1,24,-1,-1,-1,-1,-1,-1],"split_conditions":[6.933333E-1,1.7E-3,1.7787252E1,9E-4,5E-1,1.5864547E-4,3.9193832E-4,-4.5943376E-5,8.333333E0,5E0,8.0849655E-4,4.495912E-5,1.2E-3,7.35796E-5,2E1,2.8266666E-2,1.0335073E-4,-2.626694E-5,7.2E-1,-9.457692E-6,1.9424004E-5,2.0755233E-5,5.8045895E-5,-9.092393E-6,5.7554706E-5],"split_indices":[77,59,20,59,71,0,0,0,17,14,66,0,59,0,11,45,0,0,71,0,0,0,0,0,0],"split_type":[0,0,0,0,0,0,0,0,0,0,0,0,0,0,0,0,0,0,0,0,0,0,0,0,0],"sum_hessian":[3.68E2,3.63E2,5E0,2.65E2,9.8E1,3E0,2E0,6.1E1,2.04E2,4.3E1,5.5E1,4E0,2E2,2E0,4.1E1,4.7E1,8E0,7.6E1,1.24E2,1E1,3.1E1,1.4E1,3.3E1,1.22E2,2E0],"tree_param":{"num_deleted":"0","num_feature":"89","num_nodes":"25","size_leaf_vector":"1"}},{"base_weights":[7.62278E-6,-5.0981707E-5,3.5616914E-3,-2.4167744E-4,4.6190762E-4,1.4912675E-4,3.7103493E-4,-4.2074418E-4,-9.824417E-5,2.7162806E-4,7.602083E-4,-2.5669338E-5,-4.65142E-5,4.2081734E-5,-1.19093034E-4,1.1020859E-5,3.52046E-5,1.1273887E-3,5.8880856E-4,-1.0803738E-5,5.448512E-5,1.7880278E-5,1.04273466E-4,-8.537609E-6,6.7654083E-4,6.303383E-5,1.5400821E-5],"categories":[],"categories_nodes":[],"categories_segments":[],"categories_sizes":[],"default_left":[0,0,0,0,0,0,0,0,0,0,0,0,0,0,0,0,0,0,0,0,0,0,0,0,0,0,0],"id":4,"left_children":[1,3,5,7,9,-1,-1,11,13,15,17,-1,-1,-1,19,-1,-1,21,23,-1,-1,-1,-1,-1,25,-1,-1],"loss_changes":[7.7038516E-5,3.5712947E-5,2.3167377E-6,6.790642E-6,5.412796E-6,0E0,0E0,1.707178E-6,2.0019152E-6,1.3373042E-6,1.7276998E-6,0E0,0E0,0E0,1.9429674E-6,0E0,0E0,1.4588959E-6,1.7807688E-6,0E0,0E0,0E0,0E0,0E0,1.1961256E-6,0E0,0E0],"parents":[2147483647,0,0,1,1,2,2,3,3,4,4,7,7,8,8,9,9,10,10,14,14,17,17,18,18,24,24],"right_children":[2,4,6,8,10,-1,-1,12,14,16,18,-1,-1,-1,20,-1,-1,22,24,-1,-1,-1,-1,-1,26,-1,-1],"split_conditions":[6.933333E-1,1.7E-3,1.7787252E1,1.1333333E-3,2.3E-3,1.4912675E-4,3.7103493E-4,4.0533334E-2,8.333333E0,5E-1,1.8E-3,-2.5669338E-5,-4.65142E-5,4.2081734E-5,7.2E-1,1.1020859E-5,3.52046E-5,6.218253E-4,4.3E-1,-1.0803738E-5,5.448512E-5,1.7880278E-5,1.04273466E-4,-8.537609E-6,1.8E-3,6.303383E-5,1.5400821E-5],"split_indices":[77,59,20,65,59,0,0,43,17,71,61,0,0,0,71,0,0,66,71,0,0,0,0,0,64,0,0],"split_type":[0,0,0,0,0,0,0,0,0,0,0,0,0,0,0,0,0,0,0,0,0,0,0,0,0,0,0],"sum_hessian":[3.68E2,3.63E2,5E0,2.65E2,9.8E1,3E0,2E0,1.17E2,1.48E2,6.1E1,3.7E1,7.4E1,4.3E1,4E0,1.44E2,3.5E1,2.6E1,1E1,2.7E1,1.42E2,2E0,2E0,8E0,3E0,2.4E1,1.9E1,5E0],"tree_param":{"num_deleted":"0","num_feature":"89","num_nodes":"27","size_leaf_vector":"1"}},{"base_weights":[9.10514E-6,-4.6211266E-5,3.3634496E-3,-2.052415E-4,4.7819666E-4,1.4017915E-4,3.512464E-4,-3.6370184E-4,-4.6449364E-5,2.8912048E-4,7.0444564E-4,8.522399E-6,-3.9682104E-4,-5.3369845E-6,5.313877E-5,2.7200344E-5,-1.73185E-5,1.0483024E-3,5.4420024E-4,-4.828008E-5,-2.6571393E-5,1.6926666E-5,9.685846E-5,-8.025356E-6,6.25555E-4,5.3466385E-5,-1.604165E-5],"categories":[],"categories_nodes":[],"categories_segments":[],"categories_sizes":[],"default_left":[0,0,0,0,0,0,0,0,0,0,0,0,0,0,0,0,0,0,0,0,0,0,0,0,0,0,0],"id":5,"left_children":[1,3,5,7,9,-1,-1,11,13,15,17,-1,19,-1,-1,-1,-1,21,23,-1,-1,-1,-1,-1,25,-1,-1],"loss_changes":[6.8623485E-5,3.0454547E-5,2.2361855E-6,7.0285378E-6,3.4324858E-6,0E0,0E0,2.2225922E-6,2.0747905E-6,1.3084987E-6,1.5233672E-6,0E0,1.5507303E-6,0E0,0E0,0E0,0E0,1.2388045E-6,1.5309206E-6,0E0,0E0,0E0,0E0,0E0,1.0173944E-6,0E0,0E0],"parents":[2147483647,0,0,1,1,2,2,3,3,4,4,7,7,8,8,9,9,10,10,12,12,17,17,18,18,24,24],"right_children":[2,4,6,8,10,-1,-1,12,14,16,18,-1,20,-1,-1,-1,-1,22,24,-1,-1,-1,-1,-1,26,-1,-1],"split_conditions":[6.933333E-1,1.8E-3,1.7787252E1,1.2E-3,2.3E-3,1.4017915E-4,3.512464E-4,1E1,7.2E-1,2.46E1,1.8E-3,8.522399E-6,7E-4,-5.3369845E-6,5.313877E-5,2.7200344E-5,-1.73185E-5,6.218253E-4,4.3E-1,-4.828008E-5,-2.6571393E-5,1.6926666E-5,9.685846E-5,-8.025356E-6,1.0229E3,5.3466385E-5,-1.604165E-5],"split_indices":[77,59,20,59,59,0,0,12,71,0,61,0,59,0,0,0,0,66,71,0,0,0,0,0,2,0,0],"split_type":[0,0,0,0,0,0,0,0,0,0,0,0,0,0,0,0,0,0,0,0,0,0,0,0,0,0,0],"sum_hessian":[3.68E2,3.63E2,5E0,2.79E2,8.4E1,3E0,2E0,1.39E2,1.4E2,4.7E1,3.7E1,9E0,1.3E2,1.37E2,3E0,4.3E1,4E0,1E1,2.7E1,2.9E1,1.01E2,2E0,8E0,3E0,2.4E1,2.3E1,1E0],"tree_param":{"num_deleted":"0","num_feature":"89","num_nodes":"27","size_leaf_vector":"1"}},{"base_weights":[1.0073111E-5,-4.214475E-5,3.176278E-3,-2.0513943E-4,3.9622624E-4,1.317684E-4,3.3251327E-4,-3.6572164E-5,-1.2792028E-4,2.3315796E-4,6.51858E-4,3.928657E-5,-1.4268194E-4,3.4929608E-4,4.7133517E-6,1.0175953E-4,5.6236074E-4,-1.6522548E-5,2.2246557E-5,1.6316057E-5,4.5880784E-5,1.097845E-5,6.8324263E-4,-4.681274E-6,2.6398575E-5,5.794631E-5,-1.5399983E-5],"categories":[],"categories_nodes":[],"categories_segments":[],"categories_sizes":[],"default_left":[0,0,0,0,0,0,0,0,0,0,0,0,0,0,0,0,0,0,0,0,0,0,0,0,0,0,0],"id":6,"left_children":[1,3,5,7,9,-1,-1,-1,11,13,15,-1,17,19,-1,-1,21,-1,23,-1,-1,-1,25,-1,-1,-1,-1],"loss_changes":[6.114153E-5,2.6089858E-5,2.1467495E-6,5.117935E-6,3.974872E-6,0E0,0E0,0E0,1.943256E-6,1.2340545E-6,1.3936951E-6,0E0,2.12126E-6,1.0888043E-6,0E0,0E0,1.7049069E-6,0E0,1.4359586E-6,0E0,0E0,0E0,1.1109187E-6,0E0,0E0,0E0,0E0],"parents":[2147483647,0,0,1,1,2,2,3,3,4,4,8,8,9,9,10,10,12,12,13,13,16,16,18,18,22,22],"right_children":[2,4,6,8,10,-1,-1,-1,12,14,16,-1,18,20,-1,-1,22,-1,24,-1,-1,-1,26,-1,-1,-1,-1],"split_conditions":[6.933333E-1,1.7E-3,1.7787252E1,9E-4,2.3E-3,1.317684E-4,3.3251327E-4,-3.6572164E-5,8.333333E0,2E-3,6E0,3.928657E-5,4.6E-1,4.5350488E-4,4.7133517E-6,1.0175953E-4,1.863917E-2,-1.6522548E-5,1.15945235E-1,1.6316057E-5,4.5880784E-5,1.097845E-5,1.0237E3,-4.681274E-6,2.6398575E-5,5.794631E-5,-1.5399983E-5],"split_indices":[77,59,20,59,59,0,0,0,17,61,14,0,71,66,0,0,46,0,82,0,0,0,2,0,0,0,0],"split_type":[0,0,0,0,0,0,0,0,0,0,0,0,0,0,0,0,0,0,0,0,0,0,0,0,0,0,0],"sum_hessian":[3.68E2,3.63E2,5E0,2.65E2,9.8E1,3E0,2E0,6.1E1,2.04E2,6.1E1,3.7E1,4E0,2E2,3.6E1,2.5E1,3E0,3.4E1,1.44E2,5.6E1,2.3E1,1.3E1,8E0,2.6E1,4.5E1,1.1E1,2.5E1,1E0],"tree_param":{"num_deleted":"0","num_feature":"89","num_nodes":"27","size_leaf_vector":"1"}},{"base_weights":[1.1149093E-5,-3.8140992E-5,2.999556E-3,-1.7413069E-4,4.102738E-4,1.238623E-4,3.1477923E-4,-3.1171946E-4,-3.6282767E-5,1.8385457E-4,5.5042724E-4,8.365862E-6,-3.41118E-4,-4.356356E-6,4.7976886E-5,2.2901315E-5,-1.4781379E-5,4.4578704E-4,1.000843E-3,-4.1718165E-5,-2.2778151E-5,5.698316E-6,4.1177944E-5,9.545851E-5,1.746579E-5],"categories":[],"categories_nodes":[],"categories_segments":[],"categories_sizes":[],"default_left":[0,0,0,0,0,0,0,0,0,0,0,0,0,0,0,0,0,0,0,0,0,0,0,0,0],"id":7,"left_children":[1,3,5,7,9,-1,-1,11,13,15,17,-1,19,-1,-1,-1,-1,21,23,-1,-1,-1,-1,-1,-1],"loss_changes":[5.446767E-5,2.2268085E-5,2.051198E-6,5.299261E-6,2.5961426E-6,0E0,0E0,1.7490484E-6,1.662205E-6,1.3364349E-6,2.004681E-6,0E0,1.1838747E-6,0E0,0E0,0E0,0E0,1.0994609E-6,1.0944223E-6,0E0,0E0,0E0,0E0,0E0,0E0],"parents":[2147483647,0,0,1,1,2,2,3,3,4,4,7,7,8,8,9,9,10,10,12,12,17,17,18,18],"right_children":[2,4,6,8,10,-1,-1,12,14,16,18,-1,20,-1,-1,-1,-1,22,24,-1,-1,-1,-1,-1,-1],"split_conditions":[6.933333E-1,1.8E-3,1.7787252E1,1.2E-3,5.1E-1,1.238623E-4,3.1477923E-4,1E1,7.2E-1,1.6345465E-1,7.563068E-4,8.365862E-6,7E-4,-4.356356E-6,4.7976886E-5,2.2901315E-5,-1.4781379E-5,1.4966667E-2,3.9E1,-4.1718165E-5,-2.2778151E-5,5.698316E-6,4.1177944E-5,9.545851E-5,1.746579E-5],"split_indices":[77,59,20,59,71,0,0,12,71,80,66,0,59,0,0,0,0,41,13,0,0,0,0,0,0],"split_type":[0,0,0,0,0,0,0,0,0,0,0,0,0,0,0,0,0,0,0,0,0,0,0,0,0],"sum_hessian":[3.68E2,3.63E2,5E0,2.79E2,8.4E1,3E0,2E0,1.39E2,1.4E2,3.3E1,5.1E1,9E0,1.3E2,1.37E2,3E0,2.6E1,7E0,4.3E1,8E0,2.9E1,1.01E2,7E0,3.6E1,6E0,2E0],"tree_param":{"num_deleted":"0","num_feature":"89","num_nodes":"25","size_leaf_vector":"1"}},{"base_weights":[1.1867072E-5,-3.4662753E-5,2.8326986E-3,-1.7411442E-4,3.403757E-4,1.16430565E-4,2.97991E-4,-3.091366E-4,-6.6015535E-5,1.9718037E-4,5.650529E-4,-3.352421E-5,-1.6247894E-5,3.6643927E-5,-8.363145E-5,2.433072E-5,2.991461E-6,8.7098323E-4,4.2468554E-4,3.6191468E-5,-8.163703E-6,8.9714944E-5,2.7692124E-5,2.9437083E-6,4.2304073E-5],"categories":[],"categories_nodes":[],"categories_segments":[],"categories_sizes":[],"default_left":[0,0,0,0,0,0,0,0,0,0,0,0,0,0,0,0,0,0,0,0,0,0,0,0,0],"id":8,"left_children":[1,3,5,7,9,-1,-1,11,13,15,17,-1,-1,-1,19,-1,-1,21,23,-1,-1,-1,-1,-1,-1],"loss_changes":[4.853047E-5,1.9096367E-5,1.9518266E-6,3.862061E-6,3.0736828E-6,0E0,0E0,1.2902137E-6,1.4138574E-6,1.0481956E-6,1.2619266E-6,0E0,0E0,0E0,1.4774328E-6,0E0,0E0,1.0577187E-6,1.111328E-6,0E0,0E0,0E0,0E0,0E0,0E0],"parents":[2147483647,0,0,1,1,2,2,3,3,4,4,7,7,8,8,9,9,10,10,14,14,17,17,18,18],"right_children":[2,4,6,8,10,-1,-1,12,14,16,18,-1,-1,-1,20,-1,-1,22,24,-1,-1,-1,-1,-1,-1],"split_conditions":[6.933333E-1,1.7E-3,1.7787252E1,1.1333333E-3,2.3E-3,1.16430565E-4,2.97991E-4,9.3E-3,8.333333E0,2E-3,1.8E-3,-3.352421E-5,-1.6247894E-5,3.6643927E-5,9E-4,2.433072E-5,2.991461E-6,1.395402E-2,7.3756356E0,3.6191468E-5,-8.163703E-6,8.9714944E-5,2.7692124E-5,2.9437083E-6,4.2304073E-5],"split_indices":[77,59,20,65,59,0,0,47,17,61,61,0,0,0,62,0,0,42,30,0,0,0,0,0,0],"split_type":[0,0,0,0,0,0,0,0,0,0,0,0,0,0,0,0,0,0,0,0,0,0,0,0,0],"sum_hessian":[3.68E2,3.63E2,5E0,2.65E2,9.8E1,3E0,2E0,1.17E2,1.48E2,6.1E1,3.7E1,5.6E1,6.1E1,4E0,1.44E2,3.6E1,2.5E1,1E1,2.7E1,4E0,1.4E2,6E0,4E0,6E0,2.1E1],"tree_param":{"num_deleted":"0","num_feature":"89","num_nodes":"25","size_leaf_vector":"1"}},{"base_weights":[1.2596036E-5,-3.132687E-5,2.6751528E-3,-1.3091696E-4,4.2032107E-4,1.0944474E-4,2.8209813E-4,-2.671639E-4,-1.0882654E-5,8.6942906E-5,3.7133406E-4,7.837272E-6,-2.343976E-5,-2.0095695E-6,4.4051107E-5,1.9415772E-6,3.76E-5],"categories":[],"categories_nodes":[],"categories_segments":[],"categories_sizes":[],"default_left":[0,0,0,0,0,0,0,0,0,0,0,0,0,0,0,0,0],"id":9,"left_children":[1,3,5,7,9,-1,-1,11,13,-1,15,-1,-1,-1,-1,-1,-1],"loss_changes":[4.3237334E-5,1.6427623E-5,1.8505125E-6,4.8870306E-6,1.7512166E-6,0E0,0E0,1.3492436E-6,1.2929296E-6,0E0,2.145929E-6,0E0,0E0,0E0,0E0,0E0,0E0],"parents":[2147483647,0,0,1,1,2,2,3,3,4,4,7,7,8,8,10,10],"right_children":[2,4,6,8,10,-1,-1,12,14,-1,16,-1,-1,-1,-1,-1,-1],"split_conditions":[6.933333E-1,2E-3,1.7787252E1,1.2E-3,6E0,1.0944474E-4,2.8209813E-4,1E1,7.2E-1,8.6942906E-5,4.6E-1,7.837272E-6,-2.343976E-5,-2.0095695E-6,4.4051107E-5,1.9415772E-6,3.76E-5],"split_indices":[77,59,20,59,15,0,0,12,71,0,71,0,0,0,0,0,0],"split_type":[0,0,0,0,0,0,0,0,0,0,0,0,0,0,0,0,0],"sum_hessian":[3.68E2,3.63E2,5E0,2.98E2,6.5E1,3E0,2E0,1.39E2,1.59E2,3E0,6.2E1,9E0,1.3E2,1.56E2,3E0,1.4E1,4.8E1],"tree_param":{"num_deleted":"0","num_feature":"89","num_nodes":"17","size_leaf_vector":"1"}},{"base_weights":[1.3063861E-5,-2.8400611E-5,2.5263978E-3,-1.6737245E-4,2.5207482E-4,1.02878046E-4,2.6705294E-4,-3.075391E-5,-1.16358686E-4,1.4262795E-4,4.873765E-4,3.411223E-5,-1.2967894E-4,1.6105032E-8,1.8782594E-5,8.172633E-5,4.123997E-4,-1.1129722E-5,4.168169E-5,8.177501E-6,5.3238333E-4,3.1432675E-5,8.093609E-5],"categories":[],"categories_nodes":[],"categories_segments":[],"categories_sizes":[],"default_left":[0,0,0,0,0,0,0,0,0,0,0,0,0,0,0,0,0,0,0,0,0,0,0],"id":10,"left_children":[1,3,5,7,9,-1,-1,-1,11,13,15,-1,17,-1,-1,-1,19,-1,-1,-1,21,-1,-1],"loss_changes":[3.8526745E-5,1.4230251E-5,1.74878E-6,2.656986E-6,3.0466035E-6,0E0,0E0,0E0,1.4940097E-6,1.1024739E-6,1.1007069E-6,0E0,1.2706234E-6,0E0,0E0,0E0,1.2481632E-6,0E0,0E0,0E0,1.2738133E-6,0E0,0E0],"parents":[2147483647,0,0,1,1,2,2,3,3,4,4,8,8,9,9,10,10,12,12,16,16,20,20],"right_children":[2,4,6,8,10,-1,-1,-1,12,14,16,-1,18,-1,-1,-1,20,-1,-1,-1,22,-1,-1],"split_conditions":[6.933333E-1,1.5E-3,1.7787252E1,8E-4,2.3E-3,1.02878046E-4,2.6705294E-4,-3.075391E-5,8.333333E0,1.42E-2,6E0,3.411223E-5,7.2E-1,1.6105032E-8,1.8782594E-5,8.172633E-5,1.8831765E-2,-1.1129722E-5,4.168169E-5,8.177501E-6,6.5E-1,3.1432675E-5,8.093609E-5],"split_indices":[77,59,20,59,59,0,0,0,17,47,14,0,71,0,0,0,46,0,0,0,71,0,0],"split_type":[0,0,0,0,0,0,0,0,0,0,0,0,0,0,0,0,0,0,0,0,0,0,0],"sum_hessian":[3.68E2,3.63E2,5E0,2.43E2,1.2E2,3E0,2E0,4.5E1,1.98E2,8.3E1,3.7E1,4E0,1.94E2,3.3E1,5E1,3E0,3.4E1,1.92E2,2E0,1E1,2.4E1,2E1,4E0],"tree_param":{"num_deleted":"0","num_feature":"89","num_nodes":"23","size_leaf_vector":"1"}},{"base_weights":[1.3712314E-5,-2.542803E-5,2.385941E-3,-1.2641575E-4,3.0753654E-4,9.670537E-5,2.528101E-4,-2.2202867E-4,-1.0220472E-6,7.682275E-5,2.7194474E-4,-2.3487165E-4,3.9530427E-5,7.5999983E-6,4.0835803E-4,-2.833161E-5,-1.3879993E-5,4.5500102E-4,-5.209191E-6,5.794505E-5,2.5850592E-5],"categories":[],"categories_nodes":[],"categories_segments":[],"categories_sizes":[],"default_left":[0,0,0,0,0,0,0,0,0,0,0,0,0,0,0,0,0,0,0,0,0],"id":11,"left_children":[1,3,5,7,9,-1,-1,11,-1,-1,13,15,-1,-1,17,-1,-1,19,-1,-1,-1],"loss_changes":[3.4322264E-5,1.2278498E-5,1.6478552E-6,3.0394945E-6,1.7136144E-6,0E0,0E0,1.5140954E-6,0E0,0E0,1.9404906E-6,1.0365593E-6,0E0,0E0,1.0455005E-6,0E0,0E0,1.257531E-6,0E0,0E0,0E0],"parents":[2147483647,0,0,1,1,2,2,3,3,4,4,7,7,10,10,11,11,14,14,17,17],"right_children":[2,4,6,8,10,-1,-1,12,-1,-1,14,16,-1,-1,18,-1,-1,20,-1,-1,-1],"split_conditions":[6.933333E-1,1.8E-3,1.7787252E1,1.2333334E-3,6E0,9.670537E-5,2.528101E-4,4.708149E-4,-1.0220472E-6,7.682275E-5,1.0173E3,8.5E-3,3.9530427E-5,7.5999983E-6,2.26E-2,-2.833161E-5,-1.3879993E-5,1.1315784E-2,-5.209191E-6,5.794505E-5,2.5850592E-5],"split_indices":[77,59,20,65,15,0,0,66,0,0,2,47,0,0,52,0,0,44,0,0,0],"split_type":[0,0,0,0,0,0,0,0,0,0,0,0,0,0,0,0,0,0,0,0,0],"sum_hessian":[3.68E2,3.63E2,5E0,2.79E2,8.4E1,3E0,2E0,1.51E2,1.28E2,3E0,8.1E1,1.49E2,2E0,3.6E1,4.5E1,4.9E1,1E2,4.1E1,4E0,1.2E1,2.9E1],"tree_param":{"num_deleted":"0","num_feature":"89","num_nodes":"21","size_leaf_vector":"1"}},{"base_weights":[1.399424E-5,-2.2956143E-5,2.2533184E-3,-1.02656304E-4,3.3845755E-4,9.090304E-5,2.3932688E-4,-2.0428402E-4,1.9293925E-7,5.6732964E-4,2.3386396E-4,-1.7794742E-5,2.195555E-5,2.3691033E-5,6.927056E-5,-2.6978173E-6,2.6125716E-5],"categories":[],"categories_nodes":[],"categories_segments":[],"categories_sizes":[],"default_left":[0,0,0,0,0,0,0,0,0,0,0,0,0,0,0,0,0],"id":12,"left_children":[1,3,5,7,9,-1,-1,11,-1,13,15,-1,-1,-1,-1,-1,-1],"loss_changes":[3.058422E-5,1.0519666E-5,1.548704E-6,3.193163E-6,1.4472662E-6,0E0,0E0,1.3817794E-6,0E0,1.3628787E-6,1.1769557E-6,0E0,0E0,0E0,0E0,0E0,0E0],"parents":[2147483647,0,0,1,1,2,2,3,3,4,4,7,7,9,9,10,10],"right_children":[2,4,6,8,10,-1,-1,12,-1,14,16,-1,-1,-1,-1,-1,-1],"split_conditions":[6.933333E-1,2E-3,1.7787252E1,1.2333334E-3,1.8E-3,9.090304E-5,2.3932688E-4,1.1250185E-1,1.9293925E-7,6.379655E-4,4.6E-1,-1.7794742E-5,2.195555E-5,2.3691033E-5,6.927056E-5,-2.6978173E-6,2.6125716E-5],"split_indices":[77,59,20,65,61,0,0,78,0,66,71,0,0,0,0,0,0],"split_type":[0,0,0,0,0,0,0,0,0,0,0,0,0,0,0,0,0],"sum_hessian":[3.68E2,3.63E2,5E0,2.98E2,6.5E1,3E0,2E0,1.51E2,1.47E2,1.9E1,4.6E1,1.46E2,5E0,1.1E1,8E0,1.2E1,3.4E1],"tree_param":{"num_deleted":"0","num_feature":"89","num_nodes":"17","size_leaf_vector":"1"}},{"base_weights":[1.4096878E-5,-2.078791E-5,2.1280912E-3,-1.3249878E-4,2.046521E-4,8.544886E-5,2.2656277E-4,-2.5366013E-5,-8.9167064E-5,7.2160506E-6,3.5478576E-4,3.198211E-5,-1.01246806E-4,2.1970245E-5,6.0905953E-5,-1.1426178E-5,2.3255072E-6],"categories":[],"categories_nodes":[],"categories_segments":[],"categories_sizes":[],"default_left":[0,0,0,0,0,0,0,0,0,0,0,0,0,0,0,0,0],"id":13,"left_children":[1,3,5,7,9,-1,-1,-1,11,-1,13,-1,15,-1,-1,-1,-1],"loss_changes":[2.72566E-5,9.194128E-6,1.4520701E-6,1.923242E-6,2.047143E-6,0E0,0E0,0E0,1.2158321E-6,0E0,1.4854527E-6,0E0,1.060775E-6,0E0,0E0,0E0,0E0],"parents":[2147483647,0,0,1,1,2,2,3,3,4,4,8,8,10,10,12,12],"right_children":[2,4,6,8,10,-1,-1,-1,12,-1,14,-1,16,-1,-1,-1,-1],"split_conditions":[6.933333E-1,1.5E-3,1.7787252E1,8E-4,5.3E-1,8.544886E-5,2.2656277E-4,-2.5366013E-5,8.333333E0,7.2160506E-6,7.563068E-4,3.198211E-5,4.6E-1,2.1970245E-5,6.0905953E-5,-1.1426178E-5,2.3255072E-6],"split_indices":[77,59,20,59,71,0,0,0,17,0,66,0,71,0,0,0,0],"split_type":[0,0,0,0,0,0,0,0,0,0,0,0,0,0,0,0,0],"sum_hessian":[3.68E2,3.63E2,5E0,2.43E2,1.2E2,3E0,2E0,4.5E1,1.98E2,6.9E1,5.1E1,4E0,1.94E2,4.4E1,7E0,1.47E2,4.7E1],"tree_param":{"num_deleted":"0","num_feature":"89","num_nodes":"17","size_leaf_vector":"1"}},{"base_weights":[1.4052114E-5,-1.8884188E-5,2.0098458E-3,-9.948034E-5,2.468312E-4,8.032193E-5,2.1447941E-4,-1.8820688E-4,-8.123166E-6,6.633949E-5,2.1541069E-4,3.606028E-5,-1.6044363E-5,-3.2697935E-6,2.7350328E-5,2.793285E-4,-5.2566593E-6,2.4238512E-5,-2.6100874E-5],"categories":[],"categories_nodes":[],"categories_segments":[],"categories_sizes":[],"default_left":[0,0,0,0,0,0,0,0,0,0,0,0,0,0,0,0,0,0,0],"id":14,"left_children":[1,3,5,7,9,-1,-1,11,13,-1,15,-1,-1,-1,-1,17,-1,-1,-1],"loss_changes":[2.4293822E-5,7.819848E-6,1.358545E-6,2.268097E-6,1.3768454E-6,0E0,0E0,1.2107344E-6,1.6072349E-6,0E0,1.4917712E-6,0E0,0E0,0E0,0E0,1.0585563E-6,0E0,0E0,0E0],"parents":[2147483647,0,0,1,1,2,2,3,3,4,4,7,7,8,8,10,10,15,15],"right_children":[2,4,6,8,10,-1,-1,12,14,-1,16,-1,-1,-1,-1,18,-1,-1,-1],"split_conditions":[6.933333E-1,1.8E-3,1.7787252E1,1.1E-2,6E0,8.032193E-5,2.1447941E-4,1.53E-2,1.3678119E-1,6.633949E-5,1.51722E-1,3.606028E-5,-1.6044363E-5,-3.2697935E-6,2.7350328E-5,6.5E-1,-5.2566593E-6,2.4238512E-5,-2.6100874E-5],"split_indices":[77,59,20,47,15,0,0,35,80,0,82,0,0,0,0,76,0,0,0],"split_type":[0,0,0,0,0,0,0,0,0,0,0,0,0,0,0,0,0,0,0],"sum_hessian":[3.68E2,3.63E2,5E0,2.79E2,8.4E1,3E0,2E0,1.41E2,1.38E2,3E0,8.1E1,2E0,1.39E2,1.27E2,1.1E1,6.6E1,1.5E1,6.4E1,2E0],"tree_param":{"num_deleted":"0","num_feature":"89","num_nodes":"19","size_leaf_vector":"1"}},{"base_weights":[1.4006833E-5,-1.7089638E-5,1.8981916E-3,-1.13476235E-4,1.7741795E-4,7.550261E-5,2.0304052E-4,-2.2302935E-5,-5.9754825E-6,7.921401E-6,2.768442E-5],"categories":[],"categories_nodes":[],"categories_segments":[],"categories_sizes":[],"default_left":[0,0,0,0,0,0,0,0,0,0,0],"id":15,"left_children":[1,3,5,7,9,-1,-1,-1,-1,-1,-1],"loss_changes":[2.1652706E-5,6.844377E-6,1.2685432E-6,1.5435062E-6,1.5655048E-6,0E0,0E0,0E0,0E0,0E0,0E0],"parents":[2147483647,0,0,1,1,2,2,3,3,4,4],"right_children":[2,4,6,8,10,-1,-1,-1,-1,-1,-1],"split_conditions":[6.933333E-1,1.5E-3,1.7787252E1,8E-4,2.3E-3,7.550261E-5,2.0304052E-4,-2.2302935E-5,-5.9754825E-6,7.921401E-6,2.768442E-5],"split_indices":[77,59,20,59,59,0,0,0,0,0,0],"split_type":[0,0,0,0,0,0,0,0,0,0,0],"sum_hessian":[3.68E2,3.63E2,5E0,2.43E2,1.2E2,3E0,2E0,4.5E1,1.98E2,8.3E1,3.7E1],"tree_param":{"num_deleted":"0","num_feature":"89","num_nodes":"11","size_leaf_vector":"1"}},{"base_weights":[1.3661008E-5,-1.5702333E-5,1.7927602E-3,-8.176105E-5,2.3570124E-4,7.097246E-5,1.922117E-4,-1.3646837E-5,8.864821E-6,1.7374624E-4,5.017836E-5,5.251194E-5,-7.654256E-7,1.5704237E-6,2.21827E-5],"categories":[],"categories_nodes":[],"categories_segments":[],"categories_sizes":[],"default_left":[0,0,0,0,0,0,0,0,0,0,0,0,0,0,0],"id":16,"left_children":[1,3,5,7,9,-1,-1,-1,11,13,-1,-1,-1,-1,-1],"loss_changes":[1.9304822E-5,6.064364E-6,1.1823704E-6,2.3279017E-6,1.7345633E-6,0E0,0E0,0E0,1.7250311E-6,1.0636613E-6,0E0,0E0,0E0,0E0,0E0],"parents":[2147483647,0,0,1,1,2,2,3,3,4,4,8,8,9,9],"right_children":[2,4,6,8,10,-1,-1,-1,12,14,-1,-1,-1,-1,-1],"split_conditions":[6.933333E-1,5.2E-1,1.7787252E1,1.2333334E-3,9.093954E-4,7.097246E-5,1.922117E-4,-1.3646837E-5,5E0,2.8266666E-2,5.017836E-5,5.251194E-5,-7.654256E-7,1.5704237E-6,2.21827E-5],"split_indices":[77,71,20,65,66,0,0,0,14,45,0,0,0,0,0],"split_type":[0,0,0,0,0,0,0,0,0,0,0,0,0,0,0],"sum_hessian":[3.68E2,3.63E2,5E0,2.88E2,7.5E1,3E0,2E0,1.45E2,1.43E2,6.6E1,9E0,3E0,1.4E2,2.7E1,3.9E1],"tree_param":{"num_deleted":"0","num_feature":"89","num_nodes":"15","size_leaf_vector":"1"}},{"base_weights":[1.35849605E-5,-1.41383825E-5,1.6932036E-3,-7.508835E-5,2.1781793E-4,6.671412E-5,1.8196041E-4,-1.1632989E-5,2.3753357E-5,1.2816085E-5,4.656553E-5,4.936122E-5,2.7531868E-7],"categories":[],"categories_nodes":[],"categories_segments":[],"categories_sizes":[],"default_left":[0,0,0,0,0,0,0,0,0,0,0,0,0],"id":17,"left_children":[1,3,5,7,9,-1,-1,-1,11,-1,-1,-1,-1],"loss_changes":[1.7206292E-5,5.162489E-6,1.1002248E-6,2.0122775E-6,1.5017647E-6,0E0,0E0,0E0,1.4559581E-6,0E0,0E0,0E0,0E0],"parents":[2147483647,0,0,1,1,2,2,3,3,4,4,8,8],"right_children":[2,4,6,8,10,-1,-1,-1,12,-1,-1,-1,-1],"split_conditions":[6.933333E-1,5.2E-1,1.7787252E1,1.3E-3,9.093954E-4,6.671412E-5,1.8196041E-4,-1.1632989E-5,5E0,1.2816085E-5,4.656553E-5,4.936122E-5,2.7531868E-7],"split_indices":[77,71,20,65,66,0,0,0,14,0,0,0,0],"split_type":[0,0,0,0,0,0,0,0,0,0,0,0,0],"sum_hessian":[3.68E2,3.63E2,5E0,2.88E2,7.5E1,3E0,2E0,1.68E2,1.2E2,6.6E1,9E0,3E0,1.17E2],"tree_param":{"num_deleted":"0","num_feature":"89","num_nodes":"13","size_leaf_vector":"1"}},{"base_weights":[1.343601E-5,-1.2739757E-5,1.5991932E-3,-9.099657E-5,1.4517264E-4,6.271128E-5,1.7225585E-4,-3.7487018E-5,-1.4571266E-5,1.13768714E-4,3.5909554E-5,-6.952625E-6,8.541638E-6,5.5794844E-5,7.732859E-6],"categories":[],"categories_nodes":[],"categories_segments":[],"categories_sizes":[],"default_left":[0,0,0,0,0,0,0,0,0,0,0,0,0,0,0],"id":18,"left_children":[1,3,5,7,9,-1,-1,11,-1,13,-1,-1,-1,-1,-1],"loss_changes":[1.5336975E-5,4.5114207E-6,1.0222175E-6,1.1831814E-6,1.1029431E-6,0E0,0E0,1.1143238E-6,0E0,1.0409601E-6,0E0,0E0,0E0,0E0,0E0],"parents":[2147483647,0,0,1,1,2,2,3,3,4,4,7,7,9,9],"right_children":[2,4,6,8,10,-1,-1,12,-1,14,-1,-1,-1,-1,-1],"split_conditions":[6.933333E-1,1.5E-3,1.7787252E1,3.7833333E-2,6.5E-1,6.271128E-5,1.7225585E-4,5.4998402E-3,-1.4571266E-5,1.3E1,3.5909554E-5,-6.952625E-6,8.541638E-6,5.5794844E-5,7.732859E-6],"split_indices":[77,59,20,43,71,0,0,58,0,27,0,0,0,0,0],"split_type":[0,0,0,0,0,0,0,0,0,0,0,0,0,0,0],"sum_hessian":[3.68E2,3.63E2,5E0,2.43E2,1.2E2,3E0,2E0,1.54E2,8.9E1,1.1E2,1E1,1.15E2,3.9E1,2E0,1.08E2],"tree_param":{"num_deleted":"0","num_feature":"89","num_nodes":"15","size_leaf_vector":"1"}},{"base_weights":[1.3232204E-5,-9.307818E-6,1.3248058E-4,-6.02417E-5,1.7450644E-5,-1.0163744E-5,1.4894573E-6],"categories":[],"categories_nodes":[],"categories_segments":[],"categories_sizes":[],"default_left":[0,0,0,0,0,0,0],"id":19,"left_children":[1,3,-1,5,-1,-1,-1],"loss_changes":[1.3678815E-5,4.2414636E-6,0E0,1.5775704E-6,0E0,0E0,0E0],"parents":[2147483647,0,0,1,1,3,3],"right_children":[2,4,-1,6,-1,-1,-1],"split_conditions":[7.3333335E-1,2E-3,1.3248058E-4,2.8028558E-3,1.7450644E-5,-1.0163744E-5,1.4894573E-6],"split_indices":[77,59,0,54,0,0,0],"split_type":[0,0,0,0,0,0,0],"sum_hessian":[3.68E2,3.64E2,4E0,2.98E2,6.6E1,1.61E2,1.37E2],"tree_param":{"num_deleted":"0","num_feature":"89","num_nodes":"7","size_leaf_vector":"1"}},{"base_weights":[1.2556454E-5,-1.0664311E-5,1.4191901E-3,-6.431632E-5,1.7175173E-4,5.330038E-5,1.5600324E-4,4.4463406E-5,-7.297625E-5,-1.8483227E-6,2.128901E-5,-1.1379349E-5,-7.123086E-7],"categories":[],"categories_nodes":[],"categories_segments":[],"categories_sizes":[],"default_left":[0,0,0,0,0,0,0,0,0,0,0,0,0],"id":20,"left_children":[1,3,5,7,9,-1,-1,-1,11,-1,-1,-1,-1],"loss_changes":[1.20678205E-5,3.57351E-6,1.0989534E-6,1.5549274E-6,1.5322496E-6,0E0,0E0,0E0,1.2369395E-6,0E0,0E0,0E0,0E0],"parents":[2147483647,0,0,1,1,2,2,3,3,4,4,8,8],"right_children":[2,4,6,8,10,-1,-1,-1,12,-1,-1,-1,-1],"split_conditions":[6.933333E-1,5.1E-1,1.7787252E1,5E0,4.35503E-3,5.330038E-5,1.5600324E-4,4.4463406E-5,1.2E-3,-1.8483227E-6,2.128901E-5,-1.1379349E-5,-7.123086E-7],"split_indices":[77,71,20,14,56,0,0,0,59,0,0,0,0],"split_type":[0,0,0,0,0,0,0,0,0,0,0,0,0],"sum_hessian":[3.68E2,3.63E2,5E0,2.81E2,8.2E1,3E0,2E0,3E0,2.78E2,2.7E1,5.5E1,1.33E2,1.45E2],"tree_param":{"num_deleted":"0","num_feature":"89","num_nodes":"13","size_leaf_vector":"1"}},{"base_weights":[1.2259579E-5,-9.668814E-6,1.3405388E-3,-5.9056198E-5,1.5824578E-4,5.010235E-5,1.4768307E-4,4.1795603E-5,-6.718146E-5,-1.7057396E-6,2.4520373E-4,-1.6877297E-5,-3.1489867E-6,1.124257E-5,4.26586E-4,5.1098465E-5,1.2045445E-5],"categories":[],"categories_nodes":[],"categories_segments":[],"categories_sizes":[],"default_left":[0,0,0,0,0,0,0,0,0,0,0,0,0,0,0,0,0],"id":21,"left_children":[1,3,5,7,9,-1,-1,-1,11,-1,13,-1,-1,-1,15,-1,-1],"loss_changes":[1.0760835E-5,3.0279475E-6,1.0102121E-6,1.3675067E-6,1.3012584E-6,0E0,0E0,0E0,1.1076862E-6,0E0,1.0032427E-6,0E0,0E0,0E0,1.0749436E-6,0E0,0E0],"parents":[2147483647,0,0,1,1,2,2,3,3,4,4,8,8,10,10,14,14],"right_children":[2,4,6,8,10,-1,-1,-1,12,-1,14,-1,-1,-1,16,-1,-1],"split_conditions":[6.933333E-1,5.1E-1,1.7787252E1,5E0,4.35503E-3,5.010235E-5,1.4768307E-4,4.1795603E-5,8E-4,-1.7057396E-6,5.609516E-4,-1.6877297E-5,-3.1489867E-6,1.124257E-5,9.611546E-3,5.1098465E-5,1.2045445E-5],"split_indices":[77,71,20,14,56,0,0,0,59,0,66,0,0,0,44,0,0],"split_type":[0,0,0,0,0,0,0,0,0,0,0,0,0,0,0,0,0],"sum_hessian":[3.68E2,3.63E2,5E0,2.81E2,8.2E1,3E0,2E0,3E0,2.78E2,2.7E1,5.5E1,4.4E1,2.34E2,3.6E1,1.9E1,1E1,9E0],"tree_param":{"num_deleted":"0","num_feature":"89","num_nodes":"17","size_leaf_vector":"1"}},{"base_weights":[1.2070813E-5,-8.635796E-6,1.0130079E-4,-7.1209683E-6,8.361136E-5,4.4652927E-5,6.881399E-5,-1.0549393E-6,1.2742842E-5],"categories":[],"categories_nodes":[],"categories_segments":[],"categories_sizes":[],"default_left":[0,0,0,0,0,0,0,0,0],"id":22,"left_children":[1,3,-1,-1,5,-1,7,-1,-1],"loss_changes":[9.593866E-6,2.7063154E-6,0E0,0E0,1.1553464E-6,0E0,1.2336099E-6,0E0,0E0],"parents":[2147483647,0,0,1,1,4,4,6,6],"right_children":[2,4,-1,-1,6,-1,8,-1,-1],"split_conditions":[6.933333E-1,1.3666666E-3,1.0130079E-4,-7.1209683E-6,5E0,4.4652927E-5,1.0181E3,-1.0549393E-6,1.2742842E-5],"split_indices":[77,65,0,0,14,0,2,0,0],"split_type":[0,0,0,0,0,0,0,0,0],"sum_hessian":[3.68E2,3.63E2,5E0,1.94E2,1.69E2,4E0,1.65E2,8.7E1,7.8E1],"tree_param":{"num_deleted":"0","num_feature":"89","num_nodes":"9","size_leaf_vector":"1"}},{"base_weights":[1.15130815E-5,-6.253165E-6,1.04491715E-4,-6.6733046E-5,1.0899624E-4,2.3111379E-5,-6.4192973E-6,-1.324862E-6,2.0649197E-4,9.65515E-6,3.042487E-5],"categories":[],"categories_nodes":[],"categories_segments":[],"categories_sizes":[],"default_left":[0,0,0,0,0,0,0,0,0,0,0],"id":23,"left_children":[1,3,-1,5,7,-1,-1,-1,9,-1,-1],"loss_changes":[8.4954545E-6,2.5514225E-6,0E0,1.176104E-6,1.5458199E-6,0E0,0E0,0E0,1.0130022E-6,0E0,0E0],"parents":[2147483647,0,0,1,1,3,3,4,4,8,8],"right_children":[2,4,-1,6,8,-1,-1,-1,10,-1,-1],"split_conditions":[7.3333335E-1,4.6E-1,1.04491715E-4,6E0,4.3684477E-3,2.3111379E-5,-6.4192973E-6,-1.324862E-6,5.609516E-4,9.65515E-6,3.042487E-5],"split_indices":[77,71,0,14,56,0,0,0,66,0,0],"split_type":[0,0,0,0,0,0,0,0,0,0,0],"sum_hessian":[3.68E2,3.64E2,4E0,2.39E2,1.25E2,8E0,2.31E2,5.5E1,7E1,4.8E1,2.2E1],"tree_param":{"num_deleted":"0","num_feature":"89","num_nodes":"11","size_leaf_vector":"1"}},{"base_weights":[1.1025444E-5,-5.601033E-6,9.780425E-5,-9.39395E-5,6.303856E-5,3.979237E-5,-8.67258E-6,-1.2953071E-6,1.5761239E-4,4.496844E-6,2.1725138E-5],"categories":[],"categories_nodes":[],"categories_segments":[],"categories_sizes":[],"default_left":[0,0,0,0,0,0,0,0,0,0,0],"id":24,"left_children":[1,3,-1,5,7,-1,-1,-1,9,-1,-1],"loss_changes":[7.4397767E-6,2.2191055E-6,0E0,1.4227891E-6,1.5461254E-6,0E0,0E0,0E0,1.0708984E-6,0E0,0E0],"parents":[2147483647,0,0,1,1,3,3,4,4,8,8],"right_children":[2,4,-1,6,8,-1,-1,-1,10,-1,-1],"split_conditions":[7.3333335E-1,1.1E-2,9.780425E-5,1.53E-2,4.3684477E-3,3.979237E-5,-8.67258E-6,-1.2953071E-6,3.6560453E-4,4.496844E-6,2.1725138E-5],"split_indices":[77,47,0,35,56,0,0,0,66,0,0],"split_type":[0,0,0,0,0,0,0,0,0,0,0],"sum_hessian":[3.68E2,3.64E2,4E0,1.59E2,2.05E2,3E0,1.56E2,1.12E2,9.3E1,5E1,4.3E1],"tree_param":{"num_deleted":"0","num_feature":"89","num_nodes":"11","size_leaf_vector":"1"}},{"base_weights":[1.0560352E-5,-4.999395E-6,1.1443098E-3,-5.8681353E-6,5.8380356E-6,2.8959821E-5,1.2361481E-4],"categories":[],"categories_nodes":[],"categories_segments":[],"categories_sizes":[],"default_left":[0,0,0,0,0,0,0],"id":25,"left_children":[1,3,5,-1,-1,-1,-1],"loss_changes":[6.5151958E-6,1.9507152E-6,1.0086951E-6,0E0,0E0,0E0,0E0],"parents":[2147483647,0,0,1,1,2,2],"right_children":[2,4,6,-1,-1,-1,-1],"split_conditions":[7.3333335E-1,1.3666666E-3,1.018E3,-5.8681353E-6,5.8380356E-6,2.8959821E-5,1.2361481E-4],"split_indices":[77,65,2,0,0,0,0],"split_type":[0,0,0,0,0,0,0],"sum_hessian":[3.68E2,3.64E2,4E0,1.94E2,1.7E2,2E0,2E0],"tree_param":{"num_deleted":"0","num_feature":"89","num_nodes":"7","size_leaf_vector":"1"}},{"base_weights":[1.0128946E-5,-4.5995016E-6,8.666239E-5,-8.4495514E-5,5.747798E-5,3.7288664E-5,-7.838836E-6,-1.0919508E-6,1.1389655E-5],"categories":[],"categories_nodes":[],"categories_segments":[],"categories_sizes":[],"default_left":[0,0,0,0,0,0,0,0,0],"id":26,"left_children":[1,3,-1,5,7,-1,-1,-1,-1],"loss_changes":[5.8373403E-6,1.815163E-6,0E0,1.2340895E-6,1.2458113E-6,0E0,0E0,0E0,0E0],"parents":[2147483647,0,0,1,1,3,3,4,4],"right_children":[2,4,-1,6,8,-1,-1,-1,-1],"split_conditions":[7.3333335E-1,1.1E-2,8.666239E-5,1.53E-2,4.3684477E-3,3.7288664E-5,-7.838836E-6,-1.0919508E-6,1.1389655E-5],"split_indices":[77,47,0,35,56,0,0,0,0],"split_type":[0,0,0,0,0,0,0,0,0],"sum_hessian":[3.68E2,3.64E2,4E0,1.59E2,2.05E2,3E0,1.56E2,1.12E2,9.3E1],"tree_param":{"num_deleted":"0","num_feature":"89","num_nodes":"9","size_leaf_vector":"1"}},{"base_weights":[9.6612175E-6,-5.4827065E-6,9.267824E-4,-5.8886326E-6,4.528616E-6,2.691388E-5,1.12400005E-4],"categories":[],"categories_nodes":[],"categories_segments":[],"categories_sizes":[],"default_left":[0,0,0,0,0,0,0],"id":27,"left_children":[1,3,5,-1,-1,-1,-1],"loss_changes":[5.130053E-6,1.5438582E-6,1.2212449E-6,0E0,0E0,0E0,0E0],"parents":[2147483647,0,0,1,1,2,2],"right_children":[2,4,6,-1,-1,-1,-1],"split_conditions":[6.933333E-1,1.3E-3,1.7787252E1,-5.8886326E-6,4.528616E-6,2.691388E-5,1.12400005E-4],"split_indices":[77,59,20,0,0,0,0],"split_type":[0,0,0,0,0,0,0],"sum_hessian":[3.68E2,3.63E2,5E0,1.73E2,1.9E2,3E0,2E0],"tree_param":{"num_deleted":"0","num_feature":"89","num_nodes":"7","size_leaf_vector":"1"}},{"base_weights":[9.262164E-6,-5.0478397E-6,8.7585865E-4,-3.986423E-6,8.0974845E-5,2.529905E-5,1.06405314E-4,4.1512603E-6,3.021395E-5],"categories":[],"categories_nodes":[],"categories_segments":[],"categories_sizes":[],"default_left":[0,0,0,0,0,0,0,0,0],"id":28,"left_children":[1,3,5,-1,7,-1,-1,-1,-1],"loss_changes":[4.5803895E-6,1.4062745E-6,1.1044863E-6,0E0,1.0590567E-6,0E0,0E0,0E0,0E0],"parents":[2147483647,0,0,1,1,2,2,4,4],"right_children":[2,4,6,-1,8,-1,-1,-1,-1],"split_conditions":[6.933333E-1,4.6E-1,1.7787252E1,-3.986423E-6,9.093954E-4,2.529905E-5,1.06405314E-4,4.1512603E-6,3.021395E-5],"split_indices":[77,71,20,0,66,0,0,0,0],"split_type":[0,0,0,0,0,0,0,0,0],"sum_hessian":[3.68E2,3.63E2,5E0,2.39E2,1.24E2,3E0,2E0,1.14E2,1E1],"tree_param":{"num_deleted":"0","num_feature":"89","num_nodes":"9","size_leaf_vector":"1"}},{"base_weights":[8.960424E-6,-1.0389008E-5,5.854718E-4,-3.6371641E-6,8.86047E-5,1.6375945E-5,8.620907E-5,1.9496163E-5,3.6990207E-7],"categories":[],"categories_nodes":[],"categories_segments":[],"categories_sizes":[],"default_left":[0,0,0,0,0,0,0,0,0],"id":29,"left_children":[1,3,5,-1,7,-1,-1,-1,-1],"loss_changes":[4.1223393E-6,1.2470969E-6,2.028141E-6,0E0,1.2232438E-6,0E0,0E0,0E0,0E0],"parents":[2147483647,0,0,1,1,2,2,4,4],"right_children":[2,4,6,-1,8,-1,-1,-1,-1],"split_conditions":[7.2E-1,1.7166666E-3,2.2766666E-2,-3.6371641E-6,2E-3,1.6375945E-5,8.620907E-5,1.9496163E-5,3.6990207E-7],"split_indices":[71,65,53,0,61,0,0,0,0],"split_type":[0,0,0,0,0,0,0,0,0],"sum_hessian":[3.68E2,3.57E2,1.1E1,2.64E2,9.3E1,7E0,4E0,3.2E1,6.1E1],"tree_param":{"num_deleted":"0","num_feature":"89","num_nodes":"9","size_leaf_vector":"1"}},{"base_weights":[8.565584E-6,-3.2269807E-6,6.9416776E-5,-6.966812E-5,3.871476E-6,3.5110927E-5,-6.574495E-6],"categories":[],"categories_nodes":[],"categories_segments":[],"categories_sizes":[],"default_left":[0,0,0,0,0,0,0],"id":30,"left_children":[1,3,-1,5,-1,-1,-1],"loss_changes":[3.7413283E-6,1.2552196E-6,0E0,1.0542403E-6,0E0,0E0,0E0],"parents":[2147483647,0,0,1,1,3,3],"right_children":[2,4,-1,6,-1,-1,-1],"split_conditions":[7.3333335E-1,1.1E-2,6.9416776E-5,1.53E-2,3.871476E-6,3.5110927E-5,-6.574495E-6],"split_indices":[77,47,0,35,0,0,0],"split_type":[0,0,0,0,0,0,0],"sum_hessian":[3.68E2,3.64E2,4E0,1.59E2,2.05E2,3E0,1.56E2],"tree_param":{"num_deleted":"0","num_feature":"89","num_nodes":"7","size_leaf_vector":"1"}},{"base_weights":[8.156253E-6,-9.266239E-6,5.272476E-4,2.3735642E-5,-1.5128654E-6,4.773373E-6,6.821678E-5],"categories":[],"categories_nodes":[],"categories_segments":[],"categories_sizes":[],"default_left":[0,0,0,0,0,0,0],"id":31,"left_children":[1,3,5,-1,-1,-1,-1],"loss_changes":[3.342072E-6,1.0620231E-6,1.775278E-6,0E0,0E0,0E0,0E0],"parents":[2147483647,0,0,1,1,2,2],"right_children":[2,4,6,-1,-1,-1,-1],"split_conditions":[7.2E-1,6E0,1.45E-2,2.3735642E-5,-1.5128654E-6,4.773373E-6,6.821678E-5],"split_indices":[71,14,52,0,0,0,0],"split_type":[0,0,0,0,0,0,0],"sum_hessian":[3.68E2,3.57E2,1.1E1,1E1,3.47E2,5E0,6E0],"tree_param":{"num_deleted":"0","num_feature":"89","num_nodes":"7","size_leaf_vector":"1"}},{"base_weights":[7.76176E-6,-2.896159E-6,6.2739E-5,-4.7522344E-6,4.096696E-6],"categories":[],"categories_nodes":[],"categories_segments":[],"categories_sizes":[],"default_left":[0,0,0,0,0],"id":32,"left_children":[1,3,-1,-1,-1],"loss_changes":[3.0559736E-6,1.1189533E-6,0E0,0E0,0E0],"parents":[2147483647,0,0,1,1],"right_children":[2,4,-1,-1,-1],"split_conditions":[7.3333335E-1,2.8028558E-3,6.2739E-5,-4.7522344E-6,4.096696E-6],"split_indices":[77,54,0,0,0],"split_type":[0,0,0,0,0],"sum_hessian":[3.68E2,3.64E2,4E0,1.78E2,1.86E2],"tree_param":{"num_deleted":"0","num_feature":"89","num_nodes":"5","size_leaf_vector":"1"}},{"base_weights":[7.3090764E-6,-6.649756E-7,4.727346E-4,1.1826984E-5,7.184186E-5],"categories":[],"categories_nodes":[],"categories_segments":[],"categories_sizes":[],"default_left":[0,0,0,0,0],"id":33,"left_children":[1,-1,3,-1,-1],"loss_changes":[2.686758E-6,0E0,1.5253402E-6,0E0,0E0],"parents":[2147483647,0,0,2,2],"right_children":[2,-1,4,-1,-1],"split_conditions":[7.2E-1,-6.649756E-7,2.2766666E-2,1.1826984E-5,7.184186E-5],"split_indices":[71,0,53,0,0],"split_type":[0,0,0,0,0],"sum_hessian":[3.68E2,3.57E2,1.1E1,7E0,4E0],"tree_param":{"num_deleted":"0","num_feature":"89","num_nodes":"5","size_leaf_vector":"1"}},{"base_weights":[6.9492794E-6,-2.084607E-7,5.6246172E-5],"categories":[],"categories_nodes":[],"categories_segments":[],"categories_sizes":[],"default_left":[0,0,0],"id":34,"left_children":[1,-1,-1],"loss_changes":[2.4562462E-6,0E0,0E0],"parents":[2147483647,0,0],"right_children":[2,-1,-1],"split_conditions":[7.3333335E-1,-2.084607E-7,5.6246172E-5],"split_indices":[77,0,0],"split_type":[0,0,0],"sum_hessian":[3.68E2,3.64E2,4E0],"tree_param":{"num_deleted":"0","num_feature":"89","num_nodes":"3","size_leaf_vector":"1"}},{"base_weights":[6.545213E-6,-6.0791115E-7,4.279655E-4,1.8728368E-6,5.708712E-5],"categories":[],"categories_nodes":[],"categories_segments":[],"categories_sizes":[],"default_left":[0,0,0,0,0],"id":35,"left_children":[1,-1,3,-1,-1],"loss_changes":[2.202718E-6,0E0,1.3698996E-6,0E0,0E0],"parents":[2147483647,0,0,2,2],"right_children":[2,-1,4,-1,-1],"split_conditions":[7.2E-1,-6.0791115E-7,1.45E-2,1.8728368E-6,5.708712E-5],"split_indices":[71,0,52,0,0],"split_type":[0,0,0,0,0],"sum_hessian":[3.68E2,3.57E2,1.1E1,5E0,6E0],"tree_param":{"num_deleted":"0","num_feature":"89","num_nodes":"5","size_leaf_vector":"1"}},{"base_weights":[6.179739E-6,-1.9608488E-7,5.0799375E-5],"categories":[],"categories_nodes":[],"categories_segments":[],"categories_sizes":[],"default_left":[0,0,0],"id":36,"left_children":[1,-1,-1],"loss_changes":[2.0041766E-6,0E0,0E0],"parents":[2147483647,0,0],"right_children":[2,-1,-1],"split_conditions":[7.3333335E-1,-1.9608488E-7,5.0799375E-5],"split_indices":[77,0,0],"split_type":[0,0,0],"sum_hessian":[3.68E2,3.64E2,4E0],"tree_param":{"num_deleted":"0","num_feature":"89","num_nodes":"3","size_leaf_vector":"1"}},{"base_weights":[5.8224664E-6,3.6432793E-5,-5.4022144E-6,-3.09214E-6,8.5489846E-5,2.9821827E-5,3.854725E-6],"categories":[],"categories_nodes":[],"categories_segments":[],"categories_sizes":[],"default_left":[0,0,0,0,0,0,0],"id":37,"left_children":[1,-1,3,-1,5,-1,-1],"loss_changes":[1.8646097E-6,0E0,1.0942895E-6,0E0,1.0216181E-6,0E0,0E0],"parents":[2147483647,0,0,2,2,4,4],"right_children":[2,-1,4,-1,6,-1,-1],"split_conditions":[7.5E-3,3.6432793E-5,1.7166666E-3,-3.09214E-6,2.8E1,2.9821827E-5,3.854725E-6],"split_indices":[38,0,65,0,25,0,0],"split_type":[0,0,0,0,0,0,0],"sum_hessian":[3.68E2,8E0,3.6E2,2.64E2,9.6E1,1E1,8.6E1],"tree_param":{"num_deleted":"0","num_feature":"89","num_nodes":"7","size_leaf_vector":"1"}},{"base_weights":[5.5382725E-6,-5.6232943E-7,3.800039E-4,1.1020029E-6,5.1170246E-5],"categories":[],"categories_nodes":[],"categories_segments":[],"categories_sizes":[],"default_left":[0,0,0,0,0],"id":38,"left_children":[1,-1,3,-1,-1],"loss_changes":[1.7392057E-6,0E0,1.1321714E-6,0E0,0E0],"parents":[2147483647,0,0,2,2],"right_children":[2,-1,4,-1,-1],"split_conditions":[7.2E-1,-5.6232943E-7,1.45E-2,1.1020029E-6,5.1170246E-5],"split_indices":[71,0,52,0,0],"split_type":[0,0,0,0,0],"sum_hessian":[3.68E2,3.57E2,1.1E1,5E0,6E0],"tree_param":{"num_deleted":"0","num_feature":"89","num_nodes":"5","size_leaf_vector":"1"}},{"base_weights":[5.2353107E-6,-4.048381E-7,3.3410324E-5],"categories":[],"categories_nodes":[],"categories_segments":[],"categories_sizes":[],"default_left":[0,0,0],"id":39,"left_children":[1,-1,-1],"loss_changes":[1.5688574E-6,0E0,0E0],"parents":[2147483647,0,0],"right_children":[2,-1,-1],"split_conditions":[3.8E-3,-4.048381E-7,3.3410324E-5],"split_indices":[59,0,0],"split_type":[0,0,0],"sum_hessian":[3.68E2,3.6E2,8E0],"tree_param":{"num_deleted":"0","num_feature":"89","num_nodes":"3","size_leaf_vector":"1"}},{"base_weights":[4.9059763E-6,3.238995E-5,-4.0633E-7],"categories":[],"categories_nodes":[],"categories_segments":[],"categories_sizes":[],"default_left":[0,0,0],"id":40,"left_children":[1,-1,-1],"loss_changes":[1.4757409E-6,0E0,0E0],"parents":[2147483647,0,0],"right_children":[2,-1,-1],"split_conditions":[7.5E-3,3.238995E-5,-4.0633E-7],"split_indices":[38,0,0],"split_type":[0,0,0],"sum_hessian":[3.68E2,8E0,3.6E2],"tree_param":{"num_deleted":"0","num_feature":"89","num_nodes":"3","size_leaf_vector":"1"}},{"base_weights":[4.600148E-6,-7.5501447E-7,2.230897E-5],"categories":[],"categories_nodes":[],"categories_segments":[],"categories_sizes":[],"default_left":[0,0,0],"id":41,"left_children":[1,-1,-1],"loss_changes":[1.4232975E-6,0E0,0E0],"parents":[2147483647,0,0],"right_children":[2,-1,-1],"split_conditions":[6.5E-1,-7.5501447E-7,2.230897E-5],"split_indices":[71,0,0],"split_type":[0,0,0],"sum_hessian":[3.68E2,3.51E2,1.7E1],"tree_param":{"num_deleted":"0","num_feature":"89","num_nodes":"3","size_leaf_vector":"1"}},{"base_weights":[4.290593E-6,-3.777059E-7,4.1154353E-4,6.137361E-5,3.5786813E-6],"categories":[],"categories_nodes":[],"categories_segments":[],"categories_sizes":[],"default_left":[0,0,0,0,0],"id":42,"left_children":[1,-1,3,-1,-1],"loss_changes":[1.3562209E-6,0E0,1.0092609E-6,0E0,0E0],"parents":[2147483647,0,0,2,2],"right_children":[2,-1,4,-1,-1],"split_conditions":[7.7E-1,-3.777059E-7,2.7E1,6.137361E-5,3.5786813E-6],"split_indices":[73,0,15,0,0],"split_type":[0,0,0,0,0],"sum_hessian":[3.68E2,3.61E2,7E0,3E0,4E0],"tree_param":{"num_deleted":"0","num_feature":"89","num_nodes":"5","size_leaf_vector":"1"}},{"base_weights":[4.122303E-6,-2.2886109E-6,1.1215929E-4,5.196161E-5,6.792885E-6],"categories":[],"categories_nodes":[],"categories_segments":[],"categories_sizes":[],"default_left":[0,0,0,0,0],"id":43,"left_children":[1,-1,3,-1,-1],"loss_changes":[1.3080089E-6,0E0,1.2040717E-6,0E0,0E0],"parents":[2147483647,0,0,2,2],"right_children":[2,-1,4,-1,-1],"split_conditions":[1.75E-3,-2.2886109E-6,7.5E-3,5.196161E-5,6.792885E-6],"split_indices":[67,0,38,0,0],"split_type":[0,0,0,0,0],"sum_hessian":[3.68E2,2.83E2,8.5E1,3E0,8.2E1],"tree_param":{"num_deleted":"0","num_feature":"89","num_nodes":"5","size_leaf_vector":"1"}},{"base_weights":[3.945559E-6,-2.1061662E-6,1.0386979E-4,5.9961967E-6,4.4587203E-5],"categories":[],"categories_nodes":[],"categories_segments":[],"categories_sizes":[],"default_left":[0,0,0,0,0],"id":44,"left_children":[1,-1,3,-1,-1],"loss_changes":[1.1189486E-6,0E0,1.0859567E-6,0E0,0E0],"parents":[2147483647,0,0,2,2],"right_children":[2,-1,4,-1,-1],"split_conditions":[1.75E-3,-2.1061662E-6,7.2E-1,5.9961967E-6,4.4587203E-5],"split_indices":[67,0,71,0,0],"split_type":[0,0,0,0,0],"sum_hessian":[3.68E2,2.83E2,8.5E1,8.1E1,4E0],"tree_param":{"num_deleted":"0","num_feature":"89","num_nodes":"5","size_leaf_vector":"1"}},{"base_weights":[3.7613133E-6,-3.014186E-6,7.2599905E-5,4.282859E-6,4.582497E-5],"categories":[],"categories_nodes":[],"categories_segments":[],"categories_sizes":[],"default_left":[0,0,0,0,0],"id":45,"left_children":[1,-1,3,-1,-1],"loss_changes":[1.0553364E-6,0E0,1.2948556E-6,0E0,0E0],"parents":[2147483647,0,0,2,2],"right_children":[2,-1,4,-1,-1],"split_conditions":[5E-1,-3.014186E-6,5.858333E-1,4.282859E-6,4.582497E-5],"split_indices":[8,0,79,0,0],"split_type":[0,0,0,0,0],"sum_hessian":[3.68E2,2.3E2,1.38E2,1.34E2,4E0],"tree_param":{"num_deleted":"0","num_feature":"89","num_nodes":"5","size_leaf_vector":"1"}},{"base_weights":[3.5880614E-6],"categories":[],"categories_nodes":[],"categories_segments":[],"categories_sizes":[],"default_left":[0],"id":46,"left_children":[-1],"loss_changes":[0E0],"parents":[2147483647],"right_children":[-1],"split_conditions":[2.870449E-7],"split_indices":[0],"split_type":[0],"sum_hessian":[3.68E2],"tree_param":{"num_deleted":"0","num_feature":"89","num_nodes":"1","size_leaf_vector":"1"}},{"base_weights":[3.301772E-6],"categories":[],"categories_nodes":[],"categories_segments":[],"categories_sizes":[],"default_left":[0],"id":47,"left_children":[-1],"loss_changes":[0E0],"parents":[2147483647],"right_children":[-1],"split_conditions":[2.6414176E-7],"split_indices":[0],"split_type":[0],"sum_hessian":[3.68E2],"tree_param":{"num_deleted":"0","num_feature":"89","num_nodes":"1","size_leaf_vector":"1"}},{"base_weights":[3.038357E-6],"categories":[],"categories_nodes":[],"categories_segments":[],"categories_sizes":[],"default_left":[0],"id":48,"left_children":[-1],"loss_changes":[0E0],"parents":[2147483647],"right_children":[-1],"split_conditions":[2.4306854E-7],"split_indices":[0],"split_type":[0],"sum_hessian":[3.68E2],"tree_param":{"num_deleted":"0","num_feature":"89","num_nodes":"1","size_leaf_vector":"1"}},{"base_weights":[2.7959404E-6],"categories":[],"categories_nodes":[],"categories_segments":[],"categories_sizes":[],"default_left":[0],"id":49,"left_children":[-1],"loss_changes":[0E0],"parents":[2147483647],"right_children":[-1],"split_conditions":[2.2367523E-7],"split_indices":[0],"split_type":[0],"sum_hessian":[3.68E2],"tree_param":{"num_deleted":"0","num_feature":"89","num_nodes":"1","size_leaf_vector":"1"}},{"base_weights":[2.5728882E-6],"categories":[],"categories_nodes":[],"categories_segments":[],"categories_sizes":[],"default_left":[0],"id":50,"left_children":[-1],"loss_changes":[0E0],"parents":[2147483647],"right_children":[-1],"split_conditions":[2.0583106E-7],"split_indices":[0],"split_type":[0],"sum_hessian":[3.68E2],"tree_param":{"num_deleted":"0","num_feature":"89","num_nodes":"1","size_leaf_vector":"1"}},{"base_weights":[2.3676234E-6],"categories":[],"categories_nodes":[],"categories_segments":[],"categories_sizes":[],"default_left":[0],"id":51,"left_children":[-1],"loss_changes":[0E0],"parents":[2147483647],"right_children":[-1],"split_conditions":[1.8940987E-7],"split_indices":[0],"split_type":[0],"sum_hessian":[3.68E2],"tree_param":{"num_deleted":"0","num_feature":"89","num_nodes":"1","size_leaf_vector":"1"}},{"base_weights":[2.1787134E-6],"categories":[],"categories_nodes":[],"categories_segments":[],"categories_sizes":[],"default_left":[0],"id":52,"left_children":[-1],"loss_changes":[0E0],"parents":[2147483647],"right_children":[-1],"split_conditions":[1.7429707E-7],"split_indices":[0],"split_type":[0],"sum_hessian":[3.68E2],"tree_param":{"num_deleted":"0","num_feature":"89","num_nodes":"1","size_leaf_vector":"1"}},{"base_weights":[2.0048972E-6],"categories":[],"categories_nodes":[],"categories_segments":[],"categories_sizes":[],"default_left":[0],"id":53,"left_children":[-1],"loss_changes":[0E0],"parents":[2147483647],"right_children":[-1],"split_conditions":[1.6039176E-7],"split_indices":[0],"split_type":[0],"sum_hessian":[3.68E2],"tree_param":{"num_deleted":"0","num_feature":"89","num_nodes":"1","size_leaf_vector":"1"}},{"base_weights":[1.8449149E-6],"categories":[],"categories_nodes":[],"categories_segments":[],"categories_sizes":[],"default_left":[0],"id":54,"left_children":[-1],"loss_changes":[0E0],"parents":[2147483647],"right_children":[-1],"split_conditions":[1.4759318E-7],"split_indices":[0],"split_type":[0],"sum_hessian":[3.68E2],"tree_param":{"num_deleted":"0","num_feature":"89","num_nodes":"1","size_leaf_vector":"1"}},{"base_weights":[1.6977028E-6],"categories":[],"categories_nodes":[],"categories_segments":[],"categories_sizes":[],"default_left":[0],"id":55,"left_children":[-1],"loss_changes":[0E0],"parents":[2147483647],"right_children":[-1],"split_conditions":[1.3581622E-7],"split_indices":[0],"split_type":[0],"sum_hessian":[3.68E2],"tree_param":{"num_deleted":"0","num_feature":"89","num_nodes":"1","size_leaf_vector":"1"}},{"base_weights":[1.5622384E-6],"categories":[],"categories_nodes":[],"categories_segments":[],"categories_sizes":[],"default_left":[0],"id":56,"left_children":[-1],"loss_changes":[0E0],"parents":[2147483647],"right_children":[-1],"split_conditions":[1.2497907E-7],"split_indices":[0],"split_type":[0],"sum_hessian":[3.68E2],"tree_param":{"num_deleted":"0","num_feature":"89","num_nodes":"1","size_leaf_vector":"1"}},{"base_weights":[1.4375596E-6],"categories":[],"categories_nodes":[],"categories_segments":[],"categories_sizes":[],"default_left":[0],"id":57,"left_children":[-1],"loss_changes":[0E0],"parents":[2147483647],"right_children":[-1],"split_conditions":[1.1500477E-7],"split_indices":[0],"split_type":[0],"sum_hessian":[3.68E2],"tree_param":{"num_deleted":"0","num_feature":"89","num_nodes":"1","size_leaf_vector":"1"}},{"base_weights":[1.3228555E-6],"categories":[],"categories_nodes":[],"categories_segments":[],"categories_sizes":[],"default_left":[0],"id":58,"left_children":[-1],"loss_changes":[0E0],"parents":[2147483647],"right_children":[-1],"split_conditions":[1.05828434E-7],"split_indices":[0],"split_type":[0],"sum_hessian":[3.68E2],"tree_param":{"num_deleted":"0","num_feature":"89","num_nodes":"1","size_leaf_vector":"1"}},{"base_weights":[1.2173034E-6],"categories":[],"categories_nodes":[],"categories_segments":[],"categories_sizes":[],"default_left":[0],"id":59,"left_children":[-1],"loss_changes":[0E0],"parents":[2147483647],"right_children":[-1],"split_conditions":[9.738427E-8],"split_indices":[0],"split_type":[0],"sum_hessian":[3.68E2],"tree_param":{"num_deleted":"0","num_feature":"89","num_nodes":"1","size_leaf_vector":"1"}},{"base_weights":[1.1201527E-6],"categories":[],"categories_nodes":[],"categories_segments":[],"categories_sizes":[],"default_left":[0],"id":60,"left_children":[-1],"loss_changes":[0E0],"parents":[2147483647],"right_children":[-1],"split_conditions":[8.961221E-8],"split_indices":[0],"split_type":[0],"sum_hessian":[3.68E2],"tree_param":{"num_deleted":"0","num_feature":"89","num_nodes":"1","size_leaf_vector":"1"}},{"base_weights":[1.0307589E-6],"categories":[],"categories_nodes":[],"categories_segments":[],"categories_sizes":[],"default_left":[0],"id":61,"left_children":[-1],"loss_changes":[0E0],"parents":[2147483647],"right_children":[-1],"split_conditions":[8.246071E-8],"split_indices":[0],"split_type":[0],"sum_hessian":[3.68E2],"tree_param":{"num_deleted":"0","num_feature":"89","num_nodes":"1","size_leaf_vector":"1"}},{"base_weights":[9.485484E-7],"categories":[],"categories_nodes":[],"categories_segments":[],"categories_sizes":[],"default_left":[0],"id":62,"left_children":[-1],"loss_changes":[0E0],"parents":[2147483647],"right_children":[-1],"split_conditions":[7.588387E-8],"split_indices":[0],"split_type":[0],"sum_hessian":[3.68E2],"tree_param":{"num_deleted":"0","num_feature":"89","num_nodes":"1","size_leaf_vector":"1"}},{"base_weights":[8.7285383E-7],"categories":[],"categories_nodes":[],"categories_segments":[],"categories_sizes":[],"default_left":[0],"id":63,"left_children":[-1],"loss_changes":[0E0],"parents":[2147483647],"right_children":[-1],"split_conditions":[6.98283E-8],"split_indices":[0],"split_type":[0],"sum_hessian":[3.68E2],"tree_param":{"num_deleted":"0","num_feature":"89","num_nodes":"1","size_leaf_vector":"1"}},{"base_weights":[8.031939E-7],"categories":[],"categories_nodes":[],"categories_segments":[],"categories_sizes":[],"default_left":[0],"id":64,"left_children":[-1],"loss_changes":[0E0],"parents":[2147483647],"right_children":[-1],"split_conditions":[6.425551E-8],"split_indices":[0],"split_type":[0],"sum_hessian":[3.68E2],"tree_param":{"num_deleted":"0","num_feature":"89","num_nodes":"1","size_leaf_vector":"1"}},{"base_weights":[7.3910684E-7],"categories":[],"categories_nodes":[],"categories_segments":[],"categories_sizes":[],"default_left":[0],"id":65,"left_children":[-1],"loss_changes":[0E0],"parents":[2147483647],"right_children":[-1],"split_conditions":[5.9128546E-8],"split_indices":[0],"split_type":[0],"sum_hessian":[3.68E2],"tree_param":{"num_deleted":"0","num_feature":"89","num_nodes":"1","size_leaf_vector":"1"}},{"base_weights":[6.8013065E-7],"categories":[],"categories_nodes":[],"categories_segments":[],"categories_sizes":[],"default_left":[0],"id":66,"left_children":[-1],"loss_changes":[0E0],"parents":[2147483647],"right_children":[-1],"split_conditions":[5.441045E-8],"split_indices":[0],"split_type":[0],"sum_hessian":[3.68E2],"tree_param":{"num_deleted":"0","num_feature":"89","num_nodes":"1","size_leaf_vector":"1"}},{"base_weights":[6.2588725E-7],"categories":[],"categories_nodes":[],"categories_segments":[],"categories_sizes":[],"default_left":[0],"id":67,"left_children":[-1],"loss_changes":[0E0],"parents":[2147483647],"right_children":[-1],"split_conditions":[5.007098E-8],"split_indices":[0],"split_type":[0],"sum_hessian":[3.68E2],"tree_param":{"num_deleted":"0","num_feature":"89","num_nodes":"1","size_leaf_vector":"1"}},{"base_weights":[5.7596117E-7],"categories":[],"categories_nodes":[],"categories_segments":[],"categories_sizes":[],"default_left":[0],"id":68,"left_children":[-1],"loss_changes":[0E0],"parents":[2147483647],"right_children":[-1],"split_conditions":[4.607689E-8],"split_indices":[0],"split_type":[0],"sum_hessian":[3.68E2],"tree_param":{"num_deleted":"0","num_feature":"89","num_nodes":"1","size_leaf_vector":"1"}},{"base_weights":[5.2998814E-7],"categories":[],"categories_nodes":[],"categories_segments":[],"categories_sizes":[],"default_left":[0],"id":69,"left_children":[-1],"loss_changes":[0E0],"parents":[2147483647],"right_children":[-1],"split_conditions":[4.239905E-8],"split_indices":[0],"split_type":[0],"sum_hessian":[3.68E2],"tree_param":{"num_deleted":"0","num_feature":"89","num_nodes":"1","size_leaf_vector":"1"}},{"base_weights":[4.877253E-7],"categories":[],"categories_nodes":[],"categories_segments":[],"categories_sizes":[],"default_left":[0],"id":70,"left_children":[-1],"loss_changes":[0E0],"parents":[2147483647],"right_children":[-1],"split_conditions":[3.9018023E-8],"split_indices":[0],"split_type":[0],"sum_hessian":[3.68E2],"tree_param":{"num_deleted":"0","num_feature":"89","num_nodes":"1","size_leaf_vector":"1"}},{"base_weights":[4.4881386E-7],"categories":[],"categories_nodes":[],"categories_segments":[],"categories_sizes":[],"default_left":[0],"id":71,"left_children":[-1],"loss_changes":[0E0],"parents":[2147483647],"right_children":[-1],"split_conditions":[3.590511E-8],"split_indices":[0],"split_type":[0],"sum_hessian":[3.68E2],"tree_param":{"num_deleted":"0","num_feature":"89","num_nodes":"1","size_leaf_vector":"1"}},{"base_weights":[4.130433E-7],"categories":[],"categories_nodes":[],"categories_segments":[],"categories_sizes":[],"default_left":[0],"id":72,"left_children":[-1],"loss_changes":[0E0],"parents":[2147483647],"right_children":[-1],"split_conditions":[3.3043463E-8],"split_indices":[0],"split_type":[0],"sum_hessian":[3.68E2],"tree_param":{"num_deleted":"0","num_feature":"89","num_nodes":"1","size_leaf_vector":"1"}},{"base_weights":[3.8007346E-7],"categories":[],"categories_nodes":[],"categories_segments":[],"categories_sizes":[],"default_left":[0],"id":73,"left_children":[-1],"loss_changes":[0E0],"parents":[2147483647],"right_children":[-1],"split_conditions":[3.0405875E-8],"split_indices":[0],"split_type":[0],"sum_hessian":[3.68E2],"tree_param":{"num_deleted":"0","num_feature":"89","num_nodes":"1","size_leaf_vector":"1"}},{"base_weights":[3.4975406E-7],"categories":[],"categories_nodes":[],"categories_segments":[],"categories_sizes":[],"default_left":[0],"id":74,"left_children":[-1],"loss_changes":[0E0],"parents":[2147483647],"right_children":[-1],"split_conditions":[2.7980324E-8],"split_indices":[0],"split_type":[0],"sum_hessian":[3.68E2],"tree_param":{"num_deleted":"0","num_feature":"89","num_nodes":"1","size_leaf_vector":"1"}},{"base_weights":[3.218808E-7],"categories":[],"categories_nodes":[],"categories_segments":[],"categories_sizes":[],"default_left":[0],"id":75,"left_children":[-1],"loss_changes":[0E0],"parents":[2147483647],"right_children":[-1],"split_conditions":[2.5750463E-8],"split_indices":[0],"split_type":[0],"sum_hessian":[3.68E2],"tree_param":{"num_deleted":"0","num_feature":"89","num_nodes":"1","size_leaf_vector":"1"}},{"base_weights":[2.9620537E-7],"categories":[],"categories_nodes":[],"categories_segments":[],"categories_sizes":[],"default_left":[0],"id":76,"left_children":[-1],"loss_changes":[0E0],"parents":[2147483647],"right_children":[-1],"split_conditions":[2.369643E-8],"split_indices":[0],"split_type":[0],"sum_hessian":[3.68E2],"tree_param":{"num_deleted":"0","num_feature":"89","num_nodes":"1","size_leaf_vector":"1"}},{"base_weights":[2.7253284E-7],"categories":[],"categories_nodes":[],"categories_segments":[],"categories_sizes":[],"default_left":[0],"id":77,"left_children":[-1],"loss_changes":[0E0],"parents":[2147483647],"right_children":[-1],"split_conditions":[2.1802627E-8],"split_indices":[0],"split_type":[0],"sum_hessian":[3.68E2],"tree_param":{"num_deleted":"0","num_feature":"89","num_nodes":"1","size_leaf_vector":"1"}},{"base_weights":[2.507974E-7],"categories":[],"categories_nodes":[],"categories_segments":[],"categories_sizes":[],"default_left":[0],"id":78,"left_children":[-1],"loss_changes":[0E0],"parents":[2147483647],"right_children":[-1],"split_conditions":[2.006379E-8],"split_indices":[0],"split_type":[0],"sum_hessian":[3.68E2],"tree_param":{"num_deleted":"0","num_feature":"89","num_nodes":"1","size_leaf_vector":"1"}},{"base_weights":[2.3081641E-7],"categories":[],"categories_nodes":[],"categories_segments":[],"categories_sizes":[],"default_left":[0],"id":79,"left_children":[-1],"loss_changes":[0E0],"parents":[2147483647],"right_children":[-1],"split_conditions":[1.8465313E-8],"split_indices":[0],"split_type":[0],"sum_hessian":[3.68E2],"tree_param":{"num_deleted":"0","num_feature":"89","num_nodes":"1","size_leaf_vector":"1"}},{"base_weights":[2.1238067E-7],"categories":[],"categories_nodes":[],"categories_segments":[],"categories_sizes":[],"default_left":[0],"id":80,"left_children":[-1],"loss_changes":[0E0],"parents":[2147483647],"right_children":[-1],"split_conditions":[1.6990453E-8],"split_indices":[0],"split_type":[0],"sum_hessian":[3.68E2],"tree_param":{"num_deleted":"0","num_feature":"89","num_nodes":"1","size_leaf_vector":"1"}},{"base_weights":[1.9543324E-7],"categories":[],"categories_nodes":[],"categories_segments":[],"categories_sizes":[],"default_left":[0],"id":81,"left_children":[-1],"loss_changes":[0E0],"parents":[2147483647],"right_children":[-1],"split_conditions":[1.563466E-8],"split_indices":[0],"split_type":[0],"sum_hessian":[3.68E2],"tree_param":{"num_deleted":"0","num_feature":"89","num_nodes":"1","size_leaf_vector":"1"}},{"base_weights":[1.798634E-7],"categories":[],"categories_nodes":[],"categories_segments":[],"categories_sizes":[],"default_left":[0],"id":82,"left_children":[-1],"loss_changes":[0E0],"parents":[2147483647],"right_children":[-1],"split_conditions":[1.4389072E-8],"split_indices":[0],"split_type":[0],"sum_hessian":[3.68E2],"tree_param":{"num_deleted":"0","num_feature":"89","num_nodes":"1","size_leaf_vector":"1"}},{"base_weights":[1.6547885E-7],"categories":[],"categories_nodes":[],"categories_segments":[],"categories_sizes":[],"default_left":[0],"id":83,"left_children":[-1],"loss_changes":[0E0],"parents":[2147483647],"right_children":[-1],"split_conditions":[1.3238308E-8],"split_indices":[0],"split_type":[0],"sum_hessian":[3.68E2],"tree_param":{"num_deleted":"0","num_feature":"89","num_nodes":"1","size_leaf_vector":"1"}},{"base_weights":[1.5225594E-7],"categories":[],"categories_nodes":[],"categories_segments":[],"categories_sizes":[],"default_left":[0],"id":84,"left_children":[-1],"loss_changes":[0E0],"parents":[2147483647],"right_children":[-1],"split_conditions":[1.2180474E-8],"split_indices":[0],"split_type":[0],"sum_hessian":[3.68E2],"tree_param":{"num_deleted":"0","num_feature":"89","num_nodes":"1","size_leaf_vector":"1"}},{"base_weights":[1.4009275E-7],"categories":[],"categories_nodes":[],"categories_segments":[],"categories_sizes":[],"default_left":[0],"id":85,"left_children":[-1],"loss_changes":[0E0],"parents":[2147483647],"right_children":[-1],"split_conditions":[1.120742E-8],"split_indices":[0],"split_type":[0],"sum_hessian":[3.68E2],"tree_param":{"num_deleted":"0","num_feature":"89","num_nodes":"1","size_leaf_vector":"1"}},{"base_weights":[1.2893786E-7],"categories":[],"categories_nodes":[],"categories_segments":[],"categories_sizes":[],"default_left":[0],"id":86,"left_children":[-1],"loss_changes":[0E0],"parents":[2147483647],"right_children":[-1],"split_conditions":[1.0315028E-8],"split_indices":[0],"split_type":[0],"sum_hessian":[3.68E2],"tree_param":{"num_deleted":"0","num_feature":"89","num_nodes":"1","size_leaf_vector":"1"}},{"base_weights":[1.1863226E-7],"categories":[],"categories_nodes":[],"categories_segments":[],"categories_sizes":[],"default_left":[0],"id":87,"left_children":[-1],"loss_changes":[0E0],"parents":[2147483647],"right_children":[-1],"split_conditions":[9.490581E-9],"split_indices":[0],"split_type":[0],"sum_hessian":[3.68E2],"tree_param":{"num_deleted":"0","num_feature":"89","num_nodes":"1","size_leaf_vector":"1"}},{"base_weights":[1.09124535E-7],"categories":[],"categories_nodes":[],"categories_segments":[],"categories_sizes":[],"default_left":[0],"id":88,"left_children":[-1],"loss_changes":[0E0],"parents":[2147483647],"right_children":[-1],"split_conditions":[8.7299625E-9],"split_indices":[0],"split_type":[0],"sum_hessian":[3.68E2],"tree_param":{"num_deleted":"0","num_feature":"89","num_nodes":"1","size_leaf_vector":"1"}},{"base_weights":[1.004344E-7],"categories":[],"categories_nodes":[],"categories_segments":[],"categories_sizes":[],"default_left":[0],"id":89,"left_children":[-1],"loss_changes":[0E0],"parents":[2147483647],"right_children":[-1],"split_conditions":[8.0347515E-9],"split_indices":[0],"split_type":[0],"sum_hessian":[3.68E2],"tree_param":{"num_deleted":"0","num_feature":"89","num_nodes":"1","size_leaf_vector":"1"}},{"base_weights":[9.240616E-8],"categories":[],"categories_nodes":[],"categories_segments":[],"categories_sizes":[],"default_left":[0],"id":90,"left_children":[-1],"loss_changes":[0E0],"parents":[2147483647],"right_children":[-1],"split_conditions":[7.392493E-9],"split_indices":[0],"split_type":[0],"sum_hessian":[3.68E2],"tree_param":{"num_deleted":"0","num_feature":"89","num_nodes":"1","size_leaf_vector":"1"}},{"base_weights":[8.4985075E-8],"categories":[],"categories_nodes":[],"categories_segments":[],"categories_sizes":[],"default_left":[0],"id":91,"left_children":[-1],"loss_changes":[0E0],"parents":[2147483647],"right_children":[-1],"split_conditions":[6.798806E-9],"split_indices":[0],"split_type":[0],"sum_hessian":[3.68E2],"tree_param":{"num_deleted":"0","num_feature":"89","num_nodes":"1","size_leaf_vector":"1"}},{"base_weights":[7.824135E-8],"categories":[],"categories_nodes":[],"categories_segments":[],"categories_sizes":[],"default_left":[0],"id":92,"left_children":[-1],"loss_changes":[0E0],"parents":[2147483647],"right_children":[-1],"split_conditions":[6.2593077E-9],"split_indices":[0],"split_type":[0],"sum_hessian":[3.68E2],"tree_param":{"num_deleted":"0","num_feature":"89","num_nodes":"1","size_leaf_vector":"1"}},{"base_weights":[7.1972586E-8],"categories":[],"categories_nodes":[],"categories_segments":[],"categories_sizes":[],"default_left":[0],"id":93,"left_children":[-1],"loss_changes":[0E0],"parents":[2147483647],"right_children":[-1],"split_conditions":[5.7578067E-9],"split_indices":[0],"split_type":[0],"sum_hessian":[3.68E2],"tree_param":{"num_deleted":"0","num_feature":"89","num_nodes":"1","size_leaf_vector":"1"}},{"base_weights":[6.625956E-8],"categories":[],"categories_nodes":[],"categories_segments":[],"categories_sizes":[],"default_left":[0],"id":94,"left_children":[-1],"loss_changes":[0E0],"parents":[2147483647],"right_children":[-1],"split_conditions":[5.3007647E-9],"split_indices":[0],"split_type":[0],"sum_hessian":[3.68E2],"tree_param":{"num_deleted":"0","num_feature":"89","num_nodes":"1","size_leaf_vector":"1"}},{"base_weights":[6.092891E-8],"categories":[],"categories_nodes":[],"categories_segments":[],"categories_sizes":[],"default_left":[0],"id":95,"left_children":[-1],"loss_changes":[0E0],"parents":[2147483647],"right_children":[-1],"split_conditions":[4.874313E-9],"split_indices":[0],"split_type":[0],"sum_hessian":[3.68E2],"tree_param":{"num_deleted":"0","num_feature":"89","num_nodes":"1","size_leaf_vector":"1"}},{"base_weights":[5.605587E-8],"categories":[],"categories_nodes":[],"categories_segments":[],"categories_sizes":[],"default_left":[0],"id":96,"left_children":[-1],"loss_changes":[0E0],"parents":[2147483647],"right_children":[-1],"split_conditions":[4.4844697E-9],"split_indices":[0],"split_type":[0],"sum_hessian":[3.68E2],"tree_param":{"num_deleted":"0","num_feature":"89","num_nodes":"1","size_leaf_vector":"1"}},{"base_weights":[5.155211E-8],"categories":[],"categories_nodes":[],"categories_segments":[],"categories_sizes":[],"default_left":[0],"id":97,"left_children":[-1],"loss_changes":[0E0],"parents":[2147483647],"right_children":[-1],"split_conditions":[4.1241686E-9],"split_indices":[0],"split_type":[0],"sum_hessian":[3.68E2],"tree_param":{"num_deleted":"0","num_feature":"89","num_nodes":"1","size_leaf_vector":"1"}},{"base_weights":[4.7463853E-8],"categories":[],"categories_nodes":[],"categories_segments":[],"categories_sizes":[],"default_left":[0],"id":98,"left_children":[-1],"loss_changes":[0E0],"parents":[2147483647],"right_children":[-1],"split_conditions":[3.797108E-9],"split_indices":[0],"split_type":[0],"sum_hessian":[3.68E2],"tree_param":{"num_deleted":"0","num_feature":"89","num_nodes":"1","size_leaf_vector":"1"}},{"base_weights":[4.3659846E-8],"categories":[],"categories_nodes":[],"categories_segments":[],"categories_sizes":[],"default_left":[0],"id":99,"left_children":[-1],"loss_changes":[0E0],"parents":[2147483647],"right_children":[-1],"split_conditions":[3.4927876E-9],"split_indices":[0],"split_type":[0],"sum_hessian":[3.68E2],"tree_param":{"num_deleted":"0","num_feature":"89","num_nodes":"1","size_leaf_vector":"1"}},{"base_weights":[4.0173695E-8],"categories":[],"categories_nodes":[],"categories_segments":[],"categories_sizes":[],"default_left":[0],"id":100,"left_children":[-1],"loss_changes":[0E0],"parents":[2147483647],"right_children":[-1],"split_conditions":[3.2138956E-9],"split_indices":[0],"split_type":[0],"sum_hessian":[3.68E2],"tree_param":{"num_deleted":"0","num_feature":"89","num_nodes":"1","size_leaf_vector":"1"}},{"base_weights":[3.6934733E-8],"categories":[],"categories_nodes":[],"categories_segments":[],"categories_sizes":[],"default_left":[0],"id":101,"left_children":[-1],"loss_changes":[0E0],"parents":[2147483647],"right_children":[-1],"split_conditions":[2.9547786E-9],"split_indices":[0],"split_type":[0],"sum_hessian":[3.68E2],"tree_param":{"num_deleted":"0","num_feature":"89","num_nodes":"1","size_leaf_vector":"1"}},{"base_weights":[3.4008103E-8],"categories":[],"categories_nodes":[],"categories_segments":[],"categories_sizes":[],"default_left":[0],"id":102,"left_children":[-1],"loss_changes":[0E0],"parents":[2147483647],"right_children":[-1],"split_conditions":[2.7206482E-9],"split_indices":[0],"split_type":[0],"sum_hessian":[3.68E2],"tree_param":{"num_deleted":"0","num_feature":"89","num_nodes":"1","size_leaf_vector":"1"}},{"base_weights":[3.1310517E-8],"categories":[],"categories_nodes":[],"categories_segments":[],"categories_sizes":[],"default_left":[0],"id":103,"left_children":[-1],"loss_changes":[0E0],"parents":[2147483647],"right_children":[-1],"split_conditions":[2.5048412E-9],"split_indices":[0],"split_type":[0],"sum_hessian":[3.68E2],"tree_param":{"num_deleted":"0","num_feature":"89","num_nodes":"1","size_leaf_vector":"1"}},{"base_weights":[2.8766257E-8],"categories":[],"categories_nodes":[],"categories_segments":[],"categories_sizes":[],"default_left":[0],"id":104,"left_children":[-1],"loss_changes":[0E0],"parents":[2147483647],"right_children":[-1],"split_conditions":[2.3013005E-9],"split_indices":[0],"split_type":[0],"sum_hessian":[3.68E2],"tree_param":{"num_deleted":"0","num_feature":"89","num_nodes":"1","size_leaf_vector":"1"}},{"base_weights":[2.6446784E-8],"categories":[],"categories_nodes":[],"categories_segments":[],"categories_sizes":[],"default_left":[0],"id":105,"left_children":[-1],"loss_changes":[0E0],"parents":[2147483647],"right_children":[-1],"split_conditions":[2.1157427E-9],"split_indices":[0],"split_type":[0],"sum_hessian":[3.68E2],"tree_param":{"num_deleted":"0","num_feature":"89","num_nodes":"1","size_leaf_vector":"1"}},{"base_weights":[2.4356357E-8],"categories":[],"categories_nodes":[],"categories_segments":[],"categories_sizes":[],"default_left":[0],"id":106,"left_children":[-1],"loss_changes":[0E0],"parents":[2147483647],"right_children":[-1],"split_conditions":[1.9485085E-9],"split_indices":[0],"split_type":[0],"sum_hessian":[3.68E2],"tree_param":{"num_deleted":"0","num_feature":"89","num_nodes":"1","size_leaf_vector":"1"}},{"base_weights":[2.240995E-8],"categories":[],"categories_nodes":[],"categories_segments":[],"categories_sizes":[],"default_left":[0],"id":107,"left_children":[-1],"loss_changes":[0E0],"parents":[2147483647],"right_children":[-1],"split_conditions":[1.7927959E-9],"split_indices":[0],"split_type":[0],"sum_hessian":[3.68E2],"tree_param":{"num_deleted":"0","num_feature":"89","num_nodes":"1","size_leaf_vector":"1"}},{"base_weights":[2.0641162E-8],"categories":[],"categories_nodes":[],"categories_segments":[],"categories_sizes":[],"default_left":[0],"id":108,"left_children":[-1],"loss_changes":[0E0],"parents":[2147483647],"right_children":[-1],"split_conditions":[1.6512929E-9],"split_indices":[0],"split_type":[0],"sum_hessian":[3.68E2],"tree_param":{"num_deleted":"0","num_feature":"89","num_nodes":"1","size_leaf_vector":"1"}},{"base_weights":[1.901261E-8],"categories":[],"categories_nodes":[],"categories_segments":[],"categories_sizes":[],"default_left":[0],"id":109,"left_children":[-1],"loss_changes":[0E0],"parents":[2147483647],"right_children":[-1],"split_conditions":[1.5210088E-9],"split_indices":[0],"split_type":[0],"sum_hessian":[3.68E2],"tree_param":{"num_deleted":"0","num_feature":"89","num_nodes":"1","size_leaf_vector":"1"}},{"base_weights":[1.748596E-8],"categories":[],"categories_nodes":[],"categories_segments":[],"categories_sizes":[],"default_left":[0],"id":110,"left_children":[-1],"loss_changes":[0E0],"parents":[2147483647],"right_children":[-1],"split_conditions":[1.3988767E-9],"split_indices":[0],"split_type":[0],"sum_hessian":[3.68E2],"tree_param":{"num_deleted":"0","num_feature":"89","num_nodes":"1","size_leaf_vector":"1"}},{"base_weights":[1.6090238E-8],"categories":[],"categories_nodes":[],"categories_segments":[],"categories_sizes":[],"default_left":[0],"id":111,"left_children":[-1],"loss_changes":[0E0],"parents":[2147483647],"right_children":[-1],"split_conditions":[1.287219E-9],"split_indices":[0],"split_type":[0],"sum_hessian":[3.68E2],"tree_param":{"num_deleted":"0","num_feature":"89","num_nodes":"1","size_leaf_vector":"1"}},{"base_weights":[1.4797681E-8],"categories":[],"categories_nodes":[],"categories_segments":[],"categories_sizes":[],"default_left":[0],"id":112,"left_children":[-1],"loss_changes":[0E0],"parents":[2147483647],"right_children":[-1],"split_conditions":[1.1838145E-9],"split_indices":[0],"split_type":[0],"sum_hessian":[3.68E2],"tree_param":{"num_deleted":"0","num_feature":"89","num_nodes":"1","size_leaf_vector":"1"}},{"base_weights":[1.3636051E-8],"categories":[],"categories_nodes":[],"categories_segments":[],"categories_sizes":[],"default_left":[0],"id":113,"left_children":[-1],"loss_changes":[0E0],"parents":[2147483647],"right_children":[-1],"split_conditions":[1.090884E-9],"split_indices":[0],"split_type":[0],"sum_hessian":[3.68E2],"tree_param":{"num_deleted":"0","num_feature":"89","num_nodes":"1","size_leaf_vector":"1"}},{"base_weights":[1.25670185E-8],"categories":[],"categories_nodes":[],"categories_segments":[],"categories_sizes":[],"default_left":[0],"id":114,"left_children":[-1],"loss_changes":[0E0],"parents":[2147483647],"right_children":[-1],"split_conditions":[1.0053615E-9],"split_indices":[0],"split_type":[0],"sum_hessian":[3.68E2],"tree_param":{"num_deleted":"0","num_feature":"89","num_nodes":"1","size_leaf_vector":"1"}},{"base_weights":[1.1549409E-8],"categories":[],"categories_nodes":[],"categories_segments":[],"categories_sizes":[],"default_left":[0],"id":115,"left_children":[-1],"loss_changes":[0E0],"parents":[2147483647],"right_children":[-1],"split_conditions":[9.2395275E-10],"split_indices":[0],"split_type":[0],"sum_hessian":[3.68E2],"tree_param":{"num_deleted":"0","num_feature":"89","num_nodes":"1","size_leaf_vector":"1"}},{"base_weights":[1.0620611E-8],"categories":[],"categories_nodes":[],"categories_segments":[],"categories_sizes":[],"default_left":[0],"id":116,"left_children":[-1],"loss_changes":[0E0],"parents":[2147483647],"right_children":[-1],"split_conditions":[8.4964885E-10],"split_indices":[0],"split_type":[0],"sum_hessian":[3.68E2],"tree_param":{"num_deleted":"0","num_feature":"89","num_nodes":"1","size_leaf_vector":"1"}},{"base_weights":[9.7806225E-9],"categories":[],"categories_nodes":[],"categories_segments":[],"categories_sizes":[],"default_left":[0],"id":117,"left_children":[-1],"loss_changes":[0E0],"parents":[2147483647],"right_children":[-1],"split_conditions":[7.8244977E-10],"split_indices":[0],"split_type":[0],"sum_hessian":[3.68E2],"tree_param":{"num_deleted":"0","num_feature":"89","num_nodes":"1","size_leaf_vector":"1"}},{"base_weights":[8.992059E-9],"categories":[],"categories_nodes":[],"categories_segments":[],"categories_sizes":[],"default_left":[0],"id":118,"left_children":[-1],"loss_changes":[0E0],"parents":[2147483647],"right_children":[-1],"split_conditions":[7.193647E-10],"split_indices":[0],"split_type":[0],"sum_hessian":[3.68E2],"tree_param":{"num_deleted":"0","num_feature":"89","num_nodes":"1","size_leaf_vector":"1"}},{"base_weights":[8.292305E-9],"categories":[],"categories_nodes":[],"categories_segments":[],"categories_sizes":[],"default_left":[0],"id":119,"left_children":[-1],"loss_changes":[0E0],"parents":[2147483647],"right_children":[-1],"split_conditions":[6.6338435E-10],"split_indices":[0],"split_type":[0],"sum_hessian":[3.68E2],"tree_param":{"num_deleted":"0","num_feature":"89","num_nodes":"1","size_leaf_vector":"1"}},{"base_weights":[7.605643E-9],"categories":[],"categories_nodes":[],"categories_segments":[],"categories_sizes":[],"default_left":[0],"id":120,"left_children":[-1],"loss_changes":[0E0],"parents":[2147483647],"right_children":[-1],"split_conditions":[6.0845146E-10],"split_indices":[0],"split_type":[0],"sum_hessian":[3.68E2],"tree_param":{"num_deleted":"0","num_feature":"89","num_nodes":"1","size_leaf_vector":"1"}},{"base_weights":[7.007792E-9],"categories":[],"categories_nodes":[],"categories_segments":[],"categories_sizes":[],"default_left":[0],"id":121,"left_children":[-1],"loss_changes":[0E0],"parents":[2147483647],"right_children":[-1],"split_conditions":[5.606234E-10],"split_indices":[0],"split_type":[0],"sum_hessian":[3.68E2],"tree_param":{"num_deleted":"0","num_feature":"89","num_nodes":"1","size_leaf_vector":"1"}},{"base_weights":[6.442752E-9],"categories":[],"categories_nodes":[],"categories_segments":[],"categories_sizes":[],"default_left":[0],"id":122,"left_children":[-1],"loss_changes":[0E0],"parents":[2147483647],"right_children":[-1],"split_conditions":[5.1542015E-10],"split_indices":[0],"split_type":[0],"sum_hessian":[3.68E2],"tree_param":{"num_deleted":"0","num_feature":"89","num_nodes":"1","size_leaf_vector":"1"}},{"base_weights":[5.966522E-9],"categories":[],"categories_nodes":[],"categories_segments":[],"categories_sizes":[],"default_left":[0],"id":123,"left_children":[-1],"loss_changes":[0E0],"parents":[2147483647],"right_children":[-1],"split_conditions":[4.7732174E-10],"split_indices":[0],"split_type":[0],"sum_hessian":[3.68E2],"tree_param":{"num_deleted":"0","num_feature":"89","num_nodes":"1","size_leaf_vector":"1"}},{"base_weights":[5.4995986E-9],"categories":[],"categories_nodes":[],"categories_segments":[],"categories_sizes":[],"default_left":[0],"id":124,"left_children":[-1],"loss_changes":[0E0],"parents":[2147483647],"right_children":[-1],"split_conditions":[4.3996787E-10],"split_indices":[0],"split_type":[0],"sum_hessian":[3.68E2],"tree_param":{"num_deleted":"0","num_feature":"89","num_nodes":"1","size_leaf_vector":"1"}},{"base_weights":[5.037723E-9],"categories":[],"categories_nodes":[],"categories_segments":[],"categories_sizes":[],"default_left":[0],"id":125,"left_children":[-1],"loss_changes":[0E0],"parents":[2147483647],"right_children":[-1],"split_conditions":[4.0301784E-10],"split_indices":[0],"split_type":[0],"sum_hessian":[3.68E2],"tree_param":{"num_deleted":"0","num_feature":"89","num_nodes":"1","size_leaf_vector":"1"}},{"base_weights":[4.664658E-9],"categories":[],"categories_nodes":[],"categories_segments":[],"categories_sizes":[],"default_left":[0],"id":126,"left_children":[-1],"loss_changes":[0E0],"parents":[2147483647],"right_children":[-1],"split_conditions":[3.7317263E-10],"split_indices":[0],"split_type":[0],"sum_hessian":[3.68E2],"tree_param":{"num_deleted":"0","num_feature":"89","num_nodes":"1","size_leaf_vector":"1"}},{"base_weights":[4.300899E-9],"categories":[],"categories_nodes":[],"categories_segments":[],"categories_sizes":[],"default_left":[0],"id":127,"left_children":[-1],"loss_changes":[0E0],"parents":[2147483647],"right_children":[-1],"split_conditions":[3.4407194E-10],"split_indices":[0],"split_type":[0],"sum_hessian":[3.68E2],"tree_param":{"num_deleted":"0","num_feature":"89","num_nodes":"1","size_leaf_vector":"1"}},{"base_weights":[3.969952E-9],"categories":[],"categories_nodes":[],"categories_segments":[],"categories_sizes":[],"default_left":[0],"id":128,"left_children":[-1],"loss_changes":[0E0],"parents":[2147483647],"right_children":[-1],"split_conditions":[3.1759614E-10],"split_indices":[0],"split_type":[0],"sum_hessian":[3.68E2],"tree_param":{"num_deleted":"0","num_feature":"89","num_nodes":"1","size_leaf_vector":"1"}},{"base_weights":[3.648311E-9],"categories":[],"categories_nodes":[],"categories_segments":[],"categories_sizes":[],"default_left":[0],"id":129,"left_children":[-1],"loss_changes":[0E0],"parents":[2147483647],"right_children":[-1],"split_conditions":[2.9186487E-10],"split_indices":[0],"split_type":[0],"sum_hessian":[3.68E2],"tree_param":{"num_deleted":"0","num_feature":"89","num_nodes":"1","size_leaf_vector":"1"}},{"base_weights":[3.3266703E-9],"categories":[],"categories_nodes":[],"categories_segments":[],"categories_sizes":[],"default_left":[0],"id":130,"left_children":[-1],"loss_changes":[0E0],"parents":[2147483647],"right_children":[-1],"split_conditions":[2.6613362E-10],"split_indices":[0],"split_type":[0],"sum_hessian":[3.68E2],"tree_param":{"num_deleted":"0","num_feature":"89","num_nodes":"1","size_leaf_vector":"1"}},{"base_weights":[3.0845329E-9],"categories":[],"categories_nodes":[],"categories_segments":[],"categories_sizes":[],"default_left":[0],"id":131,"left_children":[-1],"loss_changes":[0E0],"parents":[2147483647],"right_children":[-1],"split_conditions":[2.467626E-10],"split_indices":[0],"split_type":[0],"sum_hessian":[3.68E2],"tree_param":{"num_deleted":"0","num_feature":"89","num_nodes":"1","size_leaf_vector":"1"}},{"base_weights":[2.8517022E-9],"categories":[],"categories_nodes":[],"categories_segments":[],"categories_sizes":[],"default_left":[0],"id":132,"left_children":[-1],"loss_changes":[0E0],"parents":[2147483647],"right_children":[-1],"split_conditions":[2.2813618E-10],"split_indices":[0],"split_type":[0],"sum_hessian":[3.68E2],"tree_param":{"num_deleted":"0","num_feature":"89","num_nodes":"1","size_leaf_vector":"1"}},{"base_weights":[2.6226574E-9],"categories":[],"categories_nodes":[],"categories_segments":[],"categories_sizes":[],"default_left":[0],"id":133,"left_children":[-1],"loss_changes":[0E0],"parents":[2147483647],"right_children":[-1],"split_conditions":[2.0981258E-10],"split_indices":[0],"split_type":[0],"sum_hessian":[3.68E2],"tree_param":{"num_deleted":"0","num_feature":"89","num_nodes":"1","size_leaf_vector":"1"}},{"base_weights":[2.3936126E-9],"categories":[],"categories_nodes":[],"categories_segments":[],"categories_sizes":[],"default_left":[0],"id":134,"left_children":[-1],"loss_changes":[0E0],"parents":[2147483647],"right_children":[-1],"split_conditions":[1.91489E-10],"split_indices":[0],"split_type":[0],"sum_hessian":[3.68E2],"tree_param":{"num_deleted":"0","num_feature":"89","num_nodes":"1","size_leaf_vector":"1"}},{"base_weights":[2.1738746E-9],"categories":[],"categories_nodes":[],"categories_segments":[],"categories_sizes":[],"default_left":[0],"id":135,"left_children":[-1],"loss_changes":[0E0],"parents":[2147483647],"right_children":[-1],"split_conditions":[1.7390997E-10],"split_indices":[0],"split_type":[0],"sum_hessian":[3.68E2],"tree_param":{"num_deleted":"0","num_feature":"89","num_nodes":"1","size_leaf_vector":"1"}},{"base_weights":[2.03364E-9],"categories":[],"categories_nodes":[],"categories_segments":[],"categories_sizes":[],"default_left":[0],"id":136,"left_children":[-1],"loss_changes":[0E0],"parents":[2147483647],"right_children":[-1],"split_conditions":[1.626912E-10],"split_indices":[0],"split_type":[0],"sum_hessian":[3.68E2],"tree_param":{"num_deleted":"0","num_feature":"89","num_nodes":"1","size_leaf_vector":"1"}},{"base_weights":[1.8934052E-9],"categories":[],"categories_nodes":[],"categories_segments":[],"categories_sizes":[],"default_left":[0],"id":137,"left_children":[-1],"loss_changes":[0E0],"parents":[2147483647],"right_children":[-1],"split_conditions":[1.5147242E-10],"split_indices":[0],"split_type":[0],"sum_hessian":[3.68E2],"tree_param":{"num_deleted":"0","num_feature":"89","num_nodes":"1","size_leaf_vector":"1"}},{"base_weights":[1.7531706E-9],"categories":[],"categories_nodes":[],"categories_segments":[],"categories_sizes":[],"default_left":[0],"id":138,"left_children":[-1],"loss_changes":[0E0],"parents":[2147483647],"right_children":[-1],"split_conditions":[1.4025364E-10],"split_indices":[0],"split_type":[0],"sum_hessian":[3.68E2],"tree_param":{"num_deleted":"0","num_feature":"89","num_nodes":"1","size_leaf_vector":"1"}},{"base_weights":[1.6222428E-9],"categories":[],"categories_nodes":[],"categories_segments":[],"categories_sizes":[],"default_left":[0],"id":139,"left_children":[-1],"loss_changes":[0E0],"parents":[2147483647],"right_children":[-1],"split_conditions":[1.2977942E-10],"split_indices":[0],"split_type":[0],"sum_hessian":[3.68E2],"tree_param":{"num_deleted":"0","num_feature":"89","num_nodes":"1","size_leaf_vector":"1"}},{"base_weights":[1.491315E-9],"categories":[],"categories_nodes":[],"categories_segments":[],"categories_sizes":[],"default_left":[0],"id":140,"left_children":[-1],"loss_changes":[0E0],"parents":[2147483647],"right_children":[-1],"split_conditions":[1.1930519E-10],"split_indices":[0],"split_type":[0],"sum_hessian":[3.68E2],"tree_param":{"num_deleted":"0","num_feature":"89","num_nodes":"1","size_leaf_vector":"1"}},{"base_weights":[1.3603871E-9],"categories":[],"categories_nodes":[],"categories_segments":[],"categories_sizes":[],"default_left":[0],"id":141,"left_children":[-1],"loss_changes":[0E0],"parents":[2147483647],"right_children":[-1],"split_conditions":[1.08830965E-10],"split_indices":[0],"split_type":[0],"sum_hessian":[3.68E2],"tree_param":{"num_deleted":"0","num_feature":"89","num_nodes":"1","size_leaf_vector":"1"}},{"base_weights":[1.2622702E-9],"categories":[],"categories_nodes":[],"categories_segments":[],"categories_sizes":[],"default_left":[0],"id":142,"left_children":[-1],"loss_changes":[0E0],"parents":[2147483647],"right_children":[-1],"split_conditions":[1.0098161E-10],"split_indices":[0],"split_type":[0],"sum_hessian":[3.68E2],"tree_param":{"num_deleted":"0","num_feature":"89","num_nodes":"1","size_leaf_vector":"1"}},{"base_weights":[1.1641532E-9],"categories":[],"categories_nodes":[],"categories_segments":[],"categories_sizes":[],"default_left":[0],"id":143,"left_children":[-1],"loss_changes":[0E0],"parents":[2147483647],"right_children":[-1],"split_conditions":[9.313225E-11],"split_indices":[0],"split_type":[0],"sum_hessian":[3.68E2],"tree_param":{"num_deleted":"0","num_feature":"89","num_nodes":"1","size_leaf_vector":"1"}},{"base_weights":[1.0660363E-9],"categories":[],"categories_nodes":[],"categories_segments":[],"categories_sizes":[],"default_left":[0],"id":144,"left_children":[-1],"loss_changes":[0E0],"parents":[2147483647],"right_children":[-1],"split_conditions":[8.52829E-11],"split_indices":[0],"split_type":[0],"sum_hessian":[3.68E2],"tree_param":{"num_deleted":"0","num_feature":"89","num_nodes":"1","size_leaf_vector":"1"}},{"base_weights":[9.772262E-10],"categories":[],"categories_nodes":[],"categories_segments":[],"categories_sizes":[],"default_left":[0],"id":145,"left_children":[-1],"loss_changes":[0E0],"parents":[2147483647],"right_children":[-1],"split_conditions":[7.8178096E-11],"split_indices":[0],"split_type":[0],"sum_hessian":[3.68E2],"tree_param":{"num_deleted":"0","num_feature":"89","num_nodes":"1","size_leaf_vector":"1"}},{"base_weights":[8.884161E-10],"categories":[],"categories_nodes":[],"categories_segments":[],"categories_sizes":[],"default_left":[0],"id":146,"left_children":[-1],"loss_changes":[0E0],"parents":[2147483647],"right_children":[-1],"split_conditions":[7.1073286E-11],"split_indices":[0],"split_type":[0],"sum_hessian":[3.68E2],"tree_param":{"num_deleted":"0","num_feature":"89","num_nodes":"1","size_leaf_vector":"1"}},{"base_weights":[7.9960605E-10],"categories":[],"categories_nodes":[],"categories_segments":[],"categories_sizes":[],"default_left":[0],"id":147,"left_children":[-1],"loss_changes":[0E0],"parents":[2147483647],"right_children":[-1],"split_conditions":[6.396848E-11],"split_indices":[0],"split_type":[0],"sum_hessian":[3.68E2],"tree_param":{"num_deleted":"0","num_feature":"89","num_nodes":"1","size_leaf_vector":"1"}},{"base_weights":[7.10796E-10],"categories":[],"categories_nodes":[],"categories_segments":[],"categories_sizes":[],"default_left":[0],"id":148,"left_children":[-1],"loss_changes":[0E0],"parents":[2147483647],"right_children":[-1],"split_conditions":[5.6863677E-11],"split_indices":[0],"split_type":[0],"sum_hessian":[3.68E2],"tree_param":{"num_deleted":"0","num_feature":"89","num_nodes":"1","size_leaf_vector":"1"}},{"base_weights":[7.014891E-10],"categories":[],"categories_nodes":[],"categories_segments":[],"categories_sizes":[],"default_left":[0],"id":149,"left_children":[-1],"loss_changes":[0E0],"parents":[2147483647],"right_children":[-1],"split_conditions":[5.6119127E-11],"split_indices":[0],"split_type":[0],"sum_hessian":[3.68E2],"tree_param":{"num_deleted":"0","num_feature":"89","num_nodes":"1","size_leaf_vector":"1"}}]},"name":"gbtree"},"learner_model_param":{"base_score":"1.4779891E-3","boost_from_average":"1","num_class":"0","num_feature":"89","num_target":"1"},"objective":{"name":"reg:squarederror","reg_loss_param":{"scale_pos_weight":"1"}}},"version":[3,0,5]}