{"learner":{"attributes":{"scikit_learn":"{\"_estimator_type\": \"regressor\"}"},"feature_names":["temperature","humidity","pressure","hour","day_of_week","month","is_weekend","hour_sin","hour_cos","day_sin","day_cos","pm25_lag_1h","pm25_lag_2h","pm25_lag_3h","pm25_lag_6h","pm25_lag_12h","pm25_lag_24h","pm25_rolling_mean_6h","pm25_rolling_std_6h","pm25_rolling_mean_12h","pm25_rolling_std_12h","pm25_rolling_mean_24h","pm25_rolling_std_24h","pm10_lag_1h","pm10_lag_2h","pm10_lag_3h","pm10_lag_6h","pm10_lag_12h","pm10_lag_24h","pm10_rolling_mean_6h","pm10_rolling_std_6h","pm10_rolling_mean_12h","pm10_rolling_std_12h","pm10_rolling_mean_24h","pm10_rolling_std_24h","o3_lag_1h","o3_lag_2h","o3_lag_3h","o3_lag_6h","o3_lag_12h","o3_lag_24h","o3_rolling_mean_6h","o3_rolling_std_6h","o3_rolling_mean_12h","o3_rolling_std_12h","o3_rolling_mean_24h","o3_rolling_std_24h","no2_lag_1h","no2_lag_2h","no2_lag_3h","no2_lag_6h","no2_lag_12h","no2_lag_24h","no2_rolling_mean_6h","no2_rolling_std_6h","no2_rolling_mean_12h","no2_rolling_std_12h","no2_rolling_mean_24h","no2_rolling_std_24h","so2_lag_1h","so2_lag_2h","so2_lag_3h","so2_lag_6h","so2_lag_12h","so2_lag_24h","so2_rolling_mean_6h","so2_rolling_std_6h","so2_rolling_mean_12h","so2_rolling_std_12h","so2_rolling_mean_24h","so2_rolling_std_24h","co_lag_1h","co_lag_2h","co_lag_3h","co_lag_6h","co_lag_12h","co_lag_24h","co_rolling_mean_6h","co_rolling_std_6h","co_rolling_mean_12h","co_rolling_std_12h","co_rolling_mean_24h","co_rolling_std_24h","aqi_lag_1h","aqi_lag_2h","aqi_lag_3h","aqi_lag_6h","aqi_lag_12h","aqi_lag_24h"],"feature_types":["float","float","float","int","int","int","int","float","float","float","float","float","float","float","float","float","float","float","float","float","float","float","float","float","float","float","float","float","float","float","float","float","float","float","float","float","float","float","float","float","float","float","float","float","float","float","float","float","float","float","float","float","float","float","float","float","float","float","float","float","float","float","float","float","float","float","float","float","float","float","float","float","float","float","float","float","float","float","float","float","float","float","float","float","float","float","float","float","float"],"gradient_booster":{"model":{"gbtree_model_param":{"num_parallel_tree":"1","num_trees":"150"},"iteration_indptr":[0,1,2,3,4,5,6,7,8,9,10,11,12,13,14,15,16,17,18,19,20,21,22,23,24,25,26,27,28,29,30,31,32,33,34,35,36,37,38,39,40,41,42,43,44,45,46,47,48,49,50,51,52,53,54,55,56,57,58,59,60,61,62,63,64,65,66,67,68,69,70,71,72,73,74,75,76,77,78,79,80,81,82,83,84,85,86,87,88,89,90,91,92,93,94,95,96,97,98,99,100,101,102,103,104,105,106,107,108,109,110,111,112,113,114,115,116,117,118,119,120,121,122,123,124,125,126,127,128,129,130,131,132,133,134,135,136,137,138,139,140,141,142,143,144,145,146,147,148,149,150],"tree_info":[0,0,0,0,0,0,0,0,0,0,0,0,0,0,0,0,0,0,0,0,0,0,0,0,0,0,0,0,0,0,0,0,0,0,0,0,0,0,0,0,0,0,0,0,0,0,0,0,0,0,0,0,0,0,0,0,0,0,0,0,0,0,0,0,0,0,0,0,0,0,0,0,0,0,0,0,0,0,0,0,0,0,0,0,0,0,0,0,0,0,0,0,0,0,0,0,0,0,0,0,0,0,0,0,0,0,0,0,0,0,0,0,0,0,0,0,0,0,0,0,0,0,0,0,0,0,0,0,0,0,0,0,0,0,0,0,0,0,0,0,0,0,0,0,0,0,0,0,0,0],"trees":[{"base_weights":[-6.6719E-7,-1.0078718E1,2.9916193E1,-1.5604315E1,3.724249E-1,2.2855125E1,4.62781E1,-2.1123388E1,-1.1283854E1,-5.3947034E0,4.3465443E0,1.7539064E1,2.6681343E1,4.006732E1,6.058307E1,-2.1428633E1,1.0964171E0,-1.1436966E1,8.1641704E-1,-7.1089435E0,-2.8663502E0,-7.873775E0,5.7017565E0,1.5671765E1,2.7484123E1,2.736434E1,9.402847E-1,4.2926804E1,1.5710007E0,3.1024292E0,5.6647415E0,-2.477208E1,-1.8724468E1,-1.4449025E1,-1.0306523E1,-7.6223736E0,-1.2716583E0,1.9942404E0,-5.6082287E0,-1.3381104E0,-4.4306154E0,6.8725333E0,-1.2402246E0,1.6361235E1,3.3078203E0,3.7641707E-1,2.4052863E0,3.5446258E0,2.6024364E1,2.1641707E-1,-1.0358291E-1,4.3712986E1,6.1641705E-1,-2.0118349E0,1.6417084E-2,1.3641708E-1,-1.8967709E1,-3.8716583E0,-1.5217781E1,-9.689646E0,-1.3956053E0,-2.9913108E0,-8.153006E0,-2.1811056E-1,6.069514E-1,6.0660806E0,-2.3624911E0,-1.2791062E1,-2.1152246E0,2.7361807E-1,-5.6408763E0,5.430806E0,1.4994241E1,2.4759352E0,-5.2658763E0,1.6756042E1,-1.0358291E-1,4.2188945E-1,-1.0358291E-1,2.6333136E1,1.7641708E-1,3.5736575E0,1.488556E0,-1.5582452E0,-6.793049E-1,1.3641708E-1,-4.5537436E-1,-1.2648857E0,-3.5537437E-1,-8.056861E-1,2.3426732E-1,-2.3582915E-2,-2.7773264E-1,-6.7918897E-1,-1.1144389E-1,-2.3582915E-2,9.6417084E-2,5.2069515E-1,1.3641708E-1,-3.1537437E-1,-1.5374374E-2,-3.514439E-1,-1.2217326E0,1.7402847E-1,-3.4105983E-1,9.6417084E-2,-6.358291E-2,-5.059715E-1,-1.9144388E-1,-3.9930484E-1,4.970419E-1,5.5426735E-1,1.4247415E0,3.9572142E-2,5.0188947E-1,-5.5374373E-2,-6.2973267E-1,1.3683058E0,1.6417084E-2,1.7641708E-1,2.1320684E0],"categories":[],"categories_nodes":[],"categories_segments":[],"categories_sizes":[],"default_left":[0,0,0,0,0,0,0,0,0,0,0,0,0,0,0,0,0,0,0,0,0,0,0,0,0,0,0,0,0,0,0,0,0,0,0,0,0,0,0,0,0,0,0,0,0,0,0,0,0,0,0,0,0,0,0,0,0,0,0,0,0,0,0,0,0,0,0,0,0,0,0,0,0,0,0,0,0,0,0,0,0,0,0,0,0,0,0,0,0,0,0,0,0,0,0,0,0,0,0,0,0,0,0,0,0,0,0,0,0,0,0,0,0,0,0,0,0,0,0,0,0],"id":0,"left_children":[1,3,5,7,9,11,13,15,17,19,21,23,25,27,29,31,-1,33,-1,35,37,39,41,43,45,47,49,51,-1,-1,-1,53,55,57,59,61,63,65,67,-1,69,71,73,75,77,-1,-1,-1,79,-1,-1,81,-1,-1,-1,-1,83,85,87,89,-1,91,93,-1,95,97,99,101,103,105,107,109,111,113,115,117,-1,-1,-1,119,-1,-1,-1,-1,-1,-1,-1,-1,-1,-1,-1,-1,-1,-1,-1,-1,-1,-1,-1,-1,-1,-1,-1,-1,-1,-1,-1,-1,-1,-1,-1,-1,-1,-1,-1,-1,-1,-1,-1,-1,-1],"loss_changes":[2.2613764E5,3.2402895E4,2.0777953E4,8.512742E3,4.492703E3,2.2576484E3,2.547914E3,1.9946719E3,8.010879E2,3.2635986E2,1.9659851E3,6.6493164E2,1.3104297E3,1.6106094E3,5.98375E2,9.7371094E2,0E0,5.5590625E2,0E0,1.3116772E2,4.6430722E2,2.916631E2,8.619121E2,3.8915625E2,3.290459E2,5.27E2,1.53369E1,6.6003906E2,0E0,0E0,0E0,6.4353906E2,4.8952148E2,3.801787E2,5.0912207E2,8.127954E1,1.5319072E1,2.4494995E2,5.249167E2,0E0,5.8476913E1,9.724048E2,2.5239742E2,3.6326172E2,4.3019386E1,0E0,0E0,0E0,4.6411328E2,0E0,0E0,1.0390625E1,0E0,0E0,0E0,0E0,3.2115625E2,6.047045E1,2.4941699E2,7.225469E2,0E0,6.7482185E0,7.470459E1,0E0,1.9737074E0,2.4124146E0,2.3241306E1,7.873547E1,1.5673438E2,3.9438498E0,2.63089E0,6.668955E2,1.7178564E2,6.461532E1,8.989581E1,2.7278027E2,0E0,0E0,0E0,4.7784375E2,0E0,0E0,0E0,0E0,0E0,0E0,0E0,0E0,0E0,0E0,0E0,0E0,0E0,0E0,0E0,0E0,0E0,0E0,0E0,0E0,0E0,0E0,0E0,0E0,0E0,0E0,0E0,0E0,0E0,0E0,0E0,0E0,0E0,0E0,0E0,0E0,0E0,0E0,0E0,0E0,0E0],"parents":[2147483647,0,0,1,1,2,2,3,3,4,4,5,5,6,6,7,7,8,8,9,9,10,10,11,11,12,12,13,13,14,14,15,15,17,17,19,19,20,20,21,21,22,22,23,23,24,24,25,25,26,26,27,27,31,31,32,32,33,33,34,34,35,35,36,36,37,37,38,38,40,40,41,41,42,42,43,43,44,44,48,48,51,51,56,56,57,57,58,58,59,59,61,61,62,62,64,64,65,65,66,66,67,67,68,68,69,69,70,70,71,71,72,72,73,73,74,74,75,75,79,79],"right_children":[2,4,6,8,10,12,14,16,18,20,22,24,26,28,30,32,-1,34,-1,36,38,40,42,44,46,48,50,52,-1,-1,-1,54,56,58,60,62,64,66,68,-1,70,72,74,76,78,-1,-1,-1,80,-1,-1,82,-1,-1,-1,-1,84,86,88,90,-1,92,94,-1,96,98,100,102,104,106,108,110,112,114,116,118,-1,-1,-1,120,-1,-1,-1,-1,-1,-1,-1,-1,-1,-1,-1,-1,-1,-1,-1,-1,-1,-1,-1,-1,-1,-1,-1,-1,-1,-1,-1,-1,-1,-1,-1,-1,-1,-1,-1,-1,-1,-1,-1,-1,-1],"split_conditions":[5.9E1,4E1,8.4E1,2.9E1,4.4E1,6.7E1,3.0931376E1,4.6E1,5.3595833E-2,8.324389E0,2.1833333E-1,5.6633335E-2,2.54E1,1.0705422E-1,3.3E-2,2.3166666E1,1.0964171E0,3.3708332E1,8.1641704E-1,1.97E-2,1.0428327E1,-7.0710677E-1,6.26E-2,9.966589E-1,-9.659258E-1,4.6E1,2.58E1,2.37E1,1.5710007E0,3.1024292E0,5.6647415E0,3.02E1,3.5E-3,1.55E-2,1.4324803E1,-9.441875E-1,-5.631507E-1,3.4E-1,1.0890014E1,-1.3381104E0,5E0,5.46E-2,8.6E-3,9.1E-1,2.08E1,3.7641707E-1,2.4052863E0,3.5446258E0,5.4E1,2.1641707E-1,-1.0358291E-1,2.24E-2,6.1641705E-1,-2.0118349E0,1.6417084E-2,1.3641708E-1,5.88E-2,2.28E1,2.5E1,1.1571517E1,-1.3956053E0,-8.660254E-1,9.9274874E-1,-2.1811056E-1,1.92E1,1.7E1,6.9E1,1.0094E3,1.4599637E-2,2.61E1,3.8E1,-7.961829E-1,1.5E1,5.8537736E0,6.7884707E0,8.7E1,-1.0358291E-1,4.2188945E-1,-1.0358291E-1,1.1E1,1.7641708E-1,3.5736575E0,1.488556E0,-1.5582452E0,-6.793049E-1,1.3641708E-1,-4.5537436E-1,-1.2648857E0,-3.5537437E-1,-8.056861E-1,2.3426732E-1,-2.3582915E-2,-2.7773264E-1,-6.7918897E-1,-1.1144389E-1,-2.3582915E-2,9.6417084E-2,5.2069515E-1,1.3641708E-1,-3.1537437E-1,-1.5374374E-2,-3.514439E-1,-1.2217326E0,1.7402847E-1,-3.4105983E-1,9.6417084E-2,-6.358291E-2,-5.059715E-1,-1.9144388E-1,-3.9930484E-1,4.970419E-1,5.5426735E-1,1.4247415E0,3.9572142E-2,5.0188947E-1,-5.5374373E-2,-6.2973267E-1,1.3683058E0,1.6417084E-2,1.7641708E-1,2.1320684E0],"split_indices":[23,23,23,23,23,23,32,15,45,32,77,41,0,80,36,29,0,33,0,52,32,8,40,9,8,24,0,0,0,0,0,0,36,40,30,10,10,75,34,0,3,37,49,72,0,0,0,0,14,0,0,50,0,0,0,0,35,0,14,30,0,8,10,0,0,3,1,2,46,0,27,9,12,18,20,24,0,0,0,15,0,0,0,0,0,0,0,0,0,0,0,0,0,0,0,0,0,0,0,0,0,0,0,0,0,0,0,0,0,0,0,0,0,0,0,0,0,0,0,0,0],"split_type":[0,0,0,0,0,0,0,0,0,0,0,0,0,0,0,0,0,0,0,0,0,0,0,0,0,0,0,0,0,0,0,0,0,0,0,0,0,0,0,0,0,0,0,0,0,0,0,0,0,0,0,0,0,0,0,0,0,0,0,0,0,0,0,0,0,0,0,0,0,0,0,0,0,0,0,0,0,0,0,0,0,0,0,0,0,0,0,0,0,0,0,0,0,0,0,0,0,0,0,0,0,0,0,0,0,0,0,0,0,0,0,0,0,0,0,0,0,0,0,0,0],"sum_hessian":[7.48E2,5.6E2,1.88E2,3.66E2,1.94E2,1.33E2,5.5E1,1.59E2,2.07E2,7.9E1,1.15E2,5.8E1,7.5E1,4.1E1,1.4E1,1.58E2,1E0,2.06E2,1E0,4.6E1,3.3E1,1.1E1,1.04E2,5.1E1,7E0,7.3E1,2E0,3.5E1,6E0,6E0,8E0,6.7E1,9.1E1,5.3E1,1.53E2,4.2E1,4E0,1.2E1,2.1E1,2E0,9E0,8.9E1,1.5E1,4.8E1,3E0,1E0,6E0,3E0,7E1,1E0,1E0,3.4E1,1E0,6.6E1,1E0,1E0,9E1,4E0,4.9E1,1.43E2,1E1,5E0,3.7E1,2E0,2E0,6E0,6E0,6E0,1.5E1,2E0,7E0,7.7E1,1.2E1,8E0,7E0,4.7E1,1E0,2E0,1E0,6.9E1,1E0,3.2E1,2E0,8.5E1,5E0,1E0,3E0,4.6E1,3E0,1.39E2,4E0,1E0,4E0,3.5E1,2E0,1E0,1E0,5E0,1E0,3E0,3E0,2E0,4E0,5E0,1E1,1E0,1E0,5E0,2E0,5E0,7.2E1,4E0,8E0,6E0,2E0,3E0,4E0,4.6E1,1E0,1E0,6.8E1],"tree_param":{"num_deleted":"0","num_feature":"89","num_nodes":"121","size_leaf_vector":"1"}},{"base_weights":[2.3670396E-2,-9.288126E0,2.7663322E1,-1.4372563E1,3.286779E-1,2.110525E1,4.2861862E1,-1.9452269E1,-1.0396E1,-4.996266E0,3.9982195E0,1.6210196E1,2.4627655E1,3.7034546E1,5.6320896E1,-1.9740107E1,1.0525604E0,-1.0540879E1,7.8376037E-1,-4.0944157E0,-9.3293085E0,-7.410764E0,5.264025E0,1.4448783E1,2.5633108E1,2.5256674E1,9.026744E-1,3.96504E1,1.463275E0,2.7005332E0,5.138188E0,-1.9494821E0,-1.7979557E1,-1.0754905E1,2.567398E-1,-4.7238417E0,3.824895E-1,9.2560425E-2,-1.0299584E1,-1.2667446E0,-4.142625E0,6.345804E0,-1.1499846E0,1.5078483E1,3.1227713E0,3.6136046E-1,2.2403526E0,3.3319483E0,2.3977413E1,2.0776047E-1,-9.943954E-2,4.036058E1,5.917604E-1,-1.8247265E1,-1.5457726E0,-7.2373323E0,-1.152115E1,1.1520967E0,-1.3298751E-1,-7.7930055E0,-3.2547946E0,-3.5090393E-1,-8.834889E-1,2.626737E-1,-5.276784E0,4.997593E0,1.3946934E1,2.338022E0,-4.930244E0,1.5444408E1,-9.943954E-2,3.993886E-1,-9.943954E-2,2.4259462E1,1.6936035E-1,3.520819E0,2.3758311E0,1.3096039E-1,-1.4746233E0,-2.0125304E-1,1.5760345E-2,-6.464939E-1,1.7332564E-1,4.3161467E-2,-9.39826E-1,7.046356E-3,1.1819275E-1,-7.302933E-1,-2.5240162E-1,-4.3139234E-1,2.0095875E-2,9.2560425E-2,-6.103958E-2,-4.7224018E-1,-1.8123351E-1,1.5011957E-1,5.995506E-1,2.8566182E-1,1.2407113E0,3.685852E-2,4.7512206E-1,-5.2051924E-2,-5.894297E-1,1.2611704E0,1.5760345E-2,1.6936035E-1,1.9639748E0],"categories":[],"categories_nodes":[],"categories_segments":[],"categories_sizes":[],"default_left":[0,0,0,0,0,0,0,0,0,0,0,0,0,0,0,0,0,0,0,0,0,0,0,0,0,0,0,0,0,0,0,0,0,0,0,0,0,0,0,0,0,0,0,0,0,0,0,0,0,0,0,0,0,0,0,0,0,0,0,0,0,0,0,0,0,0,0,0,0,0,0,0,0,0,0,0,0,0,0,0,0,0,0,0,0,0,0,0,0,0,0,0,0,0,0,0,0,0,0,0,0,0,0,0,0,0,0],"id":1,"left_children":[1,3,5,7,9,11,13,15,17,19,21,23,25,27,29,31,-1,33,-1,35,37,39,41,43,45,47,49,51,-1,-1,-1,-1,53,55,57,59,-1,-1,61,-1,63,65,67,69,71,-1,-1,-1,73,-1,-1,75,-1,77,79,81,83,85,-1,87,89,-1,-1,91,93,95,97,99,101,103,-1,-1,-1,105,-1,-1,-1,-1,-1,-1,-1,-1,-1,-1,-1,-1,-1,-1,-1,-1,-1,-1,-1,-1,-1,-1,-1,-1,-1,-1,-1,-1,-1,-1,-1,-1,-1],"loss_changes":[1.9303067E5,2.7435398E4,1.793361E4,7.2110938E3,3.8302964E3,1.9112578E3,2.3062578E3,1.7615117E3,7.1178125E2,2.7442236E2,1.714231E3,6.0889355E2,1.1113789E3,1.3340391E3,5.079453E2,8.5748047E2,0E0,4.8113477E2,0E0,4.0246667E2,1.4418689E2,2.6475616E2,7.358445E2,3.2377637E2,2.7408447E2,5.531719E2,1.4134486E1,5.260625E2,0E0,0E0,0E0,0E0,4.9533203E2,4.6376562E2,1.0506506E1,2.631952E2,0E0,0E0,4.3551025E0,0E0,5.1349136E1,8.526123E2,2.2249614E2,3.1184766E2,3.8854183E1,0E0,0E0,0E0,3.8641016E2,0E0,0E0,5.501953E1,0E0,4.6179688E2,5.566506E0,3.26989E2,4.5742578E2,1.2544236E0,0E0,9.509436E1,3.3860458E2,0E0,0E0,3.6346524E0,1.7134094E0,5.9376953E2,1.5531421E2,5.810487E1,7.866255E1,2.3125586E2,0E0,0E0,0E0,3.978672E2,0E0,0E0,0E0,0E0,0E0,0E0,0E0,0E0,0E0,0E0,0E0,0E0,0E0,0E0,0E0,0E0,0E0,0E0,0E0,0E0,0E0,0E0,0E0,0E0,0E0,0E0,0E0,0E0,0E0,0E0,0E0,0E0,0E0],"parents":[2147483647,0,0,1,1,2,2,3,3,4,4,5,5,6,6,7,7,8,8,9,9,10,10,11,11,12,12,13,13,14,14,15,15,17,17,19,19,20,20,21,21,22,22,23,23,24,24,25,25,26,26,27,27,32,32,33,33,34,34,35,35,38,38,40,40,41,41,42,42,43,43,44,44,48,48,51,51,53,53,54,54,55,55,56,56,57,57,59,59,60,60,63,63,64,64,65,65,66,66,67,67,68,68,69,69,73,73],"right_children":[2,4,6,8,10,12,14,16,18,20,22,24,26,28,30,32,-1,34,-1,36,38,40,42,44,46,48,50,52,-1,-1,-1,-1,54,56,58,60,-1,-1,62,-1,64,66,68,70,72,-1,-1,-1,74,-1,-1,76,-1,78,80,82,84,86,-1,88,90,-1,-1,92,94,96,98,100,102,104,-1,-1,-1,106,-1,-1,-1,-1,-1,-1,-1,-1,-1,-1,-1,-1,-1,-1,-1,-1,-1,-1,-1,-1,-1,-1,-1,-1,-1,-1,-1,-1,-1,-1,-1,-1,-1],"split_conditions":[5.9E1,4E1,8.4E1,2.9E1,4.4E1,6.7E1,3.0931376E1,4.6E1,5.3595833E-2,1.9166666E-3,2.1833333E-1,5.6633335E-2,2.54E1,1.0705422E-1,3.03E-2,2.1333334E1,1.0525604E0,2.1E-2,7.8376037E-1,4.792355E-4,1E1,-7.0710677E-1,6.26E-2,9.966589E-1,-9.659258E-1,4.6E1,2.58E1,2.37E1,1.463275E0,2.7005332E0,5.138188E0,-1.9494821E0,2.695181E-3,4.8E-3,2.21E1,6.1E-3,3.824895E-1,9.2560425E-2,1E-3,-1.2667446E0,5E0,5.46E-2,8.6E-3,9.1E-1,2.08E1,3.6136046E-1,2.2403526E0,3.3319483E0,5.4E1,2.0776047E-1,-9.943954E-2,1.24E-2,5.917604E-1,3.5E-3,2.7E1,7.6748943E-3,3E-3,7E1,-1.3298751E-1,5.91E-2,8.324389E0,-3.5090393E-1,-8.834889E-1,2.61E1,3.8E1,5.0294585E0,1.5E1,5.8537736E0,6.7884707E0,8.7E1,-9.943954E-2,3.993886E-1,-9.943954E-2,1.1E1,1.6936035E-1,3.520819E0,2.3758311E0,1.3096039E-1,-1.4746233E0,-2.0125304E-1,1.5760345E-2,-6.464939E-1,1.7332564E-1,4.3161467E-2,-9.39826E-1,7.046356E-3,1.1819275E-1,-7.302933E-1,-2.5240162E-1,-4.3139234E-1,2.0095875E-2,9.2560425E-2,-6.103958E-2,-4.7224018E-1,-1.8123351E-1,1.5011957E-1,5.995506E-1,2.8566182E-1,1.2407113E0,3.685852E-2,4.7512206E-1,-5.2051924E-2,-5.894297E-1,1.2611704E0,1.5760345E-2,1.6936035E-1,1.9639748E0],"split_indices":[23,23,23,23,23,23,32,15,45,65,77,41,0,80,36,29,0,52,0,66,11,8,40,9,8,24,0,0,0,0,0,0,66,50,0,47,0,0,64,0,3,37,49,72,0,0,0,0,14,0,0,51,0,36,0,42,48,1,0,38,32,0,0,0,27,20,11,18,20,24,0,0,0,15,0,0,0,0,0,0,0,0,0,0,0,0,0,0,0,0,0,0,0,0,0,0,0,0,0,0,0,0,0,0,0,0,0],"split_type":[0,0,0,0,0,0,0,0,0,0,0,0,0,0,0,0,0,0,0,0,0,0,0,0,0,0,0,0,0,0,0,0,0,0,0,0,0,0,0,0,0,0,0,0,0,0,0,0,0,0,0,0,0,0,0,0,0,0,0,0,0,0,0,0,0,0,0,0,0,0,0,0,0,0,0,0,0,0,0,0,0,0,0,0,0,0,0,0,0,0,0,0,0,0,0,0,0,0,0,0,0,0,0,0,0,0,0],"sum_hessian":[7.48E2,5.6E2,1.88E2,3.66E2,1.94E2,1.33E2,5.5E1,1.59E2,2.07E2,7.9E1,1.15E2,5.8E1,7.5E1,4.1E1,1.4E1,1.58E2,1E0,2.06E2,1E0,6.7E1,1.2E1,1.1E1,1.04E2,5.1E1,7E0,7.3E1,2E0,3.5E1,6E0,5E0,9E0,4E1,1.18E2,2.02E2,4E0,6.3E1,4E0,1E0,1.1E1,2E0,9E0,8.9E1,1.5E1,4.8E1,3E0,1E0,6E0,3E0,7E1,1E0,1E0,3.4E1,1E0,1.16E2,2E0,3.8E1,1.64E2,3E0,1E0,1.9E1,4.4E1,2E0,9E0,2E0,7E0,7.7E1,1.2E1,8E0,7E0,4.7E1,1E0,2E0,1E0,6.9E1,1E0,2.3E1,1.1E1,1E0,1.15E2,1E0,1E0,3.5E1,3E0,3E0,1.61E2,1E0,2E0,1.4E1,5E0,2.7E1,1.7E1,1E0,1E0,5E0,2E0,3.5E1,4.2E1,2E0,1E1,6E0,2E0,3E0,4E0,4.6E1,1E0,1E0,6.8E1],"tree_param":{"num_deleted":"0","num_feature":"89","num_nodes":"107","size_leaf_vector":"1"}},{"base_weights":[4.9410265E-2,-8.553837E0,2.5585772E1,-1.3230987E1,2.9266286E-1,1.949013E1,3.9714886E1,-1.791125E1,-9.567174E0,-4.6234813E0,3.6805842E0,1.4982519E1,2.273301E1,3.4252266E1,5.236256E1,-1.8182775E1,1.010458E0,-9.704263E0,7.5240993E-1,-3.7817373E0,-8.670797E0,5.3887625E0,-3.8629391E0,1.3321294E1,2.3907673E1,2.3312284E1,8.6656696E-1,1.0642648E0,3.5522614E1,4.638068E0,8.467281E-1,-2.110931E1,-1.5822045E1,-1.7430917E0,-9.4197445E0,-4.3677154E0,3.5801023E-1,8.885803E-2,-9.5784855E0,7.0875673E0,8.477876E-1,-1.0745531E1,-6.1037135E-1,1.173772E1,1.5666455E0,3.4690613E-1,2.0867283E0,3.1320312E0,2.2091654E1,1.9945008E-1,-9.546203E-2,2.8736966E0,8.150461E-1,-2.143002E1,1.5130005E-2,-9.853173E0,-1.685685E1,-9.640014E0,-5.441907E-1,-7.2186995E0,-3.0035508E0,-7.9550785E-1,-2.223793E-1,5.7619596E0,1.800553E1,4.2552233E0,-3.7661088E0,-1.1661965E0,-3.3817786E-1,-3.2947924E0,4.412796E0,6.569039E0,1.3261551E1,7.7357883E0,2.261124E1,-1.5166775E0,-1.9678633E0,-3.7697345E-2,-8.927836E-1,-1.3975546E0,-5.357095E-1,-7.0503396E-1,-1.0512068E0,-2.8501648E-1,1.4845946E-1,-6.757647E-1,-2.3557474E-1,-3.9811352E-1,1.8577524E-2,5.048214E-1,-5.8461076E-1,1.5372497E0,4.2979902E-1,1.334932E-1,9.278185E-1,-5.5446273E-1,-4.124115E-2,-4.0875027E-1,9.2646174E-2,1.7698227E-1,4.70071E-1,6.466942E-1,-5.3554688E-2,1.1180304E0,1.17184035E-1,9.3257535E-1,2.0343383E-1,1.8310443E0,1.625859E-1],"categories":[],"categories_nodes":[],"categories_segments":[],"categories_sizes":[],"default_left":[0,0,0,0,0,0,0,0,0,0,0,0,0,0,0,0,0,0,0,0,0,0,0,0,0,0,0,0,0,0,0,0,0,0,0,0,0,0,0,0,0,0,0,0,0,0,0,0,0,0,0,0,0,0,0,0,0,0,0,0,0,0,0,0,0,0,0,0,0,0,0,0,0,0,0,0,0,0,0,0,0,0,0,0,0,0,0,0,0,0,0,0,0,0,0,0,0,0,0,0,0,0,0,0,0,0,0,0,0],"id":2,"left_children":[1,3,5,7,9,11,13,15,17,19,21,23,25,27,29,31,-1,33,-1,35,37,39,41,43,45,47,49,-1,51,-1,-1,53,55,-1,57,59,-1,-1,61,63,65,67,69,71,-1,-1,-1,-1,73,-1,-1,-1,-1,75,-1,77,79,81,83,85,87,-1,-1,89,91,93,95,-1,-1,97,99,101,103,105,107,-1,-1,-1,-1,-1,-1,-1,-1,-1,-1,-1,-1,-1,-1,-1,-1,-1,-1,-1,-1,-1,-1,-1,-1,-1,-1,-1,-1,-1,-1,-1,-1,-1,-1],"loss_changes":[1.6477089E5,2.3216031E4,1.5503773E4,6.1218164E3,3.2648413E3,1.618168E3,2.0754766E3,1.5565312E3,6.322539E2,2.3975366E2,1.5155555E3,5.5629395E2,9.4246484E2,6.4515625E2,2.9041016E3,7.645E2,0E0,5.064707E2,0E0,3.485534E2,1.2606036E2,7.2684326E2,4.8593546E2,2.857705E2,2.2765674E2,5.657031E2,1.3026351E1,0E0,2.7859375E1,0E0,0E0,4.685371E2,4.0215625E2,0E0,3.9357812E2,2.272279E2,0E0,0E0,2.1669922E0,8.948855E2,4.4050763E2,1.132215E2,2.30288E2,2.59437E2,0E0,0E0,0E0,0E0,3.546836E2,0E0,0E0,0E0,0E0,5.830078E1,0E0,1.9088E2,3.6227734E2,4.602754E2,5.0076897E1,8.012659E1,2.8842426E2,0E0,0E0,4.9758203E2,3.774414E0,2.8451648E2,1.1987201E2,0E0,0E0,9.4798325E1,6.3182526E0,1.3697546E2,2.57417E2,5.1809967E1,3.4085156E2,0E0,0E0,0E0,0E0,0E0,0E0,0E0,0E0,0E0,0E0,0E0,0E0,0E0,0E0,0E0,0E0,0E0,0E0,0E0,0E0,0E0,0E0,0E0,0E0,0E0,0E0,0E0,0E0,0E0,0E0,0E0,0E0,0E0,0E0],"parents":[2147483647,0,0,1,1,2,2,3,3,4,4,5,5,6,6,7,7,8,8,9,9,10,10,11,11,12,12,13,13,14,14,15,15,17,17,19,19,20,20,21,21,22,22,23,23,24,24,25,25,26,26,28,28,31,31,32,32,34,34,35,35,38,38,39,39,40,40,41,41,42,42,43,43,48,48,53,53,55,55,56,56,57,57,58,58,59,59,60,60,63,63,64,64,65,65,66,66,69,69,70,70,71,71,72,72,73,73,74,74],"right_children":[2,4,6,8,10,12,14,16,18,20,22,24,26,28,30,32,-1,34,-1,36,38,40,42,44,46,48,50,-1,52,-1,-1,54,56,-1,58,60,-1,-1,62,64,66,68,70,72,-1,-1,-1,-1,74,-1,-1,-1,-1,76,-1,78,80,82,84,86,88,-1,-1,90,92,94,96,-1,-1,98,100,102,104,106,108,-1,-1,-1,-1,-1,-1,-1,-1,-1,-1,-1,-1,-1,-1,-1,-1,-1,-1,-1,-1,-1,-1,-1,-1,-1,-1,-1,-1,-1,-1,-1,-1,-1,-1],"split_conditions":[5.9E1,4E1,8.4E1,2.9E1,4.4E1,6.7E1,1.04E2,4.6E1,5.3595833E-2,1.9166666E-3,2.58E1,5.6633335E-2,2.54E1,1.1990259E1,9.659258E-1,2.3166666E1,1.010458E0,2.4166666E1,7.5240993E-1,4.792355E-4,1E1,4.42E-2,9E-4,8.317105E0,-9.659258E-1,4.6E1,2.58E1,1.0642648E0,8.8E1,4.638068E0,8.467281E-1,3.02E1,2.6E-1,-1.7430917E0,1.7633334E-2,6.1E-3,3.5801023E-1,8.885803E-2,6E0,1.9465515E-2,9.8E-3,7.0710677E-1,8.471521E0,7.7230126E-2,1.5666455E0,3.4690613E-1,2.0867283E0,3.1320312E0,4E-3,1.9945008E-1,-9.546203E-2,2.8736966E0,8.150461E-1,7.1900606E0,1.5130005E-2,1.22E-2,5.88E-2,4.64608E-3,1.83E1,5.91E-2,8.324389E0,-7.9550785E-1,-2.223793E-1,3.7E1,2.8E1,1.04E-2,1.5E-3,-1.1661965E0,-3.3817786E-1,8.674564E-1,1.0163E3,4.792355E-2,2.59E-2,5.5243534E-1,5.4E1,-1.5166775E0,-1.9678633E0,-3.7697345E-2,-8.927836E-1,-1.3975546E0,-5.357095E-1,-7.0503396E-1,-1.0512068E0,-2.8501648E-1,1.4845946E-1,-6.757647E-1,-2.3557474E-1,-3.9811352E-1,1.8577524E-2,5.048214E-1,-5.8461076E-1,1.5372497E0,4.2979902E-1,1.334932E-1,9.278185E-1,-5.5446273E-1,-4.124115E-2,-4.0875027E-1,9.2646174E-2,1.7698227E-1,4.70071E-1,6.466942E-1,-5.3554688E-2,1.1180304E0,1.17184035E-1,9.3257535E-1,2.0343383E-1,1.8310443E0,1.625859E-1],"split_indices":[23,23,23,23,23,23,23,15,45,65,0,41,0,34,7,29,0,29,0,66,11,40,64,20,8,24,0,0,1,0,0,0,74,0,57,47,0,0,4,44,48,7,30,82,0,0,0,0,52,0,0,0,0,32,0,36,35,56,0,38,32,0,0,12,11,49,64,0,0,9,2,78,48,9,14,0,0,0,0,0,0,0,0,0,0,0,0,0,0,0,0,0,0,0,0,0,0,0,0,0,0,0,0,0,0,0,0,0,0],"split_type":[0,0,0,0,0,0,0,0,0,0,0,0,0,0,0,0,0,0,0,0,0,0,0,0,0,0,0,0,0,0,0,0,0,0,0,0,0,0,0,0,0,0,0,0,0,0,0,0,0,0,0,0,0,0,0,0,0,0,0,0,0,0,0,0,0,0,0,0,0,0,0,0,0,0,0,0,0,0,0,0,0,0,0,0,0,0,0,0,0,0,0,0,0,0,0,0,0,0,0,0,0,0,0,0,0,0,0,0,0],"sum_hessian":[7.48E2,5.6E2,1.88E2,3.66E2,1.94E2,1.33E2,5.5E1,1.59E2,2.07E2,7.9E1,1.15E2,5.8E1,7.5E1,4.1E1,1.4E1,1.58E2,1E0,2.06E2,1E0,6.7E1,1.2E1,9.4E1,2.1E1,5.1E1,7E0,7.3E1,2E0,3E0,3.8E1,1.2E1,2E0,6.7E1,9.1E1,3E0,2.03E2,6.3E1,4E0,1E0,1.1E1,6.8E1,2.6E1,6E0,1.5E1,4.3E1,8E0,1E0,6E0,3E0,7E1,1E0,1E0,3.7E1,1E0,6.6E1,1E0,1.5E1,7.6E1,1.98E2,5E0,1.9E1,4.4E1,1E1,1E0,6.2E1,6E0,1.5E1,1.1E1,3E0,3E0,1E1,5E0,1.1E1,3.2E1,3E0,6.7E1,4.1E1,2.5E1,2E0,1.3E1,7.1E1,5E0,1.63E2,3.5E1,2E0,3E0,1.4E1,5E0,2.7E1,1.7E1,6E1,2E0,5E0,1E0,1.2E1,3E0,5E0,6E0,7E0,3E0,3E0,2E0,9E0,2E0,3E1,2E0,1E0,2E0,6.6E1,1E0],"tree_param":{"num_deleted":"0","num_feature":"89","num_nodes":"109","size_leaf_vector":"1"}},{"base_weights":[6.353959E-2,-7.8853745E0,2.3657598E1,-1.2194867E1,2.6575008E-1,1.8021921E1,3.6720512E1,-1.9539957E1,-1.017724E1,-3.9273188E0,3.6798642E0,1.7118351E1,3.4445057E1,3.156258E1,4.871469E1,-1.9798439E1,1.4524841E-2,-1.3673793E1,-8.207442E0,-5.5134916E0,-1.8860742E0,5.3588867E0,-3.5312724E0,1.317934E1,2.0053686E1,3.2301366E0,1.9147201E-1,3.3228855E1,1.0069094E0,2.4594352E0,4.5823984E0,-5.2654886E-1,-2.0063122E1,-1.4045604E1,9.7003967E-1,-8.3478985E0,7.223135E-1,-5.9711757E0,-1.2382278E0,1.5299736E0,-4.7505665E0,7.1628237E0,7.8169864E-1,-1.01008005E1,-2.3007457E-1,5.9142814E0,1.4223464E1,2.0368402E1,-9.164352E-2,3.3820755E1,4.5314223E-1,-1.8011965E1,-2.2862852E1,-1.2046155E1,-1.7232578E1,-8.54286E0,4.572792E-1,-2.724546E-1,-6.2360563E0,7.9870224E-1,-1.9650947E-1,-1.4065063E0,4.9490075E0,-1.1596341E1,-2.0549657E0,3.7097278E0,1.0607641E1,4.1665144E0,-3.5144625E0,-1.0962248E0,-3.1788725E-1,3.8677483E0,-3.3917062E0,8.295037E0,-1.2897949E-1,8.764861E0,1.553833E1,8.934417E-2,2.062747E1,3.4753822E1,9.329128E-1,-1.4604048E0,-2.6345748E-1,-1.8637059E0,-4.463658E-1,-9.9046004E-1,-7.141733E-2,-1.4691463E0,-2.6436445E-1,-4.302088E-1,-7.40405E-1,-6.57604E-2,1.2673095E-1,-4.3235168E-2,1.0540619E-2,-5.2038735E-1,-4.5885213E-2,1.0540619E-2,8.530365E-2,-2.5079122E-1,4.450363E-2,4.785394E-1,-1.3251495E-1,-1.7107208E-1,-1.04482E0,-2.310926E-1,2.2387856E-1,-4.7402672E-2,4.9571025E-1,9.065024E-1,-4.4406235E-1,8.9926146E-2,8.0212593E-1,-5.1749855E-1,-3.8413215E-2,3.817578E-1,-6.2303923E-2,6.09551E-2,-3.749848E-1,2.4357443E-1,7.8289956E-1,3.6905113E-1,8.211264E-1,1.2913238E0,2.3353475E-1,1.7056967E0,7.739242E-1,1.3931252E0,2.8668187E0],"categories":[],"categories_nodes":[],"categories_segments":[],"categories_sizes":[],"default_left":[0,0,0,0,0,0,0,0,0,0,0,0,0,0,0,0,0,0,0,0,0,0,0,0,0,0,0,0,0,0,0,0,0,0,0,0,0,0,0,0,0,0,0,0,0,0,0,0,0,0,0,0,0,0,0,0,0,0,0,0,0,0,0,0,0,0,0,0,0,0,0,0,0,0,0,0,0,0,0,0,0,0,0,0,0,0,0,0,0,0,0,0,0,0,0,0,0,0,0,0,0,0,0,0,0,0,0,0,0,0,0,0,0,0,0,0,0,0,0,0,0,0,0,0,0,0,0,0,0],"id":3,"left_children":[1,3,5,7,9,11,13,15,17,19,21,23,25,27,29,31,-1,33,35,37,39,41,43,45,47,-1,-1,49,-1,-1,-1,-1,51,53,-1,55,-1,57,59,61,63,65,67,69,71,73,75,77,-1,79,-1,81,83,85,87,89,91,93,95,97,-1,99,101,103,105,107,109,111,113,-1,-1,115,117,119,-1,121,123,-1,125,127,-1,-1,-1,-1,-1,-1,-1,-1,-1,-1,-1,-1,-1,-1,-1,-1,-1,-1,-1,-1,-1,-1,-1,-1,-1,-1,-1,-1,-1,-1,-1,-1,-1,-1,-1,-1,-1,-1,-1,-1,-1,-1,-1,-1,-1,-1,-1,-1,-1],"loss_changes":[1.4065938E5,1.9709613E4,1.3252094E4,5.239949E3,2.805997E3,1.3988477E3,1.9268906E3,4.0121094E2,1.8851465E3,2.7452454E2,1.3265513E3,1.2272461E3,1.0440771E3,9.0979297E2,5.4803906E2,1.3731055E2,0E0,1.158334E3,5.305127E2,8.8485596E1,3.9867798E2,7.210132E2,4.5310962E2,3.5584473E2,5.0369727E2,0E0,0E0,4.2841797E2,0E0,0E0,0E0,0E0,1.8896484E1,4.423789E2,0E0,3.2492383E2,0E0,6.471814E1,1.684951E1,1.9771939E2,3.8214645E2,7.100515E2,3.9272763E2,1.0004254E2,2.0745535E2,1.7464304E2,2.226748E2,3.3107422E2,0E0,3.5973438E2,0E0,1.1163086E2,7.978711E1,2.3525195E2,5.225469E2,3.627666E2,8.510024E0,3.9617562E-1,6.019275E1,3.9491713E-1,0E0,3.906115E1,7.130345E1,5.5145264E1,7.687062E1,3.567129E2,4.2537695E2,2.5616238E2,1.0446352E2,0E0,0E0,3.3127068E1,5.2004753E1,2.5009583E1,0E0,2.7342407E1,2.4975098E2,0E0,3.256543E2,3.2265625E1,0E0,0E0,0E0,0E0,0E0,0E0,0E0,0E0,0E0,0E0,0E0,0E0,0E0,0E0,0E0,0E0,0E0,0E0,0E0,0E0,0E0,0E0,0E0,0E0,0E0,0E0,0E0,0E0,0E0,0E0,0E0,0E0,0E0,0E0,0E0,0E0,0E0,0E0,0E0,0E0,0E0,0E0,0E0,0E0,0E0,0E0,0E0,0E0,0E0],"parents":[2147483647,0,0,1,1,2,2,3,3,4,4,5,5,6,6,7,7,8,8,9,9,10,10,11,11,12,12,13,13,14,14,15,15,17,17,18,18,19,19,20,20,21,21,22,22,23,23,24,24,27,27,32,32,33,33,35,35,37,37,38,38,39,39,40,40,41,41,42,42,43,43,44,44,45,45,46,46,47,47,49,49,51,51,52,52,53,53,54,54,55,55,56,56,57,57,58,58,59,59,61,61,62,62,63,63,64,64,65,65,66,66,67,67,68,68,71,71,72,72,73,73,75,75,76,76,78,78,79,79],"right_children":[2,4,6,8,10,12,14,16,18,20,22,24,26,28,30,32,-1,34,36,38,40,42,44,46,48,-1,-1,50,-1,-1,-1,-1,52,54,-1,56,-1,58,60,62,64,66,68,70,72,74,76,78,-1,80,-1,82,84,86,88,90,92,94,96,98,-1,100,102,104,106,108,110,112,114,-1,-1,116,118,120,-1,122,124,-1,126,128,-1,-1,-1,-1,-1,-1,-1,-1,-1,-1,-1,-1,-1,-1,-1,-1,-1,-1,-1,-1,-1,-1,-1,-1,-1,-1,-1,-1,-1,-1,-1,-1,-1,-1,-1,-1,-1,-1,-1,-1,-1,-1,-1,-1,-1,-1,-1,-1,-1],"split_conditions":[5.9E1,4E1,8.4E1,2.4166666E1,4.5E1,1.9148542E1,3.0931376E1,3.02E1,3E1,8.638796E0,2.58E1,6.7E1,5.2E1,1.3334848E-1,3.3E-2,4E0,1.4524841E-2,4.6E1,5.3595833E-2,1.97E-2,1.0492061E1,4.42E-2,9E-4,3.8455012E0,2.54E1,3.2301366E0,1.9147201E-1,2.37E1,1.0069094E0,2.4594352E0,4.5823984E0,-5.2654886E-1,7.1900606E0,8.921884E0,9.7003967E-1,2.1E-2,7.223135E-1,3.4090565E-3,2.3E1,2.6603884E-3,1.0269908E1,1.0031768E1,9.8E-3,7.0710677E-1,3.4E1,5E-1,1.86E-2,1.1E1,-9.164352E-2,4.8E1,4.5314223E-1,4.1009974E0,2.3166666E1,1.0943779E1,8.958393E-1,4.8E-3,1E1,1.84E1,9.9274874E-1,1.92E1,-1.9650947E-1,2E1,9.659258E-1,1.0094E3,1.0201E3,6.123234E-17,3.4E1,9.95E-3,1.5E-3,-1.0962248E0,-3.1788725E-1,4E0,2.2966643E-3,5.7E-3,-1.2897949E-1,1.5E-3,7.7416664E1,8.934417E-2,9.659258E-1,-9.611298E-1,9.329128E-1,-1.4604048E0,-2.6345748E-1,-1.8637059E0,-4.463658E-1,-9.9046004E-1,-7.141733E-2,-1.4691463E0,-2.6436445E-1,-4.302088E-1,-7.40405E-1,-6.57604E-2,1.2673095E-1,-4.3235168E-2,1.0540619E-2,-5.2038735E-1,-4.5885213E-2,1.0540619E-2,8.530365E-2,-2.5079122E-1,4.450363E-2,4.785394E-1,-1.3251495E-1,-1.7107208E-1,-1.04482E0,-2.310926E-1,2.2387856E-1,-4.7402672E-2,4.9571025E-1,9.065024E-1,-4.4406235E-1,8.9926146E-2,8.0212593E-1,-5.1749855E-1,-3.8413215E-2,3.817578E-1,-6.2303923E-2,6.09551E-2,-3.749848E-1,2.4357443E-1,7.8289956E-1,3.6905113E-1,8.211264E-1,1.2913238E0,2.3353475E-1,1.7056967E0,7.739242E-1,1.3931252E0,2.8668187E0],"split_indices":[23,23,23,29,23,30,32,0,23,32,0,23,14,80,36,16,0,15,45,52,32,40,64,20,0,0,0,0,0,0,0,0,32,30,0,52,0,46,12,54,34,32,48,7,27,7,39,15,0,12,0,20,29,22,9,50,3,0,10,0,0,14,7,2,2,8,11,55,64,0,0,3,42,51,0,59,31,0,7,9,0,0,0,0,0,0,0,0,0,0,0,0,0,0,0,0,0,0,0,0,0,0,0,0,0,0,0,0,0,0,0,0,0,0,0,0,0,0,0,0,0,0,0,0,0,0,0,0,0],"split_type":[0,0,0,0,0,0,0,0,0,0,0,0,0,0,0,0,0,0,0,0,0,0,0,0,0,0,0,0,0,0,0,0,0,0,0,0,0,0,0,0,0,0,0,0,0,0,0,0,0,0,0,0,0,0,0,0,0,0,0,0,0,0,0,0,0,0,0,0,0,0,0,0,0,0,0,0,0,0,0,0,0,0,0,0,0,0,0,0,0,0,0,0,0,0,0,0,0,0,0,0,0,0,0,0,0,0,0,0,0,0,0,0,0,0,0,0,0,0,0,0,0,0,0,0,0,0,0,0,0],"sum_hessian":[7.48E2,5.6E2,1.88E2,3.66E2,1.94E2,1.33E2,5.5E1,7.7E1,2.89E2,8.7E1,1.07E2,1.28E2,5E0,4.1E1,1.4E1,7.6E1,1E0,1.02E2,1.87E2,4.8E1,3.9E1,8.7E1,2E1,5.7E1,7.1E1,4E0,1E0,3.7E1,4E0,6E0,8E0,2E0,7.4E1,1.01E2,1E0,1.86E2,1E0,4.3E1,5E0,1.8E1,2.1E1,6.2E1,2.5E1,6E0,1.4E1,8E0,4.9E1,7E1,1E0,3.6E1,1E0,4.7E1,2.7E1,6.5E1,3.6E1,1.82E2,4E0,2E0,4.1E1,2E0,3E0,1E1,8E0,5E0,1.6E1,3.2E1,3E1,1.4E1,1.1E1,3E0,3E0,6E0,8E0,6E0,2E0,1.1E1,3.8E1,1E0,6.9E1,3.4E1,2E0,4.6E1,1E0,2.6E1,1E0,6.3E1,2E0,3.3E1,3E0,3.5E1,1.47E2,2E0,2E0,1E0,1E0,3.9E1,2E0,1E0,1E0,5E0,5E0,7E0,1E0,1E0,4E0,1.4E1,2E0,1.2E1,2E1,2.9E1,1E0,1E1,4E0,5E0,6E0,5E0,1E0,2E0,6E0,2E0,4E0,4E0,7E0,3.6E1,2E0,6.4E1,5E0,3E0,3.1E1],"tree_param":{"num_deleted":"0","num_feature":"89","num_nodes":"129","size_leaf_vector":"1"}},{"base_weights":[7.7819444E-2,-7.2700586E0,2.1887775E1,-1.1237694E1,2.345167E-1,1.665115E1,3.4027424E1,-1.8035044E1,-9.37069E0,-3.633395E0,3.383977E0,1.579609E1,3.225972E1,2.9177734E1,4.5338055E1,-1.8273792E1,1.3943787E-2,-1.2597611E1,-7.552906E0,-5.086692E0,-1.7622716E0,4.9443455E0,-3.3158514E0,1.2187278E1,1.8483799E1,3.023408E0,1.8381317E-1,9.3375E-1,3.022506E1,4.0124664E0,7.478674E-1,-4.9846616E-1,-1.851186E1,-1.2949362E1,9.3123806E-1,-7.841453E0,1.0282991E0,-5.507096E0,-1.1559467E0,1.4149307E0,-4.426116E0,6.6042547E0,7.320906E-1,-9.494753E0,-2.1130753E-1,1.3001073E1,4.4009004E0,1.8775114E1,-8.797775E-2,7.0881695E-1,2.4443302E0,-1.6606922E1,-2.111633E1,-7.8788652E0,-1.3942101E1,-8.057425E0,-1.6337459E-1,6.93421E-1,-1.689572E0,-1.765803E0,-5.9414716E0,7.6675415E-1,-1.8471885E-1,-1.3127393E0,4.591535E0,-1.0222248E1,-1.6136758E0,5.326042E0,1.6069094E1,3.892662E0,-3.2796314E0,-1.0304513E0,-2.988141E-1,3.6039636E0,-3.155262E0,1.3736969E1,3.3362565E0,5.382195E-1,-7.553121E-2,5.6210175E-2,1.9023254E1,-1.3460584E0,-2.5291917E-1,-1.7201315E0,-4.285112E-1,-6.83865E-1,1.6684829E-1,-9.6077657E-1,-1.3486767E0,-5.8642596E-1,-9.460302E-1,-2.3032735E-1,1.5314056E-1,-2.7735382E-1,5.2667237E-3,-3.3418424E-2,-2.3797058E-1,-4.974886E-1,-4.3437906E-2,1.0119018E-2,8.189148E-2,1.4526285E-1,-1.7677768E-1,4.4504172E-1,-1.2721436E-1,-2.7823374E-1,-9.7795147E-1,1.537643E-1,-2.716446E-1,5.6810075E-1,5.8507007E-2,1.374333E0,3.7634704E-1,8.382657E-1,1.0984428E-1,-4.829987E-1,-3.5779115E-2,3.5630718E-1,-5.9811704E-2,5.770416E-2,-3.4927157E-1,3.364856E-1,1.1423116E0,-9.499023E-2,3.8112074E-1,1.022553E0,1.6284273E0],"categories":[],"categories_nodes":[],"categories_segments":[],"categories_sizes":[],"default_left":[0,0,0,0,0,0,0,0,0,0,0,0,0,0,0,0,0,0,0,0,0,0,0,0,0,0,0,0,0,0,0,0,0,0,0,0,0,0,0,0,0,0,0,0,0,0,0,0,0,0,0,0,0,0,0,0,0,0,0,0,0,0,0,0,0,0,0,0,0,0,0,0,0,0,0,0,0,0,0,0,0,0,0,0,0,0,0,0,0,0,0,0,0,0,0,0,0,0,0,0,0,0,0,0,0,0,0,0,0,0,0,0,0,0,0,0,0,0,0,0,0,0,0,0,0,0,0],"id":4,"left_children":[1,3,5,7,9,11,13,15,17,19,21,23,25,27,29,31,-1,33,35,37,39,41,43,45,47,-1,-1,-1,49,-1,-1,-1,51,53,-1,55,57,59,61,63,65,67,69,71,73,75,77,79,-1,-1,-1,81,83,85,87,89,91,-1,93,95,97,99,-1,101,103,105,107,109,111,113,115,-1,-1,117,119,121,123,-1,-1,-1,125,-1,-1,-1,-1,-1,-1,-1,-1,-1,-1,-1,-1,-1,-1,-1,-1,-1,-1,-1,-1,-1,-1,-1,-1,-1,-1,-1,-1,-1,-1,-1,-1,-1,-1,-1,-1,-1,-1,-1,-1,-1,-1,-1,-1,-1,-1],"loss_changes":[1.2019154E5,1.670665E4,1.1448281E4,4.4884727E3,2.387753E3,1.2788164E3,1.7489102E3,3.422871E2,1.6059453E3,2.303341E2,1.1454485E3,1.0259609E3,9.078237E2,4.172578E2,2.1319824E3,1.0541797E2,0E0,1.0288906E3,4.7356543E2,7.460681E1,3.448055E2,6.104573E2,4.0082974E2,3.1030176E2,4.314043E2,0E0,0E0,0E0,3.4726562E0,0E0,0E0,0E0,2.1421875E1,4.035879E2,0E0,3.0048535E2,1.5998636E2,6.101416E1,1.5072121E1,1.7065732E2,3.421327E2,6.7659424E2,3.4242917E2,8.839752E1,1.7985121E2,3.2400977E2,9.341145E1,3.050332E2,0E0,0E0,0E0,8.802051E1,5.486133E1,1.4457166E2,2.709209E2,3.9823926E2,3.9364883E1,0E0,1.8948074E1,8.534945E0,5.4972046E1,3.6395454E-1,0E0,3.4880905E1,6.2895294E1,5.200641E1,1.0733049E2,4.5973303E2,7.493164E0,2.34512E2,9.103566E1,0E0,0E0,2.9218193E1,4.5386993E1,1.8786328E2,3.794984E1,0E0,0E0,0E0,3.2180078E2,0E0,0E0,0E0,0E0,0E0,0E0,0E0,0E0,0E0,0E0,0E0,0E0,0E0,0E0,0E0,0E0,0E0,0E0,0E0,0E0,0E0,0E0,0E0,0E0,0E0,0E0,0E0,0E0,0E0,0E0,0E0,0E0,0E0,0E0,0E0,0E0,0E0,0E0,0E0,0E0,0E0,0E0,0E0,0E0,0E0,0E0],"parents":[2147483647,0,0,1,1,2,2,3,3,4,4,5,5,6,6,7,7,8,8,9,9,10,10,11,11,12,12,13,13,14,14,15,15,17,17,18,18,19,19,20,20,21,21,22,22,23,23,24,24,28,28,32,32,33,33,35,35,36,36,37,37,38,38,39,39,40,40,41,41,42,42,43,43,44,44,45,45,46,46,47,47,51,51,52,52,53,53,54,54,55,55,56,56,58,58,59,59,60,60,61,61,63,63,64,64,65,65,66,66,67,67,68,68,69,69,70,70,73,73,74,74,75,75,76,76,80,80],"right_children":[2,4,6,8,10,12,14,16,18,20,22,24,26,28,30,32,-1,34,36,38,40,42,44,46,48,-1,-1,-1,50,-1,-1,-1,52,54,-1,56,58,60,62,64,66,68,70,72,74,76,78,80,-1,-1,-1,82,84,86,88,90,92,-1,94,96,98,100,-1,102,104,106,108,110,112,114,116,-1,-1,118,120,122,124,-1,-1,-1,126,-1,-1,-1,-1,-1,-1,-1,-1,-1,-1,-1,-1,-1,-1,-1,-1,-1,-1,-1,-1,-1,-1,-1,-1,-1,-1,-1,-1,-1,-1,-1,-1,-1,-1,-1,-1,-1,-1,-1,-1,-1,-1,-1,-1,-1,-1],"split_conditions":[5.9E1,4E1,8.4E1,2.4166666E1,4.5E1,1.9148542E1,1.04E2,3.02E1,3E1,8.638796E0,2.58E1,6.7E1,5.2E1,1.1990259E1,9.659258E-1,4E0,1.3943787E-2,4.6E1,6.12E-2,1.97E-2,1.0492061E1,4.42E-2,9E-4,5.3595833E-2,2.54E1,3.023408E0,1.8381317E-1,9.3375E-1,5.2E1,4.0124664E0,7.478674E-1,-4.9846616E-1,7.1900606E0,2.6E-1,9.3123806E-1,1.6508333E-2,1.93E1,-9.441875E-1,2.3E1,2.6603884E-3,1.0890014E1,1.9083077E-2,9.8E-3,7.0710677E-1,3.4E1,2.68E-2,2.13E1,1.6333334E1,-8.797775E-2,7.0881695E-1,2.4443302E0,4.1009974E0,2.3166666E1,2.3E1,5.706721E-2,4.64608E-3,1.83E1,6.93421E-1,2.37E1,4.3E1,9.9274874E-1,1.92E1,-1.8471885E-1,4E0,9.659258E-1,1.0094E3,1.4599637E-2,2.6458334E1,2.8E1,4.3E-2,1.5E-3,-1.0304513E0,-2.988141E-1,4E0,2.2966643E-3,9.422357E0,6.7E1,5.382195E-1,-7.553121E-2,5.6210175E-2,7.6E-3,-1.3460584E0,-2.5291917E-1,-1.7201315E0,-4.285112E-1,-6.83865E-1,1.6684829E-1,-9.6077657E-1,-1.3486767E0,-5.8642596E-1,-9.460302E-1,-2.3032735E-1,1.5314056E-1,-2.7735382E-1,5.2667237E-3,-3.3418424E-2,-2.3797058E-1,-4.974886E-1,-4.3437906E-2,1.0119018E-2,8.189148E-2,1.4526285E-1,-1.7677768E-1,4.4504172E-1,-1.2721436E-1,-2.7823374E-1,-9.7795147E-1,1.537643E-1,-2.716446E-1,5.6810075E-1,5.8507007E-2,1.374333E0,3.7634704E-1,8.382657E-1,1.0984428E-1,-4.829987E-1,-3.5779115E-2,3.5630718E-1,-5.9811704E-2,5.770416E-2,-3.4927157E-1,3.364856E-1,1.1423116E0,-9.499023E-2,3.8112074E-1,1.022553E0,1.6284273E0],"split_indices":[23,23,23,29,23,30,23,0,23,32,0,23,14,34,7,16,0,15,39,52,32,40,64,45,0,0,0,0,1,0,0,0,32,74,0,57,0,10,12,54,34,44,48,7,27,47,0,17,0,0,0,20,29,3,78,56,0,0,0,23,10,0,0,4,7,2,46,21,11,37,64,0,0,3,42,34,1,0,0,0,47,0,0,0,0,0,0,0,0,0,0,0,0,0,0,0,0,0,0,0,0,0,0,0,0,0,0,0,0,0,0,0,0,0,0,0,0,0,0,0,0,0,0,0,0,0,0],"split_type":[0,0,0,0,0,0,0,0,0,0,0,0,0,0,0,0,0,0,0,0,0,0,0,0,0,0,0,0,0,0,0,0,0,0,0,0,0,0,0,0,0,0,0,0,0,0,0,0,0,0,0,0,0,0,0,0,0,0,0,0,0,0,0,0,0,0,0,0,0,0,0,0,0,0,0,0,0,0,0,0,0,0,0,0,0,0,0,0,0,0,0,0,0,0,0,0,0,0,0,0,0,0,0,0,0,0,0,0,0,0,0,0,0,0,0,0,0,0,0,0,0,0,0,0,0,0,0],"sum_hessian":[7.48E2,5.6E2,1.88E2,3.66E2,1.94E2,1.33E2,5.5E1,7.7E1,2.89E2,8.7E1,1.07E2,1.28E2,5E0,4.1E1,1.4E1,7.6E1,1E0,1.02E2,1.87E2,4.8E1,3.9E1,8.7E1,2E1,5.7E1,7.1E1,4E0,1E0,3E0,3.8E1,1.2E1,2E0,2E0,7.4E1,1.01E2,1E0,1.81E2,6E0,4.3E1,5E0,1.8E1,2.1E1,6.2E1,2.5E1,6E0,1.4E1,5.1E1,6E0,7E1,1E0,1E0,3.7E1,4.7E1,2.7E1,1.8E1,8.3E1,1.76E2,5E0,1E0,5E0,5E0,3.8E1,2E0,3E0,1E1,8E0,6E0,1.5E1,5.6E1,6E0,1.4E1,1.1E1,3E0,3E0,6E0,8E0,4.7E1,4E0,4E0,2E0,1E0,6.9E1,4.6E1,1E0,2.6E1,1E0,1.7E1,1E0,5.3E1,3E1,1.5E2,2.6E1,2E0,3E0,2E0,3E0,3E0,2E0,3.6E1,2E0,1E0,1E0,2E0,8E0,7E0,1E0,2E0,4E0,5E0,1E1,4E1,1.6E1,5E0,1E0,3E0,1.1E1,5E0,6E0,5E0,1E0,2E0,6E0,3E0,4.4E1,1E0,3E0,1.4E1,5.5E1],"tree_param":{"num_deleted":"0","num_feature":"89","num_nodes":"127","size_leaf_vector":"1"}},{"base_weights":[8.371029E-2,-6.7024045E0,2.022618E1,-1.1254747E1,-1.1159365E0,1.413117E1,2.9102558E1,-1.6646498E1,-9.393492E0,-4.475066E0,2.8898897E0,1.1580988E1,1.6949062E1,2.358875E1,3.8798775E1,-1.6867033E1,1.3386077E-2,-1.1608202E1,-7.5665016E0,-4.783113E0,4.675597E0,-5.792965E0,3.8546932E0,1.4052178E1,7.2626905E0,1.7730938E1,3.1338072E0,2.6576317E1,1.4646833E1,2.3871512E0,4.418197E0,-4.7188127E-1,-1.708088E1,-1.1941123E1,8.939886E-1,-3.6557832E-1,-7.8516135E0,-4.093167E0,-8.743674E0,-4.9659094E-1,6.6314024E-1,-1.023565E0,-3.113189E0,2.8305044E0,8.341521E0,1.4952144E1,2.4394474E0,9.901666E0,4.1716003E-1,1.839889E1,4.493418E-1,4.6952512E-2,3.029711E-1,8.5755E-1,2.8173542E1,1.618554E1,3.0968273E0,-1.7336124E1,-6.5730137E-1,-1.0201283E1,-1.4721888E1,2.10773E0,-2.8331706E-1,-8.070078E0,7.744379E-1,-5.3825097E0,-2.4589946E0,-3.9476058E0,-9.759452E0,-1.6252014E-1,1.0292923E-1,-3.9839172E-1,-4.2197604E0,-1.8245653E0,3.9870865E0,1.1472968E1,1.3343309E0,9.257889E-2,1.531322E1,2.7495095E-1,-2.2114867E-2,5.727903E0,1.2667887E1,2.7002602E0,-1.1942016E-1,2.0323959E-1,1.8694843E1,2.8966457E1,8.47112E-1,1.3465396E0,3.3724335E-1,2.0633392E-2,3.5098585E-1,-6.690347E-1,-1.4084048E0,-1.1653694E-1,-8.4756553E-1,-1.261042E0,-1.7533989E-1,1.9314972E-1,4.7512207E-2,-3.846894E-1,-6.99161E-1,1.3152619E-1,-7.337921E-2,-7.6094234E-1,-3.1394637E-1,-8.7415457E-1,-1.3859037E-1,-6.588867E-2,-3.6181626E-1,-4.6530032E-1,-9.3935996E-1,7.703231E-2,-9.3849994E-2,-8.335571E-2,-3.6605906E-1,4.4084802E-2,-5.3341275E-1,3.788666E-1,-3.831074E-1,1.138747E0,4.7031856E-1,1.9742163E-1,-7.9960935E-2,4.0698925E-1,1.2623044E0,1.8399811E-1,5.102994E-1,1.1006896E0,4.429305E-1,2.5205323E-1,5.396179E-2,1.5299312E0,5.0479704E-1,6.459688E-1,2.3514957E0],"categories":[],"categories_nodes":[],"categories_segments":[],"categories_sizes":[],"default_left":[0,0,0,0,0,0,0,0,0,0,0,0,0,0,0,0,0,0,0,0,0,0,0,0,0,0,0,0,0,0,0,0,0,0,0,0,0,0,0,0,0,0,0,0,0,0,0,0,0,0,0,0,0,0,0,0,0,0,0,0,0,0,0,0,0,0,0,0,0,0,0,0,0,0,0,0,0,0,0,0,0,0,0,0,0,0,0,0,0,0,0,0,0,0,0,0,0,0,0,0,0,0,0,0,0,0,0,0,0,0,0,0,0,0,0,0,0,0,0,0,0,0,0,0,0,0,0,0,0,0,0,0,0,0,0,0,0],"id":5,"left_children":[1,3,5,7,9,11,13,15,17,19,21,23,25,27,29,31,-1,33,35,37,39,41,43,45,47,49,51,53,55,-1,-1,-1,57,59,-1,61,63,65,67,69,-1,-1,71,73,75,77,79,81,83,85,-1,-1,-1,-1,87,89,91,93,-1,95,97,99,-1,101,103,105,107,109,111,-1,-1,113,115,117,119,121,123,-1,125,-1,-1,127,129,131,-1,-1,133,135,-1,-1,-1,-1,-1,-1,-1,-1,-1,-1,-1,-1,-1,-1,-1,-1,-1,-1,-1,-1,-1,-1,-1,-1,-1,-1,-1,-1,-1,-1,-1,-1,-1,-1,-1,-1,-1,-1,-1,-1,-1,-1,-1,-1,-1,-1,-1,-1,-1],"loss_changes":[1.02515695E5,1.4254523E4,9.813953E3,2.944582E3,3.4173232E3,6.2293164E2,3.1479766E3,2.9204883E2,8.5089844E2,4.1136255E2,9.940908E2,5.702383E2,5.0612988E2,9.7318555E2,2.1790117E3,7.985547E1,0E0,9.1468945E2,2.640288E2,3.3037598E2,9.75689E1,1.8532068E2,4.589021E2,3.711162E2,4.4749915E2,2.9314746E2,4.4331856E0,6.350996E2,2.1645703E2,0E0,0E0,0E0,2.7259766E1,3.4330273E2,0E0,5.4594105E1,2.4180957E2,2.3117737E2,5.40365E1,1.0824948E1,0E0,0E0,2.8360062E1,4.7568018E2,4.0160156E2,1.615957E2,1.1785799E1,1.352594E2,3.891498E1,1.6840039E2,0E0,0E0,0E0,0E0,1.5340234E2,2.9601074E1,9.859236E0,2.6521484E1,0E0,2.1154883E2,4.4813867E2,4.2290878E-1,0E0,2.2434229E2,7.3926134E0,3.4803088E2,3.071757E2,5.258072E0,4.8969116E1,0E0,0E0,5.3481708E0,3.1509476E0,2.1077104E2,4.8264502E2,1.1712842E2,2.0983452E1,0E0,8.6362305E1,0E0,0E0,5.408264E0,1.6066895E0,1.5244179E0,0E0,0E0,1.1858301E2,3.935742E1,0E0,0E0,0E0,0E0,0E0,0E0,0E0,0E0,0E0,0E0,0E0,0E0,0E0,0E0,0E0,0E0,0E0,0E0,0E0,0E0,0E0,0E0,0E0,0E0,0E0,0E0,0E0,0E0,0E0,0E0,0E0,0E0,0E0,0E0,0E0,0E0,0E0,0E0,0E0,0E0,0E0,0E0,0E0,0E0,0E0,0E0,0E0,0E0,0E0],"parents":[2147483647,0,0,1,1,2,2,3,3,4,4,5,5,6,6,7,7,8,8,9,9,10,10,11,11,12,12,13,13,14,14,15,15,17,17,18,18,19,19,20,20,21,21,22,22,23,23,24,24,25,25,26,26,27,27,28,28,32,32,33,33,35,35,36,36,37,37,38,38,39,39,42,42,43,43,44,44,45,45,46,46,47,47,48,48,49,49,54,54,55,55,56,56,57,57,59,59,60,60,61,61,63,63,64,64,65,65,66,66,67,67,68,68,71,71,72,72,73,73,74,74,75,75,76,76,78,78,81,81,82,82,83,83,86,86,87,87],"right_children":[2,4,6,8,10,12,14,16,18,20,22,24,26,28,30,32,-1,34,36,38,40,42,44,46,48,50,52,54,56,-1,-1,-1,58,60,-1,62,64,66,68,70,-1,-1,72,74,76,78,80,82,84,86,-1,-1,-1,-1,88,90,92,94,-1,96,98,100,-1,102,104,106,108,110,112,-1,-1,114,116,118,120,122,124,-1,126,-1,-1,128,130,132,-1,-1,134,136,-1,-1,-1,-1,-1,-1,-1,-1,-1,-1,-1,-1,-1,-1,-1,-1,-1,-1,-1,-1,-1,-1,-1,-1,-1,-1,-1,-1,-1,-1,-1,-1,-1,-1,-1,-1,-1,-1,-1,-1,-1,-1,-1,-1,-1,-1,-1,-1,-1],"split_conditions":[5.9E1,3.7E1,7.7E1,2.4166666E1,4.4E1,3.4E1,2.4713356E1,3.02E1,3E1,5.5495832E-2,2.1833333E-1,1.31E-2,5.4E1,5.5377493E0,5.11E-2,4E0,1.3386077E-2,4.6E1,3.749396E-2,2E-3,7.0710677E-1,-7.0710677E-1,5.46E-2,8.4E1,3.74E-2,6.83E-2,5E0,3.3166666E-2,5.5E1,2.3871512E0,4.418197E0,-4.7188127E-1,2.0168808E-1,8.921884E0,8.939886E-1,3.4E1,2.1E-2,5.848465E-2,3.6849242E-3,1.97E1,6.6314024E-1,-1.023565E0,2.7178423E-3,4.8E1,7.4083336E1,4.96929E0,2.08E1,4.133418E-4,2.4E1,5.7E1,4.493418E-1,4.6952512E-2,3.029711E-1,8.5755E-1,6.57E-2,9.3E1,2.2E1,4E0,-6.5730137E-1,1.8E-1,8.958393E-1,2.55E1,-2.8331706E-1,4.8E-3,2.21E1,1.93E-2,-9.769385E-1,2E0,2.3E-3,-1.6252014E-1,1.0292923E-1,2.61E1,2.59E1,3.5194267E-4,7.3E1,2.4832773E-4,1.5E1,9.257889E-2,1.0114776E-2,2.7495095E-1,-2.2114867E-2,4.334499E0,3.6E1,1.0182E3,-1.1942016E-1,2.0323959E-1,6.9E1,1.1690452E0,8.47112E-1,1.3465396E0,3.3724335E-1,2.0633392E-2,3.5098585E-1,-6.690347E-1,-1.4084048E0,-1.1653694E-1,-8.4756553E-1,-1.261042E0,-1.7533989E-1,1.9314972E-1,4.7512207E-2,-3.846894E-1,-6.99161E-1,1.3152619E-1,-7.337921E-2,-7.6094234E-1,-3.1394637E-1,-8.7415457E-1,-1.3859037E-1,-6.588867E-2,-3.6181626E-1,-4.6530032E-1,-9.3935996E-1,7.703231E-2,-9.3849994E-2,-8.335571E-2,-3.6605906E-1,4.4084802E-2,-5.3341275E-1,3.788666E-1,-3.831074E-1,1.138747E0,4.7031856E-1,1.9742163E-1,-7.9960935E-2,4.0698925E-1,1.2623044E0,1.8399811E-1,5.102994E-1,1.1006896E0,4.429305E-1,2.5205323E-1,5.396179E-2,1.5299312E0,5.0479704E-1,6.459688E-1,2.3514957E0],"split_indices":[23,23,23,29,23,19,32,0,23,45,77,48,14,18,36,16,0,15,82,60,8,8,37,28,40,40,3,45,12,0,0,0,82,30,0,24,52,80,42,0,0,0,42,23,33,22,0,70,16,1,0,0,0,0,35,24,0,11,0,76,9,0,0,50,0,36,10,3,59,0,0,0,0,68,25,66,11,0,46,0,0,20,11,2,0,0,15,18,0,0,0,0,0,0,0,0,0,0,0,0,0,0,0,0,0,0,0,0,0,0,0,0,0,0,0,0,0,0,0,0,0,0,0,0,0,0,0,0,0,0,0,0,0,0,0,0,0],"split_type":[0,0,0,0,0,0,0,0,0,0,0,0,0,0,0,0,0,0,0,0,0,0,0,0,0,0,0,0,0,0,0,0,0,0,0,0,0,0,0,0,0,0,0,0,0,0,0,0,0,0,0,0,0,0,0,0,0,0,0,0,0,0,0,0,0,0,0,0,0,0,0,0,0,0,0,0,0,0,0,0,0,0,0,0,0,0,0,0,0,0,0,0,0,0,0,0,0,0,0,0,0,0,0,0,0,0,0,0,0,0,0,0,0,0,0,0,0,0,0,0,0,0,0,0,0,0,0,0,0,0,0,0,0,0,0,0,0],"sum_hessian":[7.48E2,5.6E2,1.88E2,3.08E2,2.52E2,1.13E2,7.5E1,7.7E1,2.31E2,1.37E2,1.15E2,6.2E1,5.1E1,5E1,2.5E1,7.6E1,1E0,1.02E2,1.29E2,1.33E2,4E0,1.1E1,1.04E2,3.8E1,2.4E1,4.8E1,3E0,3.6E1,1.4E1,1.8E1,7E0,2E0,7.4E1,1.01E2,1E0,5E0,1.24E2,1.15E2,1.8E1,2E0,2E0,2E0,9E0,8.6E1,1.8E1,3.5E1,3E0,1.7E1,7E0,4.5E1,3E0,1E0,2E0,4E0,3.2E1,1.2E1,2E0,7.1E1,3E0,6.5E1,3.6E1,3E0,2E0,1.21E2,3E0,6.3E1,5.2E1,4E0,1.4E1,1E0,1E0,3E0,6E0,1.7E1,6.9E1,1.2E1,6E0,1E0,3.4E1,2E0,1E0,8E0,9E0,3E0,4E0,1E0,4.4E1,3E1,2E0,1.1E1,1E0,1E0,1E0,3E0,6.8E1,3E0,6.2E1,3.3E1,3E0,2E0,1E0,2.2E1,9.9E1,2E0,1E0,1.5E1,4.8E1,3E0,4.9E1,1E0,3E0,6E0,8E0,1E0,2E0,1E0,5E0,1.2E1,5E0,6.4E1,5E0,7E0,5E0,4E0,2E0,2E0,3.2E1,2E0,6E0,7E0,2E0,2E0,1E0,4.2E1,2E0,1E0,2.9E1],"tree_param":{"num_deleted":"0","num_feature":"89","num_nodes":"137","size_leaf_vector":"1"}},{"base_weights":[9.2631534E-2,-6.182863E0,1.8719404E1,-9.320312E0,6.764611E-1,1.498539E1,3.143166E1,-1.3382789E1,-6.864456E0,-4.708362E0,2.133224E0,1.2195328E1,1.9225746E1,3.8220757E1,2.3522446E1,-1.5355717E1,-1.0886204E1,-6.294219E0,-1.287938E1,-7.0983305E0,-1.0424887E-1,-1.5522058E0,3.9532452E0,1.2859076E1,3.618589E0,1.5765803E1,2.3326258E1,2.1125479E0,3.5904493E0,2.5502537E1,6.589122E-1,-1.5559314E1,1.2850647E-2,-1.1384356E1,-1.9421768E-1,-7.5261087E0,-3.43571E0,-1.4686491E1,8.5822904E-1,-9.393047E0,-3.8296337E0,2.3667054E0,-2.9133039E0,-3.145009E0,9.6061003E-1,5.504518E0,4.6037954E-1,1.0306471E1,1.5347079E1,5.8533287E0,-7.948303E-2,1.8168764E1,1.04865E1,2.49957E1,8.730116E0,2.1847587E0,9.519292E-1,-4.4671428E-1,-1.5750872E1,-1.3798085E1,-8.369802E0,1.4882462E-1,-1.19932964E-1,-7.0372143E0,-1.2325013E1,-1.389438E0,-5.1679063E0,-2.4496262E-1,-1.2129744E0,-6.761905E0,-1.142434E0,-4.5186167E0,-1.3220139E0,3.552983E0,-7.9475147E-1,1.0037689E-2,-3.4406784E0,-7.049666E0,-1.582179E0,-2.1405363E0,3.4105835E0,4.3722405E0,1.4261638E1,3.0504353E0,-2.7175725E0,1.1504776E1,3.326212E0,1.5858328E1,2.8681263E-1,1.3657485E-1,5.1704544E-1,8.887573E-2,-8.4660846E-1,5.1803283E-2,1.8972273E1,9.79654E-1,4.3255005E-2,2.0564282E0,4.3210724E-1,1.9511001E-1,8.01139E-1,-1.1208295E0,-1.4537648E0,-8.016474E-1,-1.3279326E0,-4.6741423E-1,-9.5073545E-1,-6.0548466E-1,-3.3812225E-1,1.6086325E-1,-1.2091457E0,-2.302689E-1,4.6323547E-1,-4.671901E-1,1.4686523E-1,-1.6021132E-1,-5.630054E-1,-7.960174E-2,-3.8677505E-1,-4.1039936E-2,-1.499623E-1,3.4556144E-1,1.0772868E-1,2.9121855E-2,-1.24492034E-1,-8.0021515E-2,-2.982965E-1,-6.341537E-2,-6.2642217E-1,-1.7222121E-1,2.199298E-1,-5.4732908E-2,-2.5350434E-1,6.855194E-2,3.7979338E-1,3.8936827E-1,-5.190057E-1,1.216926E0,3.4248045E-1,2.649297E-2,6.3844603E-1,-4.4357362E-1,-4.2471007E-2,5.7023555E-1,1.0796489E0,-9.954033E-2,5.0538737E-1,1.09329E0,1.731777E0,-2.1230316E-2,-8.03627E-2,3.316667E-1,1.5605043E0],"categories":[],"categories_nodes":[],"categories_segments":[],"categories_sizes":[],"default_left":[0,0,0,0,0,0,0,0,0,0,0,0,0,0,0,0,0,0,0,0,0,0,0,0,0,0,0,0,0,0,0,0,0,0,0,0,0,0,0,0,0,0,0,0,0,0,0,0,0,0,0,0,0,0,0,0,0,0,0,0,0,0,0,0,0,0,0,0,0,0,0,0,0,0,0,0,0,0,0,0,0,0,0,0,0,0,0,0,0,0,0,0,0,0,0,0,0,0,0,0,0,0,0,0,0,0,0,0,0,0,0,0,0,0,0,0,0,0,0,0,0,0,0,0,0,0,0,0,0,0,0,0,0,0,0,0,0,0,0,0,0,0,0,0,0,0,0,0,0,0,0,0,0],"id":6,"left_children":[1,3,5,7,9,11,13,15,17,19,21,23,25,27,29,31,33,35,37,39,41,43,45,47,49,51,53,-1,-1,55,-1,57,-1,59,61,63,65,67,-1,69,71,73,75,77,79,81,83,85,87,89,91,93,95,97,99,-1,-1,-1,101,103,105,-1,-1,107,109,111,113,-1,-1,115,-1,117,119,121,123,-1,125,127,129,131,133,135,137,139,141,143,145,147,-1,-1,-1,-1,149,-1,151,-1,-1,-1,-1,-1,-1,-1,-1,-1,-1,-1,-1,-1,-1,-1,-1,-1,-1,-1,-1,-1,-1,-1,-1,-1,-1,-1,-1,-1,-1,-1,-1,-1,-1,-1,-1,-1,-1,-1,-1,-1,-1,-1,-1,-1,-1,-1,-1,-1,-1,-1,-1,-1,-1,-1,-1,-1,-1],"loss_changes":[8.766801E4,1.2079459E4,8.500391E3,3.7492266E3,1.3985046E3,1.5165E3,1.356207E3,5.421172E2,7.4897754E2,4.1740002E2,9.4519476E2,4.7720508E2,4.409297E2,4.6710352E2,4.558418E2,2.489082E2,3.5464795E2,7.594072E2,1.01077344E3,1.5154651E2,1.0406958E2,1.9113493E2,5.067942E2,3.8165137E2,6.657906E1,2.407959E2,3.6660254E2,0E0,0E0,1.4207324E2,0E0,5.9185547E1,0E0,3.501963E2,1.3513068E1,2.769209E2,2.3739294E2,5.8635742E1,0E0,8.3468506E1,1.475882E1,3.282666E1,1.1649712E1,1.658133E2,1.5165729E2,5.8215125E2,2.5522197E2,3.3813428E2,1.8969043E2,1.6066742E0,4.593373E0,2.9744043E2,2.2083264E2,1.5316504E2,7.8914185E0,0E0,0E0,0E0,6.1458984E1,1.9342188E2,2.0588477E2,0E0,0E0,1.8157324E2,5.5022266E2,3.6944666E2,1.848537E2,0E0,0E0,3.3773804E-1,0E0,5.2127533E0,8.2633924E-1,4.330887E0,3.213344E0,0E0,4.877243E-1,3.2867126E1,6.0288605E1,1.1309917E1,3.34843E1,3.4864868E2,1.2459717E0,2.2526591E2,8.360403E1,2.3491846E2,1.1722727E2,1.9909277E2,0E0,0E0,0E0,0E0,8.790255E-3,0E0,8.540332E1,0E0,0E0,0E0,0E0,0E0,0E0,0E0,0E0,0E0,0E0,0E0,0E0,0E0,0E0,0E0,0E0,0E0,0E0,0E0,0E0,0E0,0E0,0E0,0E0,0E0,0E0,0E0,0E0,0E0,0E0,0E0,0E0,0E0,0E0,0E0,0E0,0E0,0E0,0E0,0E0,0E0,0E0,0E0,0E0,0E0,0E0,0E0,0E0,0E0,0E0,0E0,0E0,0E0,0E0,0E0,0E0,0E0,0E0],"parents":[2147483647,0,0,1,1,2,2,3,3,4,4,5,5,6,6,7,7,8,8,9,9,10,10,11,11,12,12,13,13,14,14,15,15,16,16,17,17,18,18,19,19,20,20,21,21,22,22,23,23,24,24,25,25,26,26,29,29,31,31,33,33,34,34,35,35,36,36,37,37,39,39,40,40,41,41,42,42,43,43,44,44,45,45,46,46,47,47,48,48,49,49,50,50,51,51,52,52,53,53,54,54,58,58,59,59,60,60,63,63,64,64,65,65,66,66,69,69,71,71,72,72,73,73,74,74,76,76,77,77,78,78,79,79,80,80,81,81,82,82,83,83,84,84,85,85,86,86,87,87,92,92,94,94],"right_children":[2,4,6,8,10,12,14,16,18,20,22,24,26,28,30,32,34,36,38,40,42,44,46,48,50,52,54,-1,-1,56,-1,58,-1,60,62,64,66,68,-1,70,72,74,76,78,80,82,84,86,88,90,92,94,96,98,100,-1,-1,-1,102,104,106,-1,-1,108,110,112,114,-1,-1,116,-1,118,120,122,124,-1,126,128,130,132,134,136,138,140,142,144,146,148,-1,-1,-1,-1,150,-1,152,-1,-1,-1,-1,-1,-1,-1,-1,-1,-1,-1,-1,-1,-1,-1,-1,-1,-1,-1,-1,-1,-1,-1,-1,-1,-1,-1,-1,-1,-1,-1,-1,-1,-1,-1,-1,-1,-1,-1,-1,-1,-1,-1,-1,-1,-1,-1,-1,-1,-1,-1,-1,-1,-1,-1,-1,-1,-1],"split_conditions":[5.9E1,4.1E1,8.7E1,2.9666666E1,1.0143E3,7.2E1,8.6E1,2.4166666E1,1.5613029E1,6.0683007E0,4.5E1,5.3595833E-2,1.9040718E1,1.3923601E1,2.36E1,3.02E1,1.1095109E1,3.6833332E1,4E0,1.1726271E-1,9E0,2.75E-2,4.42E-2,3.14E-2,2.13E1,4.2E1,2.24E-2,2.1125479E0,3.5904493E0,8.075E1,6.589122E-1,4E0,1.2850647E-2,1.4E1,2.41E1,9.654015E0,2.3172542E-3,2.2E1,8.5822904E-1,8.061788E0,1.1009428E-2,8.9E-3,-6.963762E-1,1.0172E3,5.3E-3,1.9083077E-2,9.8E-3,3.2E-2,5.4E1,-8.660254E-1,5.2E1,-9.659258E-1,1.031017E-1,2.22E1,5.7E1,2.1847587E0,9.519292E-1,-4.4671428E-1,7.1900606E0,2.5033312E0,1.05E-2,1.4882462E-1,-1.19932964E-1,6.6156383E0,1E1,9.993331E0,1.7633334E-2,-2.4496262E-1,-1.2129744E0,1E0,-1.142434E0,1E1,2.42E1,3.8E1,2.46E1,1.0037689E-2,-8.660254E-1,1.0147E3,5.78E-2,2.36E1,3.25E-2,3.7E1,2.8E1,6.306082E-2,1.5E-3,3.8E1,3.4E1,1.6417608E1,2.8681263E-1,1.3657485E-1,5.1704544E-1,8.887573E-2,2.3E1,5.1803283E-2,1.27E-2,9.79654E-1,4.3255005E-2,2.0564282E0,4.3210724E-1,1.9511001E-1,8.01139E-1,-1.1208295E0,-1.4537648E0,-8.016474E-1,-1.3279326E0,-4.6741423E-1,-9.5073545E-1,-6.0548466E-1,-3.3812225E-1,1.6086325E-1,-1.2091457E0,-2.302689E-1,4.6323547E-1,-4.671901E-1,1.4686523E-1,-1.6021132E-1,-5.630054E-1,-7.960174E-2,-3.8677505E-1,-4.1039936E-2,-1.499623E-1,3.4556144E-1,1.0772868E-1,2.9121855E-2,-1.24492034E-1,-8.0021515E-2,-2.982965E-1,-6.341537E-2,-6.2642217E-1,-1.7222121E-1,2.199298E-1,-5.4732908E-2,-2.5350434E-1,6.855194E-2,3.7979338E-1,3.8936827E-1,-5.190057E-1,1.216926E0,3.4248045E-1,2.649297E-2,6.3844603E-1,-4.4357362E-1,-4.2471007E-2,5.7023555E-1,1.0796489E0,-9.954033E-2,5.0538737E-1,1.09329E0,1.731777E0,-2.1230316E-2,-8.03627E-2,3.316667E-1,1.5605043E0],"split_indices":[23,23,23,29,2,23,26,29,30,22,23,45,34,30,0,0,22,29,4,82,3,38,40,37,0,12,51,0,0,33,0,16,0,11,0,30,54,28,0,32,44,50,10,2,49,44,48,35,14,7,1,8,9,0,1,0,0,0,32,18,50,0,0,30,12,30,57,0,0,3,0,13,0,11,0,0,7,2,40,0,39,12,11,78,64,28,17,32,0,0,0,0,0,0,40,0,0,0,0,0,0,0,0,0,0,0,0,0,0,0,0,0,0,0,0,0,0,0,0,0,0,0,0,0,0,0,0,0,0,0,0,0,0,0,0,0,0,0,0,0,0,0,0,0,0,0,0,0,0,0,0,0,0],"split_type":[0,0,0,0,0,0,0,0,0,0,0,0,0,0,0,0,0,0,0,0,0,0,0,0,0,0,0,0,0,0,0,0,0,0,0,0,0,0,0,0,0,0,0,0,0,0,0,0,0,0,0,0,0,0,0,0,0,0,0,0,0,0,0,0,0,0,0,0,0,0,0,0,0,0,0,0,0,0,0,0,0,0,0,0,0,0,0,0,0,0,0,0,0,0,0,0,0,0,0,0,0,0,0,0,0,0,0,0,0,0,0,0,0,0,0,0,0,0,0,0,0,0,0,0,0,0,0,0,0,0,0,0,0,0,0,0,0,0,0,0,0,0,0,0,0,0,0,0,0,0,0,0,0],"sum_hessian":[7.48E2,5.6E2,1.88E2,3.84E2,1.76E2,1.47E2,4.1E1,1.43E2,2.41E2,3.7E1,1.39E2,9.1E1,5.6E1,2E1,2.1E1,7.7E1,6.6E1,2.22E2,1.9E1,2.4E1,1.3E1,4.6E1,9.3E1,8.4E1,7E0,3.3E1,2.3E1,9E0,1.1E1,1.8E1,3E0,7.6E1,1E0,6.3E1,3E0,1.54E2,6.8E1,1.8E1,1E0,1.3E1,1.1E1,7E0,6E0,2.8E1,1.8E1,6.4E1,2.9E1,4.4E1,4E1,4E0,3E0,2.1E1,1.2E1,2E1,3E0,1.5E1,3E0,2E0,7.4E1,3.3E1,3E1,1E0,2E0,1.42E2,1.2E1,3.2E1,3.6E1,1E0,1.7E1,1E1,3E0,8E0,3E0,5E0,2E0,1E0,5E0,7E0,2.1E1,8E0,1E1,5.8E1,6E0,1.6E1,1.3E1,3.7E1,7E0,3.8E1,2E0,1E0,3E0,1E0,2E0,1E0,2E1,1E1,2E0,1.9E1,1E0,1E0,2E0,4.7E1,2.7E1,1.6E1,1.7E1,1.9E1,1.1E1,1.18E2,2.4E1,2E0,1E1,2.7E1,5E0,3.3E1,3E0,1E0,9E0,1E0,7E0,2E0,1E0,3E0,2E0,1E0,1E0,1E0,4E0,1E0,6E0,1.9E1,2E0,4E0,4E0,4E0,6E0,5.6E1,2E0,5E0,1E0,1.1E1,5E0,5E0,8E0,1.3E1,2.4E1,3E0,4E0,3E1,8E0,1E0,1E0,1E0,1.9E1],"tree_param":{"num_deleted":"0","num_feature":"89","num_nodes":"153","size_leaf_vector":"1"}},{"base_weights":[1.0007537E-1,-5.707188E0,1.7336979E1,-9.572544E0,-9.637009E-1,1.3869398E1,2.9143284E1,-1.2458334E1,-7.0763845E0,-3.8233569E0,2.4466114E0,1.1282839E1,1.7800873E1,3.543467E1,2.1813177E1,-1.3594986E1,-8.989734E0,7.742556E0,-7.301568E0,-4.0950894E0,4.2237496E0,3.698481E0,-3.0703993E0,1.1891146E1,3.4092155E0,1.4591801E1,2.1605356E1,9.6645653E-1,2.9805725E0,2.362742E1,6.1937743E-1,-1.3760052E1,1.4287171E-1,-9.7954035E0,3.073063E-1,1.0520691E-1,8.238998E-1,-6.0625286E0,-1.1607474E1,-3.4832745E0,-7.614851E0,-5.265681E-1,6.05292E-1,-4.3394756E-1,4.1590924E0,-9.9811524E-1,-1.5059732E0,9.5276375E0,1.4195213E1,5.5157876E0,-7.630348E-2,1.5020281E1,1.807785E-2,2.3114548E1,8.280768E0,2.0209017E0,8.9481336E-1,-1.409503E1,-4.308474E0,-1.0350787E1,-2.9034796E0,9.318298E-2,-3.6678314E-1,-6.5587687E0,-2.3489888E0,5.799103E-1,-1.2732991E1,-7.196253E-1,-3.1539454E0,-5.9480095E0,-8.873924E-1,-1.4680848E-1,8.3620295E-2,3.3026056E0,1.07663765E1,-2.6886213E0,3.8967743E0,1.0627813E1,3.1108465E0,4.5321095E-1,1.49642725E1,1.311119E-1,4.860228E-1,8.532074E-2,-8.1274414E-1,1.5455802E1,4.3344267E-2,1.9001396E0,4.14823E-1,1.873056E-1,7.584115E-1,-1.2182084E0,-8.9699537E-1,-4.3701568E-1,1.2336578E-2,-1.0106537E-1,-8.482544E-1,-2.752062E-1,-5.1747434E-2,3.4428404E-3,-4.7456816E-2,-5.7099944E-1,-2.4348487E-1,6.768085E-2,-3.7360713E-1,-3.2646483E-1,2.7950034E-1,-1.0829881E0,-1.4155172E-2,1.1325315E-1,-2.8568202E-1,-1.21074624E-1,-5.211067E-1,3.536885E-1,-1.5904842E-1,9.162046E-1,1.8362992E-1,-4.523964E-1,-7.8512214E-2,3.646643E-1,7.648742E-2,6.8529534E-1,1.192753E0,-9.3567885E-2,4.7304267E-1,1.2571461E0,3.878192E-1,-2.0381164E-2,-7.714813E-2,4.973114E-2,1.2731416E0],"categories":[],"categories_nodes":[],"categories_segments":[],"categories_sizes":[],"default_left":[0,0,0,0,0,0,0,0,0,0,0,0,0,0,0,0,0,0,0,0,0,0,0,0,0,0,0,0,0,0,0,0,0,0,0,0,0,0,0,0,0,0,0,0,0,0,0,0,0,0,0,0,0,0,0,0,0,0,0,0,0,0,0,0,0,0,0,0,0,0,0,0,0,0,0,0,0,0,0,0,0,0,0,0,0,0,0,0,0,0,0,0,0,0,0,0,0,0,0,0,0,0,0,0,0,0,0,0,0,0,0,0,0,0,0,0,0,0,0,0,0,0,0,0,0,0,0,0,0,0,0],"id":7,"left_children":[1,3,5,7,9,11,13,15,17,19,21,23,25,27,29,31,33,35,37,39,41,43,45,47,49,51,53,-1,-1,55,-1,57,-1,59,61,-1,-1,63,65,67,69,71,-1,-1,73,-1,75,77,79,81,83,85,-1,87,89,-1,-1,91,93,95,97,-1,99,101,103,105,107,-1,109,111,-1,-1,-1,113,115,117,119,121,123,-1,125,-1,-1,-1,127,129,-1,-1,-1,-1,-1,-1,-1,-1,-1,-1,-1,-1,-1,-1,-1,-1,-1,-1,-1,-1,-1,-1,-1,-1,-1,-1,-1,-1,-1,-1,-1,-1,-1,-1,-1,-1,-1,-1,-1,-1,-1,-1,-1,-1,-1],"loss_changes":[7.507327E4,1.0276861E4,7.333328E3,2.1376855E3,2.4766912E3,1.304166E3,1.1639531E3,4.376328E2,6.171455E2,3.190558E2,8.1251904E2,4.0010254E2,3.8064453E2,4.437168E2,3.7869043E2,2.911543E2,2.8764307E2,3.574579E1,8.152705E2,2.6203687E2,8.337143E1,4.217578E2,3.0494208E2,3.2763672E2,5.9160835E1,2.0589209E2,2.9121777E2,0E0,0E0,1.0369531E2,0E0,2.6854297E2,0E0,1.03914795E2,2.7392998E0,0E0,0E0,2.2600146E2,5.011997E2,1.8220117E2,4.415625E1,8.088516E0,0E0,0E0,4.7941675E2,0E0,1.3826791E2,2.8462036E2,1.8419043E2,8.887787E-1,4.2332544E0,1.9971338E2,0E0,1.1675391E2,6.298462E0,0E0,0E0,1.5573633E2,2.6597015E1,6.0000244E1,2.618435E0,0E0,3.0391127E-1,2.1222559E2,1.300215E2,6.85798E1,3.308916E2,0E0,2.1660938E2,2.7779663E1,0E0,0E0,0E0,4.940381E2,3.1838501E1,8.0541275E1,3.4232292E0,2.0771045E2,1.0287273E2,0E0,2.0457422E2,0E0,0E0,0E0,8.099198E-3,2.0773926E2,0E0,0E0,0E0,0E0,0E0,0E0,0E0,0E0,0E0,0E0,0E0,0E0,0E0,0E0,0E0,0E0,0E0,0E0,0E0,0E0,0E0,0E0,0E0,0E0,0E0,0E0,0E0,0E0,0E0,0E0,0E0,0E0,0E0,0E0,0E0,0E0,0E0,0E0,0E0,0E0,0E0,0E0,0E0,0E0,0E0],"parents":[2147483647,0,0,1,1,2,2,3,3,4,4,5,5,6,6,7,7,8,8,9,9,10,10,11,11,12,12,13,13,14,14,15,15,16,16,17,17,18,18,19,19,20,20,21,21,22,22,23,23,24,24,25,25,26,26,29,29,31,31,33,33,34,34,37,37,38,38,39,39,40,40,41,41,44,44,46,46,47,47,48,48,49,49,50,50,51,51,53,53,54,54,57,57,58,58,59,59,60,60,62,62,63,63,64,64,65,65,66,66,68,68,69,69,73,73,74,74,75,75,76,76,77,77,78,78,80,80,84,84,85,85],"right_children":[2,4,6,8,10,12,14,16,18,20,22,24,26,28,30,32,34,36,38,40,42,44,46,48,50,52,54,-1,-1,56,-1,58,-1,60,62,-1,-1,64,66,68,70,72,-1,-1,74,-1,76,78,80,82,84,86,-1,88,90,-1,-1,92,94,96,98,-1,100,102,104,106,108,-1,110,112,-1,-1,-1,114,116,118,120,122,124,-1,126,-1,-1,-1,128,130,-1,-1,-1,-1,-1,-1,-1,-1,-1,-1,-1,-1,-1,-1,-1,-1,-1,-1,-1,-1,-1,-1,-1,-1,-1,-1,-1,-1,-1,-1,-1,-1,-1,-1,-1,-1,-1,-1,-1,-1,-1,-1,-1,-1,-1],"split_conditions":[5.9E1,3.7E1,8.7E1,2.9666666E1,4.4E1,7.2E1,8.6E1,1.4E1,1.3E1,5.5495832E-2,2.58E1,5.3595833E-2,1.9040718E1,8.241469E-3,2.36E1,4E1,1.048332E1,6.4E1,8.795833E0,2E-3,7.0710677E-1,2.4E-1,-7.961829E-1,3.14E-2,2.13E1,5.5E1,2.24E-2,9.6645653E-1,2.9805725E0,8.075E1,6.1937743E-1,2.2333334E-3,1.4287171E-1,1.57E-2,2.43E1,1.0520691E-1,8.238998E-1,7.155418E-2,2.9E1,-9.893142E-1,4.4E-1,1.97E1,6.05292E-1,-4.3394756E-1,9.980284E0,-9.9811524E-1,1.0759492E1,3.2E-2,5.274357E-2,-8.660254E-1,5.2E1,5.4E1,1.807785E-2,2.22E1,5.7E1,2.0209017E0,8.9481336E-1,2.7E-1,2.98E1,-9.659258E-1,2.6E1,9.318298E-2,2.44E1,5.1E1,6.6895215E-3,5.9E1,1.675E-3,-7.196253E-1,6E-4,2.4E1,-8.873924E-1,-1.4680848E-1,8.3620295E-2,3.2E1,3.1E1,9E-4,2.85E1,6.8416664E1,3.4E1,4.5321095E-1,1.58E-2,1.311119E-1,4.860228E-1,8.532074E-2,2.3E1,1.6333334E1,4.3344267E-2,1.9001396E0,4.14823E-1,1.873056E-1,7.584115E-1,-1.2182084E0,-8.9699537E-1,-4.3701568E-1,1.2336578E-2,-1.0106537E-1,-8.482544E-1,-2.752062E-1,-5.1747434E-2,3.4428404E-3,-4.7456816E-2,-5.7099944E-1,-2.4348487E-1,6.768085E-2,-3.7360713E-1,-3.2646483E-1,2.7950034E-1,-1.0829881E0,-1.4155172E-2,1.1325315E-1,-2.8568202E-1,-1.21074624E-1,-5.211067E-1,3.536885E-1,-1.5904842E-1,9.162046E-1,1.8362992E-1,-4.523964E-1,-7.8512214E-2,3.646643E-1,7.648742E-2,6.8529534E-1,1.192753E0,-9.3567885E-2,4.7304267E-1,1.2571461E0,3.878192E-1,-2.0381164E-2,-7.714813E-2,4.973114E-2,1.2731416E0],"split_indices":[23,23,23,29,23,23,26,11,24,45,0,45,34,44,0,15,30,1,30,60,8,75,9,37,0,12,51,0,0,33,0,67,0,52,0,0,0,78,25,10,76,0,0,0,20,0,30,35,82,7,1,14,0,0,1,0,0,72,0,8,0,0,0,28,44,1,67,0,64,26,0,0,0,19,11,63,0,31,17,0,47,0,0,0,0,17,0,0,0,0,0,0,0,0,0,0,0,0,0,0,0,0,0,0,0,0,0,0,0,0,0,0,0,0,0,0,0,0,0,0,0,0,0,0,0,0,0,0,0,0,0],"split_type":[0,0,0,0,0,0,0,0,0,0,0,0,0,0,0,0,0,0,0,0,0,0,0,0,0,0,0,0,0,0,0,0,0,0,0,0,0,0,0,0,0,0,0,0,0,0,0,0,0,0,0,0,0,0,0,0,0,0,0,0,0,0,0,0,0,0,0,0,0,0,0,0,0,0,0,0,0,0,0,0,0,0,0,0,0,0,0,0,0,0,0,0,0,0,0,0,0,0,0,0,0,0,0,0,0,0,0,0,0,0,0,0,0,0,0,0,0,0,0,0,0,0,0,0,0,0,0,0,0,0,0],"sum_hessian":[7.48E2,5.6E2,1.88E2,3.08E2,2.52E2,1.47E2,4.1E1,1.41E2,1.67E2,1.37E2,1.15E2,9.1E1,5.6E1,2E1,2.1E1,1.04E2,3.7E1,2E0,1.65E2,1.33E2,4E0,9.4E1,2.1E1,8.4E1,7E0,3.3E1,2.3E1,2E0,1.8E1,1.8E1,3E0,1.03E2,1E0,3.4E1,3E0,1E0,1E0,1.3E2,3.5E1,1.15E2,1.8E1,2E0,2E0,4E0,9E1,2E0,1.9E1,4.4E1,4E1,4E0,3E0,3.2E1,1E0,2E1,3E0,1.5E1,3E0,9.9E1,4E0,3.1E1,3E0,1E0,2E0,1.14E2,1.6E1,3E0,3.2E1,5E0,1.1E2,1.4E1,4E0,1E0,1E0,8.1E1,9E0,1.6E1,3E0,3.7E1,7E0,4E0,3.6E1,1E0,3E0,1E0,2E0,3.1E1,1E0,1.9E1,1E0,1E0,2E0,6.8E1,3.1E1,3E0,1E0,1E0,3E1,2E0,1E0,1E0,1E0,9.7E1,1.7E1,7E0,9E0,1E0,2E0,3E1,2E0,9E0,1.01E2,2E0,1.2E1,6.7E1,1.4E1,8E0,1E0,5E0,1.1E1,2E0,1E0,2.7E1,1E1,3E0,4E0,3.3E1,3E0,1E0,1E0,1E0,3E1],"tree_param":{"num_deleted":"0","num_feature":"89","num_nodes":"131","size_leaf_vector":"1"}},{"base_weights":[1.05449215E-1,-5.777654E0,1.46493E1,-9.304451E0,-2.135459E0,9.97155E0,2.3135002E1,-1.3070494E1,-7.742307E0,-4.237261E0,9.397107E-1,7.7488413E0,1.3018723E1,1.8573423E1,3.1192905E1,-1.3244086E1,1.1843109E-2,-7.9273725E0,6.682654E0,-3.6769464E0,-8.359858E0,1.9481417E0,-4.210675E0,8.610451E0,-1.512753E0,1.2051905E1,1.8446221E0,2.0940216E1,1.14971075E1,1.8673933E0,3.6750963E0,-1.6013874E1,-1.1991285E1,-6.9297175E0,-1.1125628E1,7.909439E-1,1.0974579E-2,-4.1320257E0,3.908498E-1,-1.0158903E1,4.765272E-1,9.365312E0,1.2185525E0,-8.377344E0,-7.9758143E-1,8.977842E0,-2.7555978E-1,7.386449E-1,-1.9090612E-1,1.2670654E1,9.951925E-1,6.5956223E-1,2.2229254E1,1.2287339E1,1.7354736E-2,-1.3176498E0,-2.7515548E-1,-1.2150737E1,-1.2247955E-1,-7.5650606E0,-3.6330905E0,-1.2528061E1,-3.2486768E0,-2.807966E-1,-4.5726027E0,3.2805686E0,-9.5819056E-1,-1.1415774E1,-1.3261604E0,-6.441604E-2,9.37736E-2,8.4398323E-1,4.2958524E-2,1.68928E0,-6.5568E0,-3.5982016E-1,-8.905998E-1,-2.0741925E0,1.5640289E-1,5.966481E0,1.0746603E1,1.10399775E-1,-2.176239E-2,1.3526782E1,6.271103E0,1.22994274E-1,-2.526062E-2,6.649835E-1,2.2858984E1,1.3171819E1,3.7229124E-1,-1.9989303E-1,-9.824639E-1,-5.329697E-1,-8.569769E-1,-3.9483222E-1,-8.446802E-2,1.6167602E-2,-1.0609018E0,-5.7723504E-1,4.5957398E-2,5.9641755E-1,-1.15948245E-1,-1.8228982E-2,-3.9937678E-1,2.253723E-3,3.2693E-1,2.4436543E-2,-1.6497116E-1,-9.9120575E-1,-3.2304728E-1,-1.2932418E-1,-2.9815063E-2,-1.22010626E-1,2.3478685E-1,-2.4110433E-1,-6.331357E-1,-2.0316935E-1,-3.61557E-2,7.5307655E-1,3.232757E-1,9.889681E-1,5.2670133E-1,5.7050556E-1,1.1462276E0,2.6147747E-1,6.765296E-1,5.067842E-1,1.8558903E0,1.0930176E0,3.1087583E-1],"categories":[],"categories_nodes":[],"categories_segments":[],"categories_sizes":[],"default_left":[0,0,0,0,0,0,0,0,0,0,0,0,0,0,0,0,0,0,0,0,0,0,0,0,0,0,0,0,0,0,0,0,0,0,0,0,0,0,0,0,0,0,0,0,0,0,0,0,0,0,0,0,0,0,0,0,0,0,0,0,0,0,0,0,0,0,0,0,0,0,0,0,0,0,0,0,0,0,0,0,0,0,0,0,0,0,0,0,0,0,0,0,0,0,0,0,0,0,0,0,0,0,0,0,0,0,0,0,0,0,0,0,0,0,0,0,0,0,0,0,0,0,0,0,0,0,0,0,0,0,0],"id":8,"left_children":[1,3,5,7,9,11,13,15,17,19,21,23,25,27,29,31,-1,33,35,37,39,41,43,45,47,49,-1,51,53,-1,-1,55,57,59,61,-1,-1,63,65,67,69,71,73,75,77,79,-1,81,-1,83,85,-1,87,89,-1,-1,-1,91,-1,93,95,97,99,101,103,105,107,109,111,-1,-1,-1,-1,113,115,-1,-1,117,-1,119,121,-1,-1,123,125,-1,-1,-1,127,129,-1,-1,-1,-1,-1,-1,-1,-1,-1,-1,-1,-1,-1,-1,-1,-1,-1,-1,-1,-1,-1,-1,-1,-1,-1,-1,-1,-1,-1,-1,-1,-1,-1,-1,-1,-1,-1,-1,-1,-1,-1],"loss_changes":[6.4171305E4,6.83951E3,8.343215E3,1.493125E3,1.7103186E3,8.541084E2,2.2141562E3,1.8094238E2,5.708711E2,3.3192334E2,5.6913434E2,6.8333496E2,2.850537E2,6.134043E2,1.9374844E3,7.516211E1,0E0,5.355283E2,6.1561646E1,2.6077893E2,2.909879E2,4.8103323E2,2.4930054E2,3.7194873E2,1.7496738E1,3.6366357E2,0E0,4.2224316E2,1.3104382E2,0E0,0E0,6.3960938E1,7.646777E1,2.8459424E2,4.4536377E2,0E0,0E0,2.1250806E2,6.1618626E1,1.5138525E2,4.510331E0,7.799072E1,3.1852243E2,3.543976E1,4.2709366E1,3.3535938E2,0E0,2.3199964E0,0E0,2.0007227E2,3.3288326E0,0E0,9.919922E1,3.322876E1,0E0,0E0,0E0,3.9614258E1,0E0,2.8100342E2,8.2054596E1,3.4803418E2,1.2546905E2,1.3736485E2,2.0487085E2,1.2992947E1,1.597492E1,4.3412598E1,2.2817135E-1,0E0,0E0,0E0,0E0,3.2477435E2,1.9442749E-1,0E0,0E0,4.892494E0,0E0,1.6107886E2,2.2796338E2,0E0,0E0,1.2836523E2,2.4858276E1,0E0,0E0,0E0,2.702539E1,1.6088867E0,0E0,0E0,0E0,0E0,0E0,0E0,0E0,0E0,0E0,0E0,0E0,0E0,0E0,0E0,0E0,0E0,0E0,0E0,0E0,0E0,0E0,0E0,0E0,0E0,0E0,0E0,0E0,0E0,0E0,0E0,0E0,0E0,0E0,0E0,0E0,0E0,0E0,0E0,0E0,0E0,0E0],"parents":[2147483647,0,0,1,1,2,2,3,3,4,4,5,5,6,6,7,7,8,8,9,9,10,10,11,11,12,12,13,13,14,14,15,15,17,17,18,18,19,19,20,20,21,21,22,22,23,23,24,24,25,25,27,27,28,28,31,31,32,32,33,33,34,34,37,37,38,38,39,39,40,40,41,41,42,42,43,43,44,44,45,45,47,47,49,49,50,50,52,52,53,53,57,57,59,59,60,60,61,61,62,62,63,63,64,64,65,65,66,66,67,67,68,68,73,73,74,74,77,77,79,79,80,80,83,83,84,84,88,88,89,89],"right_children":[2,4,6,8,10,12,14,16,18,20,22,24,26,28,30,32,-1,34,36,38,40,42,44,46,48,50,-1,52,54,-1,-1,56,58,60,62,-1,-1,64,66,68,70,72,74,76,78,80,-1,82,-1,84,86,-1,88,90,-1,-1,-1,92,-1,94,96,98,100,102,104,106,108,110,112,-1,-1,-1,-1,114,116,-1,-1,118,-1,120,122,-1,-1,124,126,-1,-1,-1,128,130,-1,-1,-1,-1,-1,-1,-1,-1,-1,-1,-1,-1,-1,-1,-1,-1,-1,-1,-1,-1,-1,-1,-1,-1,-1,-1,-1,-1,-1,-1,-1,-1,-1,-1,-1,-1,-1,-1,-1,-1,-1],"split_conditions":[5.5E1,3.5E1,7.7E1,2.4166666E1,4.3E1,6.6833336E1,2.4713356E1,3.02E1,6.72E-2,1.67E-2,2.61E1,2.3E-3,9.4E1,5.5377493E0,5.11E-2,6.916667E-3,1.1843109E-2,8.921884E0,2.21E1,1.78E-2,1.7941667E-2,7E-4,1.3875E-3,4.7E1,3E0,1.3923601E1,1.8446221E0,3.3166666E-2,8.543222E-1,1.8673933E0,3.6750963E0,1.0133E3,4.8E-3,3.9E1,1.5083334E-3,7.909439E-1,1.0974579E-2,2.03E1,1.4746633E-2,1.1963637E1,1.76E1,3.5E1,2.4E-3,-9.690098E-1,2.2E-3,2.13E1,-2.7555978E-1,2.35E1,-1.9090612E-1,1.8821627E-2,6.4E1,6.5956223E-1,1.8E1,9.3E1,1.7354736E-2,-1.3176498E0,-2.7515548E-1,9E0,-1.2247955E-1,4.59E-2,3.3E1,2.7E-1,6.7E1,1.2E1,1.8625E-1,1.84E1,9.3E-3,4.1E1,1.81E1,-6.441604E-2,9.37736E-2,8.4398323E-1,4.2958524E-2,2.11E-2,3E0,-3.5982016E-1,-8.905998E-1,8.674564E-1,1.5640289E-1,7.4E-3,6.3E1,1.10399775E-1,-2.176239E-2,1.16E-2,2.5E-3,1.22994274E-1,-2.526062E-2,6.649835E-1,1.1690452E0,2.4E-3,3.7229124E-1,-1.9989303E-1,-9.824639E-1,-5.329697E-1,-8.569769E-1,-3.9483222E-1,-8.446802E-2,1.6167602E-2,-1.0609018E0,-5.7723504E-1,4.5957398E-2,5.9641755E-1,-1.15948245E-1,-1.8228982E-2,-3.9937678E-1,2.253723E-3,3.2693E-1,2.4436543E-2,-1.6497116E-1,-9.9120575E-1,-3.2304728E-1,-1.2932418E-1,-2.9815063E-2,-1.22010626E-1,2.3478685E-1,-2.4110433E-1,-6.331357E-1,-2.0316935E-1,-3.61557E-2,7.5307655E-1,3.232757E-1,9.889681E-1,5.2670133E-1,5.7050556E-1,1.1462276E0,2.6147747E-1,6.765296E-1,5.067842E-1,1.8558903E0,1.0930176E0,3.1087583E-1],"split_indices":[23,23,23,29,23,29,32,0,39,49,0,59,25,18,36,55,0,30,0,52,55,63,69,13,5,30,0,45,9,0,0,2,63,33,69,0,0,0,46,22,0,13,60,10,59,0,0,0,0,42,1,0,11,24,0,0,0,24,0,40,25,74,1,11,81,0,48,23,0,0,0,0,0,35,4,0,0,9,0,49,29,0,0,40,61,0,0,0,18,64,0,0,0,0,0,0,0,0,0,0,0,0,0,0,0,0,0,0,0,0,0,0,0,0,0,0,0,0,0,0,0,0,0,0,0,0,0,0,0,0,0],"split_type":[0,0,0,0,0,0,0,0,0,0,0,0,0,0,0,0,0,0,0,0,0,0,0,0,0,0,0,0,0,0,0,0,0,0,0,0,0,0,0,0,0,0,0,0,0,0,0,0,0,0,0,0,0,0,0,0,0,0,0,0,0,0,0,0,0,0,0,0,0,0,0,0,0,0,0,0,0,0,0,0,0,0,0,0,0,0,0,0,0,0,0,0,0,0,0,0,0,0,0,0,0,0,0,0,0,0,0,0,0,0,0,0,0,0,0,0,0,0,0,0,0,0,0,0,0,0,0,0,0,0,0],"sum_hessian":[7.48E2,5.33E2,2.15E2,2.7E2,2.63E2,1.4E2,7.5E1,7.7E1,1.93E2,1.56E2,1.07E2,8.3E1,5.7E1,5E1,2.5E1,7.6E1,1E0,1.91E2,2E0,1.39E2,1.7E1,9E1,1.7E1,7.6E1,7E0,5.4E1,3E0,3.6E1,1.4E1,1.8E1,7E0,2E1,5.6E1,1.48E2,4.3E1,1E0,1E0,1.25E2,1.4E1,1.4E1,3E0,7E0,8.3E1,7E0,1E1,7.4E1,2E0,2E0,5E0,5.1E1,3E0,4E0,3.2E1,1.3E1,1E0,1.9E1,1E0,5.5E1,1E0,1.23E2,2.5E1,3.6E1,7E0,1.3E1,1.12E2,4E0,1E1,1.2E1,2E0,1E0,2E0,6E0,1E0,7.9E1,4E0,4E0,3E0,7E0,3E0,2.9E1,4.5E1,1E0,1E0,4.4E1,7E0,2E0,1E0,2E0,3E1,1.1E1,2E0,1E0,5.4E1,9.8E1,2.5E1,1.6E1,9E0,2E0,3.4E1,3E0,4E0,1E0,1.2E1,1E1,1.02E2,1E0,3E0,5E0,5E0,1E1,2E0,1E0,1E0,2.2E1,5.7E1,2E0,2E0,5E0,2E0,9E0,2E1,3.1E1,1.4E1,6E0,3.8E1,4E0,3E0,1E0,2.9E1,1E1,1E0],"tree_param":{"num_deleted":"0","num_feature":"89","num_nodes":"131","size_leaf_vector":"1"}},{"base_weights":[1.1023749E-1,-4.8617096E0,1.4867657E1,-7.320626E0,5.1424676E-1,1.1875234E1,2.5058393E1,-1.0550777E1,-5.3683014E0,-3.8901374E0,1.7060493E0,1.042693E1,1.7458721E1,3.056993E1,1.8658363E1,-1.2061852E1,-8.634141E0,-4.9094405E0,-1.0216185E1,-5.9077296E0,-9.427751E-3,-1.1985966E0,3.1402228E0,7.6990566E0,1.27727995E1,1.8509161E1,1.7481597E-1,2.3274384E1,3.1612713E0,2.0168991E1,5.454628E-1,-1.2222191E1,1.1369323E-2,-9.062562E0,3.79138E-1,-6.1711206E0,-2.903783E0,-1.1752966E1,7.593062E-1,-4.772113E0,-1.0115905E0,2.104187E0,-2.4236407E0,-5.292758E-2,-3.8953214E0,4.493001E0,1.04528934E-1,3.4052439E0,8.317962E0,1.4179849E1,8.467406E0,2.4371011E0,1.5105587E1,1.9217854E0,5.420494E-1,1.729797E0,7.450285E-1,-1.4808611E1,-1.1054874E1,-6.6764717E0,-1.1240013E1,1.5295014E-1,-6.1525367E-2,-5.00105E0,-8.35167E0,-6.69084E-1,-2.4022932E0,-8.585329E0,-1.202824E0,-5.505727E-1,-5.1479464E0,3.2381947E0,-8.652242E-1,2.008606E-2,-2.9112728E0,-2.0632455E0,2.6310248E0,-5.9413295E0,-1.000552E0,3.5056121E0,1.2173422E1,2.3560047E0,-2.6368725E0,5.462229E0,-5.315447E-1,1.37288E0,8.732055E0,5.7589216E0,1.5299015E1,7.8682965E-1,2.943625E0,1.57732725E1,1.6660614E-2,-1.2175083E0,-2.641493E-1,-8.9598334E-1,-1.17580414E-1,-6.985333E-1,-3.1576785E-1,-1.1280366E0,-6.8325895E-1,-4.55381E-1,-1.5052494E-1,-4.3142733E-1,-9.0674824E-1,3.3120742E-1,-2.1625155E-1,-1.4940856E-1,-7.2209984E-1,-9.184265E-4,-6.51503E-2,-4.4295222E-1,-7.748596E-2,3.1831154E-1,9.369578E-2,4.41803E-3,-1.0824493E-1,-6.879974E-2,-2.5196227E-1,-2.1462213E-1,8.684585E-2,2.918404E-1,-8.621376E-2,-5.804799E-1,-2.2501281E-1,-1.5256485E-1,1.2487564E-2,3.882548E-1,-8.733341E-3,1.0458311E0,2.710649E-1,3.584091E-2,6.7559844E-1,-4.211838E-1,-4.7354907E-2,1.129364E-1,4.791994E-1,-9.165283E-2,5.2432097E-2,-2.4250183E-2,1.6260733E-1,7.1551716E-1,-4.0634003E-2,6.002796E-1,7.453267E-2,8.8791144E-1,1.3900105E0,4.216692E-1,-2.9185893E-2,1.2922107E0,3.1226683E-1],"categories":[],"categories_nodes":[],"categories_segments":[],"categories_sizes":[],"default_left":[0,0,0,0,0,0,0,0,0,0,0,0,0,0,0,0,0,0,0,0,0,0,0,0,0,0,0,0,0,0,0,0,0,0,0,0,0,0,0,0,0,0,0,0,0,0,0,0,0,0,0,0,0,0,0,0,0,0,0,0,0,0,0,0,0,0,0,0,0,0,0,0,0,0,0,0,0,0,0,0,0,0,0,0,0,0,0,0,0,0,0,0,0,0,0,0,0,0,0,0,0,0,0,0,0,0,0,0,0,0,0,0,0,0,0,0,0,0,0,0,0,0,0,0,0,0,0,0,0,0,0,0,0,0,0,0,0,0,0,0,0,0,0,0,0,0,0,0,0,0,0],"id":9,"left_children":[1,3,5,7,9,11,13,15,17,19,21,23,25,27,29,31,33,35,37,39,41,43,45,47,49,51,-1,53,-1,55,-1,57,-1,59,61,63,65,67,-1,69,-1,71,73,75,77,79,81,83,85,87,89,-1,91,-1,-1,-1,-1,93,95,97,99,-1,-1,101,103,-1,105,107,-1,109,111,113,115,-1,117,119,121,123,125,127,129,131,133,135,137,139,141,143,145,-1,147,149,-1,-1,-1,-1,-1,-1,-1,-1,-1,-1,-1,-1,-1,-1,-1,-1,-1,-1,-1,-1,-1,-1,-1,-1,-1,-1,-1,-1,-1,-1,-1,-1,-1,-1,-1,-1,-1,-1,-1,-1,-1,-1,-1,-1,-1,-1,-1,-1,-1,-1,-1,-1,-1,-1,-1,-1,-1,-1,-1],"loss_changes":[5.5028742E4,7.4196357E3,5.4659766E3,2.3712852E3,9.357374E2,1.01477344E3,9.1112305E2,3.1290723E2,4.8817432E2,2.9747253E2,5.8697107E2,6.695703E2,4.2482715E2,4.508711E2,2.5597314E2,1.5436523E2,2.6215527E2,5.4638135E2,7.172737E2,1.3092773E2,7.653782E1,1.4500287E2,3.855528E2,1.25808105E2,2.6158008E2,6.384121E2,0E0,9.993652E0,0E0,9.843555E1,0E0,6.876953E1,0E0,2.574746E2,8.509955E0,3.0522266E2,2.2085376E2,6.846484E1,0E0,3.365741E1,0E0,2.9740448E1,9.860897E0,1.8887878E2,7.697348E1,4.5025623E2,1.9137845E2,7.578466E1,1.3180737E2,3.4541797E2,1.0706238E2,0E0,2.2549023E2,0E0,0E0,0E0,0E0,4.8881348E1,6.2714355E1,1.5064526E2,1.2664819E2,0E0,0E0,1.8550635E2,3.448369E2,0E0,1.7259064E2,1.8686157E1,0E0,4.1729808E-1,2.8774475E1,4.5260735E0,1.4218125E0,0E0,2.2378159E-1,4.192817E1,6.0506424E1,1.2496674E1,7.6372514E0,2.8792932E2,1.1018311E1,1.9371788E2,7.211874E1,4.3702087E0,3.666556E0,5.0388584E0,9.657153E1,5.1959915E1,1.5595312E2,0E0,4.0420715E1,3.601709E1,0E0,0E0,0E0,0E0,0E0,0E0,0E0,0E0,0E0,0E0,0E0,0E0,0E0,0E0,0E0,0E0,0E0,0E0,0E0,0E0,0E0,0E0,0E0,0E0,0E0,0E0,0E0,0E0,0E0,0E0,0E0,0E0,0E0,0E0,0E0,0E0,0E0,0E0,0E0,0E0,0E0,0E0,0E0,0E0,0E0,0E0,0E0,0E0,0E0,0E0,0E0,0E0,0E0,0E0,0E0,0E0,0E0,0E0,0E0],"parents":[2147483647,0,0,1,1,2,2,3,3,4,4,5,5,6,6,7,7,8,8,9,9,10,10,11,11,12,12,13,13,14,14,15,15,16,16,17,17,18,18,19,19,20,20,21,21,22,22,23,23,24,24,25,25,27,27,29,29,31,31,33,33,34,34,35,35,36,36,37,37,39,39,41,41,42,42,43,43,44,44,45,45,46,46,47,47,48,48,49,49,50,50,52,52,57,57,58,58,59,59,60,60,63,63,64,64,66,66,67,67,69,69,70,70,71,71,72,72,74,74,75,75,76,76,77,77,78,78,79,79,80,80,81,81,82,82,83,83,84,84,85,85,86,86,87,87,88,88,90,90,91,91],"right_children":[2,4,6,8,10,12,14,16,18,20,22,24,26,28,30,32,34,36,38,40,42,44,46,48,50,52,-1,54,-1,56,-1,58,-1,60,62,64,66,68,-1,70,-1,72,74,76,78,80,82,84,86,88,90,-1,92,-1,-1,-1,-1,94,96,98,100,-1,-1,102,104,-1,106,108,-1,110,112,114,116,-1,118,120,122,124,126,128,130,132,134,136,138,140,142,144,146,-1,148,150,-1,-1,-1,-1,-1,-1,-1,-1,-1,-1,-1,-1,-1,-1,-1,-1,-1,-1,-1,-1,-1,-1,-1,-1,-1,-1,-1,-1,-1,-1,-1,-1,-1,-1,-1,-1,-1,-1,-1,-1,-1,-1,-1,-1,-1,-1,-1,-1,-1,-1,-1,-1,-1,-1,-1,-1,-1,-1,-1],"split_conditions":[5.9E1,4.1E1,8.7E1,2.9666666E1,1.0143E3,1.6563011E1,8.6E1,2.4166666E1,1.5613029E1,6.0683007E0,4.5E1,6.8E1,3.4046404E-2,2.5741997E1,2.36E1,3.02E1,1.1095109E1,3.6E1,4E0,6.1367E0,9E0,2.4E1,4.42E-2,3.8455012E0,4.2E1,3.25E-2,1.7481597E-1,1.0216E3,3.1612713E0,8.075E1,5.454628E-1,6.916667E-3,1.1369323E-2,3.2E-1,2.41E1,3.5E1,1.3E-2,6.3E-3,7.593062E-1,3.0331502E0,-1.0115905E0,8.9E-3,-6.963762E-1,2.3001449E-3,1.63E-2,1.9083077E-2,9.8E-3,5.8975983E-3,3.0739672E-4,1.8E1,3.87E-2,2.4371011E0,8.543222E-1,1.9217854E0,5.420494E-1,1.729797E0,7.450285E-1,1.0133E3,4.8E-3,1.4E1,2.9E-1,1.5295014E-1,-6.1525367E-2,6.8532233E0,3.7282705E-2,-6.69084E-1,4.875E-4,2.2E1,-1.202824E0,2.42E1,2.2E1,3.8E1,2.46E1,2.008606E-2,-8.660254E-1,1.256052E1,5E-1,3E1,5E-1,2.6458334E1,2.8E1,1.04E-2,1.5E-3,-8.660254E-1,6.7E1,6.9E1,1.8035392E-1,7E1,6.6633325E0,7.8682965E-1,2.18E1,5E-1,1.6660614E-2,-1.2175083E0,-2.641493E-1,-8.9598334E-1,-1.17580414E-1,-6.985333E-1,-3.1576785E-1,-1.1280366E0,-6.8325895E-1,-4.55381E-1,-1.5052494E-1,-4.3142733E-1,-9.0674824E-1,3.3120742E-1,-2.1625155E-1,-1.4940856E-1,-7.2209984E-1,-9.184265E-4,-6.51503E-2,-4.4295222E-1,-7.748596E-2,3.1831154E-1,9.369578E-2,4.41803E-3,-1.0824493E-1,-6.879974E-2,-2.5196227E-1,-2.1462213E-1,8.684585E-2,2.918404E-1,-8.621376E-2,-5.804799E-1,-2.2501281E-1,-1.5256485E-1,1.2487564E-2,3.882548E-1,-8.733341E-3,1.0458311E0,2.710649E-1,3.584091E-2,6.7559844E-1,-4.211838E-1,-4.7354907E-2,1.129364E-1,4.791994E-1,-9.165283E-2,5.2432097E-2,-2.4250183E-2,1.6260733E-1,7.1551716E-1,-4.0634003E-2,6.002796E-1,7.453267E-2,8.8791144E-1,1.3900105E0,4.216692E-1,-2.9185893E-2,1.2922107E0,3.1226683E-1],"split_indices":[23,23,23,29,2,32,26,29,30,22,23,23,46,34,0,0,22,29,4,20,3,12,40,20,12,39,0,2,0,33,0,55,0,74,0,25,37,52,0,30,0,50,10,54,52,44,48,42,70,13,35,0,9,0,0,0,0,2,63,11,72,0,0,30,78,0,69,28,0,0,13,11,0,0,7,30,72,12,8,21,11,49,64,7,1,1,82,24,30,0,0,7,0,0,0,0,0,0,0,0,0,0,0,0,0,0,0,0,0,0,0,0,0,0,0,0,0,0,0,0,0,0,0,0,0,0,0,0,0,0,0,0,0,0,0,0,0,0,0,0,0,0,0,0,0,0,0,0,0,0,0],"split_type":[0,0,0,0,0,0,0,0,0,0,0,0,0,0,0,0,0,0,0,0,0,0,0,0,0,0,0,0,0,0,0,0,0,0,0,0,0,0,0,0,0,0,0,0,0,0,0,0,0,0,0,0,0,0,0,0,0,0,0,0,0,0,0,0,0,0,0,0,0,0,0,0,0,0,0,0,0,0,0,0,0,0,0,0,0,0,0,0,0,0,0,0,0,0,0,0,0,0,0,0,0,0,0,0,0,0,0,0,0,0,0,0,0,0,0,0,0,0,0,0,0,0,0,0,0,0,0,0,0,0,0,0,0,0,0,0,0,0,0,0,0,0,0,0,0,0,0,0,0,0,0],"sum_hessian":[7.48E2,5.6E2,1.88E2,3.84E2,1.76E2,1.47E2,4.1E1,1.43E2,2.41E2,3.7E1,1.39E2,1.19E2,2.8E1,2E1,2.1E1,7.7E1,6.6E1,2.22E2,1.9E1,2.4E1,1.3E1,4.6E1,9.3E1,5.7E1,6.2E1,2.6E1,2E0,1.3E1,7E0,1.8E1,3E0,7.6E1,1E0,6.3E1,3E0,1.35E2,8.7E1,1.8E1,1E0,2.2E1,2E0,7E0,6E0,3.3E1,1.3E1,6.4E1,2.9E1,8E0,4.9E1,4.5E1,1.7E1,4E0,2.2E1,1.2E1,1E0,1.5E1,3E0,2E1,5.6E1,3.2E1,3.1E1,1E0,2E0,9E1,4.5E1,6E0,8.1E1,1.1E1,7E0,2E0,2E1,5E0,2E0,1E0,5E0,1.9E1,1.4E1,7E0,6E0,5.8E1,6E0,1.6E1,1.3E1,5E0,3E0,3E0,4.6E1,6E0,3.9E1,1.3E1,4E0,2.1E1,1E0,1.9E1,1E0,5.5E1,1E0,1.7E1,1.5E1,1.3E1,1.8E1,7.3E1,1.7E1,2.4E1,2.1E1,3E0,7.8E1,1E0,1E1,1E0,1E0,1.8E1,2E0,3E0,2E0,1E0,1E0,1E0,4E0,1.6E1,3E0,1.1E1,3E0,4E0,3E0,3E0,3E0,4.2E1,1.6E1,5E0,1E0,1.3E1,3E0,5E0,8E0,1E0,4E0,2E0,1E0,1E0,2E0,4.5E1,1E0,4E0,2E0,1.5E1,2.4E1,2E0,2E0,2E1,1E0],"tree_param":{"num_deleted":"0","num_feature":"89","num_nodes":"151","size_leaf_vector":"1"}},{"base_weights":[1.1320239E-1,-4.489797E0,1.3775475E1,-7.524753E0,-7.653255E-1,1.0990966E1,2.3259565E1,-9.82117E0,-5.538944E0,-2.8618429E0,2.0759418E0,1.0206328E1,2.0798334E1,2.8392199E1,1.7302979E1,-1.07220125E1,-7.073548E0,7.3199134E0,-5.7379656E0,-3.07679E0,3.8150246E0,3.1945038E0,-2.7102196E0,7.328585E0,1.200332E1,2.3042827E0,1.0660946E1,1.5190364E0,2.7090442E0,1.8685726E1,5.1273495E-1,-1.0860405E1,1.4683212E-1,-8.736482E0,-3.2035599E0,1.4945571E-1,7.289339E-1,-4.729547E0,-9.248101E0,-2.5587175E0,-6.29596E0,-5.0198364E-1,5.488286E-1,-3.9745888E-1,3.6423514E0,-7.4902396E0,-2.988622E-1,5.8533688E0,1.0970618E1,1.2667782E1,4.1074557E0,9.871824E-1,9.067108E-2,1.6000623E0,7.0032674E-1,-1.1139049E1,-3.115451E0,-9.199934E0,-1.6933645E-1,-4.76541E0,2.4848251E-1,-5.193849E-1,-5.073202E0,8.842497E-1,-1.0196019E1,-2.1186137E0,-5.8653445E0,-4.8420367E0,-7.518829E-1,-1.2764816E-1,6.741013E-2,4.8920107E0,3.1436858E-1,-8.807616E-1,-3.1044987E-1,2.3173532E0,-2.8777199E0,6.4663224E0,1.0979265E0,1.3875122E1,6.6947875E0,1.4341519E1,8.612747E0,4.1826677E-1,1.3435943E-1,-9.038026E-1,-1.7991434E-1,-5.218918E-2,-2.8545052E-1,-5.268045E-1,-9.012845E-1,-1.0258046E-1,-4.4619343E-1,7.702494E-2,-4.389394E-2,-1.9332233E-1,2.7238E-1,-4.5114955E-1,-1.8152906E-1,-2.623201E-1,2.6920003E-1,-8.707447E-1,2.5198467E-2,-3.322648E-1,-8.692656E-2,-6.62416E-1,-1.0124034E-1,-8.9610286E-2,-4.2627797E-1,1.9497868E-1,5.751185E-1,2.5099984E-1,-2.2161752E-1,7.273901E-2,2.7985275E-1,-3.630256E-1,-1.2544398E-1,2.9641336E-1,5.9935975E-1,-9.665047E-2,3.045355E-1,3.2993057E-1,1.1743168E0,5.8221346E-1,1.04584806E-1,8.237409E-1,1.3867074E0,7.7254874E-1,5.7355803E-2],"categories":[],"categories_nodes":[],"categories_segments":[],"categories_sizes":[],"default_left":[0,0,0,0,0,0,0,0,0,0,0,0,0,0,0,0,0,0,0,0,0,0,0,0,0,0,0,0,0,0,0,0,0,0,0,0,0,0,0,0,0,0,0,0,0,0,0,0,0,0,0,0,0,0,0,0,0,0,0,0,0,0,0,0,0,0,0,0,0,0,0,0,0,0,0,0,0,0,0,0,0,0,0,0,0,0,0,0,0,0,0,0,0,0,0,0,0,0,0,0,0,0,0,0,0,0,0,0,0,0,0,0,0,0,0,0,0,0,0,0,0,0,0,0,0,0,0,0,0],"id":10,"left_children":[1,3,5,7,9,11,13,15,17,19,21,23,25,27,29,31,33,35,37,39,41,43,45,47,49,-1,51,-1,-1,53,-1,55,-1,57,59,-1,-1,61,63,65,67,69,-1,-1,71,73,75,77,79,81,83,-1,-1,-1,-1,85,87,89,-1,91,93,95,97,99,101,103,105,107,-1,-1,-1,109,111,-1,-1,113,115,117,119,121,123,125,127,-1,-1,-1,-1,-1,-1,-1,-1,-1,-1,-1,-1,-1,-1,-1,-1,-1,-1,-1,-1,-1,-1,-1,-1,-1,-1,-1,-1,-1,-1,-1,-1,-1,-1,-1,-1,-1,-1,-1,-1,-1,-1,-1,-1,-1,-1],"loss_changes":[4.7164535E4,6.3355645E3,4.7355664E3,1.3547188E3,1.5130029E3,9.2661914E2,7.927949E2,2.7563086E2,4.719458E2,2.2127344E2,5.8684863E2,6.308408E2,5.044453E2,4.374453E2,2.1163281E2,2.024082E2,2.1656262E2,1.22821045E1,5.4384863E2,2.2071277E2,6.917743E1,3.397945E2,2.3981454E2,2.3666089E2,3.8867383E2,0E0,8.198535E1,0E0,0E0,7.3063965E1,0E0,1.897373E2,0E0,6.029309E1,7.127457E1,0E0,0E0,1.8690137E2,3.5478296E2,1.6802563E2,4.019922E1,5.755968E0,0E0,0E0,3.4780505E2,4.6198975E1,1.078714E2,1.1532483E2,9.339661E1,3.9908398E2,1.2990677E1,0E0,0E0,0E0,0E0,1.1548535E2,3.2472305E0,5.5476196E1,0E0,1.8303467E1,3.375432E0,9.011883E1,1.7930103E2,5.234579E1,2.4217065E2,2.2857288E2,1.4503265E2,2.1188599E1,0E0,0E0,0E0,3.2643042E2,2.1768814E2,0E0,0E0,1.0121033E1,1.0277939E1,7.702661E1,4.2078426E1,2.1677246E0,1.560791E1,4.6298926E2,1.9917896E2,0E0,0E0,0E0,0E0,0E0,0E0,0E0,0E0,0E0,0E0,0E0,0E0,0E0,0E0,0E0,0E0,0E0,0E0,0E0,0E0,0E0,0E0,0E0,0E0,0E0,0E0,0E0,0E0,0E0,0E0,0E0,0E0,0E0,0E0,0E0,0E0,0E0,0E0,0E0,0E0,0E0,0E0,0E0,0E0,0E0,0E0],"parents":[2147483647,0,0,1,1,2,2,3,3,4,4,5,5,6,6,7,7,8,8,9,9,10,10,11,11,12,12,13,13,14,14,15,15,16,16,17,17,18,18,19,19,20,20,21,21,22,22,23,23,24,24,26,26,29,29,31,31,33,33,34,34,37,37,38,38,39,39,40,40,41,41,44,44,45,45,46,46,47,47,48,48,49,49,50,50,55,55,56,56,57,57,59,59,60,60,61,61,62,62,63,63,64,64,65,65,66,66,67,67,71,71,72,72,75,75,76,76,77,77,78,78,79,79,80,80,81,81,82,82],"right_children":[2,4,6,8,10,12,14,16,18,20,22,24,26,28,30,32,34,36,38,40,42,44,46,48,50,-1,52,-1,-1,54,-1,56,-1,58,60,-1,-1,62,64,66,68,70,-1,-1,72,74,76,78,80,82,84,-1,-1,-1,-1,86,88,90,-1,92,94,96,98,100,102,104,106,108,-1,-1,-1,110,112,-1,-1,114,116,118,120,122,124,126,128,-1,-1,-1,-1,-1,-1,-1,-1,-1,-1,-1,-1,-1,-1,-1,-1,-1,-1,-1,-1,-1,-1,-1,-1,-1,-1,-1,-1,-1,-1,-1,-1,-1,-1,-1,-1,-1,-1,-1,-1,-1,-1,-1,-1,-1,-1],"split_conditions":[5.9E1,3.7E1,8.7E1,2.9666666E1,4.5E1,1.9148542E1,8.6E1,1.4E1,1.3E1,5.5495832E-2,2.58E1,6.6166664E1,1.4592183E1,1.3923601E1,2.36E1,4E1,4.217568E0,6.4E1,8.795833E0,2E-3,7.0710677E-1,2.4E-1,-9.453675E-2,1.256052E1,9.659258E-1,2.3042827E0,2.18E1,1.5190364E0,2.7090442E0,8.075E1,5.1273495E-1,2.7E-3,1.4683212E-1,6.080022E0,2.8E-1,1.4945571E-1,7.289339E-1,1E1,2.9E1,1.71E-2,4.4E-1,1.97E1,5.488286E-1,-3.9745888E-1,4.67E-2,-7.961829E-1,4E0,2.2E-3,2.9044794E-3,4.2E1,7.6E1,9.871824E-1,9.067108E-2,1.6000623E0,7.0032674E-1,2.2333334E-3,1E0,2.09E-2,-1.6933645E-1,1E-3,2.44E1,1.15E-2,5.1E1,5.9E1,1.675E-3,6.0192928E-2,1.7941667E-2,2.4E1,-7.518829E-1,-1.2764816E-1,6.741013E-2,1.0031768E1,9.8E-3,-8.807616E-1,-3.1044987E-1,3.6666668E1,1E0,8.013462E-2,2.5916666E1,1.7916666E1,2.29E1,6.6633325E0,1.0445094E1,4.1826677E-1,1.3435943E-1,-9.038026E-1,-1.7991434E-1,-5.218918E-2,-2.8545052E-1,-5.268045E-1,-9.012845E-1,-1.0258046E-1,-4.4619343E-1,7.702494E-2,-4.389394E-2,-1.9332233E-1,2.7238E-1,-4.5114955E-1,-1.8152906E-1,-2.623201E-1,2.6920003E-1,-8.707447E-1,2.5198467E-2,-3.322648E-1,-8.692656E-2,-6.62416E-1,-1.0124034E-1,-8.9610286E-2,-4.2627797E-1,1.9497868E-1,5.751185E-1,2.5099984E-1,-2.2161752E-1,7.273901E-2,2.7985275E-1,-3.630256E-1,-1.2544398E-1,2.9641336E-1,5.9935975E-1,-9.665047E-2,3.045355E-1,3.2993057E-1,1.1743168E0,5.8221346E-1,1.04584806E-1,8.237409E-1,1.3867074E0,7.7254874E-1,5.7355803E-2],"split_indices":[23,23,23,29,23,30,26,11,24,45,0,29,20,30,0,15,20,1,30,60,8,75,9,30,7,0,0,0,0,33,0,59,0,30,72,0,0,14,25,50,76,0,0,0,40,9,3,59,54,12,24,0,0,0,0,67,3,35,0,62,0,47,28,1,67,82,55,26,0,0,0,32,48,0,0,33,4,82,21,19,0,30,30,0,0,0,0,0,0,0,0,0,0,0,0,0,0,0,0,0,0,0,0,0,0,0,0,0,0,0,0,0,0,0,0,0,0,0,0,0,0,0,0,0,0,0,0,0,0],"split_type":[0,0,0,0,0,0,0,0,0,0,0,0,0,0,0,0,0,0,0,0,0,0,0,0,0,0,0,0,0,0,0,0,0,0,0,0,0,0,0,0,0,0,0,0,0,0,0,0,0,0,0,0,0,0,0,0,0,0,0,0,0,0,0,0,0,0,0,0,0,0,0,0,0,0,0,0,0,0,0,0,0,0,0,0,0,0,0,0,0,0,0,0,0,0,0,0,0,0,0,0,0,0,0,0,0,0,0,0,0,0,0,0,0,0,0,0,0,0,0,0,0,0,0,0,0,0,0,0,0],"sum_hessian":[7.48E2,5.6E2,1.88E2,3.08E2,2.52E2,1.47E2,4.1E1,1.41E2,1.67E2,1.45E2,1.07E2,1.38E2,9E0,2E1,2.1E1,1.04E2,3.7E1,2E0,1.65E2,1.41E2,4E0,8.7E1,2E1,5.5E1,8.3E1,4E0,5E0,9E0,1.1E1,1.8E1,3E0,1.03E2,1E0,2.5E1,1.2E1,1E0,1E0,1.3E2,3.5E1,1.23E2,1.8E1,2E0,2E0,4E0,8.3E1,6E0,1.4E1,4.1E1,1.4E1,7.6E1,7E0,4E0,1E0,1.5E1,3E0,9.9E1,4E0,2.3E1,2E0,8E0,4E0,1E1,1.2E2,3E0,3.2E1,1.1E2,1.3E1,1.4E1,4E0,1E0,1E0,6E1,2.3E1,2E0,4E0,7E0,7E0,3.6E1,5E0,7E0,7E0,5.2E1,2.4E1,4E0,3E0,9.7E1,2E0,1E0,3E0,1.2E1,1.1E1,2E0,6E0,2E0,2E0,7E0,3E0,9.9E1,2.1E1,1E0,2E0,3E1,2E0,3.6E1,7.4E1,8E0,5E0,2E0,1.2E1,3E1,3E1,1.2E1,1.1E1,4E0,3E0,2E0,5E0,1.1E1,2.5E1,3E0,2E0,1E0,6E0,6E0,1E0,2.4E1,2.8E1,2.1E1,3E0],"tree_param":{"num_deleted":"0","num_feature":"89","num_nodes":"129","size_leaf_vector":"1"}},{"base_weights":[1.181946E-1,-4.1427145E0,1.2765029E1,-6.2376127E0,4.3739042E-1,1.0181079E1,2.1566448E1,-8.990469E0,-4.573774E0,-3.3969681E0,1.4750206E0,9.439373E0,1.9472681E1,2.6322159E1,1.6046612E1,-1.0605133E1,-7.566174E0,7.0271163E0,-4.6997275E0,-5.19296E0,5.280004E-2,-9.673017E-1,2.68049E0,7.512838E0,1.177965E1,2.315563E0,1.127838E1,1.9752886E1,2.7622495E0,1.7311943E1,4.8197097E-1,-1.1173135E1,-4.30267E0,-3.4513268E0,-8.241569E0,1.4347747E-1,6.997765E-1,-4.212161E0,-1.0149206E1,-4.1529737E0,-9.148157E-1,-1.8942432E0,2.2704494E0,7.771391E-2,-3.4361038E0,3.8385644E0,8.19795E-2,8.2113695E0,2.4481568E0,1.2550103E1,4.0432825E0,1.0236341E0,8.704422E-2,1.6310785E0,4.5960602E-1,1.8500723E1,6.5830725E-1,-1.1453122E1,-2.1289876E0,-1.8314171E-1,-4.192321E-1,-1.0238438E0,-4.8405232E0,1.4095886E-1,-8.417173E0,-5.3703575E0,-2.3875165E0,-7.190306E0,-1.0655124E0,-4.9745865E0,-1.9906273E0,1.6001637E-1,-2.605666E0,3.0609303E0,-9.88974E-2,-1.7514098E0,2.5113645E0,-5.2590003E0,-8.619216E-1,2.9363332E0,1.0894718E1,6.062496E0,-8.070592E-1,8.735784E0,1.2490559E0,3.5463018E0,-3.6017227E-1,1.2866782E1,2.2176605E-1,5.5493546E-1,1.4985794E0,4.1552794E-1,1.5233246E0,-1.1990585E-1,-9.28329E-1,-2.735896E-1,1.8111113E-2,-1.1299693E-1,-3.8113557E-2,1.101654E-2,-4.457097E-1,-6.8655705E-1,9.8358765E-2,-6.700669E-1,-3.6612892E-1,-5.901901E-1,-1.5459494E-1,-1.0860229E-1,-6.0777175E-1,-1.2717223E-1,-4.275681E-1,-3.146057E-3,-2.1076055E-1,2.2759704E-2,-3.557739E-3,-6.103012E-2,-2.2573186E-1,3.036972E-1,8.481923E-2,-3.3330983E-1,-7.098165E-2,2.2206463E-2,3.175769E-1,-5.189741E-1,-1.927224E-1,-1.3790908E-1,1.7240066E-2,-3.7122855E-1,2.7400726E-1,9.3776786E-1,2.3721756E-1,6.120001E-1,5.1999204E-2,8.364393E-2,-2.5679588E-1,2.8337872E-1,7.369579E-1,-8.125132E-2,2.1082519E-1,4.019104E-2,3.5817668E-1,-8.1872754E-2,6.5181576E-2,1.0633056E0,3.474684E-1,1.626451E-1,-2.557434E-2],"categories":[],"categories_nodes":[],"categories_segments":[],"categories_sizes":[],"default_left":[0,0,0,0,0,0,0,0,0,0,0,0,0,0,0,0,0,0,0,0,0,0,0,0,0,0,0,0,0,0,0,0,0,0,0,0,0,0,0,0,0,0,0,0,0,0,0,0,0,0,0,0,0,0,0,0,0,0,0,0,0,0,0,0,0,0,0,0,0,0,0,0,0,0,0,0,0,0,0,0,0,0,0,0,0,0,0,0,0,0,0,0,0,0,0,0,0,0,0,0,0,0,0,0,0,0,0,0,0,0,0,0,0,0,0,0,0,0,0,0,0,0,0,0,0,0,0,0,0,0,0,0,0,0,0,0,0,0,0,0,0,0,0,0,0,0,0],"id":11,"left_children":[1,3,5,7,9,11,13,15,17,19,21,23,25,27,29,31,33,35,37,39,41,43,45,47,49,-1,51,53,-1,55,-1,57,59,61,63,-1,-1,65,67,69,-1,71,73,75,77,79,81,83,85,87,89,-1,-1,-1,-1,91,-1,93,95,-1,-1,97,99,-1,101,103,105,107,-1,109,111,113,115,117,-1,119,121,123,125,127,129,131,133,135,137,139,141,143,-1,-1,145,-1,-1,-1,-1,-1,-1,-1,-1,-1,-1,-1,-1,-1,-1,-1,-1,-1,-1,-1,-1,-1,-1,-1,-1,-1,-1,-1,-1,-1,-1,-1,-1,-1,-1,-1,-1,-1,-1,-1,-1,-1,-1,-1,-1,-1,-1,-1,-1,-1,-1,-1,-1,-1,-1,-1,-1],"loss_changes":[4.0414254E4,5.3854414E3,4.07875E3,1.7222979E3,7.09231E2,8.3615137E2,6.8014844E2,2.509248E2,3.8662988E2,2.357128E2,4.1477316E2,5.382012E2,4.497046E2,4.500205E2,1.7468652E2,1.8461377E2,1.938872E2,1.1319199E1,5.949263E2,1.1480597E2,6.475082E1,1.21524055E2,2.8255652E2,2.5938672E2,3.1284668E2,0E0,9.42923E1,7.5126953E0,0E0,5.2918945E1,0E0,1.2501904E2,1.2194824E0,3.888333E1,1.3428467E2,0E0,0E0,4.5632983E2,8.243054E1,3.0959473E1,0E0,1.2108522E1,2.3187645E1,1.5574765E2,6.1161697E1,3.818178E2,1.6440013E2,2.410166E2,3.520076E1,1.3463965E2,4.114492E1,0E0,0E0,0E0,0E0,1.6243164E1,0E0,6.827881E1,9.895766E0,0E0,0E0,6.0350895E-1,2.9873856E1,0E0,1.1706006E2,2.837212E2,1.8557263E2,1.8162842E1,0E0,1.1543579E1,9.94762E0,8.9016035E-2,2.354927E-1,4.8015633E0,0E0,3.8040573E1,4.776255E1,1.2374313E1,6.8722234E0,2.3438037E2,1.1166321E1,2.9397095E1,1.2354973E2,1.2564844E2,2.1513279E1,2.0419495E1,3.9509046E0,1.3405273E2,0E0,0E0,5.5090847E0,0E0,0E0,0E0,0E0,0E0,0E0,0E0,0E0,0E0,0E0,0E0,0E0,0E0,0E0,0E0,0E0,0E0,0E0,0E0,0E0,0E0,0E0,0E0,0E0,0E0,0E0,0E0,0E0,0E0,0E0,0E0,0E0,0E0,0E0,0E0,0E0,0E0,0E0,0E0,0E0,0E0,0E0,0E0,0E0,0E0,0E0,0E0,0E0,0E0,0E0,0E0,0E0,0E0,0E0,0E0,0E0],"parents":[2147483647,0,0,1,1,2,2,3,3,4,4,5,5,6,6,7,7,8,8,9,9,10,10,11,11,12,12,13,13,14,14,15,15,16,16,17,17,18,18,19,19,20,20,21,21,22,22,23,23,24,24,26,26,27,27,29,29,31,31,32,32,33,33,34,34,37,37,38,38,39,39,41,41,42,42,43,43,44,44,45,45,46,46,47,47,48,48,49,49,50,50,55,55,57,57,58,58,61,61,62,62,64,64,65,65,66,66,67,67,69,69,70,70,71,71,72,72,73,73,75,75,76,76,77,77,78,78,79,79,80,80,81,81,82,82,83,83,84,84,85,85,86,86,87,87,90,90],"right_children":[2,4,6,8,10,12,14,16,18,20,22,24,26,28,30,32,34,36,38,40,42,44,46,48,50,-1,52,54,-1,56,-1,58,60,62,64,-1,-1,66,68,70,-1,72,74,76,78,80,82,84,86,88,90,-1,-1,-1,-1,92,-1,94,96,-1,-1,98,100,-1,102,104,106,108,-1,110,112,114,116,118,-1,120,122,124,126,128,130,132,134,136,138,140,142,144,-1,-1,146,-1,-1,-1,-1,-1,-1,-1,-1,-1,-1,-1,-1,-1,-1,-1,-1,-1,-1,-1,-1,-1,-1,-1,-1,-1,-1,-1,-1,-1,-1,-1,-1,-1,-1,-1,-1,-1,-1,-1,-1,-1,-1,-1,-1,-1,-1,-1,-1,-1,-1,-1,-1,-1,-1,-1,-1],"split_conditions":[5.9E1,4.1E1,8.7E1,2.9666666E1,1.0143E3,1.9148542E1,8.6E1,2.4E-1,1.3E1,6.0683007E0,4.5E1,6.9833336E1,3.4E1,2.5741997E1,2.36E1,1.5E1,1.8416667E-2,6.4E1,1.5613029E1,1.036822E1,4.676181E0,2.4E1,4.42E-2,5.5E-1,1.17756815E1,2.315563E0,2.18E1,1.0216E3,2.7622495E0,8.075E1,4.8197097E-1,2.2583334E-3,2.61E1,2.1E1,3E0,1.4347747E-1,6.997765E-1,3.6E1,6.3E-3,4E1,-9.148157E-1,1.5E1,9.659258E-1,2.3001449E-3,1.63E-2,1.9083077E-2,8E-4,8.5E1,8.594572E-2,1.4166453E-1,-2.1772324E-1,1.0236341E0,8.704422E-2,1.6310785E0,4.5960602E-1,3.704011E0,6.5830725E-1,4E0,2.98E1,-1.8314171E-1,-4.192321E-1,2.44E1,-9.981855E-1,1.4095886E-1,6.29E-2,3.3291668E1,1.3E-2,2.2E1,-1.0655124E0,2.37059E-3,3.1E1,2.32E1,-8.660254E-1,3.8E1,-9.88974E-2,3.1139958E0,4E1,3E1,5E-1,-7.961829E-1,2.8E1,2.33E1,9.45E-3,3.6793858E-2,3.55E-2,4.334499E0,6.7E1,9.659258E-1,2.2176605E-1,5.5493546E-1,2.36E1,4.1552794E-1,1.5233246E0,-1.1990585E-1,-9.28329E-1,-2.735896E-1,1.8111113E-2,-1.1299693E-1,-3.8113557E-2,1.101654E-2,-4.457097E-1,-6.8655705E-1,9.8358765E-2,-6.700669E-1,-3.6612892E-1,-5.901901E-1,-1.5459494E-1,-1.0860229E-1,-6.0777175E-1,-1.2717223E-1,-4.275681E-1,-3.146057E-3,-2.1076055E-1,2.2759704E-2,-3.557739E-3,-6.103012E-2,-2.2573186E-1,3.036972E-1,8.481923E-2,-3.3330983E-1,-7.098165E-2,2.2206463E-2,3.175769E-1,-5.189741E-1,-1.927224E-1,-1.3790908E-1,1.7240066E-2,-3.7122855E-1,2.7400726E-1,9.3776786E-1,2.3721756E-1,6.120001E-1,5.1999204E-2,8.364393E-2,-2.5679588E-1,2.8337872E-1,7.369579E-1,-8.125132E-2,2.1082519E-1,4.019104E-2,3.5817668E-1,-8.1872754E-2,6.5181576E-2,1.0633056E0,3.474684E-1,1.626451E-1,-2.557434E-2],"split_indices":[23,23,23,29,2,30,26,71,24,22,23,29,11,34,0,11,41,1,30,30,18,12,40,73,30,0,0,2,0,33,0,67,0,3,5,0,0,29,52,25,0,14,7,54,52,44,63,28,78,82,10,0,0,0,0,20,0,16,0,0,0,0,10,0,39,33,37,28,0,56,26,0,7,11,0,20,29,12,8,9,11,0,53,80,38,20,1,7,0,0,0,0,0,0,0,0,0,0,0,0,0,0,0,0,0,0,0,0,0,0,0,0,0,0,0,0,0,0,0,0,0,0,0,0,0,0,0,0,0,0,0,0,0,0,0,0,0,0,0,0,0,0,0,0,0,0,0],"split_type":[0,0,0,0,0,0,0,0,0,0,0,0,0,0,0,0,0,0,0,0,0,0,0,0,0,0,0,0,0,0,0,0,0,0,0,0,0,0,0,0,0,0,0,0,0,0,0,0,0,0,0,0,0,0,0,0,0,0,0,0,0,0,0,0,0,0,0,0,0,0,0,0,0,0,0,0,0,0,0,0,0,0,0,0,0,0,0,0,0,0,0,0,0,0,0,0,0,0,0,0,0,0,0,0,0,0,0,0,0,0,0,0,0,0,0,0,0,0,0,0,0,0,0,0,0,0,0,0,0,0,0,0,0,0,0,0,0,0,0,0,0,0,0,0,0,0,0],"sum_hessian":[7.48E2,5.6E2,1.88E2,3.84E2,1.76E2,1.47E2,4.1E1,1.43E2,2.41E2,3.7E1,1.39E2,1.38E2,9E0,2E1,2.1E1,6.4E1,7.9E1,2E0,2.39E2,2.4E1,1.3E1,4.6E1,9.3E1,7.8E1,6E1,3E0,6E0,1.3E1,7E0,1.8E1,3E0,5.8E1,6E0,1.2E1,6.7E1,1E0,1E0,2.21E2,1.8E1,2.2E1,2E0,7E0,6E0,3.3E1,1.3E1,6.4E1,2.9E1,6.8E1,1E1,5.4E1,6E0,5E0,1E0,1.2E1,1E0,1.5E1,3E0,5.6E1,2E0,3E0,3E0,5E0,7E0,1E0,6.6E1,1.34E2,8.7E1,1.1E1,7E0,1.5E1,7E0,2E0,5E0,5E0,1E0,1.9E1,1.4E1,7E0,6E0,5.8E1,6E0,3E0,2.6E1,6.3E1,5E0,7E0,3E0,5.2E1,2E0,2E0,4E0,1E0,1.4E1,1E0,5.5E1,1E0,1E0,2E0,3E0,1E0,6E0,6.5E1,1E0,2.6E1,1.08E2,6E0,8.1E1,1E0,1E1,2E0,1.3E1,2E0,5E0,1E0,1E0,1E0,4E0,3E0,2E0,4E0,1.5E1,6E0,8E0,4E0,3E0,3E0,3E0,3E0,5.5E1,5E0,1E0,2E0,1E0,1.5E1,1.1E1,6E0,5.7E1,2E0,3E0,2E0,5E0,2E0,1E0,4.9E1,3E0,3E0,1E0],"tree_param":{"num_deleted":"0","num_feature":"89","num_nodes":"147","size_leaf_vector":"1"}},{"base_weights":[1.2017573E-1,-3.823148E0,1.18243265E1,-5.6123934E0,7.359029E-1,9.415797E0,2.0029991E1,-8.291641E0,-4.106916E0,-3.2789927E0,1.5819724E0,8.167375E0,1.4257001E1,2.4447477E1,1.4902844E1,-9.722931E0,-6.919963E0,6.7460313E0,-4.2171946E0,-2.2821474E0,-8.660257E-1,-6.296695E-1,2.482739E0,5.877438E0,1.0214777E1,1.5632743E1,4.5268884E0,1.8321987E1,2.5688915E0,1.6063683E1,4.5305267E-1,-1.0207221E1,-4.04451E0,-4.1898117E0,-8.005216E0,1.3773833E-1,6.717854E-1,-3.7868595E0,-9.431052E0,9.170144E-1,-3.08752E0,-1.9555699E0,1.2012352E0,3.5480614E0,9.17825E-2,6.3545833E0,-5.4664457E-1,1.1091116E1,2.9130993E0,1.2418102E1,2.0806148E0,4.784669E-1,1.2511821E-1,6.3349885E-1,1.5516775E0,1.7141844E1,6.1880887E-1,-1.0445271E1,-2.0438282E0,-1.7215316E-1,-3.940782E-1,-5.1794353E0,-1.5631356E0,1.3532043E-1,-8.220088E0,-4.7347684E0,-1.7187558E0,-6.674779E0,-9.909265E-1,-1.5245806E0,2.5189571E0,-3.7629128E-1,-2.1274953E0,-3.0998497E0,-1.5802117E-1,-1.3486955E0,2.714715E0,2.69978E0,1.0190996E1,5.743497E0,-7.4890786E-1,9.193299E0,5.4359655E0,-8.595161E-2,6.257431E-2,2.918013E0,1.1674928E1,4.5206084E0,1.7543793E-1,1.305873E1,-1.5778197E-2,3.9890686E-1,1.4095831E0,-9.063683E-1,-5.8442E-1,-2.6264602E-1,1.7386626E-2,-1.1639811E-1,-4.463225E-1,-2.6236257E-1,-3.555318E-2,-6.9981253E-1,-2.1036154E-1,-3.3684587E-1,-5.9846956E-1,-8.819401E-3,-2.445247E-1,-1.0425827E-1,-5.635701E-1,-3.4153748E-3,-1.795343E-1,2.8258988E-1,8.029551E-2,-1.956969E-1,-2.9782103E-3,-4.0856504E-1,-1.6705194E-1,-1.1871597E-1,1.1717578E-1,-2.0368141E-1,1.4864044E-2,6.947497E-2,2.9165348E-1,2.4870566E-1,-4.777535E-1,8.7525E-1,2.2772887E-1,5.793601E-1,4.991928E-2,-1.4906333E-1,2.1609846E-1,7.978445E-1,2.8237376E-1,4.5936462E-1,-5.2905273E-2,2.4752654E-2,2.7942497E-1,1.0669999E0,5.436469E-1,1.6243082E-1,4.4031695E-1,6.2126767E-2,-2.2704467E-2,4.890474E-1,1.1530457E0],"categories":[],"categories_nodes":[],"categories_segments":[],"categories_sizes":[],"default_left":[0,0,0,0,0,0,0,0,0,0,0,0,0,0,0,0,0,0,0,0,0,0,0,0,0,0,0,0,0,0,0,0,0,0,0,0,0,0,0,0,0,0,0,0,0,0,0,0,0,0,0,0,0,0,0,0,0,0,0,0,0,0,0,0,0,0,0,0,0,0,0,0,0,0,0,0,0,0,0,0,0,0,0,0,0,0,0,0,0,0,0,0,0,0,0,0,0,0,0,0,0,0,0,0,0,0,0,0,0,0,0,0,0,0,0,0,0,0,0,0,0,0,0,0,0,0,0,0,0,0,0,0,0,0,0,0,0,0,0,0,0,0,0,0,0],"id":12,"left_children":[1,3,5,7,9,11,13,15,17,19,21,23,25,27,29,31,33,35,37,39,-1,41,43,45,47,49,51,53,-1,55,-1,57,59,61,63,-1,-1,65,67,69,71,73,75,77,79,81,83,85,87,89,-1,-1,-1,-1,-1,91,-1,93,95,-1,-1,97,99,-1,101,103,105,107,-1,109,111,-1,113,115,117,119,121,123,125,127,129,131,133,-1,-1,135,137,139,141,143,-1,-1,-1,-1,-1,-1,-1,-1,-1,-1,-1,-1,-1,-1,-1,-1,-1,-1,-1,-1,-1,-1,-1,-1,-1,-1,-1,-1,-1,-1,-1,-1,-1,-1,-1,-1,-1,-1,-1,-1,-1,-1,-1,-1,-1,-1,-1,-1,-1,-1,-1,-1,-1,-1,-1],"loss_changes":[3.4613996E4,4.5803545E3,3.5467168E3,1.5914668E3,5.452913E2,7.780508E2,5.869258E2,2.1542871E2,3.3963037E2,1.8592563E2,2.6453018E2,5.0257422E2,3.174297E2,3.9747754E2,1.449956E2,1.457168E2,1.9460327E2,1.0431763E1,5.431621E2,6.982074E1,0E0,9.702539E1,2.3910547E2,1.8432153E2,3.644131E2,5.1082715E2,1.2185707E1,2.8291016E0,0E0,3.801758E1,0E0,9.913574E1,1.0775528E0,5.4289948E1,1.26416504E2,0E0,0E0,4.6235205E2,7.210095E1,2.7308126E1,2.257486E1,4.6818825E1,6.92689E1,3.387666E2,1.468416E2,9.344873E1,4.346806E0,2.2836768E2,3.4413437E1,1.7229199E2,0E0,0E0,0E0,0E0,0E0,5.0961914E0,0E0,8.384424E1,9.119931E0,0E0,0E0,1.718335E1,1.3903879E1,0E0,1.3331665E2,2.0457812E2,1.6535733E2,1.4659058E1,0E0,3.1032834E0,2.5969467E0,0E0,9.901955E0,1.7765488E1,2.3689625E1,1.3334055E1,1.5740761E1,2.2784317E2,7.3953247E0,2.616748E1,1.0884222E2,1.7793457E1,8.591589E1,0E0,0E0,6.416416E0,3.2308887E2,1.0686874E0,1.3246907E0,1.00026855E2,0E0,0E0,0E0,0E0,0E0,0E0,0E0,0E0,0E0,0E0,0E0,0E0,0E0,0E0,0E0,0E0,0E0,0E0,0E0,0E0,0E0,0E0,0E0,0E0,0E0,0E0,0E0,0E0,0E0,0E0,0E0,0E0,0E0,0E0,0E0,0E0,0E0,0E0,0E0,0E0,0E0,0E0,0E0,0E0,0E0,0E0,0E0,0E0,0E0,0E0,0E0,0E0,0E0,0E0,0E0],"parents":[2147483647,0,0,1,1,2,2,3,3,4,4,5,5,6,6,7,7,8,8,9,9,10,10,11,11,12,12,13,13,14,14,15,15,16,16,17,17,18,18,19,19,21,21,22,22,23,23,24,24,25,25,26,26,27,27,29,29,31,31,32,32,33,33,34,34,37,37,38,38,39,39,40,40,41,41,42,42,43,43,44,44,45,45,46,46,47,47,48,48,49,49,55,55,57,57,58,58,61,61,62,62,64,64,65,65,66,66,67,67,69,69,70,70,72,72,73,73,74,74,75,75,76,76,77,77,78,78,79,79,80,80,81,81,82,82,85,85,86,86,87,87,88,88,89,89],"right_children":[2,4,6,8,10,12,14,16,18,20,22,24,26,28,30,32,34,36,38,40,-1,42,44,46,48,50,52,54,-1,56,-1,58,60,62,64,-1,-1,66,68,70,72,74,76,78,80,82,84,86,88,90,-1,-1,-1,-1,-1,92,-1,94,96,-1,-1,98,100,-1,102,104,106,108,-1,110,112,-1,114,116,118,120,122,124,126,128,130,132,134,-1,-1,136,138,140,142,144,-1,-1,-1,-1,-1,-1,-1,-1,-1,-1,-1,-1,-1,-1,-1,-1,-1,-1,-1,-1,-1,-1,-1,-1,-1,-1,-1,-1,-1,-1,-1,-1,-1,-1,-1,-1,-1,-1,-1,-1,-1,-1,-1,-1,-1,-1,-1,-1,-1,-1,-1,-1,-1,-1,-1],"split_conditions":[5.9E1,4.2E1,8.7E1,2.9666666E1,1.0143E3,1.6563011E1,8.6E1,2.5E-1,1.3E1,1.0917875E1,4.5E1,6.55E1,1.8382412E1,2.5741997E1,2.36E1,1.5E1,2.09E-2,6.4E1,1.5613029E1,4E0,-8.660257E-1,2.75E-2,4.42E-2,2.2E-3,1.17756815E1,5.77E-2,2.37E1,8.241469E-3,2.5688915E0,8.075E1,4.5305267E-1,2.2583334E-3,2.61E1,5.5287127E0,3E0,1.3773833E-1,6.717854E-1,3.6833332E1,6.3E-3,4.776045E0,9E-4,9.216793E0,5.3E-3,1.9083077E-2,8E-4,7E-4,6.7E1,-8.900276E-1,3.11E-2,8.543222E-1,2.0806148E0,4.784669E-1,1.2511821E-1,6.3349885E-1,1.5516775E0,3.704011E0,6.1880887E-1,1.7E-3,2.98E1,-1.7215316E-1,-3.940782E-1,5.2E-3,2.42E1,1.3532043E-1,1.1482199E-3,4.082483E0,2.3172542E-3,2.2E1,-9.909265E-1,2.46E1,2.53E1,-3.7629128E-1,1.1031217E-2,4E-1,4.5E1,1.5E1,3.25E-2,3.7E1,2.8E1,2.33E1,2E-3,1.09E-2,9.291414E-1,-8.595161E-2,6.257431E-2,1.0193E3,4.2E1,2.06E1,5.2E1,1.8215046E1,-1.5778197E-2,3.9890686E-1,1.4095831E0,-9.063683E-1,-5.8442E-1,-2.6264602E-1,1.7386626E-2,-1.1639811E-1,-4.463225E-1,-2.6236257E-1,-3.555318E-2,-6.9981253E-1,-2.1036154E-1,-3.3684587E-1,-5.9846956E-1,-8.819401E-3,-2.445247E-1,-1.0425827E-1,-5.635701E-1,-3.4153748E-3,-1.795343E-1,2.8258988E-1,8.029551E-2,-1.956969E-1,-2.9782103E-3,-4.0856504E-1,-1.6705194E-1,-1.1871597E-1,1.1717578E-1,-2.0368141E-1,1.4864044E-2,6.947497E-2,2.9165348E-1,2.4870566E-1,-4.777535E-1,8.7525E-1,2.2772887E-1,5.793601E-1,4.991928E-2,-1.4906333E-1,2.1609846E-1,7.978445E-1,2.8237376E-1,4.5936462E-1,-5.2905273E-2,2.4752654E-2,2.7942497E-1,1.0669999E0,5.436469E-1,1.6243082E-1,4.4031695E-1,6.2126767E-2,-2.2704467E-2,4.890474E-1,1.1530457E0],"split_indices":[23,23,23,29,2,32,26,71,24,30,23,31,22,34,0,11,35,1,30,3,0,38,40,59,30,35,0,44,0,33,0,67,0,30,5,0,0,29,52,20,63,22,49,44,63,63,1,10,39,9,0,0,0,0,0,20,0,60,0,0,0,52,0,0,68,18,54,28,0,0,0,0,46,71,33,12,39,12,11,0,62,50,10,0,0,2,12,0,1,32,0,0,0,0,0,0,0,0,0,0,0,0,0,0,0,0,0,0,0,0,0,0,0,0,0,0,0,0,0,0,0,0,0,0,0,0,0,0,0,0,0,0,0,0,0,0,0,0,0,0,0,0,0,0,0],"split_type":[0,0,0,0,0,0,0,0,0,0,0,0,0,0,0,0,0,0,0,0,0,0,0,0,0,0,0,0,0,0,0,0,0,0,0,0,0,0,0,0,0,0,0,0,0,0,0,0,0,0,0,0,0,0,0,0,0,0,0,0,0,0,0,0,0,0,0,0,0,0,0,0,0,0,0,0,0,0,0,0,0,0,0,0,0,0,0,0,0,0,0,0,0,0,0,0,0,0,0,0,0,0,0,0,0,0,0,0,0,0,0,0,0,0,0,0,0,0,0,0,0,0,0,0,0,0,0,0,0,0,0,0,0,0,0,0,0,0,0,0,0,0,0,0,0],"sum_hessian":[7.48E2,5.6E2,1.88E2,4.02E2,1.58E2,1.47E2,4.1E1,1.43E2,2.59E2,2.7E1,1.31E2,1.19E2,2.8E1,2E1,2.1E1,6.7E1,7.6E1,2E0,2.57E2,2.5E1,2E0,3.8E1,9.3E1,5.8E1,6.1E1,2.4E1,4E0,1.3E1,7E0,1.8E1,3E0,6.1E1,6E0,2.3E1,5.3E1,1E0,1E0,2.39E2,1.8E1,5E0,2E1,2.2E1,1.6E1,6.4E1,2.9E1,5.4E1,4E0,5.4E1,7E0,2E1,4E0,2E0,2E0,2E0,1.1E1,1.5E1,3E0,5.9E1,2E0,3E0,3E0,1.6E1,7E0,1E0,5.2E1,1.63E2,7.6E1,1.1E1,7E0,2E0,3E0,6E0,1.4E1,1.3E1,9E0,6E0,1E1,5.8E1,6E0,3E0,2.6E1,1.1E1,4.3E1,3E0,1E0,4E0,5E1,4E0,3E0,1.9E1,1E0,1E0,1.4E1,4.4E1,1.5E1,1E0,1E0,2E0,1.4E1,2E0,5E0,4.7E1,5E0,1.39E2,2.4E1,3.5E1,4.1E1,1E0,1E1,1E0,1E0,1E0,2E0,1.2E1,2E0,3E0,1E1,5E0,4E0,3E0,3E0,4E0,6E0,5.6E1,2E0,5E0,1E0,2E0,1E0,2E1,6E0,9E0,2E0,4.1E1,2E0,1E0,3E0,3.6E1,1.4E1,2E0,2E0,1E0,2E0,4E0,1.5E1],"tree_param":{"num_deleted":"0","num_feature":"89","num_nodes":"145","size_leaf_vector":"1"}},{"base_weights":[1.2377097E-1,-3.5281186E0,1.0962852E1,-5.312192E0,3.7242612E-1,7.550522E0,1.59370985E1,-7.655656E0,-3.895783E0,-2.9261105E0,1.265083E0,7.144163E0,1.3551477E0,1.19690895E1,2.0744833E1,-9.039658E0,-6.4354587E0,6.47619E0,-4.0092E0,-4.5426636E0,1.695998E-1,-8.333151E-1,2.3008237E0,5.914824E0,8.815754E0,8.720433E0,1.5111884E1,1.3696782E1,2.6572601E1,-9.507879E0,-3.8018396E0,-7.714851E0,-4.740088E0,1.3222885E-1,6.449139E-1,-3.7172737E0,-8.8711584E-1,-3.5693326E0,-8.392518E-1,-1.6120906E0,2.181589E0,1.08304866E-1,-3.0605838E0,3.9117177E0,8.6591876E-1,5.169635E0,1.1563638E1,1.1277598E1,5.4651875E0,8.0476636E-1,9.403459E0,5.212027E-1,1.6182745E1,1.5361159E1,5.304035E-1,1.2617801E0,2.4823887E0,-4.611132E0,-9.975225E0,-4.022877E-1,-1.844334E-1,-8.589948E0,-3.3572588E0,-6.094244E0,-1.4110757E0,-5.961946E0,-3.114779E0,-4.1884847E0,-1.5557725E0,1.576945E-1,-2.2283013E0,2.9196945E-1,1.6816235E-1,-1.5027227E0,2.2491214E0,-4.7110085E0,-7.371581E-1,3.2746786E-1,5.573452E0,5.7261744E0,-1.7148164E-1,5.6533337E0,6.3062775E-1,1.0970712E0,3.3009368E-1,8.643196E0,1.20005E0,1.6654911E0,6.5484996E0,1.1171905E-1,-1.5147095E-2,1.0582315E1,4.2924622E-1,1.3270733E0,3.714534E-1,4.7951823E-1,1.3215501E0,-4.1442465E-2,-4.9158132E-1,-8.7444615E-1,-5.461037E-1,-5.615263E-1,-8.6633986E-1,-4.5779985E-1,8.2393266E-2,-3.736295E-1,-6.324325E-1,-1.9771661E-1,4.8972573E-3,-3.8770887E-1,-9.442999E-1,-2.248173E-1,-5.5425626E-1,-3.986632E-1,-1.5206344E-1,-1.7255493E-1,-2.8193155E-3,2.2202147E-2,-3.2788084E-3,-5.0760955E-2,-1.9361255E-1,-8.711365E-2,7.601308E-2,-2.91403E-1,-5.920883E-2,7.4552245E-2,3.7577415E-1,-4.6610036E-1,-1.7113586E-1,-1.1961135E-1,1.6409226E-2,3.0785263E-1,-1.4541544E-1,6.069792E-1,1.1242734E-1,2.7048796E-2,5.085935E-1,-2.6077262E-1,1.2794517E-1,5.1144546E-1,1.9758874E-1,-2.8670715E-2,1.655017E-1,2.1109527E-1,7.414307E-1,-1.7508697E-2,1.6689062E-1,6.2672573E-1,1.7227405E-1,2.3819031E-1,8.7126553E-1],"categories":[],"categories_nodes":[],"categories_segments":[],"categories_sizes":[],"default_left":[0,0,0,0,0,0,0,0,0,0,0,0,0,0,0,0,0,0,0,0,0,0,0,0,0,0,0,0,0,0,0,0,0,0,0,0,0,0,0,0,0,0,0,0,0,0,0,0,0,0,0,0,0,0,0,0,0,0,0,0,0,0,0,0,0,0,0,0,0,0,0,0,0,0,0,0,0,0,0,0,0,0,0,0,0,0,0,0,0,0,0,0,0,0,0,0,0,0,0,0,0,0,0,0,0,0,0,0,0,0,0,0,0,0,0,0,0,0,0,0,0,0,0,0,0,0,0,0,0,0,0,0,0,0,0,0,0,0,0,0,0,0,0,0,0,0,0,0,0,0,0],"id":13,"left_children":[1,3,5,7,9,11,13,15,17,19,21,23,-1,25,27,29,31,33,35,37,39,41,43,45,47,49,51,53,55,57,59,61,63,-1,-1,65,-1,67,-1,69,71,73,75,77,79,81,83,85,87,89,91,-1,93,95,-1,-1,-1,97,99,-1,-1,101,103,105,107,109,111,113,115,117,119,-1,121,123,125,127,129,131,133,135,137,139,141,-1,-1,143,-1,145,147,-1,-1,149,-1,-1,-1,-1,-1,-1,-1,-1,-1,-1,-1,-1,-1,-1,-1,-1,-1,-1,-1,-1,-1,-1,-1,-1,-1,-1,-1,-1,-1,-1,-1,-1,-1,-1,-1,-1,-1,-1,-1,-1,-1,-1,-1,-1,-1,-1,-1,-1,-1,-1,-1,-1,-1,-1,-1,-1,-1,-1,-1],"loss_changes":[2.968644E4,3.905898E3,3.087709E3,1.2481074E3,5.2487146E2,3.1391895E2,1.2015645E3,1.8500586E2,3.106433E2,1.9093689E2,3.061928E2,1.7595508E2,0E0,3.1745117E2,9.914971E2,1.2326221E2,1.3695459E2,9.6139145E0,4.5480322E2,1.0728937E2,5.37033E1,9.890178E1,2.1389188E2,2.2225244E2,3.09552E2,1.2219092E2,8.7895996E1,9.810425E1,3.2896875E2,8.902344E1,1.2572021E0,1.3894702E2,1.5819666E2,0E0,0E0,2.951875E2,0E0,2.2157745E1,0E0,9.075876E0,2.0076653E1,1.206429E2,5.0212204E1,2.60242E2,2.5812555E2,1.3036108E2,5.533716E1,1.1554541E2,7.553497E1,2.02911E0,4.7941772E1,0E0,7.2402344E0,4.2023193E1,0E0,0E0,0E0,4.075807E1,