{"learner":{"attributes":{"scikit_learn":"{\"_estimator_type\": \"regressor\"}"},"feature_names":["temperature","humidity","pressure","hour","day_of_week","month","is_weekend","hour_sin","hour_cos","day_sin","day_cos","pm25_lag_1h","pm25_lag_2h","pm25_lag_3h","pm25_lag_6h","pm25_lag_12h","pm25_lag_24h","pm25_rolling_mean_6h","pm25_rolling_std_6h","pm25_rolling_mean_12h","pm25_rolling_std_12h","pm25_rolling_mean_24h","pm25_rolling_std_24h","pm10_lag_1h","pm10_lag_2h","pm10_lag_3h","pm10_lag_6h","pm10_lag_12h","pm10_lag_24h","pm10_rolling_mean_6h","pm10_rolling_std_6h","pm10_rolling_mean_12h","pm10_rolling_std_12h","pm10_rolling_mean_24h","pm10_rolling_std_24h","o3_lag_1h","o3_lag_2h","o3_lag_3h","o3_lag_6h","o3_lag_12h","o3_lag_24h","o3_rolling_mean_6h","o3_rolling_std_6h","o3_rolling_mean_12h","o3_rolling_std_12h","o3_rolling_mean_24h","o3_rolling_std_24h","no2_lag_1h","no2_lag_2h","no2_lag_3h","no2_lag_6h","no2_lag_12h","no2_lag_24h","no2_rolling_mean_6h","no2_rolling_std_6h","no2_rolling_mean_12h","no2_rolling_std_12h","no2_rolling_mean_24h","no2_rolling_std_24h","so2_lag_1h","so2_lag_2h","so2_lag_3h","so2_lag_6h","so2_lag_12h","so2_lag_24h","so2_rolling_mean_6h","so2_rolling_std_6h","so2_rolling_mean_12h","so2_rolling_std_12h","so2_rolling_mean_24h","so2_rolling_std_24h","co_lag_1h","co_lag_2h","co_lag_3h","co_lag_6h","co_lag_12h","co_lag_24h","co_rolling_mean_6h","co_rolling_std_6h","co_rolling_mean_12h","co_rolling_std_12h","co_rolling_mean_24h","co_rolling_std_24h","aqi_lag_1h","aqi_lag_2h","aqi_lag_3h","aqi_lag_6h","aqi_lag_12h","aqi_lag_24h"],"feature_types":["float","float","float","int","int","int","int","float","float","float","float","float","float","float","float","float","float","float","float","float","float","float","float","float","float","float","float","float","float","float","float","float","float","float","float","float","float","float","float","float","float","float","float","float","float","float","float","float","float","float","float","float","float","float","float","float","float","float","float","float","float","float","float","float","float","float","float","float","float","float","float","float","float","float","float","float","float","float","float","float","float","float","float","float","float","float","float","float","float"],"gradient_booster":{"model":{"gbtree_model_param":{"num_parallel_tree":"1","num_trees":"150"},"iteration_indptr":[0,1,2,3,4,5,6,7,8,9,10,11,12,13,14,15,16,17,18,19,20,21,22,23,24,25,26,27,28,29,30,31,32,33,34,35,36,37,38,39,40,41,42,43,44,45,46,47,48,49,50,51,52,53,54,55,56,57,58,59,60,61,62,63,64,65,66,67,68,69,70,71,72,73,74,75,76,77,78,79,80,81,82,83,84,85,86,87,88,89,90,91,92,93,94,95,96,97,98,99,100,101,102,103,104,105,106,107,108,109,110,111,112,113,114,115,116,117,118,119,120,121,122,123,124,125,126,127,128,129,130,131,132,133,134,135,136,137,138,139,140,141,142,143,144,145,146,147,148,149,150],"tree_info":[0,0,0,0,0,0,0,0,0,0,0,0,0,0,0,0,0,0,0,0,0,0,0,0,0,0,0,0,0,0,0,0,0,0,0,0,0,0,0,0,0,0,0,0,0,0,0,0,0,0,0,0,0,0,0,0,0,0,0,0,0,0,0,0,0,0,0,0,0,0,0,0,0,0,0,0,0,0,0,0,0,0,0,0,0,0,0,0,0,0,0,0,0,0,0,0,0,0,0,0,0,0,0,0,0,0,0,0,0,0,0,0,0,0,0,0,0,0,0,0,0,0,0,0,0,0,0,0,0,0,0,0,0,0,0,0,0,0,0,0,0,0,0,0,0,0,0,0,0,0],"trees":[{"base_weights":[5.7508234E-12,-2.5938224E-4,1.1710345E-3,-7.6343975E-4,-6.6238055E-5,1.0191724E-3,3.9567912E-4,-7.60665E-5,-5.344071E-5,3.7029944E-4,-8.723743E-5,6.968103E-4,1.568789E-3,-3.293008E-4,1.1072138E-4,4.60281E-4,1.0215584E-3,1.0436234E-3,2.5538937E-3,5.3732616E-5,-3.428037E-4,-8.896609E-6,2.9647115E-4,2.9114782E-4,5.1073977E-5,8.6156535E-5,5.732623E-6,2.2173797E-4,1.3425914E-3,9.4598933E-4,2.4088235E-4,-3.777737E-5,-2.600539E-4,-2.8036922E-5,7.506595E-5,3.19128E-6,3.8625443E-4,4.0841864E-5,5.3590015E-6,-2.2550803E-5,3.8227656E-5,1.6658698E-3,3.9024064E-5,1.014492E-4,-1.3700533E-5,2.2879145E-5,-2.2464925E-5,4.7449197E-5,-3.5983032E-6,2.1870648E-5,5.4462147E-5,1.6345357E-4,6.679908E-5],"categories":[],"categories_nodes":[],"categories_segments":[],"categories_sizes":[],"default_left":[0,0,0,0,0,0,0,0,0,0,0,0,0,0,0,0,0,0,0,0,0,0,0,0,0,0,0,0,0,0,0,0,0,0,0,0,0,0,0,0,0,0,0,0,0,0,0,0,0,0,0,0,0],"id":0,"left_children":[1,3,5,7,9,11,-1,-1,-1,-1,13,15,17,19,21,23,25,27,29,-1,31,33,35,37,-1,-1,-1,39,41,43,-1,-1,45,47,-1,-1,49,-1,-1,-1,-1,51,-1,-1,-1,-1,-1,-1,-1,-1,-1,-1,-1],"loss_changes":[2.2780917E-4,5.9725877E-5,7.292426E-5,2.4049368E-6,4.42771E-5,2.2294029E-5,0E0,0E0,0E0,0E0,2.1312308E-5,6.0588573E-6,2.2167173E-5,2.933415E-6,5.446296E-6,1.3507542E-6,1.7646234E-6,7.810973E-6,8.912088E-6,0E0,1.9975687E-6,2.7458238E-6,2.1961068E-6,1.3427089E-6,0E0,0E0,0E0,1.4245148E-6,5.8194346E-6,2.0166412E-6,0E0,0E0,1.4744628E-6,1.5841516E-6,0E0,0E0,2.174149E-6,0E0,0E0,0E0,0E0,3.6233287E-6,0E0,0E0,0E0,0E0,0E0,0E0,0E0,0E0,0E0,0E0,0E0],"parents":[2147483647,0,0,1,1,2,2,3,3,4,4,5,5,10,10,11,11,12,12,13,13,14,14,15,15,16,16,17,17,18,18,20,20,21,21,22,22,23,23,27,27,28,28,29,29,32,32,33,33,36,36,41,41],"right_children":[2,4,6,8,10,12,-1,-1,-1,-1,14,16,18,20,22,24,26,28,30,-1,32,34,36,38,-1,-1,-1,40,42,44,-1,-1,46,48,-1,-1,50,-1,-1,-1,-1,52,-1,-1,-1,-1,-1,-1,-1,-1,-1,-1,-1],"split_conditions":[1.9E-3,8E-4,7.3333335E-1,5E-4,1.6E-3,7.788881E-4,3.9567912E-4,-7.60665E-5,-5.344071E-5,3.7029944E-4,1.2E-3,7.2E1,9.659258E-1,6.1666665E0,1.5E-3,1.37E-2,2.24E-2,2.5541667E-2,2.8E-1,5.3732616E-5,7.3666666E-3,6.8E-1,9.483334E-3,2.35E1,5.1073977E-5,8.6156535E-5,5.732623E-6,9.2E-3,1.7E-3,1.0124E3,2.4088235E-4,-3.777737E-5,7.5666667E-3,7E0,7.506595E-5,3.19128E-6,8.660254E-1,4.0841864E-5,5.3590015E-6,-2.2550803E-5,3.8227656E-5,3.35E-2,3.9024064E-5,1.014492E-4,-1.3700533E-5,2.2879145E-5,-2.2464925E-5,4.7449197E-5,-3.5983032E-6,2.1870648E-5,5.4462147E-5,1.6345357E-4,6.679908E-5],"split_indices":[59,59,77,59,48,66,0,0,0,0,59,23,8,17,59,47,52,43,71,0,53,71,53,0,0,0,0,52,62,2,0,0,53,17,0,0,8,0,0,0,0,37,0,0,0,0,0,0,0,0,0,0,0],"split_type":[0,0,0,0,0,0,0,0,0,0,0,0,0,0,0,0,0,0,0,0,0,0,0,0,0,0,0,0,0,0,0,0,0,0,0,0,0,0,0,0,0,0,0,0,0,0,0,0,0,0,0,0,0],"sum_hessian":[7.48E2,6.13E2,1.35E2,1.69E2,4.44E2,1.31E2,4E0,5.4E1,1.15E2,1E0,4.43E2,8.4E1,4.7E1,1.99E2,2.44E2,5E1,3.4E1,3.2E1,1.5E1,2E0,1.97E2,1.49E2,9.5E1,2.7E1,2.3E1,3.2E1,2E0,9E0,2.3E1,4E0,1.1E1,7.5E1,1.22E2,1.47E2,2E0,2.5E1,7E1,1.3E1,1.4E1,3E0,6E0,1.6E1,7E0,3E0,1E0,4E0,1.18E2,3E0,1.44E2,5.2E1,1.8E1,1E1,6E0],"tree_param":{"num_deleted":"0","num_feature":"89","num_nodes":"53","size_leaf_vector":"1"}},{"base_weights":[2.2083116E-6,-2.3788965E-4,1.0861638E-3,-7.031264E-4,-5.9624166E-5,9.4372E-4,3.7035564E-4,-7.0091824E-5,-4.9202314E-5,3.5548746E-4,-7.977464E-5,8.766185E-4,2.8295032E-4,-3.028749E-4,1.02673635E-4,6.43291E-4,1.2887102E-3,5.0866878E-5,-3.1556812E-4,-7.3921237E-6,2.7358186E-4,4.253659E-4,9.424592E-4,8.96104E-4,2.0403562E-3,-3.479495E-5,-2.3924625E-4,-2.5497702E-5,7.106243E-5,2.945796E-6,3.5642923E-4,2.627423E-4,4.6718782E-5,7.9472884E-5,5.4268817E-6,2.0556661E-4,1.1573766E-3,-1.3152509E-5,1.7676661E-4,2.1414882E-5,-2.0682835E-5,4.4602242E-5,-3.3124259E-6,2.0154013E-5,5.0334485E-5,3.7807895E-5,2.7294855E-6,-2.1197753E-5,3.560633E-5,1.1495211E-4,3.629238E-5],"categories":[],"categories_nodes":[],"categories_segments":[],"categories_sizes":[],"default_left":[0,0,0,0,0,0,0,0,0,0,0,0,0,0,0,0,0,0,0,0,0,0,0,0,0,0,0,0,0,0,0,0,0,0,0,0,0,0,0,0,0,0,0,0,0,0,0,0,0,0,0],"id":1,"left_children":[1,3,5,7,9,11,-1,-1,-1,-1,13,15,-1,17,19,21,23,-1,25,27,29,31,33,35,37,-1,39,41,-1,-1,43,45,-1,-1,-1,47,49,-1,-1,-1,-1,-1,-1,-1,-1,-1,-1,-1,-1,-1,-1],"loss_changes":[1.9518974E-4,5.0880575E-5,6.42728E-5,2.0524094E-6,4.0734663E-5,1.9868152E-5,0E0,0E0,0E0,0E0,1.8103789E-5,1.16707815E-5,0E0,2.5837016E-6,4.6107525E-6,5.140795E-6,1.174627E-5,0E0,1.699811E-6,2.4551493E-6,1.8699047E-6,1.162116E-6,1.4923353E-6,5.535472E-6,5.9598315E-6,0E0,1.2719397E-6,1.3957185E-6,0E0,0E0,1.8652545E-6,1.2792859E-6,0E0,0E0,0E0,1.2449322E-6,3.8724247E-6,0E0,0E0,0E0,0E0,0E0,0E0,0E0,0E0,0E0,0E0,0E0,0E0,0E0,0E0],"parents":[2147483647,0,0,1,1,2,2,3,3,4,4,5,5,10,10,11,11,13,13,14,14,15,15,16,16,18,18,19,19,20,20,21,21,22,22,23,23,24,24,26,26,27,27,30,30,31,31,35,35,36,36],"right_children":[2,4,6,8,10,12,-1,-1,-1,-1,14,16,-1,18,20,22,24,-1,26,28,30,32,34,36,38,-1,40,42,-1,-1,44,46,-1,-1,-1,48,50,-1,-1,-1,-1,-1,-1,-1,-1,-1,-1,-1,-1,-1,-1],"split_conditions":[1.9E-3,8E-4,7.3333335E-1,5E-4,1.6E-3,7E-1,3.7035564E-4,-7.0091824E-5,-4.9202314E-5,3.5548746E-4,1.2E-3,7.788881E-4,2.8295032E-4,6.1666665E0,1.5E-3,7.2E1,9.659258E-1,5.0866878E-5,7.3666666E-3,6.8E-1,9.483334E-3,1.35E-2,2.24E-2,2.5541667E-2,1.59E-2,-3.479495E-5,7.5666667E-3,7E0,7.106243E-5,2.945796E-6,8.660254E-1,2.35E1,4.6718782E-5,7.9472884E-5,5.4268817E-6,9.2E-3,1.7E-3,-1.3152509E-5,1.7676661E-4,2.1414882E-5,-2.0682835E-5,4.4602242E-5,-3.3124259E-6,2.0154013E-5,5.0334485E-5,3.7807895E-5,2.7294855E-6,-2.1197753E-5,3.560633E-5,1.1495211E-4,3.629238E-5],"split_indices":[59,59,77,59,48,76,0,0,0,0,59,66,0,17,59,23,8,0,53,71,53,47,52,43,38,0,53,17,0,0,8,0,0,0,0,52,62,0,0,0,0,0,0,0,0,0,0,0,0,0,0],"split_type":[0,0,0,0,0,0,0,0,0,0,0,0,0,0,0,0,0,0,0,0,0,0,0,0,0,0,0,0,0,0,0,0,0,0,0,0,0,0,0,0,0,0,0,0,0,0,0,0,0,0,0],"sum_hessian":[7.48E2,6.13E2,1.35E2,1.69E2,4.44E2,1.31E2,4E0,5.4E1,1.15E2,1E0,4.43E2,1.29E2,2E0,1.99E2,2.44E2,8.4E1,4.5E1,2E0,1.97E2,1.49E2,9.5E1,5E1,3.4E1,3.1E1,1.4E1,7.5E1,1.22E2,1.47E2,2E0,2.5E1,7E1,2.6E1,2.4E1,3.2E1,2E0,9E0,2.2E1,1E0,1.3E1,4E0,1.18E2,3E0,1.44E2,5.2E1,1.8E1,1.3E1,1.3E1,3E0,6E0,1.5E1,7E0],"tree_param":{"num_deleted":"0","num_feature":"89","num_nodes":"51","size_leaf_vector":"1"}},{"base_weights":[4.1591743E-6,-2.4088244E-4,9.1494806E-4,-6.47578E-4,-7.647692E-5,7.3064613E-4,3.1117594E-3,-6.4586435E-5,-4.530006E-5,3.4126794E-4,-9.692389E-5,5.558479E-4,1.1183877E-3,1.4791379E-3,5.101602E-3,-2.785609E-4,6.714967E-5,4.1808558E-4,8.271796E-4,7.7840773E-4,1.9884652E-3,4.82249E-5,1.5074974E-4,4.5433114E-4,1.11658075E-4,4.8153976E-5,-2.9049473E-4,2.048374E-5,3.897463E-4,3.5842946E-5,-5.3502727E-6,6.982863E-5,5.1374454E-6,1.0532736E-3,8.634893E-6,1.758345E-4,-1.262641E-5,-3.2760574E-5,-2.2509202E-4,-3.4673616E-5,2.2223967E-4,1.4112974E-5,7.20824E-5,1.1673152E-3,-1.0729808E-5,4.402538E-5,-1.8829518E-5,4.078393E-5,-4.207324E-6,-9.451233E-6,2.5492049E-5,6.897166E-5,1.3584686E-4],"categories":[],"categories_nodes":[],"categories_segments":[],"categories_sizes":[],"default_left":[0,0,0,0,0,0,0,0,0,0,0,0,0,0,0,0,0,0,0,0,0,0,0,0,0,0,0,0,0,0,0,0,0,0,0,0,0,0,0,0,0,0,0,0,0,0,0,0,0,0,0,0,0],"id":2,"left_children":[1,3,5,7,9,11,13,-1,-1,-1,15,17,19,21,23,25,27,29,31,33,35,-1,-1,-1,-1,-1,37,39,41,-1,-1,-1,-1,43,-1,-1,-1,-1,45,47,49,-1,-1,51,-1,-1,-1,-1,-1,-1,-1,-1,-1],"loss_changes":[1.673831E-4,3.94665E-5,6.210177E-5,1.7515267E-6,3.788176E-5,9.409276E-6,3.143795E-5,0E0,0E0,0E0,1.2565277E-5,3.541616E-6,1.1763561E-5,1.705017E-6,2.7748902E-6,2.276367E-6,3.3340643E-6,1.0612594E-6,1.1288739E-6,6.152166E-6,5.741811E-6,0E0,0E0,0E0,0E0,0E0,1.4490033E-6,2.177729E-6,2.8951272E-6,0E0,0E0,0E0,0E0,3.4064633E-6,0E0,0E0,0E0,0E0,1.165477E-6,1.5292085E-6,1.415933E-6,0E0,0E0,2.099452E-6,0E0,0E0,0E0,0E0,0E0,0E0,0E0,0E0,0E0],"parents":[2147483647,0,0,1,1,2,2,3,3,4,4,5,5,6,6,10,10,11,11,12,12,13,13,14,14,15,15,16,16,17,17,18,18,19,19,20,20,26,26,27,27,28,28,33,33,38,38,39,39,40,40,43,43],"right_children":[2,4,6,8,10,12,14,-1,-1,-1,16,18,20,22,24,26,28,30,32,34,36,-1,-1,-1,-1,-1,38,40,42,-1,-1,-1,-1,44,-1,-1,-1,-1,46,48,50,-1,-1,52,-1,-1,-1,-1,-1,-1,-1,-1,-1],"split_conditions":[1.8E-3,8E-4,6.8E-1,5E-4,1.6E-3,8.1178814E-4,2.8170906E-3,-6.4586435E-5,-4.530006E-5,3.4126794E-4,1.2E-3,7.2E1,9.659258E-1,1.45E-2,5E0,6.1666665E0,9.659258E-1,1.8387042E-1,2.25E-2,2.58E1,1.4E1,4.82249E-5,1.5074974E-4,4.5433114E-4,1.11658075E-4,4.8153976E-5,6.916667E-3,1.6E-3,5.089204E-4,3.5842946E-5,-5.3502727E-6,6.982863E-5,5.1374454E-6,1.9707866E-1,8.634893E-6,1.758345E-4,-1.262641E-5,-3.2760574E-5,4.85E-3,2.0666666E1,1.0122E3,1.4112974E-5,7.20824E-5,4.2E-1,-1.0729808E-5,4.402538E-5,-1.8829518E-5,4.078393E-5,-4.207324E-6,-9.451233E-6,2.5492049E-5,6.897166E-5,1.3584686E-4],"split_indices":[59,59,71,59,48,66,66,0,0,0,59,23,8,52,3,17,8,80,52,0,14,0,0,0,0,0,53,59,66,0,0,0,0,78,0,0,0,0,57,29,2,0,0,75,0,0,0,0,0,0,0,0,0],"split_type":[0,0,0,0,0,0,0,0,0,0,0,0,0,0,0,0,0,0,0,0,0,0,0,0,0,0,0,0,0,0,0,0,0,0,0,0,0,0,0,0,0,0,0,0,0,0,0,0,0,0,0,0,0],"sum_hessian":[7.48E2,5.9E2,1.58E2,1.69E2,4.21E2,1.47E2,1.1E1,5.4E1,1.15E2,1E0,4.2E2,1.03E2,4.4E1,7E0,4E0,1.99E2,2.21E2,7E1,3.3E1,3.3E1,1.1E1,3E0,4E0,3E0,1E0,2E0,1.97E2,1.94E2,2.7E1,6.6E1,4E0,3.1E1,2E0,2.3E1,1E1,1E1,1E0,6.8E1,1.29E2,1.53E2,4.1E1,2E1,7E0,2.1E1,2E0,1E0,1.28E2,4E0,1.49E2,9E0,3.2E1,1.5E1,6E0],"tree_param":{"num_deleted":"0","num_feature":"89","num_nodes":"53","size_leaf_vector":"1"}},{"base_weights":[6.025558E-6,-1.9997006E-4,9.359909E-4,-5.964181E-4,-4.8068625E-5,7.374078E-4,2.9265657E-3,-5.2908377E-5,-4.3193158E-4,3.2761725E-4,-6.6623805E-5,5.2013824E-4,1.1121061E-3,1.3856788E-3,4.8066718E-3,3.2217195E-5,-3.6534304E-5,-2.5607314E-4,8.8300636E-5,2.7408914E-5,7.679769E-4,7.931716E-4,1.7616632E-3,4.533141E-5,1.4110176E-4,4.270713E-4,1.0719175E-4,4.5585766E-5,-2.672934E-4,-6.3943544E-6,2.3534177E-4,1.8022985E-5,6.680497E-5,1.7072339E-4,1.0293155E-3,1.5363889E-4,-1.2121354E-5,-2.9564271E-5,-2.0193524E-4,-2.2552058E-5,6.342804E-5,7.4839074E-5,2.1049302E-4,-2.0443982E-5,3.119352E-5,1.1337058E-3,-3.5617252E-6,2.1249421E-5,-1.759067E-5,1.8013003E-5,-4.17462E-6,-3.0903797E-7,2.2723334E-5,6.792694E-5,1.2653164E-4],"categories":[],"categories_nodes":[],"categories_segments":[],"categories_sizes":[],"default_left":[0,0,0,0,0,0,0,0,0,0,0,0,0,0,0,0,0,0,0,0,0,0,0,0,0,0,0,0,0,0,0,0,0,0,0,0,0,0,0,0,0,0,0,0,0,0,0,0,0,0,0,0,0,0,0],"id":3,"left_children":[1,3,5,7,9,11,13,-1,15,-1,17,19,21,23,25,-1,-1,27,29,-1,31,33,35,-1,-1,-1,-1,-1,37,39,41,-1,-1,43,45,-1,-1,-1,47,49,-1,-1,51,-1,-1,53,-1,-1,-1,-1,-1,-1,-1,-1,-1],"loss_changes":[1.436722E-4,3.694705E-5,5.1601986E-5,1.5301412E-6,3.4484172E-5,9.5978685E-6,2.8103866E-5,0E0,1.2373266E-6,0E0,1.3054158E-5,3.3007218E-6,7.925184E-6,1.4779489E-6,2.063869E-6,0E0,0E0,2.0056623E-6,3.412899E-6,0E0,1.0132826E-6,4.5278666E-6,4.544978E-6,0E0,0E0,0E0,0E0,0E0,1.2487126E-6,1.9549748E-6,1.4732723E-6,0E0,0E0,1.0340159E-6,2.628729E-6,0E0,0E0,0E0,1.0905856E-6,1.098063E-6,0E0,0E0,1.483063E-6,0E0,0E0,1.3343815E-6,0E0,0E0,0E0,0E0,0E0,0E0,0E0,0E0,0E0],"parents":[2147483647,0,0,1,1,2,2,3,3,4,4,5,5,6,6,8,8,10,10,11,11,12,12,13,13,14,14,17,17,18,18,20,20,21,21,22,22,28,28,29,29,30,30,33,33,34,34,38,38,39,39,42,42,45,45],"right_children":[2,4,6,8,10,12,14,-1,16,-1,18,20,22,24,26,-1,-1,28,30,-1,32,34,36,-1,-1,-1,-1,-1,38,40,42,-1,-1,44,46,-1,-1,-1,48,50,-1,-1,52,-1,-1,54,-1,-1,-1,-1,-1,-1,-1,-1,-1],"split_conditions":[1.9E-3,8E-4,6.8E-1,7E-4,1.6E-3,7.788881E-4,2.8170906E-3,-5.2908377E-5,1.566699E-2,3.2761725E-4,1.2E-3,7.2E1,9.659258E-1,1.45E-2,5E0,3.2217195E-5,-3.6534304E-5,6.1666665E0,1.5E-3,2.7408914E-5,1.41E-2,2.5541667E-2,1.4E1,4.533141E-5,1.4110176E-4,4.270713E-4,1.0719175E-4,4.5585766E-5,7.3666666E-3,6.8E-1,3E-4,1.8022985E-5,6.680497E-5,9.2E-3,1.9707866E-1,1.5363889E-4,-1.2121354E-5,-2.9564271E-5,7.5666667E-3,1E1,6.342804E-5,7.4839074E-5,9.483334E-3,-2.0443982E-5,3.119352E-5,4.2E-1,-3.5617252E-6,2.1249421E-5,-1.759067E-5,1.8013003E-5,-4.17462E-6,-3.0903797E-7,2.2723334E-5,6.792694E-5,1.2653164E-4],"split_indices":[59,59,71,59,48,66,66,0,80,0,59,23,8,52,3,0,0,17,59,0,35,43,14,0,0,0,0,0,53,71,63,0,0,52,78,0,0,0,53,11,0,0,53,0,0,75,0,0,0,0,0,0,0,0,0],"split_type":[0,0,0,0,0,0,0,0,0,0,0,0,0,0,0,0,0,0,0,0,0,0,0,0,0,0,0,0,0,0,0,0,0,0,0,0,0,0,0,0,0,0,0,0,0,0,0,0,0,0,0,0,0,0,0],"sum_hessian":[7.48E2,6.13E2,1.35E2,1.69E2,4.44E2,1.24E2,1.1E1,1.19E2,5E1,1E0,4.43E2,8E1,4.4E1,7E0,4E0,1E0,4.9E1,1.99E2,2.44E2,4.8E1,3.2E1,3.1E1,1.3E1,3E0,4E0,3E0,1E0,2E0,1.97E2,1.49E2,9.5E1,4E0,2.8E1,9E0,2.2E1,1.2E1,1E0,7.5E1,1.22E2,1.47E2,2E0,2E0,9.3E1,3E0,6E0,2E1,2E0,4E0,1.18E2,1.5E1,1.32E2,2.4E1,6.9E1,1.4E1,6E0],"tree_param":{"num_deleted":"0","num_feature":"89","num_nodes":"55","size_leaf_vector":"1"}},{"base_weights":[7.734024E-6,-2.02821E-4,7.9031446E-4,-5.490413E-4,-6.2867744E-5,6.2587846E-4,2.7524985E-3,-5.5357756E-5,-3.8123148E-5,3.1451255E-4,-8.169359E-5,4.7397293E-4,9.630406E-4,1.2981286E-3,4.5289905E-3,-2.3548887E-4,5.7228703E-5,2.8568558E-5,5.632609E-5,6.6897745E-4,1.7159663E-3,4.261152E-5,1.3207125E-4,4.01447E-4,1.0290408E-4,4.3154527E-5,-2.4604076E-4,1.4977481E-5,3.494344E-4,9.052741E-4,7.408395E-6,1.5187278E-4,-1.1636498E-5,-2.1862483E-5,-2.6895967E-5,-3.1410353E-5,1.847096E-4,1.2641703E-5,6.4657164E-5,1.0057568E-3,-1.0668529E-5,-9.762537E-6,3.6440542E-5,1.8400941E-6,-1.5395552E-5,6.32459E-5,1.07721635E-5,5.6764333E-5,1.14833354E-4],"categories":[],"categories_nodes":[],"categories_segments":[],"categories_sizes":[],"default_left":[0,0,0,0,0,0,0,0,0,0,0,0,0,0,0,0,0,0,0,0,0,0,0,0,0,0,0,0,0,0,0,0,0,0,0,0,0,0,0,0,0,0,0,0,0,0,0,0,0],"id":4,"left_children":[1,3,5,7,9,11,13,-1,-1,-1,15,17,19,21,23,25,27,-1,-1,29,31,-1,-1,-1,-1,-1,33,35,37,39,-1,-1,-1,-1,41,43,45,-1,-1,47,-1,-1,-1,-1,-1,-1,-1,-1,-1],"loss_changes":[1.2357769E-4,2.8602188E-5,4.9579197E-5,1.4319157E-6,3.2053715E-5,7.123632E-6,2.51249E-5,0E0,0E0,0E0,9.008391E-6,2.5452573E-6,8.815405E-6,1.2809342E-6,1.4751786E-6,1.7680959E-6,2.7355889E-6,0E0,0E0,4.546794E-6,4.3513865E-6,0E0,0E0,0E0,0E0,0E0,1.1746233E-6,1.5411354E-6,2.3311475E-6,2.6388698E-6,0E0,0E0,0E0,0E0,1.1111424E-6,1.3537912E-6,1.1673269E-6,0E0,0E0,1.7813563E-6,0E0,0E0,0E0,0E0,0E0,0E0,0E0,0E0,0E0],"parents":[2147483647,0,0,1,1,2,2,3,3,4,4,5,5,6,6,10,10,11,11,12,12,13,13,14,14,15,15,16,16,19,19,20,20,26,26,27,27,28,28,29,29,34,34,35,35,36,36,39,39],"right_children":[2,4,6,8,10,12,14,-1,-1,-1,16,18,20,22,24,26,28,-1,-1,30,32,-1,-1,-1,-1,-1,34,36,38,40,-1,-1,-1,-1,42,44,46,-1,-1,48,-1,-1,-1,-1,-1,-1,-1,-1,-1],"split_conditions":[1.8E-3,8E-4,6.8E-1,5E-4,1.6E-3,8.1178814E-4,2.8170906E-3,-5.5357756E-5,-3.8123148E-5,3.1451255E-4,1.2E-3,7.2E1,9.659258E-1,1.45E-2,5E0,6.1666665E0,9.659258E-1,2.8568558E-5,5.632609E-5,2.58E1,1.4E1,4.261152E-5,1.3207125E-4,4.01447E-4,1.0290408E-4,4.3154527E-5,9.659258E-1,1.6E-3,5.089204E-4,1.9707866E-1,7.408395E-6,1.5187278E-4,-1.1636498E-5,-2.1862483E-5,3.5590262E-4,3.71375E-2,5.3E1,1.2641703E-5,6.4657164E-5,1.2161414E-3,-1.0668529E-5,-9.762537E-6,3.6440542E-5,1.8400941E-6,-1.5395552E-5,6.32459E-5,1.07721635E-5,5.6764333E-5,1.14833354E-4],"split_indices":[59,59,71,59,48,66,66,0,0,0,59,23,8,52,3,17,8,0,0,0,14,0,0,0,0,0,8,59,66,78,0,0,0,0,66,45,1,0,0,66,0,0,0,0,0,0,0,0,0],"split_type":[0,0,0,0,0,0,0,0,0,0,0,0,0,0,0,0,0,0,0,0,0,0,0,0,0,0,0,0,0,0,0,0,0,0,0,0,0,0,0,0,0,0,0,0,0,0,0,0,0],"sum_hessian":[7.48E2,5.9E2,1.58E2,1.69E2,4.21E2,1.47E2,1.1E1,5.4E1,1.15E2,1E0,4.2E2,1.03E2,4.4E1,7E0,4E0,1.99E2,2.21E2,7E1,3.3E1,3.3E1,1.1E1,3E0,4E0,3E0,1E0,2E0,1.97E2,1.94E2,2.7E1,2.3E1,1E1,1E1,1E0,1.75E2,2.2E1,1.53E2,4.1E1,2E1,7E0,2.1E1,2E0,1.9E1,3E0,1.15E2,3.8E1,2E0,3.9E1,1.4E1,7E0],"tree_param":{"num_deleted":"0","num_feature":"89","num_nodes":"49","size_leaf_vector":"1"}},{"base_weights":[9.09029E-6,-1.6787276E-4,8.079596E-4,-5.056679E-4,-3.845018E-5,6.930406E-4,2.9441828E-4,-5.6757584E-5,-3.683883E-5,3.0193204E-4,-5.553746E-5,6.395646E-4,2.2234571E-4,-2.1640993E-4,7.601369E-5,4.6435167E-4,9.4942393E-4,4.085295E-5,-2.263332E-4,-5.8999835E-6,2.03212E-4,2.361899E-5,5.4061104E-5,6.5593986E-4,1.5122284E-3,-2.8322049E-5,-1.4369872E-5,-2.0320125E-5,5.6596826E-5,6.8836205E-5,1.800744E-4,8.9381746E-4,1.4799396E-5,-1.1171037E-5,1.6401929E-3,3.828789E-5,-2.715461E-6,2.0549352E-5,6.150555E-7,1.1816435E-6,8.316037E-5,4.4243865E-5,1.4202371E-4],"categories":[],"categories_nodes":[],"categories_segments":[],"categories_sizes":[],"default_left":[0,0,0,0,0,0,0,0,0,0,0,0,0,0,0,0,0,0,0,0,0,0,0,0,0,0,0,0,0,0,0,0,0,0,0,0,0,0,0,0,0,0,0],"id":5,"left_children":[1,3,5,7,9,11,-1,-1,-1,-1,13,15,-1,17,19,21,23,-1,25,27,29,-1,-1,31,33,-1,-1,35,-1,-1,37,39,-1,-1,41,-1,-1,-1,-1,-1,-1,-1,-1],"loss_changes":[1.06022024E-4,2.6823605E-5,4.2340085E-5,1.2387063E-6,2.920001E-5,1.294916E-5,0E0,0E0,0E0,0E0,9.412804E-6,6.6170105E-6,0E0,1.5585647E-6,2.553923E-6,2.8394788E-6,6.6060784E-6,0E0,1.117377E-6,1.5573892E-6,1.304923E-6,0E0,0E0,3.419541E-6,3.3997421E-6,0E0,0E0,1.0221773E-6,0E0,0E0,1.2423941E-6,2.6740308E-6,0E0,0E0,1.0744516E-6,0E0,0E0,0E0,0E0,0E0,0E0,0E0,0E0],"parents":[2147483647,0,0,1,1,2,2,3,3,4,4,5,5,10,10,11,11,13,13,14,14,15,15,16,16,18,18,19,19,20,20,23,23,24,24,27,27,30,30,31,31,34,34],"right_children":[2,4,6,8,10,12,-1,-1,-1,-1,14,16,-1,18,20,22,24,-1,26,28,30,-1,-1,32,34,-1,-1,36,-1,-1,38,40,-1,-1,42,-1,-1,-1,-1,-1,-1,-1,-1],"split_conditions":[1.9E-3,8E-4,7.3333335E-1,4.1666668E-4,1.6E-3,7E-1,2.9441828E-4,-5.6757584E-5,-3.683883E-5,3.0193204E-4,1.2E-3,7.788881E-4,2.2234571E-4,6.1666665E0,1.5E-3,7E1,9.659258E-1,4.085295E-5,9E-4,6.8E-1,3E-4,2.361899E-5,5.4061104E-5,1.7E-3,1.59E-2,-2.8322049E-5,-1.4369872E-5,7E0,5.6596826E-5,6.8836205E-5,2.47E1,8.041667E-3,1.4799396E-5,-1.1171037E-5,2.6E-1,3.828789E-5,-2.715461E-6,2.0549352E-5,6.150555E-7,1.1816435E-6,8.316037E-5,4.4243865E-5,1.4202371E-4],"split_indices":[59,59,77,65,48,76,0,0,0,0,59,66,0,17,59,23,8,0,59,71,63,0,0,62,38,0,0,17,0,0,0,57,0,0,71,0,0,0,0,0,0,0,0],"split_type":[0,0,0,0,0,0,0,0,0,0,0,0,0,0,0,0,0,0,0,0,0,0,0,0,0,0,0,0,0,0,0,0,0,0,0,0,0,0,0,0,0,0,0],"sum_hessian":[7.48E2,6.13E2,1.35E2,1.69E2,4.44E2,1.31E2,4E0,2.8E1,1.41E2,1E0,4.43E2,1.29E2,2E0,1.99E2,2.44E2,8.4E1,4.5E1,2E0,1.97E2,1.49E2,9.5E1,4.8E1,3.6E1,3.1E1,1.4E1,5.1E1,1.46E2,1.47E2,2E0,2E0,9.3E1,2E1,1.1E1,1E0,1.3E1,3E0,1.44E2,6.4E1,2.9E1,3E0,1.7E1,2E0,1.1E1],"tree_param":{"num_deleted":"0","num_feature":"89","num_nodes":"43","size_leaf_vector":"1"}},{"base_weights":[1.004177E-5,-1.7073333E-4,6.8191625E-4,-4.6576504E-4,-5.147711E-5,5.342335E-4,2.4465104E-3,-4.1785017E-5,-3.235791E-4,2.8985477E-4,-6.881166E-5,4.0297495E-4,8.257147E-4,9.126018E-5,4.0464215E-3,3.3926983E-5,-2.7761133E-5,-1.9910635E-4,4.88809E-5,2.4041135E-4,5.228894E-4,5.7011604E-4,1.4811015E-3,3.6113654E-4,8.701118E-5,1.967006E-4,-1.7329821E-5,1.0560015E-5,3.1401272E-4,3.4863013E-5,2.6087753E-5,4.4498003E-5,-5.9625877E-6,7.78421E-4,5.1042944E-6,1.3750113E-4,1.5615355E-5,5.6319423E-5,-1.3942209E-5,-2.9093902E-5,1.5570628E-4,1.1340967E-5,5.815352E-5,1.9881283E-5,-1.3130203E-5,8.8981393E-4,-7.976778E-8,1.1502005E-5,-5.7661214E-6,5.877682E-5,8.671066E-6,5.6200264E-5,1.423608E-4],"categories":[],"categories_nodes":[],"categories_segments":[],"categories_sizes":[],"default_left":[0,0,0,0,0,0,0,0,0,0,0,0,0,0,0,0,0,0,0,0,0,0,0,0,0,0,0,0,0,0,0,0,0,0,0,0,0,0,0,0,0,0,0,0,0,0,0,0,0,0,0,0,0],"id":6,"left_children":[1,3,5,7,9,11,13,-1,15,-1,17,19,21,-1,23,-1,-1,25,27,29,31,33,35,-1,-1,37,-1,39,41,-1,43,-1,-1,45,-1,-1,-1,-1,-1,47,49,-1,-1,-1,-1,51,-1,-1,-1,-1,-1,-1,-1],"loss_changes":[9.10886E-5,2.0769987E-5,4.0128412E-5,1.1978409E-6,2.7130134E-5,5.32965E-6,2.0453197E-5,0E0,1.0407671E-6,0E0,6.465646E-6,1.9016388E-6,6.693819E-6,0E0,2.0105435E-6,0E0,0E0,1.4292364E-6,2.252223E-6,1.9148245E-6,1.2164674E-6,3.5362254E-6,3.331863E-6,0E0,0E0,1.8164394E-6,0E0,1.1268756E-6,1.888405E-6,0E0,1.0139014E-6,0E0,0E0,2.0846064E-6,0E0,0E0,0E0,0E0,0E0,1.1546382E-6,1.071052E-6,0E0,0E0,0E0,0E0,2.2495296E-6,0E0,0E0,0E0,0E0,0E0,0E0,0E0],"parents":[2147483647,0,0,1,1,2,2,3,3,4,4,5,5,6,6,8,8,10,10,11,11,12,12,14,14,17,17,18,18,19,19,20,20,21,21,22,22,25,25,27,27,28,28,30,30,33,33,39,39,40,40,45,45],"right_children":[2,4,6,8,10,12,14,-1,16,-1,18,20,22,-1,24,-1,-1,26,28,30,32,34,36,-1,-1,38,-1,40,42,-1,44,-1,-1,46,-1,-1,-1,-1,-1,48,50,-1,-1,-1,-1,52,-1,-1,-1,-1,-1,-1,-1],"split_conditions":[1.8E-3,8E-4,6.8E-1,7E-4,1.6E-3,8.1178814E-4,2.8170906E-3,-4.1785017E-5,1.566699E-2,2.8985477E-4,1.2E-3,1.37E-2,9.659258E-1,9.126018E-5,5E0,3.3926983E-5,-2.7761133E-5,1.22E-2,9.659258E-1,2.35E1,2.1381138E-2,2.58E1,1.8E1,3.6113654E-4,8.701118E-5,3.2E1,-1.7329821E-5,1.6E-3,5.089204E-4,3.4863013E-5,3.7529382E-3,4.4498003E-5,-5.9625877E-6,1.8584043E-1,5.1042944E-6,1.3750113E-4,1.5615355E-5,5.6319423E-5,-1.3942209E-5,3.25E1,5.3E1,1.1340967E-5,5.815352E-5,1.9881283E-5,-1.3130203E-5,1.3362884E-3,-7.976778E-8,1.1502005E-5,-5.7661214E-6,5.877682E-5,8.671066E-6,5.6200264E-5,1.423608E-4],"split_indices":[59,59,71,59,48,66,66,0,80,0,59,47,8,0,3,0,0,35,8,0,46,0,13,0,0,26,0,59,66,0,56,0,0,78,0,0,0,0,0,29,1,0,0,0,0,66,0,0,0,0,0,0,0],"split_type":[0,0,0,0,0,0,0,0,0,0,0,0,0,0,0,0,0,0,0,0,0,0,0,0,0,0,0,0,0,0,0,0,0,0,0,0,0,0,0,0,0,0,0,0,0,0,0,0,0,0,0,0,0],"sum_hessian":[7.48E2,5.9E2,1.58E2,1.69E2,4.21E2,1.47E2,1.1E1,1.19E2,5E1,1E0,4.2E2,1.03E2,4.4E1,7E0,4E0,1E0,4.9E1,1.99E2,2.21E2,4.5E1,5.8E1,3.3E1,1.1E1,3E0,1E0,8E0,1.91E2,1.94E2,2.7E1,2.3E1,2.2E1,5.5E1,3E0,2.3E1,1E1,9E0,2E0,3E0,5E0,1.53E2,4.1E1,2E1,7E0,1E1,1.2E1,2E1,3E0,3E1,1.23E2,2E0,3.9E1,1.8E1,2E0],"tree_param":{"num_deleted":"0","num_feature":"89","num_nodes":"53","size_leaf_vector":"1"}},{"base_weights":[1.110522E-5,-1.5636068E-4,6.3350296E-4,-4.2871336E-4,-4.627461E-5,4.944465E-4,2.2957402E-3,-4.5048033E-5,-2.9571074E-5,2.782606E-4,-6.2908315E-5,3.7150763E-4,7.6758425E-4,1.0608997E-3,3.812337E-3,-1.830526E-4,4.5613153E-5,2.030612E-5,5.2016E-4,5.304945E-4,1.3753731E-3,3.255324E-5,1.09752575E-4,3.3946833E-4,8.353074E-5,3.7634403E-5,-1.5362348E-5,8.0724396E-7,2.9137367E-4,4.6993428E-5,1.0853231E-5,7.244174E-4,4.7330695E-6,1.2209598E-4,-1.1348812E-5,7.1756804E-6,5.949032E-4,8.08182E-4,-1.0506339E-5,-9.355622E-6,6.1286846E-5,4.5968543E-5,9.812909E-5],"categories":[],"categories_nodes":[],"categories_segments":[],"categories_sizes":[],"default_left":[0,0,0,0,0,0,0,0,0,0,0,0,0,0,0,0,0,0,0,0,0,0,0,0,0,0,0,0,0,0,0,0,0,0,0,0,0,0,0,0,0,0,0],"id":7,"left_children":[1,3,5,7,9,11,13,-1,-1,-1,15,17,19,21,23,25,27,-1,29,31,33,-1,-1,-1,-1,-1,-1,-1,35,-1,-1,37,-1,-1,-1,-1,39,41,-1,-1,-1,-1,-1],"loss_changes":[7.816762E-5,1.7699665E-5,3.5616904E-5,1.1414704E-6,2.4958994E-5,4.6845635E-6,1.8428553E-5,0E0,0E0,0E0,5.4974466E-6,1.6873018E-6,5.754893E-6,1.0689018E-6,1.5350743E-6,1.2635651E-6,1.9351319E-6,0E0,1.0840204E-6,3.0648052E-6,2.962579E-6,0E0,0E0,0E0,0E0,0E0,0E0,0E0,1.6606627E-6,0E0,0E0,1.82649E-6,0E0,0E0,0E0,0E0,1.4300058E-6,1.4453535E-6,0E0,0E0,0E0,0E0,0E0],"parents":[2147483647,0,0,1,1,2,2,3,3,4,4,5,5,6,6,10,10,11,11,12,12,13,13,14,14,15,15,16,16,18,18,19,19,20,20,28,28,31,31,36,36,37,37],"right_children":[2,4,6,8,10,12,14,-1,-1,-1,16,18,20,22,24,26,28,-1,30,32,34,-1,-1,-1,-1,-1,-1,-1,36,-1,-1,38,-1,-1,-1,-1,40,42,-1,-1,-1,-1,-1],"split_conditions":[1.8E-3,8E-4,6.8E-1,2E0,1.6E-3,8.1178814E-4,2.8170906E-3,-4.5048033E-5,-2.9571074E-5,2.782606E-4,1.2E-3,1.019E3,9.659258E-1,1.45E-2,5E0,6.1666665E0,9.659258E-1,2.030612E-5,9.892758E-2,2.58E1,1.4E1,3.255324E-5,1.09752575E-4,3.3946833E-4,8.353074E-5,3.7634403E-5,-1.5362348E-5,8.0724396E-7,4.163332E-4,4.6993428E-5,1.0853231E-5,1.9707866E-1,4.7330695E-6,1.2209598E-4,-1.1348812E-5,7.1756804E-6,2.24E-2,4.2E-1,-1.0506339E-5,-9.355622E-6,6.1286846E-5,4.5968543E-5,9.812909E-5],"split_indices":[59,59,71,18,48,66,66,0,0,0,59,2,8,52,3,17,8,0,78,0,14,0,0,0,0,0,0,0,68,0,0,78,0,0,0,0,38,75,0,0,0,0,0],"split_type":[0,0,0,0,0,0,0,0,0,0,0,0,0,0,0,0,0,0,0,0,0,0,0,0,0,0,0,0,0,0,0,0,0,0,0,0,0,0,0,0,0,0,0],"sum_hessian":[7.48E2,5.9E2,1.58E2,1.69E2,4.21E2,1.47E2,1.1E1,4.9E1,1.2E2,1E0,4.2E2,1.03E2,4.4E1,7E0,4E0,1.99E2,2.21E2,5.9E1,4.4E1,3.3E1,1.1E1,3E0,4E0,3E0,1E0,2E0,1.97E2,1.94E2,2.7E1,3.7E1,7E0,2.3E1,1E1,1E1,1E0,1.7E1,1E1,2.1E1,2E0,2E0,8E0,1.5E1,6E0],"tree_param":{"num_deleted":"0","num_feature":"89","num_nodes":"43","size_leaf_vector":"1"}},{"base_weights":[1.1790072E-5,-1.2908057E-4,6.476929E-4,-3.101542E-4,2.8719236E-5,5.505682E-4,2.4657964E-4,-3.619703E-5,-2.1180353E-4,2.1841708E-3,8.856624E-6,5.052565E-4,1.8644413E-4,-2.0605758E-5,-2.1280935E-6,-5.0296726E-6,2.6713018E-4,-8.714414E-5,1.3932632E-4,3.61139E-4,7.605768E-4,-2.7973223E-5,-4.312441E-5,6.172711E-5,1.2446418E-4,1.8055156E-5,5.481901E-4,9.6277514E-4,1.8371169E-5,5.331203E-5,-6.516529E-5,4.5754005E-6,2.607264E-4,5.297921E-5,1.9132001E-5,1.8979834E-5,1.2249625E-3,4.7804453E-5,-6.5392323E-6,3.7613616E-5,1.0316676E-5,1.301345E-4,6.079338E-5],"categories":[],"categories_nodes":[],"categories_segments":[],"categories_sizes":[],"default_left":[0,0,0,0,0,0,0,0,0,0,0,0,0,0,0,0,0,0,0,0,0,0,0,0,0,0,0,0,0,0,0,0,0,0,0,0,0,0,0,0,0,0,0],"id":8,"left_children":[1,3,5,7,9,11,-1,-1,13,15,17,19,-1,-1,-1,-1,-1,21,23,25,27,-1,29,-1,31,-1,33,35,-1,-1,37,-1,39,-1,-1,-1,41,-1,-1,-1,-1,-1,-1],"loss_changes":[6.717905E-5,1.755296E-5,3.046091E-5,3.907069E-6,1.4066098E-5,9.468804E-6,0E0,0E0,1.4426168E-6,7.99564E-6,4.1078783E-6,4.5088236E-6,0E0,0E0,0E0,0E0,0E0,2.1690257E-6,1.2101168E-6,2.0298385E-6,4.71722E-6,0E0,2.5925096E-6,0E0,1.2409109E-6,0E0,1.0752365E-6,5.9867707E-6,0E0,0E0,1.795408E-6,0E0,1.1812767E-6,0E0,0E0,0E0,3.2474782E-6,0E0,0E0,0E0,0E0,0E0,0E0],"parents":[2147483647,0,0,1,1,2,2,3,3,4,4,5,5,8,8,9,9,10,10,11,11,17,17,18,18,19,19,20,20,22,22,24,24,26,26,27,27,30,30,32,32,36,36],"right_children":[2,4,6,8,10,12,-1,-1,14,16,18,20,-1,-1,-1,-1,-1,22,24,26,28,-1,30,-1,32,-1,34,36,-1,-1,38,-1,40,-1,-1,-1,42,-1,-1,-1,-1,-1,-1],"split_conditions":[1.9E-3,1.05E-3,7.3333335E-1,7E-4,1.6E-3,7E-1,2.4657964E-4,-3.619703E-5,3.32666E-4,2.98E1,1.4E-3,7.788881E-4,1.8644413E-4,-2.0605758E-5,-2.1280935E-6,-5.0296726E-6,2.6713018E-4,9E-4,3E-4,7.2E1,3.5E-3,-2.7973223E-5,9E-4,6.172711E-5,4.7E-1,1.8055156E-5,3.9E1,2.5E-1,1.8371169E-5,5.331203E-5,7E0,4.5754005E-6,4.4E-1,5.297921E-5,1.9132001E-5,1.8979834E-5,4.9E1,4.7804453E-5,-6.5392323E-6,3.7613616E-5,1.0316676E-5,1.301345E-4,6.079338E-5],"split_indices":[59,65,77,59,48,76,0,0,66,0,59,66,0,0,0,0,0,59,63,23,60,0,60,0,72,0,16,71,0,0,17,0,74,0,0,0,28,0,0,0,0,0,0],"split_type":[0,0,0,0,0,0,0,0,0,0,0,0,0,0,0,0,0,0,0,0,0,0,0,0,0,0,0,0,0,0,0,0,0,0,0,0,0,0,0,0,0,0,0],"sum_hessian":[7.48E2,6.13E2,1.35E2,2.85E2,3.28E2,1.31E2,4E0,1.15E2,1.7E2,2E0,3.26E2,1.29E2,2E0,1.36E2,3.4E1,1E0,1E0,1.88E2,1.38E2,8.4E1,4.5E1,2.6E1,1.62E2,2E0,1.36E2,5E1,3.4E1,3.2E1,1.3E1,4E0,1.58E2,9.2E1,4.4E1,2.4E1,1E1,9E0,2.3E1,3E0,1.55E2,1.6E1,2.8E1,1.1E1,1.2E1],"tree_param":{"num_deleted":"0","num_feature":"89","num_nodes":"43","size_leaf_vector":"1"}},{"base_weights":[1.2362857E-5,-1.3160544E-4,5.4741255E-4,2.0968039E-3,-1.4273214E-4,4.223284E-4,2.0444994E-3,-4.8284837E-6,2.5644497E-4,-3.4530152E-4,-2.1899707E-5,3.177591E-4,6.5461453E-4,7.5004275E-5,3.4067133E-3,-3.8371618E-5,-2.3896793E-5,-1.0757298E-4,5.5538218E-5,1.8646556E-4,3.381979E-5,1.6599943E-4,8.699246E-4,3.0550815E-4,7.032633E-5,-1.2010111E-5,3.1644326E-5,-7.901706E-5,1.20356395E-4,2.8015602E-5,-5.381712E-7,-9.6300955E-6,4.925004E-5,1.4149622E-3,5.8263825E-4,1.7821854E-5,-1.1668483E-5,6.531365E-5,3.2246826E-4,1.3377842E-4,2.0580801E-5,2.2576893E-5,7.8818535E-5,6.364431E-5,4.0514046E-6,3.850312E-5,-9.230412E-7],"categories":[],"categories_nodes":[],"categories_segments":[],"categories_sizes":[],"default_left":[0,0,0,0,0,0,0,0,0,0,0,0,0,0,0,0,0,0,0,0,0,0,0,0,0,0,0,0,0,0,0,0,0,0,0,0,0,0,0,0,0,0,0,0,0,0,0],"id":9,"left_children":[1,3,5,7,9,11,13,-1,-1,15,17,19,21,-1,23,-1,-1,25,27,29,-1,31,33,-1,-1,-1,-1,35,37,-1,-1,-1,-1,39,41,-1,-1,43,45,-1,-1,-1,-1,-1,-1,-1,-1],"loss_changes":[5.776766E-5,1.4953025E-5,2.8911192E-5,7.3687797E-6,1.4409364E-5,3.3869092E-6,1.490079E-5,0E0,0E0,1.2337678E-6,2.4606877E-6,1.3547369E-6,4.589763E-6,0E0,1.8516039E-6,0E0,0E0,3.827503E-6,1.7102277E-6,1.5206601E-6,0E0,2.005536E-6,4.0296254E-6,0E0,0E0,0E0,0E0,1.3234594E-6,1.4474106E-6,0E0,0E0,0E0,0E0,2.5482004E-6,2.3828566E-6,0E0,0E0,1.0846207E-6,1.4908726E-6,0E0,0E0,0E0,0E0,0E0,0E0,0E0,0E0],"parents":[2147483647,0,0,1,1,2,2,3,3,4,4,5,5,6,6,9,9,10,10,11,11,12,12,14,14,17,17,18,18,19,19,21,21,22,22,27,27,28,28,33,33,34,34,37,37,38,38],"right_children":[2,4,6,8,10,12,14,-1,-1,16,18,20,22,-1,24,-1,-1,26,28,30,-1,32,34,-1,-1,-1,-1,36,38,-1,-1,-1,-1,40,42,-1,-1,44,46,-1,-1,-1,-1,-1,-1,-1,-1],"split_conditions":[1.8E-3,1.6E-3,6.8E-1,2.98E1,9E-4,8.1178814E-4,2.8170906E-3,-4.8284837E-6,2.5644497E-4,5E-4,1.2333334E-3,1.41E-2,8.7E-3,7.5004275E-5,5E0,-3.8371618E-5,-2.3896793E-5,4.320494E-4,7.2E-3,2.35E1,3.381979E-5,1.32E-2,3.4123105E-3,3.0550815E-4,7.032633E-5,-1.2010111E-5,3.1644326E-5,2.8751812E0,6.774954E-2,2.8015602E-5,-5.381712E-7,-9.6300955E-6,4.925004E-5,1.4E1,5.3E-1,1.7821854E-5,-1.1668483E-5,3E-4,8.0392796E-1,1.3377842E-4,2.0580801E-5,2.2576893E-5,7.8818535E-5,6.364431E-5,4.0514046E-6,3.850312E-5,-9.230412E-7],"split_indices":[59,48,71,0,59,66,66,0,0,59,65,47,47,0,3,0,0,66,47,0,0,52,56,0,0,0,0,18,78,0,0,0,0,14,71,0,0,62,10,0,0,0,0,0,0,0,0],"split_type":[0,0,0,0,0,0,0,0,0,0,0,0,0,0,0,0,0,0,0,0,0,0,0,0,0,0,0,0,0,0,0,0,0,0,0,0,0,0,0,0,0,0,0,0,0,0,0],"sum_hessian":[7.48E2,5.9E2,1.58E2,2E0,5.88E2,1.47E2,1.1E1,1E0,1E0,2.19E2,3.69E2,1.03E2,4.4E1,7E0,4E0,5.4E1,1.65E2,1.75E2,1.94E2,4.7E1,5.6E1,1.4E1,3E1,3E0,1E0,1.62E2,1.3E1,6.3E1,1.31E2,2.5E1,2.2E1,9E0,5E0,9E0,2.1E1,1.1E1,5.2E1,1.04E2,2.7E1,7E0,2E0,1.3E1,8E0,1E0,1.03E2,1.8E1,9E0],"tree_param":{"num_deleted":"0","num_feature":"89","num_nodes":"47","size_leaf_vector":"1"}},{"base_weights":[1.2879739E-5,-1.20534845E-4,5.086982E-4,2.0129317E-3,-1.3119675E-4,3.9095207E-4,1.9185094E-3,-4.635346E-6,2.4618718E-4,-3.1796045E-4,-1.9793491E-5,2.865189E-4,5.961024E-4,6.975398E-5,3.209343E-3,-4.052958E-5,-2.3024719E-5,-9.885559E-5,5.166663E-5,1.4155364E-5,3.3321125E-5,3.944755E-4,1.0719929E-3,2.8717765E-4,6.7513276E-5,-1.1055196E-5,2.92936E-5,-7.259951E-5,1.1152546E-4,1.9076496E-4,7.00966E-4,2.853645E-5,1.0579497E-4,1.6514916E-5,-1.0752612E-5,6.0733317E-5,2.9801295E-4,5.525201E-5,3.9340775E-6,1.5849051E-5,9.583161E-4,6.109853E-5,3.7304114E-6,3.7973292E-5,1.8335878E-6,1.7705519E-5,1.03194245E-4],"categories":[],"categories_nodes":[],"categories_segments":[],"categories_sizes":[],"default_left":[0,0,0,0,0,0,0,0,0,0,0,0,0,0,0,0,0,0,0,0,0,0,0,0,0,0,0,0,0,0,0,0,0,0,0,0,0,0,0,0,0,0,0,0,0,0,0],"id":10,"left_children":[1,3,5,7,9,11,13,-1,-1,15,17,19,21,-1,23,-1,-1,25,27,-1,-1,29,31,-1,-1,-1,-1,33,35,37,39,-1,-1,-1,-1,41,43,-1,-1,-1,45,-1,-1,-1,-1,-1,-1],"loss_changes":[4.9607228E-5,1.3707467E-5,2.5643927E-5,6.791068E-6,1.224849E-5,3.000032E-6,1.3413293E-5,0E0,0E0,1.105629E-6,2.095529E-6,1.3507479E-6,4.2787888E-6,0E0,1.4693578E-6,0E0,0E0,3.2699036E-6,1.4585898E-6,0E0,0E0,2.1139517E-6,2.036235E-6,0E0,0E0,0E0,0E0,1.1315353E-6,1.2322178E-6,1.593936E-6,1.6218746E-6,0E0,0E0,0E0,0E0,1.0054104E-6,1.3498106E-6,0E0,0E0,0E0,1.914089E-6,0E0,0E0,0E0,0E0,0E0,0E0],"parents":[2147483647,0,0,1,1,2,2,3,3,4,4,5,5,6,6,9,9,10,10,11,11,12,12,14,14,17,17,18,18,21,21,22,22,27,27,28,28,29,29,30,30,35,35,36,36,40,40],"right_children":[2,4,6,8,10,12,14,-1,-1,16,18,20,22,-1,24,-1,-1,26,28,-1,-1,30,32,-1,-1,-1,-1,34,36,38,40,-1,-1,-1,-1,42,44,-1,-1,-1,46,-1,-1,-1,-1,-1,-1],"split_conditions":[1.8E-3,1.6E-3,6.8E-1,2.98E1,9E-4,7.788881E-4,2.8170906E-3,-4.635346E-6,2.4618718E-4,4.1666668E-4,1.2333334E-3,1.019E3,9.659258E-1,6.975398E-5,5E0,-4.052958E-5,-2.3024719E-5,4.320494E-4,7.2E-3,1.4155364E-5,3.3321125E-5,1.18E-2,2.8E-1,2.8717765E-4,6.7513276E-5,-1.1055196E-5,2.92936E-5,2.8751812E0,6.774954E-2,2.136976E-2,1.33E-2,2.853645E-5,1.0579497E-4,1.6514916E-5,-1.0752612E-5,3E-4,1.7E-3,5.525201E-5,3.9340775E-6,1.5849051E-5,1.1294397E1,6.109853E-5,3.7304114E-6,3.7973292E-5,1.8335878E-6,1.7705519E-5,1.03194245E-4],"split_indices":[59,48,71,0,59,66,66,0,0,65,65,2,8,0,3,0,0,66,47,0,0,51,71,0,0,0,0,18,78,78,48,0,0,0,0,62,61,0,0,0,34,0,0,0,0,0,0],"split_type":[0,0,0,0,0,0,0,0,0,0,0,0,0,0,0,0,0,0,0,0,0,0,0,0,0,0,0,0,0,0,0,0,0,0,0,0,0,0,0,0,0,0,0,0,0,0,0],"sum_hessian":[7.48E2,5.9E2,1.58E2,2E0,5.88E2,1.47E2,1.1E1,1E0,1E0,2.19E2,3.69E2,9.9E1,4.8E1,7E0,4E0,2.8E1,1.91E2,1.75E2,1.94E2,5.5E1,4.4E1,3.5E1,1.3E1,3E0,1E0,1.62E2,1.3E1,6.3E1,1.31E2,2.2E1,1.3E1,4E0,9E0,1.1E1,5.2E1,1.04E2,2.7E1,4E0,1.8E1,5E0,8E0,1E0,1.03E2,1.6E1,1.1E1,3E0,5E0],"tree_param":{"num_deleted":"0","num_feature":"89","num_nodes":"47","size_leaf_vector":"1"}},{"base_weights":[1.3329757E-5,-1.1037323E-4,4.7304758E-4,1.9324146E-3,-1.2059053E-4,4.0190245E-4,2.0671496E-4,-4.449934E-6,2.3633968E-4,-2.9281247E-4,-1.7862369E-5,3.6871608E-4,1.5683526E-4,-2.418592E-5,1.4131839E-5,-6.6918146E-5,8.119206E-5,9.4226925E-5,4.3215122E-4,4.3095388E-5,-7.6532524E-5,5.4192868E-5,6.5738765E-5,-9.769572E-6,2.3293012E-5,3.451871E-4,8.945747E-4,-8.329536E-6,9.196239E-5,-2.3143398E-6,1.6246673E-4,2.8693592E-4,4.343379E-5,1.2167083E-3,1.3482403E-5,-1.7798144E-6,4.4158474E-5,8.914143E-6,4.263951E-5,4.7131063E-5,1.701612E-5,5.5908717E-5,1.2485938E-4],"categories":[],"categories_nodes":[],"categories_segments":[],"categories_sizes":[],"default_left":[0,0,0,0,0,0,0,0,0,0,0,0,0,0,0,0,0,0,0,0,0,0,0,0,0,0,0,0,0,0,0,0,0,0,0,0,0,0,0,0,0,0,0],"id":11,"left_children":[1,3,5,7,9,11,-1,-1,-1,13,15,17,-1,-1,-1,19,21,23,25,-1,27,-1,29,-1,-1,31,33,-1,35,-1,37,39,-1,41,-1,-1,-1,-1,-1,-1,-1,-1,-1],"loss_changes":[4.2646694E-5,1.2568253E-5,2.284005E-5,6.2586487E-6,1.0415382E-5,7.2941075E-6,0E0,0E0,0E0,1.035769E-6,1.8033343E-6,2.6233556E-6,0E0,0E0,0E0,1.4852249E-6,1.0887338E-6,1.3137479E-6,4.6777714E-6,0E0,1.1483878E-6,0E0,1.1127024E-6,0E0,0E0,1.0651574E-6,4.2387346E-6,0E0,1.8511365E-6,0E0,1.075311E-6,1.7591296E-6,0E0,1.2253113E-6,0E0,0E0,0E0,0E0,0E0,0E0,0E0,0E0,0E0],"parents":[2147483647,0,0,1,1,2,2,3,3,4,4,5,5,9,9,10,10,11,11,15,15,16,16,17,17,18,18,20,20,22,22,25,25,26,26,28,28,30,30,31,31,33,33],"right_children":[2,4,6,8,10,12,-1,-1,-1,14,16,18,-1,-1,-1,20,22,24,26,-1,28,-1,30,-1,-1,32,34,-1,36,-1,38,40,-1,42,-1,-1,-1,-1,-1,-1,-1,-1,-1],"split_conditions":[1.8E-3,1.6E-3,7.3333335E-1,2.98E1,9E-4,7E-1,2.0671496E-4,-4.449934E-6,2.3633968E-4,1.07144766E-1,1.4E-3,7.9E-3,1.5683526E-4,-2.418592E-5,1.4131839E-5,7E0,3E-4,1.55E-3,1.2161414E-3,4.3095388E-5,9.659258E-1,5.4192868E-5,1.2733334E-2,-9.769572E-6,2.3293012E-5,7.5333336E1,3.5E-3,-8.329536E-6,3.895413E-4,-2.3143398E-6,4.3991666E-2,4.9382553E0,4.343379E-5,1.3693064E-3,1.3482403E-5,-1.7798144E-6,4.4158474E-5,8.914143E-6,4.263951E-5,4.7131063E-5,1.701612E-5,5.5908717E-5,1.2485938E-4],"split_indices":[59,48,77,0,59,76,0,0,0,78,59,47,0,0,0,17,63,69,66,0,8,0,53,0,0,31,60,0,68,0,43,32,0,66,0,0,0,0,0,0,0,0,0],"split_type":[0,0,0,0,0,0,0,0,0,0,0,0,0,0,0,0,0,0,0,0,0,0,0,0,0,0,0,0,0,0,0,0,0,0,0,0,0,0,0,0,0,0,0],"sum_hessian":[7.48E2,5.9E2,1.58E2,2E0,5.88E2,1.54E2,4E0,1E0,1E0,2.19E2,3.69E2,1.52E2,2E0,2.15E2,4E0,2.47E2,1.22E2,2.9E1,1.23E2,3E0,2.44E2,2E0,1.2E2,1.4E1,1.5E1,1.05E2,1.8E1,2.1E2,3.4E1,6.1E1,5.9E1,8.3E1,2.2E1,1.2E1,6E0,2.8E1,6E0,5.3E1,6E0,1.5E1,6.8E1,6E0,6E0],"tree_param":{"num_deleted":"0","num_feature":"89","num_nodes":"43","size_leaf_vector":"1"}},{"base_weights":[1.3707048E-5,-9.0369234E-5,4.8348005E-4,1.855118E-3,-9.9758276E-5,4.1385207E-4,2.1421922E-4,-4.271935E-6,2.2688608E-4,-2.694332E-4,-4.5210204E-6,2.5516123E-4,6.806862E-4,-3.4422963E-5,-1.9017314E-5,-4.7056816E-5,1.0205142E-5,5.0097682E-5,2.7181552E-5,1.1797893E-3,4.6768258E-4,3.5829926E-5,-5.7031317E-5,1.8838266E-5,-1.4864233E-5,1.2948553E-4,4.078283E-5,3.1103255E-4,8.438694E-4,-7.2571097E-6,5.804795E-6,5.7812675E-5,7.974537E-6,2.6771891E-5,9.020601E-5],"categories":[],"categories_nodes":[],"categories_segments":[],"categories_sizes":[],"default_left":[0,0,0,0,0,0,0,0,0,0,0,0,0,0,0,0,0,0,0,0,0,0,0,0,0,0,0,0,0,0,0,0,0,0,0],"id":12,"left_children":[1,3,5,7,9,11,-1,-1,-1,13,15,17,19,-1,-1,21,-1,23,-1,25,27,-1,29,-1,-1,-1,-1,31,33,-1,-1,-1,-1,-1,-1],"loss_changes":[3.6663972E-5,1.1400543E-5,1.9670151E-5,5.76797E-6,9.888317E-6,5.458085E-6,0E0,0E0,0E0,1.020102E-6,2.2140155E-6,1.4577331E-6,4.6574605E-6,0E0,0E0,1.4966761E-6,0E0,1.180769E-6,0E0,3.2906555E-6,1.8589981E-6,0E0,1.2855169E-6,0E0,0E0,0E0,0E0,2.2768966E-6,1.0673471E-6,0E0,0E0,0E0,0E0,0E0,0E0],"parents":[2147483647,0,0,1,1,2,2,3,3,4,4,5,5,9,9,10,10,11,11,12,12,15,15,17,17,19,19,20,20,22,22,27,27,28,28],"right_children":[2,4,6,8,10,12,-1,-1,-1,14,16,18,20,-1,-1,22,-1,24,-1,26,28,-1,30,-1,-1,-1,-1,32,34,-1,-1,-1,-1,-1,-1],"split_conditions":[1.9E-3,1.6E-3,1.6730257E1,2.98E1,9E-4,7.788881E-4,2.1421922E-4,-4.271935E-6,2.2688608E-4,4E-4,1.5E-3,1.18E-2,2E0,-3.4422963E-5,-1.9017314E-5,7E0,1.0205142E-5,2.34E1,2.7181552E-5,5.9848294E0,5.3E-1,3.5829926E-5,4.6E-1,1.8838266E-5,-1.4864233E-5,1.2948553E-4,4.078283E-5,1.2E1,6.7E-1,-7.2571097E-6,5.804795E-6,5.7812675E-5,7.974537E-6,2.6771891E-5,9.020601E-5],"split_indices":[59,48,20,0,59,66,0,0,0,59,59,47,3,0,0,17,0,0,0,32,71,0,71,0,0,0,0,11,72,0,0,0,0,0,0],"split_type":[0,0,0,0,0,0,0,0,0,0,0,0,0,0,0,0,0,0,0,0,0,0,0,0,0,0,0,0,0,0,0,0,0,0,0],"sum_hessian":[7.48E2,6.13E2,1.35E2,2E0,6.11E2,1.32E2,3E0,1E0,1E0,2.19E2,3.92E2,8.4E1,4.8E1,3.4E1,1.85E2,2.97E2,9.5E1,2.5E1,5.9E1,1.3E1,3.5E1,5E0,2.92E2,1.4E1,1.1E1,7E0,6E0,2.6E1,9E0,2.32E2,6E1,8E0,1.8E1,4E0,5E0],"tree_param":{"num_deleted":"0","num_feature":"89","num_nodes":"35","size_leaf_vector":"1"}},{"base_weights":[1.36948065E-5,-5.5372544E-5,6.26033E-4,-1.9497376E-4,7.2125935E-5,4.3417624E-4,1.8488697E-3,-2.4928457E-5,-1.2778486E-4,2.1781064E-4,5.6861332E-5,7.213926E-4,3.299242E-4,6.39485E-5,2.738512E-3,-1.1284845E-5,2.7059881E-5,-2.6095362E-5,1.6875031E-4,5.5788223E-6,9.871052E-4,-1.925952E-5,2.9648516E-5,2.4738323E-4,5.293591E-5,3.3441265E-5,-3.942148E-5,8.745777E-6,3.4729225E-4,5.331573E-6,9.316263E-5,-7.2096636E-6,5.067409E-6,2.1030444E-5,6.679608E-5],"categories":[],"categories_nodes":[],"categories_segments":[],"categories_sizes":[],"default_left":[0,0,0,0,0,0,0,0,0,0,0,0,0,0,0,0,0,0,0,0,0,0,0,0,0,0,0,0,0,0,0,0,0,0,0],"id":13,"left_children":[1,3,5,7,9,11,13,-1,15,-1,17,19,21,-1,23,-1,-1,25,27,-1,29,-1,-1,-1,-1,-1,31,-1,33,-1,-1,-1,-1,-1,-1],"loss_changes":[3.1711807E-5,1.201055E-5,1.7027578E-5,2.4834944E-6,1.4127194E-5,1.7681696E-6,7.147868E-6,0E0,1.3222188E-6,0E0,3.2716462E-6,2.8747754E-6,1.2732412E-6,0E0,1.6274935E-6,0E0,0E0,1.2178893E-6,1.5535943E-6,0E0,1.8821711E-6,0E0,0E0,0E0,0E0,0E0,1.037302E-6,0E0,1.3035797E-6,0E0,0E0,0E0,0E0,0E0,0E0],"parents":[2147483647,0,0,1,1,2,2,3,3,4,4,5,5,6,6,8,8,10,10,11,11,12,12,14,14,17,17,18,18,20,20,26,26,28,28],"right_children":[2,4,6,8,10,12,14,-1,16,-1,18,20,22,-1,24,-1,-1,26,28,-1,30,-1,-1,-1,-1,-1,32,-1,34,-1,-1,-1,-1,-1,-1],"split_conditions":[2.3E-3,1.1333333E-3,6.8E-1,7E-4,1.8E-3,5.2694087E0,2.8170906E-3,-2.4928457E-5,5.01996E-4,2.1781064E-4,1.5E-3,2.8E-1,2.2E-1,6.39485E-5,5E0,-1.1284845E-5,2.7059881E-5,7E0,8.660254E-1,5.5788223E-6,1.19E-2,-1.925952E-5,2.9648516E-5,2.4738323E-4,5.293591E-5,3.3441265E-5,1.3616667E-2,8.745777E-6,7.9603185E-4,5.331573E-6,9.316263E-5,-7.2096636E-6,5.067409E-6,2.1030444E-5,6.679608E-5],"split_indices":[59,65,71,59,49,30,66,0,66,0,59,71,72,0,3,0,0,17,8,0,38,0,0,0,0,0,53,0,66,0,0,0,0,0,0],"split_type":[0,0,0,0,0,0,0,0,0,0,0,0,0,0,0,0,0,0,0,0,0,0,0,0,0,0,0,0,0,0,0,0,0,0,0],"sum_hessian":[7.48E2,6.73E2,7.5E1,3.21E2,3.52E2,6.6E1,9E0,1.16E2,2.05E2,1E0,3.51E2,1.6E1,5E1,5E0,4E0,2E2,5E0,2.02E2,1.49E2,5E0,1.1E1,3E0,4.7E1,3E0,1E0,5E0,1.97E2,1.13E2,3.6E1,2E0,9E0,1.32E2,6.5E1,3.2E1,4E0],"tree_param":{"num_deleted":"0","num_feature":"89","num_nodes":"35","size_leaf_vector":"1"}},{"base_weights":[1.3687691E-5,-5.044344E-5,5.822495E-4,-1.7940429E-4,6.733513E-5,4.0115058E-4,1.7373869E-3,-2.2951224E-5,-1.17485506E-4,2.0909822E-4,5.26757E-5,6.698032E-4,3.0373404E-4,5.968527E-5,2.5794948E-3,-1.038655E-5,2.5255888E-5,-2.3853527E-5,1.5589407E-4,5.2068985E-6,9.163447E-4,-1.8103949E-5,2.7326054E-5,2.3254025E-4,5.081847E-5,-1.0350016E-5,2.0530197E-6,6.464178E-6,2.804982E-4,5.0472217E-6,8.645492E-5,1.2179239E-5,5.428067E-4,5.9714148E-5,-1.0871297E-5],"categories":[],"categories_nodes":[],"categories_segments":[],"categories_sizes":[],"default_left":[0,0,0,0,0,0,0,0,0,0,0,0,0,0,0,0,0,0,0,0,0,0,0,0,0,0,0,0,0,0,0,0,0,0,0],"id":14,"left_children":[1,3,5,7,9,11,13,-1,15,-1,17,19,21,-1,23,-1,-1,25,27,-1,29,-1,-1,-1,-1,-1,-1,-1,31,-1,-1,-1,33,-1,-1],"loss_changes":[2.7339789E-5,1.0249347E-5,1.52017965E-5,2.1093356E-6,1.3039341E-5,1.5500291E-6,6.423519E-6,0E0,1.1427267E-6,0E0,2.7842452E-6,2.4748515E-6,1.1002226E-6,0E0,1.3349272E-6,0E0,0E0,1.0640032E-6,1.3808478E-6,0E0,1.6145241E-6,0E0,0E0,0E0,0E0,0E0,0E0,0E0,1.8013757E-6,0E0,0E0,0E0,2.5889722E-6,0E0,0E0],"parents":[2147483647,0,0,1,1,2,2,3,3,4,4,5,5,6,6,8,8,10,10,11,11,12,12,14,14,17,17,18,18,20,20,28,28,32,32],"right_children":[2,4,6,8,10,12,14,-1,16,-1,18,20,22,-1,24,-1,-1,26,28,-1,30,-1,-1,-1,-1,-1,-1,-1,32,-1,-1,-1,34,-1,-1],"split_conditions":[2.3E-3,1.1333333E-3,6.8E-1,7E-4,1.8E-3,5.2694087E0,2.8170906E-3,-2.2951224E-5,5.01996E-4,2.0909822E-4,1.5E-3,2.8E-1,2.2E-1,5.968527E-5,5E0,-1.038655E-5,2.5255888E-5,6.5E-3,7.0710677E-1,5.2068985E-6,1.19E-2,-1.8103949E-5,2.7326054E-5,2.3254025E-4,5.081847E-5,-1.0350016E-5,2.0530197E-6,6.464178E-6,5.4680894E-4,5.0472217E-6,8.645492E-5,1.2179239E-5,2.74E1,5.9714148E-5,-1.0871297E-5],"split_indices":[59,65,71,59,49,30,66,0,66,0,59,71,72,0,3,0,0,47,8,0,38,0,0,0,0,0,0,0,66,0,0,0,0,0,0],"split_type":[0,0,0,0,0,0,0,0,0,0,0,0,0,0,0,0,0,0,0,0,0,0,0,0,0,0,0,0,0,0,0,0,0,0,0],"sum_hessian":[7.48E2,6.73E2,7.5E1,3.21E2,3.52E2,6.6E1,9E0,1.16E2,2.05E2,1E0,3.51E2,1.6E1,5E1,5E0,4E0,2E2,5E0,2.02E2,1.49E2,5E0,1.1E1,3E0,4.7E1,3E0,1E0,6.4E1,1.38E2,9.4E1,5.5E1,2E0,9E0,3.8E1,1.7E1,1.3E1,4E0],"tree_param":{"num_deleted":"0","num_feature":"89","num_nodes":"35","size_leaf_vector":"1"}},{"base_weights":[1.3539521E-5,-1.2753005E-5,1.218863E-3,-1.2455943E-4,1.6586628E-4,4.9018476E-5,2.429807E-3,-2.0992211E-5,-7.563389E-5,2.0073428E-4,1.4865886E-4,2.1858785E-4,4.878573E-5,-1.3444031E-5,-3.4455632E-5,-3.5972327E-5,2.3969947E-4,-6.760299E-6,1.2524115E-4,3.323132E-5,-1.826429E-5,1.7421093E-4,5.04025E-4,2.637498E-5,2.8176428E-6,6.9150014E-6,-2.0800426E-5,1.1433995E-5,3.6201105E-5,3.097904E-4,7.979835E-5,3.6172558E-5,-3.2800767E-6],"categories":[],"categories_nodes":[],"categories_segments":[],"categories_sizes":[],"default_left":[0,0,0,0,0,0,0,0,0,0,0,0,0,0,0,0,0,0,0,0,0,0,0,0,0,0,0,0,0,0,0,0,0],"id":15,"left_children":[1,3,5,7,9,-1,11,-1,13,-1,15,-1,-1,-1,17,19,21,-1,23,25,-1,27,29,-1,-1,-1,-1,-1,-1,31,-1,-1,-1],"loss_changes":[2.37521E-5,1.4679215E-5,1.0255051E-5,3.0284655E-6,1.1038212E-5,0E0,1.0868571E-6,0E0,1.2690691E-6,0E0,4.7487415E-6,0E0,0E0,0E0,1.8728412E-6,1.2587296E-6,3.183839E-6,0E0,1.0190325E-6,1.1146147E-6,0E0,1.2674927E-6,3.237291E-6,0E0,0E0,0E0,0E0,0E0,0E0,1.4168859E-6,0E0,0E0,0E0],"parents":[2147483647,0,0,1,1,2,2,3,3,4,4,6,6,8,8,10,10,14,14,15,15,16,16,18,18,19,19,21,21,22,22,29,29],"right_children":[2,4,6,8,10,-1,12,-1,14,-1,16,-1,-1,-1,18,20,22,-1,24,26,-1,28,30,-1,-1,-1,-1,-1,-1,32,-1,-1,-1],"split_conditions":[6.8E-1,1.4E-3,2.8170906E-3,7E-4,2.15E-3,4.9018476E-5,5E0,-2.0992211E-5,7.1E-3,2.0073428E-4,7.9E-3,2.1858785E-4,4.878573E-5,-1.3444031E-5,3.204164E-4,1.1482199E-3,8.183316E-4,-6.760299E-6,8.8E-3,4.0879168E-2,-1.826429E-5,8.7166664E1,9.659258E-1,2.637498E-5,2.8176428E-6,6.9150014E-6,-2.0800426E-5,1.1433995E-5,3.6201105E-5,6.506385E-3,7.979835E-5,3.6172558E-5,-3.2800767E-6],"split_indices":[71,65,66,59,53,0,3,0,47,0,47,0,0,0,66,68,66,0,48,45,0,29,8,0,0,0,0,0,0,58,0,0,0],"split_type":[0,0,0,0,0,0,0,0,0,0,0,0,0,0,0,0,0,0,0,0,0,0,0,0,0,0,0,0,0,0,0,0,0],"sum_hessian":[7.48E2,7.33E2,1.5E1,4.51E2,2.82E2,1.1E1,4E0,1.17E2,3.34E2,1E0,2.81E2,3E0,1E0,1.02E2,2.32E2,9.3E1,1.88E2,1.77E2,5.5E1,6.9E1,2.4E1,1.52E2,3.6E1,1.6E1,3.9E1,5.9E1,1E1,1.38E2,1.4E1,2.7E1,9E0,1.9E1,8E0],"tree_param":{"num_deleted":"0","num_feature":"89","num_nodes":"33","size_leaf_vector":"1"}},{"base_weights":[1.3301897E-5,-1.1300999E-5,1.1411284E-3,-8.959703E-5,2.0863552E-4,4.5423785E-5,1.8311178E-4,1.5836401E-3,-9.872687E-5,1.3494377E-4,3.4520595E-4,-2.6680948E-6,1.927049E-4,-1.5854606E-5,-3.0256508E-5,1.6304341E-4,-1.1834521E-5,2.1075746E-5,6.110745E-4,3.015773E-5,-3.1367974E-6,2.4136431E-4,4.0820614E-6,8.6481115E-5,1.42135095E-5,1.2593341E-5,4.0348423E-5],"categories":[],"categories_nodes":[],"categories_segments":[],"categories_sizes":[],"default_left":[0,0,0,0,0,0,0,0,0,0,0,0,0,0,0,0,0,0,0,0,0,0,0,0,0,0,0],"id":16,"left_children":[1,3,5,7,9,-1,-1,11,13,15,17,-1,-1,-1,19,21,-1,-1,23,-1,-1,25,-1,-1,-1,-1,-1],"loss_changes":[2.0795997E-5,1.2658288E-5,9.229194E-6,8.436151E-6,1.8957908E-6,0E0,0E0,4.0832206E-6,3.6712795E-6,1.0336037E-6,1.2954051E-6,0E0,0E0,0E0,1.1851795E-6,1.0053895E-6,0E0,0E0,2.8630539E-6,0E0,0E0,1.4218726E-6,0E0,0E0,0E0,0E0,0E0],"parents":[2147483647,0,0,1,1,2,2,3,3,4,4,7,7,8,8,9,9,10,10,14,14,15,15,18,18,21,21],"right_children":[2,4,6,8,10,-1,-1,12,14,16,18,-1,-1,-1,20,22,-1,-1,24,-1,-1,26,-1,-1,-1,-1,-1],"split_conditions":[6.8E-1,1.6E-3,2.8170906E-3,1.6E-3,2.3E-3,4.5423785E-5,1.8311178E-4,2.98E1,9E-4,2.79E1,9.647313E-4,-2.6680948E-6,1.927049E-4,-1.5854606E-5,7.3333335E0,1.2671287E-2,-1.1834521E-5,2.1075746E-5,2.65E1,3.015773E-5,-3.1367974E-6,5.4680894E-4,4.0820614E-6,8.6481115E-5,1.42135095E-5,1.2593341E-5,4.0348423E-5],"split_indices":[71,59,66,48,59,0,0,0,59,0,70,0,0,0,17,44,0,0,0,0,0,66,0,0,0,0,0],"split_type":[0,0,0,0,0,0,0,0,0,0,0,0,0,0,0,0,0,0,0,0,0,0,0,0,0,0,0],"sum_hessian":[7.48E2,7.33E2,1.5E1,5.41E2,1.92E2,1.1E1,4E0,2E0,5.39E2,1.26E2,6.6E1,1E0,1E0,2.19E2,3.2E2,1.15E2,1.1E1,5.2E1,1.4E1,6E0,3.14E2,6.7E1,4.8E1,6E0,8E0,5.2E1,1.5E1],"tree_param":{"num_deleted":"0","num_feature":"89","num_nodes":"27","size_leaf_vector":"1"}},{"base_weights":[1.3034402E-5,-9.895336E-6,1.0641215E-3,-1.06290914E-4,1.4410006E-4,4.2092703E-5,2.1424077E-3,-1.9276156E-5,-6.833121E-5,1.8499671E-4,1.2821064E-4,1.9448585E-4,3.9509832E-5,-1.1999904E-5,-2.3097822E-5,-3.432842E-5,2.083718E-4,-3.3444562E-6,2.6718792E-4,2.2353126E-6,-1.6584863E-5,1.5122593E-4,4.3904604E-4,5.0748684E-5,-5.8240306E-7,9.856858E-6,3.206014E-5,2.6293533E-4,7.106011E-5,-9.909895E-6,2.9924746E-5],"categories":[],"categories_nodes":[],"categories_segments":[],"categories_sizes":[],"default_left":[0,0,0,0,0,0,0,0,0,0,0,0,0,0,0,0,0,0,0,0,0,0,0,0,0,0,0,0,0,0,0],"id":17,"left_children":[1,3,5,7,9,-1,11,-1,13,-1,15,-1,-1,-1,17,19,21,-1,23,-1,-1,25,27,-1,-1,-1,-1,29,-1,-1,-1],"loss_changes":[1.8062294E-5,1.0911161E-5,8.1539965E-6,2.2940212E-6,9.453994E-6,0E0,1.1787342E-6,0E0,1.3042475E-6,0E0,3.6814222E-6,0E0,0E0,0E0,1.2547845E-6,1.0183214E-6,2.4250176E-6,0E0,1.4154901E-6,0E0,0E0,1.0201725E-6,2.6935122E-6,0E0,0E0,0E0,0E0,1.2498815E-6,0E0,0E0,0E0],"parents":[2147483647,0,0,1,1,2,2,3,3,4,4,6,6,8,8,10,10,14,14,15,15,16,16,18,18,21,21,22,22,27,27],"right_children":[2,4,6,8,10,-1,12,-1,14,-1,16,-1,-1,-1,18,20,22,-1,24,-1,-1,26,28,-1,-1,-1,-1,30,-1,-1,-1],"split_conditions":[6.8E-1,1.4E-3,2.8170906E-3,6.5E-4,2.15E-3,4.2092703E-5,5E0,-1.9276156E-5,7.3E-3,1.8499671E-4,7.9E-3,1.9448585E-4,3.9509832E-5,-1.1999904E-5,5.01996E-4,1.1482199E-3,8.183316E-4,-3.3444562E-6,9.4E-3,2.2353126E-6,-1.6584863E-5,8.7166664E1,9.659258E-1,5.0748684E-5,-5.8240306E-7,9.856858E-6,3.206014E-5,6.3742558E-3,7.106011E-5,-9.909895E-6,2.9924746E-5],"split_indices":[71,65,66,65,53,0,3,0,47,0,47,0,0,0,66,68,66,0,48,0,0,29,8,0,0,0,0,44,0,0,0],"split_type":[0,0,0,0,0,0,0,0,0,0,0,0,0,0,0,0,0,0,0,0,0,0,0,0,0,0,0,0,0,0,0],"sum_hessian":[7.48E2,7.33E2,1.5E1,4.51E2,2.82E2,1.1E1,4E0,9.8E1,3.53E2,1E0,2.81E2,3E0,1E0,1.25E2,2.28E2,9.3E1,1.88E2,2.15E2,1.3E1,6.9E1,2.4E1,1.52E2,3.6E1,5E0,8E0,1.38E2,1.4E1,2.7E1,9E0,6E0,2.1E1],"tree_param":{"num_deleted":"0","num_feature":"89","num_nodes":"31","size_leaf_vector":"1"}},{"base_weights":[1.2786411E-5,-8.668848E-6,9.962473E-4,-7.603951E-5,1.8057245E-4,1.8817411E-3,3.3814616E-5,1.4641572E-3,-8.445534E-5,5.1918483E-5,1.620728E-4,1.828167E-4,5.7322974E-5,-1.8979748E-6,1.7759684E-4,-1.3543698E-5,-2.0836678E-6,-7.3659635E-6,1.8802915E-4,2.8179167E-4,1.1103988E-4,1.2213328E-5,4.1377035E-4,2.8006926E-7,1.7301245E-5,5.6742456E-6,4.171492E-5],"categories":[],"categories_nodes":[],"categories_segments":[],"categories_sizes":[],"default_left":[0,0,0,0,0,0,0,0,0,0,0,0,0,0,0,0,0,0,0,0,0,0,0,0,0,0,0],"id":18,"left_children":[1,3,5,7,9,11,-1,13,15,-1,17,-1,-1,-1,-1,-1,-1,-1,19,21,23,-1,25,-1,-1,-1,-1],"loss_changes":[1.581284E-5,9.371726E-6,7.3308256E-6,7.1490826E-6,1.5672385E-6,1.1832963E-6,0E0,3.4263062E-6,2.671568E-6,0E0,1.2509026E-6,0E0,0E0,0E0,0E0,0E0,0E0,0E0,1.1958905E-6,1.2320047E-6,1.07425E-6,0E0,1.3287781E-6,0E0,0E0,0E0,0E0],"parents":[2147483647,0,0,1,1,2,2,3,3,4,4,5,5,7,7,8,8,10,10,18,18,19,19,20,20,22,22],"right_children":[2,4,6,8,10,12,-1,14,16,-1,18,-1,-1,-1,-1,-1,-1,-1,20,22,24,-1,26,-1,-1,-1,-1],"split_conditions":[6.8E-1,1.6E-3,4.1E1,1.6E-3,4.0744877E0,9.1E1,3.3814616E-5,2.98E1,9E-4,5.1918483E-5,2.5E1,1.828167E-4,5.7322974E-5,-1.8979748E-6,1.7759684E-4,-1.3543698E-5,-2.0836678E-6,-7.3659635E-6,1.13E-2,6.306082E-4,1.7516667E-2,1.2213328E-5,8.041667E-3,2.8006926E-7,1.7301245E-5,5.6742456E-6,4.171492E-5],"split_indices":[71,59,27,48,34,25,0,0,59,0,24,0,0,0,0,0,0,0,50,66,55,0,57,0,0,0,0],"split_type":[0,0,0,0,0,0,0,0,0,0,0,0,0,0,0,0,0,0,0,0,0,0,0,0,0,0,0],"sum_hessian":[7.48E2,7.33E2,1.5E1,5.41E2,1.92E2,5E0,1E1,2E0,5.39E2,6E0,1.86E2,3E0,2E0,1E0,1E0,2.19E2,3.2E2,1.7E1,1.69E2,7.5E1,9.4E1,3.9E1,3.6E1,4.7E1,4.7E1,9E0,2.7E1],"tree_param":{"num_deleted":"0","num_feature":"89","num_nodes":"27","size_leaf_vector":"1"}},{"base_weights":[1.2505522E-5,-7.591386E-6,9.3366957E-4,-1.1040293E-4,1.0010982E-4,1.7712251E-3,3.1355365E-5,-1.5872061E-5,-7.0379276E-5,1.7049297E-4,8.848352E-5,1.718477E-4,5.4265747E-5,-6.615808E-6,2.623882E-5,7.7687696E-7,2.0018978E-4,4.0665505E-5,1.6926428E-4,-9.78134E-6,1.9589714E-4,2.72507E-5,1.0103993E-5],"categories":[],"categories_nodes":[],"categories_segments":[],"categories_sizes":[],"default_left":[0,0,0,0,0,0,0,0,0,0,0,0,0,0,0,0,0,0,0,0,0,0,0],"id":19,"left_children":[1,3,5,7,9,11,-1,-1,13,-1,15,-1,-1,-1,-1,-1,17,-1,19,-1,21,-1,-1],"loss_changes":[1.3872987E-5,8.1385815E-6,6.565412E-6,1.3103067E-6,8.288717E-6,1.0142012E-6,0E0,0E0,1.3029918E-6,0E0,3.1482366E-6,0E0,0E0,0E0,0E0,0E0,1.3242584E-6,0E0,1.0798972E-6,0E0,1.2161363E-6,0E0,0E0],"parents":[2147483647,0,0,1,1,2,2,3,3,4,4,5,5,8,8,10,10,16,16,18,18,20,20],"right_children":[2,4,6,8,10,12,-1,-1,14,-1,16,-1,-1,-1,-1,-1,18,-1,20,-1,22,-1,-1],"split_conditions":[6.8E-1,1.2333334E-3,4.1E1,7E-4,2.15E-3,9.1E1,3.1355365E-5,-1.5872061E-5,5.01996E-4,1.7049297E-4,1.8E-3,1.718477E-4,5.4265747E-5,-6.615808E-6,2.623882E-5,7.7687696E-7,1E0,4.0665505E-5,8.041667E-3,-9.78134E-6,1.7E1,2.72507E-5,1.0103993E-5],"split_indices":[71,65,27,59,53,25,0,0,66,0,59,0,0,0,0,0,3,0,57,0,16,0,0],"split_type":[0,0,0,0,0,0,0,0,0,0,0,0,0,0,0,0,0,0,0,0,0,0,0],"sum_hessian":[7.48E2,7.33E2,1.5E1,3.75E2,3.58E2,5E0,1E1,1.16E2,2.59E2,1E0,3.57E2,3E0,2E0,2.52E2,7E0,2.1E2,1.47E2,1.2E1,1.35E2,1.1E1,1.24E2,3.9E1,8.5E1],"tree_param":{"num_deleted":"0","num_feature":"89","num_nodes":"23","size_leaf_vector":"1"}},{"base_weights":[1.217361E-5,1.6366629E-6,1.2637953E-4,-6.4094354E-5,1.716446E-4,-9.853252E-6,9.615004E-7,1.6367325E-4,1.527065E-4,-3.004122E-5,2.5039449E-4,-1.3424222E-5,5.5979103E-6,6.818348E-4,2.0275937E-4,4.573278E-6,6.908151E-5,5.143662E-4,1.6443821E-4,-4.2116735E-8,5.351093E-5,6.9021764E-5,1.1496752E-5],"categories":[],"categories_nodes":[],"categories_segments":[],"categories_sizes":[],"default_left":[0,0,0,0,0,0,0,0,0,0,0,0,0,0,0,0,0,0,0,0,0,0,0],"id":20,"left_children":[1,3,-1,5,7,-1,-1,-1,9,11,13,-1,-1,15,17,-1,-1,19,21,-1,-1,-1,-1],"loss_changes":[1.2368952E-5,8.336224E-6,0E0,2.4203816E-6,7.0705637E-6,0E0,0E0,0E0,3.70294E-6,1.0175531E-6,2.6362322E-6,0E0,0E0,1.4260368E-6,1.3841777E-6,0E0,0E0,1.0346507E-6,1.4828065E-6,0E0,0E0,0E0,0E0],"parents":[2147483647,0,0,1,1,3,3,4,4,8,8,9,9,10,10,13,13,14,14,17,17,18,18],"right_children":[2,4,-1,6,8,-1,-1,-1,10,12,14,-1,-1,16,18,-1,-1,20,22,-1,-1,-1,-1],"split_conditions":[7.3333335E-1,1.6E-3,1.2637953E-4,1.1E-3,1.6E-3,-9.853252E-6,9.615004E-7,1.6367325E-4,7.9E-3,6.3E-3,9.0333335E-3,-1.3424222E-5,5.5979103E-6,1.3666667E1,4.96274E0,4.573278E-6,6.908151E-5,3.2976759E-3,4.8E-3,-4.2116735E-8,5.351093E-5,6.9021764E-5,1.1496752E-5],"split_indices":[77,65,0,59,48,0,0,0,47,52,57,0,0,17,32,0,0,54,50,0,0,0,0],"split_type":[0,0,0,0,0,0,0,0,0,0,0,0,0,0,0,0,0,0,0,0,0,0,0],"sum_hessian":[7.48E2,7.44E2,4E0,5.37E2,2.07E2,3.02E2,2.35E2,1E0,2.06E2,7.2E1,1.34E2,3E1,4.2E1,1.2E1,1.22E2,3E0,9E0,1.2E1,1.1E2,3E0,9E0,2E0,1.08E2],"tree_param":{"num_deleted":"0","num_feature":"89","num_nodes":"23","size_leaf_vector":"1"}},{"base_weights":[1.1841899E-5,-6.1871588E-6,8.3818485E-4,-7.775455E-5,1.08140215E-4,1.2724746E-4,2.812653E-5,-1.4846791E-5,-3.790317E-6,1.5712631E-4,9.4594056E-5,-2.6291475E-6,1.5748556E-4,3.3719355E-4,1.1002796E-4,1.137382E-5,5.3499587E-4,7.704508E-5,2.9238292E-5,6.485436E-5,1.646501E-5,2.5639087E-5,3.1405361E-6],"categories":[],"categories_nodes":[],"categories_segments":[],"categories_sizes":[],"default_left":[0,0,0,0,0,0,0,0,0,0,0,0,0,0,0,0,0,0,0,0,0,0,0],"id":21,"left_children":[1,3,5,7,9,-1,-1,-1,-1,-1,11,-1,13,15,17,-1,19,21,-1,-1,-1,-1,-1],"loss_changes":[1.11639265E-5,6.0140783E-6,5.2987652E-6,1.4716923E-6,6.92907E-6,0E0,0E0,0E0,0E0,0E0,2.2657018E-6,0E0,1.5747878E-6,1.4283851E-6,1.2440923E-6,0E0,1.5574096E-6,1.229329E-6,0E0,0E0,0E0,0E0,0E0],"parents":[2147483647,0,0,1,1,2,2,3,3,4,4,10,10,12,12,13,13,14,14,16,16,17,17],"right_children":[2,4,6,8,10,-1,-1,-1,-1,-1,12,-1,14,16,18,-1,20,22,-1,-1,-1,-1,-1],"split_conditions":[6.8E-1,1.4E-3,4.1E1,6.5E-4,2.15E-3,1.2724746E-4,2.812653E-5,-1.4846791E-5,-3.790317E-6,1.5712631E-4,7.9E-3,-2.6291475E-6,2.8E1,4.8442406E-4,8.7166664E1,1.137382E-5,1.7E-3,5.2993712E0,2.9238292E-5,6.485436E-5,1.646501E-5,2.5639087E-5,3.1405361E-6],"split_indices":[71,65,27,65,53,0,0,0,0,0,47,0,26,66,29,0,62,32,0,0,0,0,0],"split_type":[0,0,0,0,0,0,0,0,0,0,0,0,0,0,0,0,0,0,0,0,0,0,0],"sum_hessian":[7.48E2,7.33E2,1.5E1,4.51E2,2.82E2,5E0,1E1,9.8E1,3.53E2,1E0,2.81E2,9.3E1,1.88E2,3.8E1,1.5E2,2E1,1.8E1,1.34E2,1.6E1,9E0,9E0,1.7E1,1.17E2],"tree_param":{"num_deleted":"0","num_feature":"89","num_nodes":"23","size_leaf_vector":"1"}},{"base_weights":[1.1484605E-5,-5.3017498E-6,7.8084087E-4,-5.072286E-5,1.528736E-4,1.6700138E-5,1.326836E-3,-8.547707E-6,1.158964E-6,1.5084127E-4,1.3067632E-4,4.5807723E-5,1.3318882E-4,3.017603E-4,4.7810292E-5,3.5761765E-4,-2.4479494E-5,-3.7647874E-6,1.8288897E-4,1.0945681E-5,4.2596686E-5,-2.521823E-5,1.7997774E-5],"categories":[],"categories_nodes":[],"categories_segments":[],"categories_sizes":[],"default_left":[0,0,0,0,0,0,0,0,0,0,0,0,0,0,0,0,0,0,0,0,0,0,0],"id":22,"left_children":[1,3,5,7,9,-1,11,-1,-1,-1,13,-1,-1,15,17,19,-1,-1,21,-1,-1,-1,-1],"loss_changes":[9.67724E-6,5.2811774E-6,4.720747E-6,2.0912971E-6,6.061041E-6,0E0,1.0863168E-6,0E0,0E0,0E0,2.2964318E-6,0E0,0E0,1.908647E-6,1.431064E-6,1.8187584E-6,0E0,0E0,1.0351861E-6,0E0,0E0,0E0,0E0],"parents":[2147483647,0,0,1,1,2,2,3,3,4,4,6,6,10,10,13,13,14,14,15,15,18,18],"right_children":[2,4,6,8,10,-1,12,-1,-1,-1,14,-1,-1,16,18,20,-1,-1,22,-1,-1,-1,-1],"split_conditions":[6.8E-1,1.7333333E-3,1.7E-3,1.1E-3,1.0072E3,1.6700138E-5,5.4173684E-3,-8.547707E-6,1.158964E-6,1.5084127E-4,3.2093613E0,4.5807723E-5,1.3318882E-4,1.5552063E-3,5E-1,5.573748E-4,-2.4479494E-5,-3.7647874E-6,8.2E-3,1.0945681E-5,4.2596686E-5,-2.521823E-5,1.7997774E-5],"split_indices":[71,65,61,59,2,0,56,0,0,0,18,0,0,66,71,66,0,0,35,0,0,0,0],"split_type":[0,0,0,0,0,0,0,0,0,0,0,0,0,0,0,0,0,0,0,0,0,0,0],"sum_hessian":[7.48E2,7.33E2,1.5E1,5.7E2,1.63E2,8E0,7E0,3.06E2,2.64E2,1E0,1.62E2,3E0,4E0,5.2E1,1.1E2,4.8E1,4E0,6.5E1,4.5E1,2.2E1,2.6E1,3E0,4.2E1],"tree_param":{"num_deleted":"0","num_feature":"89","num_nodes":"23","size_leaf_vector":"1"}},{"base_weights":[1.1042776E-5,2.1731573E-6,1.06432606E-4,-5.064075E-5,1.3876791E-4,-9.338451E-6,-3.4827387E-6,1.4480762E-4,1.21949444E-4,1.5258277E-4,-2.139042E-6,-2.1007056E-6,2.0118836E-4,4.6290927E-5,7.2707257E-6,4.6111539E-4,1.4083374E-4,2.991523E-6,5.2665117E-5,1.7850996E-4,-8.975577E-6,4.37872E-5,1.1136544E-5],"categories":[],"categories_nodes":[],"categories_segments":[],"categories_sizes":[],"default_left":[0,0,0,0,0,0,0,0,0,0,0,0,0,0,0,0,0,0,0,0,0,0,0],"id":23,"left_children":[1,3,-1,5,7,-1,9,-1,11,13,-1,-1,15,-1,-1,17,19,-1,-1,21,-1,-1,-1],"loss_changes":[8.762104E-6,5.3815343E-6,0E0,1.6763606E-6,5.625966E-6,0E0,1.1473244E-6,0E0,2.436263E-6,1.0251769E-6,0E0,0E0,2.0529124E-6,0E0,0E0,2.0643142E-6,1.0782082E-6,0E0,0E0,1.3299364E-6,0E0,0E0,0E0],"parents":[2147483647,0,0,1,1,3,3,4,4,6,6,8,8,9,9,12,12,15,15,16,16,19,19],"right_children":[2,4,-1,6,8,-1,10,-1,12,14,-1,-1,16,-1,-1,18,20,-1,-1,22,-1,-1,-1],"split_conditions":[7.3333335E-1,1.6E-3,1.06432606E-4,9.5E-4,1.6E-3,-9.338451E-6,8E-4,1.4480762E-4,7.9E-3,8E-4,-2.139042E-6,-2.1007056E-6,1.04875E-2,4.6290927E-5,7.2707257E-6,6.5345236E-4,3E-3,2.991523E-6,5.2665117E-5,3.2291668E1,-8.975577E-6,4.37872E-5,1.1136544E-5],"split_indices":[77,65,0,65,48,0,62,0,47,60,0,0,57,0,0,66,60,0,0,33,0,0,0],"split_type":[0,0,0,0,0,0,0,0,0,0,0,0,0,0,0,0,0,0,0,0,0,0,0],"sum_hessian":[7.48E2,7.44E2,4E0,5.37E2,2.07E2,2.23E2,3.14E2,1E0,2.06E2,4E1,2.74E2,7.2E1,1.34E2,4E0,3.6E1,2.4E1,1.1E2,8E0,1.6E1,9.6E1,1.4E1,8E0,8.8E1],"tree_param":{"num_deleted":"0","num_feature":"89","num_nodes":"23","size_leaf_vector":"1"}},{"base_weights":[1.0683818E-5,-4.287143E-6,6.968089E-4,1.1507412E-3,-9.015009E-6,1.4678523E-5,1.1872011E-3,-9.2636793E-7,1.3901532E-4,-6.6371176E-5,9.0535854E-5,3.9654577E-5,1.2023807E-4,-1.11296085E-5,-2.6377652E-6,2.199246E-6,1.5927685E-4,1.4607861E-5,-2.1594858E-5],"categories":[],"categories_nodes":[],"categories_segments":[],"categories_sizes":[],"default_left":[0,0,0,0,0,0,0,0,0,0,0,0,0,0,0,0,0,0,0],"id":24,"left_children":[1,3,5,7,9,-1,11,-1,-1,13,15,-1,-1,-1,-1,-1,17,-1,-1],"loss_changes":[7.69668E-6,4.0186155E-6,3.809877E-6,2.0667953E-6,4.185623E-6,0E0,1.0019157E-6,0E0,0E0,1.1252464E-6,1.1570789E-6,0E0,0E0,0E0,0E0,0E0,1.3305489E-6,0E0,0E0],"parents":[2147483647,0,0,1,1,2,2,3,3,4,4,6,6,9,9,10,10,16,16],"right_children":[2,4,6,8,10,-1,12,-1,-1,14,16,-1,-1,-1,-1,-1,18,-1,-1],"split_conditions":[6.8E-1,1.6E-3,1.7E-3,2.98E1,1.4E-3,1.4678523E-5,5.4173684E-3,-9.2636793E-7,1.3901532E-4,5.9E-3,4.1673332E-4,3.9654577E-5,1.2023807E-4,-1.11296085E-5,-2.6377652E-6,2.199246E-6,3.2E-3,1.4607861E-5,-2.1594858E-5],"split_indices":[71,48,61,0,59,0,56,0,0,47,66,0,0,0,0,0,62,0,0],"split_type":[0,0,0,0,0,0,0,0,0,0,0,0,0,0,0,0,0,0,0],"sum_hessian":[7.48E2,7.33E2,1.5E1,2E0,7.31E2,8E0,7E0,1E0,1E0,4.64E2,2.67E2,3E0,4E0,1.45E2,3.19E2,1.4E2,1.27E2,1.21E2,6E0],"tree_param":{"num_deleted":"0","num_feature":"89","num_nodes":"19","size_leaf_vector":"1"}},{"base_weights":[1.0221771E-5,2.3148154E-6,9.49051E-5,-3.78006E-5,1.3926321E-4,-6.9101584E-6,1.3894577E-6,1.334547E-4,1.2023283E-4,9.361164E-5,4.2518917E-5,1.3981183E-4,-1.4852068E-5,2.9569556E-4,5.512037E-5,9.273365E-6,3.5468598E-5,1.7669141E-5,-2.1837309E-6],"categories":[],"categories_nodes":[],"categories_segments":[],"categories_sizes":[],"default_left":[0,0,0,0,0,0,0,0,0,0,0,0,0,0,0,0,0,0,0],"id":25,"left_children":[1,3,-1,5,7,-1,-1,-1,9,11,-1,13,-1,15,17,-1,-1,-1,-1],"loss_changes":[6.962436E-6,4.098102E-6,0E0,1.5478037E-6,4.716644E-6,0E0,0E0,0E0,1.7895209E-6,2.077371E-6,0E0,1.7923778E-6,0E0,1.2228365E-6,1.2354394E-6,0E0,0E0,0E0,0E0],"parents":[2147483647,0,0,1,1,3,3,4,4,8,8,9,9,11,11,13,13,14,14],"right_children":[2,4,-1,6,8,-1,-1,-1,10,12,-1,14,-1,16,18,-1,-1,-1,-1],"split_conditions":[7.3333335E-1,1.7333333E-3,9.49051E-5,1.1E-3,1.0072E3,-6.9101584E-6,1.3894577E-6,1.334547E-4,6.6E-1,1.5552063E-3,4.2518917E-5,3.2093613E0,-1.4852068E-5,5.573748E-4,2E-3,9.273365E-6,3.5468598E-5,1.7669141E-5,-2.1837309E-6],"split_indices":[77,65,0,59,2,0,0,0,71,66,0,18,0,66,61,0,0,0,0],"split_type":[0,0,0,0,0,0,0,0,0,0,0,0,0,0,0,0,0,0,0],"sum_hessian":[7.48E2,7.44E2,4E0,5.76E2,1.68E2,3.06E2,2.7E2,1E0,1.67E2,1.58E2,9E0,1.36E2,2.2E1,4.7E1,8.9E1,2.2E1,2.5E1,2.9E1,6E1],"tree_param":{"num_deleted":"0","num_feature":"89","num_nodes":"19","size_leaf_vector":"1"}},{"base_weights":[9.818917E-6,2.4193548E-6,8.8831184E-5,-4.0395687E-5,1.13150476E-4,-1.1258316E-5,-1.7728891E-5,1.2811652E-4,9.822409E-5,-4.5997704E-6,4.3396678E-5,1.3825505E-4,-8.7623375E-6,6.8730546E-6,-8.882282E-6,7.262218E-5,2.5564633E-4,1.4668868E-5,-9.580003E-7,3.3446788E-4,-1.0900571E-6,1.8254761E-5,5.7242098E-5],"categories":[],"categories_nodes":[],"categories_segments":[],"categories_sizes":[],"default_left":[0,0,0,0,0,0,0,0,0,0,0,0,0,0,0,0,0,0,0,0,0,0,0],"id":26,"left_children":[1,3,-1,5,7,-1,9,-1,11,-1,13,15,-1,-1,-1,17,19,-1,-1,21,-1,-1,-1],"loss_changes":[6.0969764E-6,3.5365838E-6,0E0,1.2210428E-6,4.4634257E-6,0E0,1.0720719E-6,0E0,1.7366722E-6,0E0,1.1519566E-6,1.3220565E-6,0E0,0E0,0E0,1.0608001E-6,1.3204726E-6,0E0,0E0,1.780736E-6,0E0,0E0,0E0],"parents":[2147483647,0,0,1,1,3,3,4,4,6,6,8,8,10,10,11,11,15,15,16,16,19,19],"right_children":[2,4,-1,6,8,-1,10,-1,12,-1,14,16,-1,-1,-1,18,20,-1,-1,22,-1,-1,-1],"split_conditions":[7.3333335E-1,1.6E-3,8.8831184E-5,6.5E-4,1.6E-3,-1.1258316E-5,2.7768088E-3,1.2811652E-4,9.659258E-1,-4.5997704E-6,8.660254E-1,2.3E-3,-8.7623375E-6,6.8730546E-6,-8.882282E-6,1.9E-3,3E-3,1.4668868E-5,-9.580003E-7,9.647313E-4,-1.0900571E-6,1.8254761E-5,5.7242098E-5],"split_indices":[77,65,0,65,48,0,54,0,7,0,7,59,0,0,0,61,60,0,0,70,0,0,0],"split_type":[0,0,0,0,0,0,0,0,0,0,0,0,0,0,0,0,0,0,0,0,0,0,0],"sum_hessian":[7.48E2,7.44E2,4E0,5.37E2,2.07E2,9.8E1,4.39E2,1E0,2.06E2,2.66E2,1.73E2,1.73E2,3.3E1,1.36E2,3.7E1,1.12E2,6.1E1,4.8E1,6.4E1,4.7E1,1.4E1,3.8E1,9E0],"tree_param":{"num_deleted":"0","num_feature":"89","num_nodes":"23","size_leaf_vector":"1"}},{"base_weights":[9.405144E-6,-3.2031103E-6,5.87221E-4,1.0213578E-3,-7.397755E-6,5.6755844E-6,9.808864E-4,-4.2891594E-7,1.2299186E-4,-4.8591146E-6,4.978994E-6,3.93035E-5,1.1760429E-4],"categories":[],"categories_nodes":[],"categories_segments":[],"categories_sizes":[],"default_left":[0,0,0,0,0,0,0,0,0,0,0,0,0],"id":27,"left_children":[1,3,5,7,9,-1,11,-1,-1,-1,-1,-1,-1],"loss_changes":[5.4585325E-6,3.1620448E-6,3.1822528E-6,1.5977282E-6,2.7227375E-6,0E0,1.4332054E-6,0E0,0E0,0E0,0E0,0E0,0E0],"parents":[2147483647,0,0,1,1,2,2,3,3,4,4,6,6],"right_children":[2,4,6,8,10,-1,12,-1,-1,-1,-1,-1,-1],"split_conditions":[6.8E-1,1.6E-3,1.45E-2,2.98E1,1.3E-3,5.6755844E-6,2.8170906E-3,-4.2891594E-7,1.2299186E-4,-4.8591146E-6,4.978994E-6,3.93035E-5,1.1760429E-4],"split_indices":[71,48,52,0,59,0,66,0,0,0,0,0,0],"split_type":[0,0,0,0,0,0,0,0,0,0,0,0,0],"sum_hessian":[7.48E2,7.33E2,1.5E1,2E0,7.31E2,7E0,8E0,1E0,1E0,4.14E2,3.17E2,5E0,3E0],"tree_param":{"num_deleted":"0","num_feature":"89","num_nodes":"13","size_leaf_vector":"1"}},{"base_weights":[9.033585E-6,2.436772E-6,7.921216E-5,9.805035E-4,-1.515633E-6,-4.1175866E-7,1.1807218E-4,-3.3646807E-5,1.205926E-4,-7.209528E-6,2.5261809E-6,8.644494E-6,5.7580222E-5,-1.2680826E-5,2.03563E-5,4.7136035E-7,3.1889224E-4,5.369952E-5,7.5266956E-7],"categories":[],"categories_nodes":[],"categories_segments":[],"categories_sizes":[],"default_left":[0,0,0,0,0,0,0,0,0,0,0,0,0,0,0,0,0,0,0],"id":28,"left_children":[1,3,-1,5,7,-1,-1,9,11,-1,13,-1,-1,-1,15,-1,17,-1,-1],"loss_changes":[4.8453057E-6,2.8814443E-6,0E0,1.4724669E-6,2.919204E-6,0E0,0E0,1.2034202E-6,1.0864819E-6,0E0,1.0368948E-6,0E0,0E0,0E0,1.4015075E-6,0E0,1.6293927E-6,0E0,0E0],"parents":[2147483647,0,0,1,1,3,3,4,4,7,7,8,8,10,10,14,14,16,16],"right_children":[2,4,-1,6,8,-1,-1,10,12,-1,14,-1,-1,-1,16,-1,18,-1,-1],"split_conditions":[7.3333335E-1,1.6E-3,7.921216E-5,2.98E1,1.8E-3,-4.1175866E-7,1.1807218E-4,7.1E-3,7E-1,-7.209528E-6,2.9014614E0,8.644494E-6,5.7580222E-5,-1.2680826E-5,6.5345236E-4,4.7136035E-7,1.2625E-2,5.369952E-5,7.5266956E-7],"split_indices":[77,48,0,0,59,0,0,47,76,0,22,0,0,0,66,0,55,0,0],"split_type":[0,0,0,0,0,0,0,0,0,0,0,0,0,0,0,0,0,0,0],"sum_hessian":[7.48E2,7.44E2,4E0,2E0,7.42E2,1E0,1E0,5.88E2,1.54E2,2.29E2,3.59E2,1.52E2,2E0,3.5E1,3.24E2,3.1E2,1.4E1,6E0,8E0],"tree_param":{"num_deleted":"0","num_feature":"89","num_nodes":"19","size_leaf_vector":"1"}},{"base_weights":[8.708924E-6,-2.4846265E-6,5.216687E-4,9.412834E-4,-6.349134E-6,4.212705E-6,8.806032E-4,-3.9528823E-7,1.1334929E-4,-2.6474788E-6,7.952499E-6,3.4853758E-5,1.0622795E-4],"categories":[],"categories_nodes":[],"categories_segments":[],"categories_sizes":[],"default_left":[0,0,0,0,0,0,0,0,0,0,0,0,0],"id":29,"left_children":[1,3,5,7,9,-1,11,-1,-1,-1,-1,-1,-1],"loss_changes":[4.3019354E-6,2.6830203E-6,2.6471298E-6,1.357025E-6,2.0736481E-6,0E0,1.2124374E-6,0E0,0E0,0E0,0E0,0E0,0E0],"parents":[2147483647,0,0,1,1,2,2,3,3,4,4,6,6],"right_children":[2,4,6,8,10,-1,12,-1,-1,-1,-1,-1,-1],"split_conditions":[6.8E-1,1.6E-3,1.45E-2,2.98E1,1.8E-3,4.212705E-6,2.8170906E-3,-3.9528823E-7,1.1334929E-4,-2.6474788E-6,7.952499E-6,3.4853758E-5,1.0622795E-4],"split_indices":[71,48,52,0,59,0,66,0,0,0,0,0,0],"split_type":[0,0,0,0,0,0,0,0,0,0,0,0,0],"sum_hessian":[7.48E2,7.33E2,1.5E1,2E0,7.31E2,7E0,8E0,1E0,1E0,5.84E2,1.47E2,5E0,3E0],"tree_param":{"num_deleted":"0","num_feature":"89","num_nodes":"13","size_leaf_vector":"1"}},{"base_weights":[8.364096E-6,2.4904923E-6,7.054866E-5,9.03632E-4,-1.1513855E-6,-3.794767E-7,1.08815315E-4,-3.3619075E-5,6.9252446E-6,-3.8340645E-6,9.682386E-5,2.6685875E-6,3.2836004E-5],"categories":[],"categories_nodes":[],"categories_segments":[],"categories_sizes":[],"default_left":[0,0,0,0,0,0,0,0,0,0,0,0,0],"id":30,"left_children":[1,3,-1,5,7,-1,-1,9,-1,-1,11,-1,-1],"loss_changes":[3.840592E-6,2.4460167E-6,0E0,1.2506343E-6,2.1189494E-6,0E0,0E0,1.0179937E-6,0E0,0E0,1.0611657E-6,0E0,0E0],"parents":[2147483647,0,0,1,1,3,3,4,4,7,7,10,10],"right_children":[2,4,-1,6,8,-1,-1,10,-1,-1,12,-1,-1],"split_conditions":[7.3333335E-1,1.6E-3,7.054866E-5,2.98E1,1.6E-3,-3.794767E-7,1.08815315E-4,9.659258E-1,6.9252446E-6,-3.8340645E-6,4.163332E-4,2.6685875E-6,3.2836004E-5],"split_indices":[77,48,0,0,59,0,0,8,0,0,68,0,0],"split_type":[0,0,0,0,0,0,0,0,0,0,0,0,0],"sum_hessian":[7.48E2,7.44E2,4E0,2E0,7.42E2,1E0,1E0,5.42E2,2E2,4.89E2,5.3E1,4.5E1,8E0],"tree_param":{"num_deleted":"0","num_feature":"89","num_nodes":"13","size_leaf_vector":"1"}},{"base_weights":[7.985453E-6,-2.044742E-6,4.6762155E-4,8.674866E-4,-5.6056015E-6,2.5802758E-6,8.0265745E-4,-3.6429847E-7,1.0446269E-4,-3.7235845E-6,3.8271182E-6,3.1723004E-5,9.689383E-5],"categories":[],"categories_nodes":[],"categories_segments":[],"categories_sizes":[],"default_left":[0,0,0,0,0,0,0,0,0,0,0,0,0],"id":31,"left_children":[1,3,5,7,9,-1,11,-1,-1,-1,-1,-1,-1],"loss_changes":[3.4540253E-6,2.2775316E-6,2.3079347E-6,1.1525842E-6,1.603827E-6,0E0,1.0128806E-6,0E0,0E0,0E0,0E0,0E0,0E0],"parents":[2147483647,0,0,1,1,2,2,3,3,4,4,6,6],"right_children":[2,4,6,8,10,-1,12,-1,-1,-1,-1,-1,-1],"split_conditions":[6.8E-1,1.6E-3,1.45E-2,2.98E1,1.3E-3,2.5802758E-6,2.8170906E-3,-3.6429847E-7,1.0446269E-4,-3.7235845E-6,3.8271182E-6,3.1723004E-5,9.689383E-5],"split_indices":[71,48,52,0,59,0,66,0,0,0,0,0,0],"split_type":[0,0,0,0,0,0,0,0,0,0,0,0,0],"sum_hessian":[7.48E2,7.33E2,1.5E1,2E0,7.31E2,7E0,8E0,1E0,1E0,4.14E2,3.17E2,5E0,3E0],"tree_param":{"num_deleted":"0","num_feature":"89","num_nodes":"13","size_leaf_vector":"1"}},{"base_weights":[7.660891E-6,2.4310143E-6,6.2830426E-5,8.3278713E-4,-9.249741E-7,-3.4972558E-7,1.0028418E-4,-1.9588351E-5,1.3135163E-4,2.1425089E-5,-6.8842864E-6,4.5201577E-6,3.665976E-5,-7.500603E-7,1.0078562E-5],"categories":[],"categories_nodes":[],"categories_segments":[],"categories_sizes":[],"default_left":[0,0,0,0,0,0,0,0,0,0,0,0,0,0,0],"id":32,"left_children":[1,3,-1,5,7,-1,-1,9,11,13,-1,-1,-1,-1,-1],"loss_changes":[3.0445558E-6,2.0768362E-6,0E0,1.0622216E-6,1.8368379E-6,0E0,0E0,1.7791745E-6,2.2251647E-6,1.3022396E-6,0E0,0E0,0E0,0E0,0E0],"parents":[2147483647,0,0,1,1,3,3,4,4,7,7,8,8,9,9],"right_children":[2,4,-1,6,8,-1,-1,10,12,14,-1,-1,-1,-1,-1],"split_conditions":[7.3333335E-1,1.6E-3,6.2830426E-5,2.98E1,9.659258E-1,-3.4972558E-7,1.0028418E-4,2.49E1,7.9603185E-4,1.7166666E-3,-6.8842864E-6,4.5201577E-6,3.665976E-5,-7.500603E-7,1.0078562E-5],"split_indices":[77,48,0,0,8,0,0,0,66,65,0,0,0,0,0],"split_type":[0,0,0,0,0,0,0,0,0,0,0,0,0,0,0],"sum_hessian":[7.48E2,7.44E2,4E0,2E0,7.42E2,1E0,1E0,6.51E2,9.1E1,4.03E2,2.48E2,7.5E1,1.6E1,3.12E2,9.1E1],"tree_param":{"num_deleted":"0","num_feature":"89","num_nodes":"15","size_leaf_vector":"1"}},{"base_weights":[7.323582E-6,-1.6289223E-6,4.1756197E-4,6.395806E-5,-4.9099126E-6,1.5528476E-6,5.8006284E-5,-1.2049644E-5,7.3836027E-6,-4.7419376E-6,3.2247E-5,2.2155722E-7,1.0437545E-4,2.1521334E-4,1.1520366E-6,8.457048E-6,3.2465054E-5],"categories":[],"categories_nodes":[],"categories_segments":[],"categories_sizes":[],"default_left":[0,0,0,0,0,0,0,0,0,0,0,0,0,0,0,0,0],"id":33,"left_children":[1,3,5,-1,7,-1,-1,-1,9,-1,11,-1,13,15,-1,-1,-1],"loss_changes":[2.7515032E-6,1.933183E-6,1.9449362E-6,0E0,1.3123407E-6,0E0,0E0,0E0,1.1222733E-6,0E0,1.0479123E-6,0E0,1.422988E-6,1.2928267E-6,0E0,0E0,0E0],"parents":[2147483647,0,0,1,1,2,2,4,4,8,8,10,10,12,12,13,13],"right_children":[2,4,6,-1,8,-1,-1,-1,10,-1,12,-1,14,16,-1,-1,-1],"split_conditions":[6.8E-1,1.6E-3,1.45E-2,6.395806E-5,2.6899942E-3,1.5528476E-6,5.8006284E-5,-1.2049644E-5,6.4E-3,-4.7419376E-6,4.1673332E-4,2.2155722E-7,1.2246469E-16,-2.5881904E-1,1.1520366E-6,8.457048E-6,3.2465054E-5],"split_indices":[71,48,52,0,58,0,0,0,47,0,66,0,7,7,0,0,0],"split_type":[0,0,0,0,0,0,0,0,0,0,0,0,0,0,0,0,0],"sum_hessian":[7.48E2,7.33E2,1.5E1,2E0,7.31E2,7E0,8E0,5.6E1,6.75E2,1.83E2,4.92E2,3.5E2,1.42E2,6.3E1,7.9E1,4.1E1,2.2E1],"tree_param":{"num_deleted":"0","num_feature":"89","num_nodes":"17","size_leaf_vector":"1"}},{"base_weights":[6.9366642E-6,1.4122122E-7,5.091058E-4,7.568372E-4,-2.9349699E-6,1.1453164E-5,6.771313E-5,-2.8940592E-6,9.3714516E-5,-1.9373827E-5,1.1270498E-4,1.3189186E-6,-6.170793E-6,5.793731E-6,4.7321108E-5],"categories":[],"categories_nodes":[],"categories_segments":[],"categories_sizes":[],"default_left":[0,0,0,0,0,0,0,0,0,0,0,0,0,0,0],"id":34,"left_children":[1,3,5,7,9,-1,-1,-1,-1,11,13,-1,-1,-1,-1],"loss_changes":[2.555862E-6,1.7247498E-6,1.113174E-6,1.0287133E-6,1.4051132E-6,0E0,0E0,0E0,0E0,1.3414226E-6,1.7316597E-6,0E0,0E0,0E0,0E0],"parents":[2147483647,0,0,1,1,2,2,3,3,4,4,9,9,10,10],"right_children":[2,4,6,8,10,-1,-1,-1,-1,12,14,-1,-1,-1,-1],"split_conditions":[7.4E-1,1.6E-3,3.8E1,2.98E1,9.659258E-1,1.1453164E-5,6.771313E-5,-2.8940592E-6,9.3714516E-5,2.49E1,2.5166667E-3,1.3189186E-6,-6.170793E-6,5.793731E-6,4.7321108E-5],"split_indices":[73,48,12,0,8,0,0,0,0,0,65,0,0,0,0],"split_type":[0,0,0,0,0,0,0,0,0,0,0,0,0,0,0],"sum_hessian":[7.48E2,7.39E2,9E0,2E0,7.37E2,5E0,4E0,1E0,1E0,6.46E2,9.1E1,3.99E2,2.47E2,8.5E1,6E0],"tree_param":{"num_deleted":"0","num_feature":"89","num_nodes":"15","size_leaf_vector":"1"}},{"base_weights":[6.6731304E-6,3.1788434E-7,3.810352E-5,5.8125097E-5,-2.6347655E-6,-1.7831406E-5,1.042659E-4,1.2136708E-6,-5.6791205E-6,3.3169317E-6,3.0312363E-5],"categories":[],"categories_nodes":[],"categories_segments":[],"categories_sizes":[],"default_left":[0,0,0,0,0,0,0,0,0,0,0],"id":35,"left_children":[1,3,-1,-1,5,7,9,-1,-1,-1,-1],"loss_changes":[2.2352813E-6,1.588733E-6,0E0,0E0,1.2007631E-6,1.1361235E-6,1.5711496E-6,0E0,0E0,0E0,0E0],"parents":[2147483647,0,0,1,1,4,4,5,5,6,6],"right_children":[2,4,-1,-1,6,8,10,-1,-1,-1,-1],"split_conditions":[7.4E-1,1.6E-3,3.810352E-5,5.8125097E-5,9.659258E-1,2.49E1,7.9603185E-4,1.2136708E-6,-5.6791205E-6,3.3169317E-6,3.0312363E-5],"split_indices":[73,48,0,0,8,0,66,0,0,0,0],"split_type":[0,0,0,0,0,0,0,0,0,0,0],"sum_hessian":[7.48E2,7.39E2,9E0,2E0,7.37E2,6.46E2,9.1E1,3.99E2,2.47E2,7.5E1,1.6E1],"tree_param":{"num_deleted":"0","num_feature":"89","num_nodes":"11","size_leaf_vector":"1"}},{"base_weights":[6.3067055E-6,1.9764557E-6,5.2020205E-5,5.5025102E-5,-7.9539967E-7,-1.9628853E-6,6.512815E-5,7.5227996E-7,1.2939338E-5],"categories":[],"categories_nodes":[],"categories_segments":[],"categories_sizes":[],"default_left":[0,0,0,0,0,0,0,0,0],"id":36,"left_children":[1,3,-1,-1,5,-1,7,-1,-1],"loss_changes":[2.087261E-6,1.4168232E-6,0E0,0E0,1.1644443E-6,0E0,1.0590794E-6,0E0,0E0],"parents":[2147483647,0,0,1,1,4,4,6,6],"right_children":[2,4,-1,-1,6,-1,8,-1,-1],"split_conditions":[7.3333335E-1,1.6E-3,5.2020205E-5,5.5025102E-5,1.43E-2,-1.9628853E-6,3.6193922E-4,7.5227996E-7,1.2939338E-5],"split_indices":[77,48,0,0,47,0,66,0,0],"split_type":[0,0,0,0,0,0,0,0,0],"sum_hessian":[7.48E2,7.44E2,4E0,2E0,7.42E2,5.46E2,1.96E2,1.25E2,7.1E1],"tree_param":{"num_deleted":"0","num_feature":"89","num_nodes":"9","size_leaf_vector":"1"}},{"base_weights":[5.960746E-6,-1.4324236E-6,3.4474983E-4,6.5113034E-4,-3.2839233E-7,-9.289943E-8,4.9113667E-5,-7.3043025E-6,8.543994E-5],"categories":[],"categories_nodes":[],"categories_segments":[],"categories_sizes":[],"default_left":[0,0,0,0,0,0,0,0,0],"id":37,"left_children":[1,3,5,7,-1,-1,-1,-1,-1],"loss_changes":[1.8765329E-6,1.2827404E-6,1.4904604E-6,1.0260056E-6,0E0,0E0,0E0,0E0,0E0],"parents":[2147483647,0,0,1,1,2,2,3,3],"right_children":[2,4,6,8,-1,-1,-1,-1,-1],"split_conditions":[6.8E-1,1.6E-3,1.45E-2,2.98E1,-3.2839233E-7,-9.289943E-8,4.9113667E-5,-7.3043025E-6,8.543994E-5],"split_indices":[71,48,52,0,0,0,0,0,0],"split_type":[0,0,0,0,0,0,0,0,0],"sum_hessian":[7.48E2,7.33E2,1.5E1,2E0,7.31E2,7E0,8E0,1E0,1E0],"tree_param":{"num_deleted":"0","num_feature":"89","num_nodes":"9","size_leaf_vector":"1"}},{"base_weights":[5.653219E-6,1.7300457E-6,4.712603E-5,5.000682E-5,-7.8919464E-7,-1.0423879E-5,7.9658133E-7],"categories":[],"categories_nodes":[],"categories_segments":[],"categories_sizes":[],"default_left":[0,0,0,0,0,0,0],"id":38,"left_children":[1,3,-1,-1,5,-1,-1],"loss_changes":[1.7133418E-6,1.1704275E-6,0E0,0E0,1.03538E-6,0E0,0E0],"parents":[2147483647,0,0,1,1,4,4],"right_children":[2,4,-1,-1,6,-1,-1],"split_conditions":[7.3333335E-1,1.6E-3,4.712603E-5,5.000682E-5,2.6899942E-3,-1.0423879E-5,7.9658133E-7],"split_indices":[77,48,0,0,58,0,0],"split_type":[0,0,0,0,0,0,0],"sum_hessian":[7.48E2,7.44E2,4E0,2E0,7.42E2,5.6E1,6.86E2],"tree_param":{"num_deleted":"0","num_feature":"89","num_nodes":"7","size_leaf_vector":"1"}},{"base_weights":[5.3177755E-6,-9.857649E-7,1.2543377E-4,4.927395E-4,3.212488E-6,7.179909E-5,1.228655E-5],"categories":[],"categories_nodes":[],"categories_segments":[],"categories_sizes":[],"default_left":[0,0,0,0,0,0,0],"id":39,"left_children":[1,-1,3,5,-1,-1,-1],"loss_changes":[1.5885469E-6,0E0,2.9872185E-6,2.3330904E-6,0E0,0E0,0E0],"parents":[2147483647,0,0,2,2,3,3],"right_children":[2,-1,4,6,-1,-1,-1],"split_conditions":[1.9916666E-3,-9.857649E-7,1.6E-3,1.4E-3,3.212488E-6,7.179909E-5,1.228655E-5],"split_indices":[67,0,62,63,0,0,0],"split_type":[0,0,0,0,0,0,0],"sum_hessian":[7.48E2,6.53E2,9.5E1,1.7E1,7.8E1,7E0,1E1],"tree_param":{"num_deleted":"0","num_feature":"89","num_nodes":"7","size_leaf_vector":"1"}},{"base_weights":[5.0076023E-6,-9.615942E-9,3.0717132E-5],"categories":[],"categories_nodes":[],"categories_segments":[],"categories_sizes":[],"default_left":[0,0,0],"id":40,"left_children":[1,-1,-1],"loss_changes":[1.4555135E-6,0E0,0E0],"parents":[2147483647,0,0],"right_children":[2,-1,-1],"split_conditions":[7.4E-1,-9.615942E-9,3.0717132E-5],"split_indices":[73,0,0],"split_type":[0,0,0],"sum_hessian":[7.48E2,7.39E2,9E0],"tree_param":{"num_deleted":"0","num_feature":"89","num_nodes":"3","size_leaf_vector":"1"}},{"base_weights":[4.6480072E-6,-1.3231308E-7,2.934581E-4,-5.777506E-7,4.224982E-5],"categories":[],"categories_nodes":[],"categories_segments":[],"categories_sizes":[],"default_left":[0,0,0,0,0],"id":41,"left_children":[1,-1,3,-1,-1],"loss_changes":[1.3637092E-6,0E0,1.1327576E-6,0E0,0E0],"parents":[2147483647,0,0,2,2],"right_children":[2,-1,4,-1,-1],"split_conditions":[6.8E-1,-1.3231308E-7,1.45E-2,-5.777506E-7,4.224982E-5],"split_indices":[71,0,52,0,0],"split_type":[0,0,0,0,0],"sum_hessian":[7.48E2,7.33E2,1.5E1,7E0,8E0],"tree_param":{"num_deleted":"0","num_feature":"89","num_nodes":"5","size_leaf_vector":"1"}},{"base_weights":[4.331646E-6,-1.3348885E-6,8.8373774E-5,4.496645E-5,6.1254694E-5,2.8624606E-6,4.408522E-5],"categories":[],"categories_nodes":[],"categories_segments":[],"categories_sizes":[],"default_left":[0,0,0,0,0,0,0],"id":42,"left_children":[1,-1,3,-1,5,-1,-1],"loss_changes":[1.3244905E-6,0E0,1.8925446E-6,0E0,1.7645508E-6,0E0,0E0],"parents":[2147483647,0,0,2,2,4,4],"right_children":[2,-1,4,-1,6,-1,-1],"split_conditions":[1.75E-3,-1.3348885E-6,1.8E1,4.496645E-5,6.8E-1,2.8624606E-6,4.408522E-5],"split_indices":[67,0,26,0,71,0,0],"split_type":[0,0,0,0,0,0,0],"sum_hessian":[7.48E2,5.99E2,1.49E2,7E0,1.42E2,1.36E2,6E0],"tree_param":{"num_deleted":"0","num_feature":"89","num_nodes":"7","size_leaf_vector":"1"}},{"base_weights":[4.1060675E-6,-1.1082733E-6,8.972741E-5,7.5357144E-5,7.5818876E-5,4.872741E-5,3.8358907E-5,9.4616495E-5,-1.2232716E-5,1.4548759E-4,-8.294695E-6,7.895045E-6,4.4347777E-5],"categories":[],"categories_nodes":[],"categories_segments":[],"categories_sizes":[],"default_left":[0,0,0,0,0,0,0,0,0,0,0,0,0],"id":43,"left_children":[1,-1,3,-1,5,7,-1,9,-1,11,-1,-1,-1],"loss_changes":[1.1529917E-6,0E0,1.4695192E-6,0E0,1.3873725E-6,1.1433226E-6,0E0,1.0238593E-6,0E0,1.4760474E-6,0E0,0E0,0E0],"parents":[2147483647,0,0,2,2,4,4,5,5,7,7,9,9],"right_children":[2,-1,4,-1,6,8,-1,10,-1,12,-1,-1,-1],"split_conditions":[1.9333333E-3,-1.1082733E-6,1.0072E3,7.5357144E-5,6.8E-1,1.5552063E-3,3.8358907E-5,2.9E-3,-1.2232716E-5,9.647313E-4,-8.294695E-6,7.895045E-6,4.4347777E-5],"split_indices":[65,0,2,0,71,66,0,60,0,70,0,0,0],"split_type":[0,0,0,0,0,0,0,0,0,0,0,0,0],"sum_hessian":[7.48E2,6.19E2,1.29E2,1E0,1.28E2,1.21E2,7E0,9.9E1,2.2E1,7.9E1,2E1,7.2E1,7E0],"tree_param":{"num_deleted":"0","num_feature":"89","num_nodes":"13","size_leaf_vector":"1"}},{"base_weights":[3.9702677E-6,-3.881677E-8,2.6662285E-5],"categories":[],"categories_nodes":[],"categories_segments":[],"categories_sizes":[],"default_left":[0,0,0],"id":44,"left_children":[1,-1,-1],"loss_changes":[1.0991138E-6,0E0,0E0],"parents":[2147483647,0,0],"right_children":[2,-1,-1],"split_conditions":[7.4E-1,-3.881677E-8,2.6662285E-5],"split_indices":[73,0,0],"split_type":[0,0,0],"sum_hessian":[7.48E2,7.39E2,9E0],"tree_param":{"num_deleted":"0","num_feature":"89","num_nodes":"3","size_leaf_vector":"1"}},{"base_weights":[3.6881736E-6,-9.531871E-7,9.0704205E-5,2.8602299E-6,2.1315633E-5],"categories":[],"categories_nodes":[],"categories_segments":[],"categories_sizes":[],"default_left":[0,0,0,0,0],"id":45,"left_children":[1,-1,3,-1,-1],"loss_changes":[1.0180072E-6,0E0,1.0913964E-6,0E0,0E0],"parents":[2147483647,0,0,2,2],"right_children":[2,-1,4,-1,-1],"split_conditions":[5.1E-1,-9.531871E-7,3.65E-2,2.8602299E-6,2.1315633E-5],"split_indices":[71,0,35,0,0],"split_type":[0,0,0,0,0],"sum_hessian":[7.48E2,6.35E2,1.13E2,8.7E1,2.6E1],"tree_param":{"num_deleted":"0","num_feature":"89","num_nodes":"5","size_leaf_vector":"1"}},{"base_weights":[3.4241395E-6],"categories":[],"categories_nodes":[],"categories_segments":[],"categories_sizes":[],"default_left":[0],"id":46,"left_children":[-1],"loss_changes":[0E0],"parents":[2147483647],"right_children":[-1],"split_conditions":[2.7393116E-7],"split_indices":[0],"split_type":[0],"sum_hessian":[7.48E2],"tree_param":{"num_deleted":"0","num_feature":"89","num_nodes":"1","size_leaf_vector":"1"}},{"base_weights":[3.150569E-6],"categories":[],"categories_nodes":[],"categories_segments":[],"categories_sizes":[],"default_left":[0],"id":47,"left_children":[-1],"loss_changes":[0E0],"parents":[2147483647],"right_children":[-1],"split_conditions":[2.520455E-7],"split_indices":[0],"split_type":[0],"sum_hessian":[7.48E2],"tree_param":{"num_deleted":"0","num_feature":"89","num_nodes":"1","size_leaf_vector":"1"}},{"base_weights":[2.898853E-6],"categories":[],"categories_nodes":[],"categories_segments":[],"categories_sizes":[],"default_left":[0],"id":48,"left_children":[-1],"loss_changes":[0E0],"parents":[2147483647],"right_children":[-1],"split_conditions":[2.3190823E-7],"split_indices":[0],"split_type":[0],"sum_hessian":[7.48E2],"tree_param":{"num_deleted":"0","num_feature":"89","num_nodes":"1","size_leaf_vector":"1"}},{"base_weights":[2.6672633E-6],"categories":[],"categories_nodes":[],"categories_segments":[],"categories_sizes":[],"default_left":[0],"id":49,"left_children":[-1],"loss_changes":[0E0],"parents":[2147483647],"right_children":[-1],"split_conditions":[2.1338106E-7],"split_indices":[0],"split_type":[0],"sum_hessian":[7.48E2],"tree_param":{"num_deleted":"0","num_feature":"89","num_nodes":"1","size_leaf_vector":"1"}},{"base_weights":[2.4541735E-6],"categories":[],"categories_nodes":[],"categories_segments":[],"categories_sizes":[],"default_left":[0],"id":50,"left_children":[-1],"loss_changes":[0E0],"parents":[2147483647],"right_children":[-1],"split_conditions":[1.9633387E-7],"split_indices":[0],"split_type":[0],"sum_hessian":[7.48E2],"tree_param":{"num_deleted":"0","num_feature":"89","num_nodes":"1","size_leaf_vector":"1"}},{"base_weights":[2.2581362E-6],"categories":[],"categories_nodes":[],"categories_segments":[],"categories_sizes":[],"default_left":[0],"id":51,"left_children":[-1],"loss_changes":[0E0],"parents":[2147483647],"right_children":[-1],"split_conditions":[1.8065089E-7],"split_indices":[0],"split_type":[0],"sum_hessian":[7.48E2],"tree_param":{"num_deleted":"0","num_feature":"89","num_nodes":"1","size_leaf_vector":"1"}},{"base_weights":[2.0777015E-6],"categories":[],"categories_nodes":[],"categories_segments":[],"categories_sizes":[],"default_left":[0],"id":52,"left_children":[-1],"loss_changes":[0E0],"parents":[2147483647],"right_children":[-1],"split_conditions":[1.6621613E-7],"split_indices":[0],"split_type":[0],"sum_hessian":[7.48E2],"tree_param":{"num_deleted":"0","num_feature":"89","num_nodes":"1","size_leaf_vector":"1"}},{"base_weights":[1.911686E-6],"categories":[],"categories_nodes":[],"categories_segments":[],"categories_sizes":[],"default_left":[0],"id":53,"left_children":[-1],"loss_changes":[0E0],"parents":[2147483647],"right_children":[-1],"split_conditions":[1.5293487E-7],"split_indices":[0],"split_type":[0],"sum_hessian":[7.48E2],"tree_param":{"num_deleted":"0","num_feature":"89","num_nodes":"1","size_leaf_vector":"1"}},{"base_weights":[1.7589425E-6],"categories":[],"categories_nodes":[],"categories_segments":[],"categories_sizes":[],"default_left":[0],"id":54,"left_children":[-1],"loss_changes":[0E0],"parents":[2147483647],"right_children":[-1],"split_conditions":[1.407154E-7],"split_indices":[0],"split_type":[0],"sum_hessian":[7.48E2],"tree_param":{"num_deleted":"0","num_feature":"89","num_nodes":"1","size_leaf_vector":"1"}},{"base_weights":[1.6184176E-6],"categories":[],"categories_nodes":[],"categories_segments":[],"categories_sizes":[],"default_left":[0],"id":55,"left_children":[-1],"loss_changes":[0E0],"parents":[2147483647],"right_children":[-1],"split_conditions":[1.294734E-7],"split_indices":[0],"split_type":[0],"sum_hessian":[7.48E2],"tree_param":{"num_deleted":"0","num_feature":"89","num_nodes":"1","size_leaf_vector":"1"}},{"base_weights":[1.4891358E-6],"categories":[],"categories_nodes":[],"categories_segments":[],"categories_sizes":[],"default_left":[0],"id":56,"left_children":[-1],"loss_changes":[0E0],"parents":[2147483647],"right_children":[-1],"split_conditions":[1.1913086E-7],"split_indices":[0],"split_type":[0],"sum_hessian":[7.48E2],"tree_param":{"num_deleted":"0","num_feature":"89","num_nodes":"1","size_leaf_vector":"1"}},{"base_weights":[1.3701689E-6],"categories":[],"categories_nodes":[],"categories_segments":[],"categories_sizes":[],"default_left":[0],"id":57,"left_children":[-1],"loss_changes":[0E0],"parents":[2147483647],"right_children":[-1],"split_conditions":[1.0961351E-7],"split_indices":[0],"split_type":[0],"sum_hessian":[7.48E2],"tree_param":{"num_deleted":"0","num_feature":"89","num_nodes":"1","size_leaf_vector":"1"}},{"base_weights":[1.2606727E-6],"categories":[],"categories_nodes":[],"categories_segments":[],"categories_sizes":[],"default_left":[0],"id":58,"left_children":[-1],"loss_changes":[0E0],"parents":[2147483647],"right_children":[-1],"split_conditions":[1.0085381E-7],"split_indices":[0],"split_type":[0],"sum_hessian":[7.48E2],"tree_param":{"num_deleted":"0","num_feature":"89","num_nodes":"1","size_leaf_vector":"1"}},{"base_weights":[1.1599716E-6],"categories":[],"categories_nodes":[],"categories_segments":[],"categories_sizes":[],"default_left":[0],"id":59,"left_children":[-1],"loss_changes":[0E0],"parents":[2147483647],"right_children":[-1],"split_conditions":[9.279773E-8],"split_indices":[0],"split_type":[0],"sum_hessian":[7.48E2],"tree_param":{"num_deleted":"0","num_feature":"89","num_nodes":"1","size_leaf_vector":"1"}},{"base_weights":[1.0672984E-6],"categories":[],"categories_nodes":[],"categories_segments":[],"categories_sizes":[],"default_left":[0],"id":60,"left_children":[-1],"loss_changes":[0E0],"parents":[2147483647],"right_children":[-1],"split_conditions":[8.538387E-8],"split_indices":[0],"split_type":[0],"sum_hessian":[7.48E2],"tree_param":{"num_deleted":"0","num_feature":"89","num_nodes":"1","size_leaf_vector":"1"}},{"base_weights":[9.820473E-7],"categories":[],"categories_nodes":[],"categories_segments":[],"categories_sizes":[],"default_left":[0],"id":61,"left_children":[-1],"loss_changes":[0E0],"parents":[2147483647],"right_children":[-1],"split_conditions":[7.856378E-8],"split_indices":[0],"split_type":[0],"sum_hessian":[7.48E2],"tree_param":{"num_deleted":"0","num_feature":"89","num_nodes":"1","size_leaf_vector":"1"}},{"base_weights":[9.0358577E-7],"categories":[],"categories_nodes":[],"categories_segments":[],"categories_sizes":[],"default_left":[0],"id":62,"left_children":[-1],"loss_changes":[0E0],"parents":[2147483647],"right_children":[-1],"split_conditions":[7.228686E-8],"split_indices":[0],"split_type":[0],"sum_hessian":[7.48E2],"tree_param":{"num_deleted":"0","num_feature":"89","num_nodes":"1","size_leaf_vector":"1"}},{"base_weights":[8.314005E-7],"categories":[],"categories_nodes":[],"categories_segments":[],"categories_sizes":[],"default_left":[0],"id":63,"left_children":[-1],"loss_changes":[0E0],"parents":[2147483647],"right_children":[-1],"split_conditions":[6.651204E-8],"split_indices":[0],"split_type":[0],"sum_hessian":[7.48E2],"tree_param":{"num_deleted":"0","num_feature":"89","num_nodes":"1","size_leaf_vector":"1"}},{"base_weights":[7.649855E-7],"categories":[],"categories_nodes":[],"categories_segments":[],"categories_sizes":[],"default_left":[0],"id":64,"left_children":[-1],"loss_changes":[0E0],"parents":[2147483647],"right_children":[-1],"split_conditions":[6.119884E-8],"split_indices":[0],"split_type":[0],"sum_hessian":[7.48E2],"tree_param":{"num_deleted":"0","num_feature":"89","num_nodes":"1","size_leaf_vector":"1"}},{"base_weights":[7.038525E-7],"categories":[],"categories_nodes":[],"categories_segments":[],"categories_sizes":[],"default_left":[0],"id":65,"left_children":[-1],"loss_changes":[0E0],"parents":[2147483647],"right_children":[-1],"split_conditions":[5.63082E-8],"split_indices":[0],"split_type":[0],"sum_hessian":[7.48E2],"tree_param":{"num_deleted":"0","num_feature":"89","num_nodes":"1","size_leaf_vector":"1"}},{"base_weights":[6.4760394E-7],"categories":[],"categories_nodes":[],"categories_segments":[],"categories_sizes":[],"default_left":[0],"id":66,"left_children":[-1],"loss_changes":[0E0],"parents":[2147483647],"right_children":[-1],"split_conditions":[5.1808314E-8],"split_indices":[0],"split_type":[0],"sum_hessian":[7.48E2],"tree_param":{"num_deleted":"0","num_feature":"89","num_nodes":"1","size_leaf_vector":"1"}},{"base_weights":[5.9585494E-7],"categories":[],"categories_nodes":[],"categories_segments":[],"categories_sizes":[],"default_left":[0],"id":67,"left_children":[-1],"loss_changes":[0E0],"parents":[2147483647],"right_children":[-1],"split_conditions":[4.7668394E-8],"split_indices":[0],"split_type":[0],"sum_hessian":[7.48E2],"tree_param":{"num_deleted":"0","num_feature":"89","num_nodes":"1","size_leaf_vector":"1"}},{"base_weights":[5.482744E-7],"categories":[],"categories_nodes":[],"categories_segments":[],"categories_sizes":[],"default_left":[0],"id":68,"left_children":[-1],"loss_changes":[0E0],"parents":[2147483647],"right_children":[-1],"split_conditions":[4.386195E-8],"split_indices":[0],"split_type":[0],"sum_hessian":[7.48E2],"tree_param":{"num_deleted":"0","num_feature":"89","num_nodes":"1","size_leaf_vector":"1"}},{"base_weights":[5.0445965E-7],"categories":[],"categories_nodes":[],"categories_segments":[],"categories_sizes":[],"default_left":[0],"id":69,"left_children":[-1],"loss_changes":[0E0],"parents":[2147483647],"right_children":[-1],"split_conditions":[4.035677E-8],"split_indices":[0],"split_type":[0],"sum_hessian":[7.48E2],"tree_param":{"num_deleted":"0","num_feature":"89","num_nodes":"1","size_leaf_vector":"1"}},{"base_weights":[4.6414957E-7],"categories":[],"categories_nodes":[],"categories_segments":[],"categories_sizes":[],"default_left":[0],"id":70,"left_children":[-1],"loss_changes":[0E0],"parents":[2147483647],"right_children":[-1],"split_conditions":[3.7131965E-8],"split_indices":[0],"split_type":[0],"sum_hessian":[7.48E2],"tree_param":{"num_deleted":"0","num_feature":"89","num_nodes":"1","size_leaf_vector":"1"}},{"base_weights":[4.2707356E-7],"categories":[],"categories_nodes":[],"categories_segments":[],"categories_sizes":[],"default_left":[0],"id":71,"left_children":[-1],"loss_changes":[0E0],"parents":[2147483647],"right_children":[-1],"split_conditions":[3.4165883E-8],"split_indices":[0],"split_type":[0],"sum_hessian":[7.48E2],"tree_param":{"num_deleted":"0","num_feature":"89","num_nodes":"1","size_leaf_vector":"1"}},{"base_weights":[3.929767E-7],"categories":[],"categories_nodes":[],"categories_segments":[],"categories_sizes":[],"default_left":[0],"id":72,"left_children":[-1],"loss_changes":[0E0],"parents":[2147483647],"right_children":[-1],"split_conditions":[3.1438134E-8],"split_indices":[0],"split_type":[0],"sum_hessian":[7.48E2],"tree_param":{"num_deleted":"0","num_feature":"89","num_nodes":"1","size_leaf_vector":"1"}},{"base_weights":[3.6158278E-7],"categories":[],"categories_nodes":[],"categories_segments":[],"categories_sizes":[],"default_left":[0],"id":73,"left_children":[-1],"loss_changes":[0E0],"parents":[2147483647],"right_children":[-1],"split_conditions":[2.8926621E-8],"split_indices":[0],"split_type":[0],"sum_hessian":[7.48E2],"tree_param":{"num_deleted":"0","num_feature":"89","num_nodes":"1","size_leaf_vector":"1"}},{"base_weights":[3.32731E-7],"categories":[],"categories_nodes":[],"categories_segments":[],"categories_sizes":[],"default_left":[0],"id":74,"left_children":[-1],"loss_changes":[0E0],"parents":[2147483647],"right_children":[-1],"split_conditions":[2.6618478E-8],"split_indices":[0],"split_type":[0],"sum_hessian":[7.48E2],"tree_param":{"num_deleted":"0","num_feature":"89","num_nodes":"1","size_leaf_vector":"1"}},{"base_weights":[3.0613805E-7],"categories":[],"categories_nodes":[],"categories_segments":[],"categories_sizes":[],"default_left":[0],"id":75,"left_children":[-1],"loss_changes":[0E0],"parents":[2147483647],"right_children":[-1],"split_conditions":[2.4491044E-8],"split_indices":[0],"split_type":[0],"sum_hessian":[7.48E2],"tree_param":{"num_deleted":"0","num_feature":"89","num_nodes":"1","size_leaf_vector":"1"}},{"base_weights":[2.8170288E-7],"categories":[],"categories_nodes":[],"categories_segments":[],"categories_sizes":[],"default_left":[0],"id":76,"left_children":[-1],"loss_changes":[0E0],"parents":[2147483647],"right_children":[-1],"split_conditions":[2.253623E-8],"split_indices":[0],"split_type":[0],"sum_hessian":[7.48E2],"tree_param":{"num_deleted":"0","num_feature":"89","num_nodes":"1","size_leaf_vector":"1"}},{"base_weights":[2.5917154E-7],"categories":[],"categories_nodes":[],"categories_segments":[],"categories_sizes":[],"default_left":[0],"id":77,"left_children":[-1],"loss_changes":[0E0],"parents":[2147483647],"right_children":[-1],"split_conditions":[2.0733722E-8],"split_indices":[0],"split_type":[0],"sum_hessian":[7.48E2],"tree_param":{"num_deleted":"0","num_feature":"89","num_nodes":"1","size_leaf_vector":"1"}},{"base_weights":[2.3847602E-7],"categories":[],"categories_nodes":[],"categories_segments":[],"categories_sizes":[],"default_left":[0],"id":78,"left_children":[-1],"loss_changes":[0E0],"parents":[2147483647],"right_children":[-1],"split_conditions":[1.9078081E-8],"split_indices":[0],"split_type":[0],"sum_hessian":[7.48E2],"tree_param":{"num_deleted":"0","num_feature":"89","num_nodes":"1","size_leaf_vector":"1"}},{"base_weights":[2.1941189E-7],"categories":[],"categories_nodes":[],"categories_segments":[],"categories_sizes":[],"default_left":[0],"id":79,"left_children":[-1],"loss_changes":[0E0],"parents":[2147483647],"right_children":[-1],"split_conditions":[1.7552951E-8],"split_indices":[0],"split_type":[0],"sum_hessian":[7.48E2],"tree_param":{"num_deleted":"0","num_feature":"89","num_nodes":"1","size_leaf_vector":"1"}},{"base_weights":[2.0186842E-7],"categories":[],"categories_nodes":[],"categories_segments":[],"categories_sizes":[],"default_left":[0],"id":80,"left_children":[-1],"loss_changes":[0E0],"parents":[2147483647],"right_children":[-1],"split_conditions":[1.6149473E-8],"split_indices":[0],"split_type":[0],"sum_hessian":[7.48E2],"tree_param":{"num_deleted":"0","num_feature":"89","num_nodes":"1","size_leaf_vector":"1"}},{"base_weights":[1.8574012E-7],"categories":[],"categories_nodes":[],"categories_segments":[],"categories_sizes":[],"default_left":[0],"id":81,"left_children":[-1],"loss_changes":[0E0],"parents":[2147483647],"right_children":[-1],"split_conditions":[1.4859209E-8],"split_indices":[0],"split_type":[0],"sum_hessian":[7.48E2],"tree_param":{"num_deleted":"0","num_feature":"89","num_nodes":"1","size_leaf_vector":"1"}},{"base_weights":[1.7087763E-7],"categories":[],"categories_nodes":[],"categories_segments":[],"categories_sizes":[],"default_left":[0],"id":82,"left_children":[-1],"loss_changes":[0E0],"parents":[2147483647],"right_children":[-1],"split_conditions":[1.367021E-8],"split_indices":[0],"split_type":[0],"sum_hessian":[7.48E2],"tree_param":{"num_deleted":"0","num_feature":"89","num_nodes":"1","size_leaf_vector":"1"}},{"base_weights":[1.572425E-7],"categories":[],"categories_nodes":[],"categories_segments":[],"categories_sizes":[],"default_left":[0],"id":83,"left_children":[-1],"loss_changes":[0E0],"parents":[2147483647],"right_children":[-1],"split_conditions":[1.25794E-8],"split_indices":[0],"split_type":[0],"sum_hessian":[7.48E2],"tree_param":{"num_deleted":"0","num_feature":"89","num_nodes":"1","size_leaf_vector":"1"}},{"base_weights":[1.4468394E-7],"categories":[],"categories_nodes":[],"categories_segments":[],"categories_sizes":[],"default_left":[0],"id":84,"left_children":[-1],"loss_changes":[0E0],"parents":[2147483647],"right_children":[-1],"split_conditions":[1.15747145E-8],"split_indices":[0],"split_type":[0],"sum_hessian":[7.48E2],"tree_param":{"num_deleted":"0","num_feature":"89","num_nodes":"1","size_leaf_vector":"1"}},{"base_weights":[1.3314273E-7],"categories":[],"categories_nodes":[],"categories_segments":[],"categories_sizes":[],"default_left":[0],"id":85,"left_children":[-1],"loss_changes":[0E0],"parents":[2147483647],"right_children":[-1],"split_conditions":[1.0651418E-8],"split_indices":[0],"split_type":[0],"sum_hessian":[7.48E2],"tree_param":{"num_deleted":"0","num_feature":"89","num_nodes":"1","size_leaf_vector":"1"}},{"base_weights":[1.2253162E-7],"categories":[],"categories_nodes":[],"categories_segments":[],"categories_sizes":[],"default_left":[0],"id":86,"left_children":[-1],"loss_changes":[0E0],"parents":[2147483647],"right_children":[-1],"split_conditions":[9.8025295E-9],"split_indices":[0],"split_type":[0],"sum_hessian":[7.48E2],"tree_param":{"num_deleted":"0","num_feature":"89","num_nodes":"1","size_leaf_vector":"1"}},{"base_weights":[1.127624E-7],"categories":[],"categories_nodes":[],"categories_segments":[],"categories_sizes":[],"default_left":[0],"id":87,"left_children":[-1],"loss_changes":[0E0],"parents":[2147483647],"right_children":[-1],"split_conditions":[9.020992E-9],"split_indices":[0],"split_type":[0],"sum_hessian":[7.48E2],"tree_param":{"num_deleted":"0","num_feature":"89","num_nodes":"1","size_leaf_vector":"1"}},{"base_weights":[1.0377767E-7],"categories":[],"categories_nodes":[],"categories_segments":[],"categories_sizes":[],"default_left":[0],"id":88,"left_children":[-1],"loss_changes":[0E0],"parents":[2147483647],"right_children":[-1],"split_conditions":[8.302214E-9],"split_indices":[0],"split_type":[0],"sum_hessian":[7.48E2],"tree_param":{"num_deleted":"0","num_feature":"89","num_nodes":"1","size_leaf_vector":"1"}},{"base_weights":[9.549015E-8],"categories":[],"categories_nodes":[],"categories_segments":[],"categories_sizes":[],"default_left":[0],"id":89,"left_children":[-1],"loss_changes":[0E0],"parents":[2147483647],"right_children":[-1],"split_conditions":[7.639212E-9],"split_indices":[0],"split_type":[0],"sum_hessian":[7.48E2],"tree_param":{"num_deleted":"0","num_feature":"89","num_nodes":"1","size_leaf_vector":"1"}},{"base_weights":[8.784008E-8],"categories":[],"categories_nodes":[],"categories_segments":[],